<?xml version="1.0" encoding="utf-8"?>
<Root>
  <ActivationFunctions>
    <Fn id="0" name="SteepenedSigmoid" prob="1" />
  </ActivationFunctions>
  <Networks>
    <Network id="18054" birthGen="150" fitness="2915.8905029296875">
      <Nodes>
        <Node type="bias" id="0" />
        <Node type="in" id="1" />
        <Node type="in" id="2" />
        <Node type="in" id="3" />
        <Node type="in" id="4" />
        <Node type="in" id="5" />
        <Node type="in" id="6" />
        <Node type="in" id="7" />
        <Node type="in" id="8" />
        <Node type="in" id="9" />
        <Node type="in" id="10" />
        <Node type="out" id="11" />
        <Node type="hid" id="64" />
        <Node type="hid" id="111" />
        <Node type="hid" id="120" />
        <Node type="hid" id="156" />
      </Nodes>
      <Connections>
        <Con id="12" src="0" tgt="11" wght="1.4456537132542433" />
        <Con id="21" src="9" tgt="11" wght="5" />
        <Con id="23" src="1" tgt="11" wght="-5" />
        <Con id="24" src="2" tgt="11" wght="-1.1351851747087407" />
        <Con id="25" src="8" tgt="11" wght="-5" />
        <Con id="26" src="6" tgt="11" wght="0.69918539886799169" />
        <Con id="27" src="7" tgt="11" wght="-4.9820410615920911" />
        <Con id="28" src="3" tgt="11" wght="-5" />
        <Con id="29" src="5" tgt="11" wght="-4.37698971798123" />
        <Con id="34" src="4" tgt="11" wght="-4.9937652360275955" />
        <Con id="65" src="9" tgt="64" wght="5" />
        <Con id="66" src="64" tgt="11" wght="3.1645802827211926" />
        <Con id="107" src="4" tgt="64" wght="4.7560315773487147" />
        <Con id="112" src="4" tgt="111" wght="-4.7226614473444419" />
        <Con id="113" src="111" tgt="11" wght="5" />
        <Con id="121" src="1" tgt="120" wght="-0.71921193858883692" />
        <Con id="122" src="120" tgt="11" wght="-1.7403032742001057" />
        <Con id="126" src="3" tgt="64" wght="0.58608485903665153" />
        <Con id="135" src="6" tgt="111" wght="4.0183753613382578" />
        <Con id="141" src="7" tgt="111" wght="4.6065812837332487" />
        <Con id="157" src="1" tgt="156" wght="-2.223699858856738" />
        <Con id="158" src="156" tgt="64" wght="5" />
        <Con id="159" src="7" tgt="120" wght="1.4662555884569883" />
      </Connections>
    </Network>
  </Networks>
</Root>