<?xml version="1.0" encoding="utf-8"?>
<Root>
  <ActivationFunctions>
    <Fn id="0" name="SteepenedSigmoid" prob="1" />
  </ActivationFunctions>
  <Networks>
    <Network id="14186" birthGen="118" fitness="2689.4012451171875">
      <Nodes>
        <Node type="bias" id="0" />
        <Node type="in" id="1" />
        <Node type="in" id="2" />
        <Node type="in" id="3" />
        <Node type="in" id="4" />
        <Node type="in" id="5" />
        <Node type="in" id="6" />
        <Node type="in" id="7" />
        <Node type="in" id="8" />
        <Node type="in" id="9" />
        <Node type="in" id="10" />
        <Node type="out" id="11" />
        <Node type="hid" id="44" />
      </Nodes>
      <Connections>
        <Con id="17" src="5" tgt="11" wght="-5" />
        <Con id="23" src="10" tgt="11" wght="0.88812744657474341" />
        <Con id="27" src="8" tgt="11" wght="-1.4809283839737843" />
        <Con id="28" src="6" tgt="11" wght="-0.020314626283479104" />
        <Con id="29" src="0" tgt="11" wght="0.82711467387852111" />
        <Con id="30" src="2" tgt="11" wght="-1.5948404932513705" />
        <Con id="31" src="4" tgt="11" wght="-3.247047943331133" />
        <Con id="32" src="9" tgt="11" wght="0.25859541728391522" />
        <Con id="36" src="7" tgt="11" wght="-0.36629989731018786" />
        <Con id="37" src="1" tgt="11" wght="4.358570512719151E-05" />
        <Con id="45" src="8" tgt="44" wght="-4.41895191247756" />
        <Con id="46" src="44" tgt="11" wght="4.832755190333506" />
        <Con id="47" src="3" tgt="11" wght="-1.9265340411415017" />
      </Connections>
    </Network>
  </Networks>
</Root>