<?xml version="1.0" encoding="utf-8"?>
<Root>
  <ActivationFunctions>
    <Fn id="0" name="SteepenedSigmoid" prob="1" />
  </ActivationFunctions>
  <Networks>
    <Network id="18135" birthGen="151" fitness="2533.76318359375">
      <Nodes>
        <Node type="bias" id="0" />
        <Node type="in" id="1" />
        <Node type="in" id="2" />
        <Node type="in" id="3" />
        <Node type="in" id="4" />
        <Node type="in" id="5" />
        <Node type="in" id="6" />
        <Node type="in" id="7" />
        <Node type="in" id="8" />
        <Node type="in" id="9" />
        <Node type="in" id="10" />
        <Node type="out" id="11" />
        <Node type="hid" id="44" />
      </Nodes>
      <Connections>
        <Con id="17" src="5" tgt="11" wght="-5" />
        <Con id="23" src="10" tgt="11" wght="-0.925209594884445" />
        <Con id="27" src="8" tgt="11" wght="-1.4781591051593892" />
        <Con id="28" src="6" tgt="11" wght="0.00083292718684172679" />
        <Con id="29" src="0" tgt="11" wght="0.36249324314066039" />
        <Con id="30" src="2" tgt="11" wght="-1.5980594754540829" />
        <Con id="31" src="4" tgt="11" wght="-3.2007341929856929" />
        <Con id="32" src="9" tgt="11" wght="0.25859541728391522" />
        <Con id="36" src="7" tgt="11" wght="-3.1755419582920767" />
        <Con id="37" src="1" tgt="11" wght="-0.81702905208460963" />
        <Con id="45" src="8" tgt="44" wght="-4.09210470986047" />
        <Con id="46" src="44" tgt="11" wght="4.365442292073471" />
        <Con id="47" src="3" tgt="11" wght="-0.54541932552523864" />
      </Connections>
    </Network>
  </Networks>
</Root>