<?xml version="1.0" encoding="utf-8"?>
<Root>
  <ActivationFunctions>
    <Fn id="0" name="SteepenedSigmoid" prob="1" />
  </ActivationFunctions>
  <Networks>
    <Network id="23576" birthGen="147" fitness="1350">
      <Nodes>
        <Node type="bias" id="0" />
        <Node type="in" id="1" />
        <Node type="in" id="2" />
        <Node type="in" id="3" />
        <Node type="in" id="4" />
        <Node type="out" id="5" />
        <Node type="hid" id="15" />
        <Node type="hid" id="22" />
        <Node type="hid" id="25" />
        <Node type="hid" id="129" />
        <Node type="hid" id="211" />
      </Nodes>
      <Connections>
        <Con id="11" src="1" tgt="5" wght="3.9248272962868214" />
        <Con id="12" src="0" tgt="5" wght="4.7881589476595074" />
        <Con id="14" src="4" tgt="5" wght="3.7537418705759169" />
        <Con id="16" src="3" tgt="15" wght="1.545168626286362" />
        <Con id="17" src="15" tgt="5" wght="1.9809190434350095" />
        <Con id="23" src="1" tgt="22" wght="-0.6890782183545654" />
        <Con id="24" src="22" tgt="5" wght="3.044395472801829" />
        <Con id="26" src="3" tgt="25" wght="-3.00446969307104" />
        <Con id="27" src="25" tgt="5" wght="-4.9770779086800205" />
        <Con id="66" src="3" tgt="22" wght="-2.3093609185889363" />
        <Con id="87" src="2" tgt="15" wght="2.0494552096351981" />
        <Con id="130" src="25" tgt="129" wght="1.9764300296083093" />
        <Con id="212" src="129" tgt="211" wght="3.136850622891687" />
        <Con id="213" src="211" tgt="5" wght="5" />
      </Connections>
    </Network>
    <Network id="23584" birthGen="147" fitness="1350">
      <Nodes>
        <Node type="bias" id="0" />
        <Node type="in" id="1" />
        <Node type="in" id="2" />
        <Node type="in" id="3" />
        <Node type="in" id="4" />
        <Node type="out" id="5" />
        <Node type="hid" id="15" />
        <Node type="hid" id="22" />
        <Node type="hid" id="25" />
        <Node type="hid" id="129" />
        <Node type="hid" id="211" />
      </Nodes>
      <Connections>
        <Con id="11" src="1" tgt="5" wght="3.9248272962868214" />
        <Con id="12" src="0" tgt="5" wght="5" />
        <Con id="14" src="4" tgt="5" wght="3.7537418705759169" />
        <Con id="16" src="3" tgt="15" wght="2.0065502891991063" />
        <Con id="17" src="15" tgt="5" wght="1.9809190434350095" />
        <Con id="23" src="1" tgt="22" wght="-0.6890782183545654" />
        <Con id="24" src="22" tgt="5" wght="3.044395472801829" />
        <Con id="26" src="3" tgt="25" wght="-3.00446969307104" />
        <Con id="27" src="25" tgt="5" wght="-5" />
        <Con id="66" src="3" tgt="22" wght="3.3552329917825108" />
        <Con id="87" src="2" tgt="15" wght="2.0494552096351981" />
        <Con id="130" src="25" tgt="129" wght="-5" />
        <Con id="212" src="129" tgt="211" wght="3.136850622891687" />
        <Con id="213" src="211" tgt="5" wght="5" />
      </Connections>
    </Network>
    <Network id="23580" birthGen="147" fitness="1250">
      <Nodes>
        <Node type="bias" id="0" />
        <Node type="in" id="1" />
        <Node type="in" id="2" />
        <Node type="in" id="3" />
        <Node type="in" id="4" />
        <Node type="out" id="5" />
        <Node type="hid" id="15" />
        <Node type="hid" id="22" />
        <Node type="hid" id="25" />
        <Node type="hid" id="129" />
        <Node type="hid" id="211" />
      </Nodes>
      <Connections>
        <Con id="11" src="1" tgt="5" wght="1.9793658345068885" />
        <Con id="12" src="0" tgt="5" wght="4.7881589476595074" />
        <Con id="14" src="4" tgt="5" wght="3.7537418705759169" />
        <Con id="16" src="3" tgt="15" wght="1.545168626286362" />
        <Con id="17" src="15" tgt="5" wght="1.3665027014544564" />
        <Con id="23" src="1" tgt="22" wght="-0.6890782183545654" />
        <Con id="24" src="22" tgt="5" wght="3.044395472801829" />
        <Con id="26" src="3" tgt="25" wght="-3.259234226117885" />
        <Con id="27" src="25" tgt="5" wght="-4.5842795577224873" />
        <Con id="66" src="3" tgt="22" wght="3.3552329917825108" />
        <Con id="87" src="2" tgt="15" wght="2.0494552096351981" />
        <Con id="130" src="25" tgt="129" wght="-5" />
        <Con id="212" src="129" tgt="211" wght="3.136850622891687" />
        <Con id="213" src="211" tgt="5" wght="5" />
      </Connections>
    </Network>
    <Network id="23598" birthGen="147" fitness="1400">
      <Nodes>
        <Node type="bias" id="0" />
        <Node type="in" id="1" />
        <Node type="in" id="2" />
        <Node type="in" id="3" />
        <Node type="in" id="4" />
        <Node type="out" id="5" />
        <Node type="hid" id="15" />
        <Node type="hid" id="22" />
        <Node type="hid" id="25" />
        <Node type="hid" id="129" />
        <Node type="hid" id="211" />
      </Nodes>
      <Connections>
        <Con id="11" src="1" tgt="5" wght="3.9248272962868214" />
        <Con id="12" src="0" tgt="5" wght="4.7881589476595074" />
        <Con id="14" src="4" tgt="5" wght="3.7537418705759169" />
        <Con id="16" src="3" tgt="15" wght="2.0065502891991063" />
        <Con id="17" src="15" tgt="5" wght="1.9809190434350095" />
        <Con id="23" src="1" tgt="22" wght="-0.6890782183545654" />
        <Con id="24" src="22" tgt="5" wght="3.044395472801829" />
        <Con id="26" src="3" tgt="25" wght="-3.00446969307104" />
        <Con id="27" src="25" tgt="5" wght="-5" />
        <Con id="66" src="3" tgt="22" wght="3.3552329917825108" />
        <Con id="87" src="2" tgt="15" wght="2.0494552096351981" />
        <Con id="130" src="25" tgt="129" wght="-5" />
        <Con id="212" src="129" tgt="211" wght="3.136850622891687" />
        <Con id="213" src="211" tgt="5" wght="5" />
      </Connections>
    </Network>
    <Network id="23594" birthGen="147" fitness="1500">
      <Nodes>
        <Node type="bias" id="0" />
        <Node type="in" id="1" />
        <Node type="in" id="2" />
        <Node type="in" id="3" />
        <Node type="in" id="4" />
        <Node type="out" id="5" />
        <Node type="hid" id="15" />
        <Node type="hid" id="22" />
        <Node type="hid" id="25" />
        <Node type="hid" id="129" />
        <Node type="hid" id="211" />
      </Nodes>
      <Connections>
        <Con id="11" src="1" tgt="5" wght="3.9248272962868214" />
        <Con id="12" src="0" tgt="5" wght="4.7881589476595074" />
        <Con id="14" src="4" tgt="5" wght="3.7537418705759169" />
        <Con id="16" src="3" tgt="15" wght="2.0065502891991063" />
        <Con id="17" src="15" tgt="5" wght="1.9809190434350095" />
        <Con id="23" src="1" tgt="22" wght="-0.6890782183545654" />
        <Con id="24" src="22" tgt="5" wght="3.044395472801829" />
        <Con id="26" src="3" tgt="25" wght="-3.00446969307104" />
        <Con id="27" src="25" tgt="5" wght="-4.9770779086800205" />
        <Con id="66" src="3" tgt="22" wght="3.3552329917825108" />
        <Con id="87" src="2" tgt="15" wght="2.0432900188245773" />
        <Con id="130" src="25" tgt="129" wght="-5" />
        <Con id="212" src="129" tgt="211" wght="3.136850622891687" />
        <Con id="213" src="211" tgt="5" wght="5" />
      </Connections>
    </Network>
    <Network id="23577" birthGen="147" fitness="1300">
      <Nodes>
        <Node type="bias" id="0" />
        <Node type="in" id="1" />
        <Node type="in" id="2" />
        <Node type="in" id="3" />
        <Node type="in" id="4" />
        <Node type="out" id="5" />
        <Node type="hid" id="15" />
        <Node type="hid" id="22" />
        <Node type="hid" id="25" />
        <Node type="hid" id="129" />
        <Node type="hid" id="211" />
      </Nodes>
      <Connections>
        <Con id="11" src="1" tgt="5" wght="3.9248272962868214" />
        <Con id="12" src="0" tgt="5" wght="4.7881589476595074" />
        <Con id="14" src="4" tgt="5" wght="3.7537418705759169" />
        <Con id="16" src="3" tgt="15" wght="1.545168626286362" />
        <Con id="17" src="15" tgt="5" wght="3.2303736135048333" />
        <Con id="23" src="1" tgt="22" wght="-4.2196559393778443" />
        <Con id="24" src="22" tgt="5" wght="3.0395527603104711" />
        <Con id="26" src="3" tgt="25" wght="-3.00446969307104" />
        <Con id="27" src="25" tgt="5" wght="-4.2197225672518766" />
        <Con id="66" src="3" tgt="22" wght="2.72306076053181" />
        <Con id="87" src="2" tgt="15" wght="2.0494552096351981" />
        <Con id="130" src="25" tgt="129" wght="-5" />
        <Con id="212" src="129" tgt="211" wght="-3.2963445642963052" />
        <Con id="213" src="211" tgt="5" wght="5" />
      </Connections>
    </Network>
    <Network id="23483" birthGen="146" fitness="1300">
      <Nodes>
        <Node type="bias" id="0" />
        <Node type="in" id="1" />
        <Node type="in" id="2" />
        <Node type="in" id="3" />
        <Node type="in" id="4" />
        <Node type="out" id="5" />
        <Node type="hid" id="15" />
        <Node type="hid" id="22" />
        <Node type="hid" id="25" />
        <Node type="hid" id="129" />
        <Node type="hid" id="211" />
      </Nodes>
      <Connections>
        <Con id="11" src="1" tgt="5" wght="3.9248272962868214" />
        <Con id="12" src="0" tgt="5" wght="4.7881589476595074" />
        <Con id="14" src="4" tgt="5" wght="3.7537418705759169" />
        <Con id="16" src="3" tgt="15" wght="1.545168626286362" />
        <Con id="17" src="15" tgt="5" wght="1.9809190434350095" />
        <Con id="23" src="1" tgt="22" wght="-0.6890782183545654" />
        <Con id="24" src="22" tgt="5" wght="3.044395472801829" />
        <Con id="26" src="3" tgt="25" wght="-3.00446969307104" />
        <Con id="27" src="25" tgt="5" wght="-4.9770779086800205" />
        <Con id="66" src="3" tgt="22" wght="3.5640472403050318" />
        <Con id="87" src="2" tgt="15" wght="2.0494552096351981" />
        <Con id="130" src="25" tgt="129" wght="-5" />
        <Con id="212" src="129" tgt="211" wght="3.136850622891687" />
        <Con id="213" src="211" tgt="5" wght="5" />
      </Connections>
    </Network>
    <Network id="23626" birthGen="147" fitness="1250">
      <Nodes>
        <Node type="bias" id="0" />
        <Node type="in" id="1" />
        <Node type="in" id="2" />
        <Node type="in" id="3" />
        <Node type="in" id="4" />
        <Node type="out" id="5" />
        <Node type="hid" id="15" />
        <Node type="hid" id="22" />
        <Node type="hid" id="25" />
        <Node type="hid" id="129" />
      </Nodes>
      <Connections>
        <Con id="11" src="1" tgt="5" wght="-5" />
        <Con id="12" src="0" tgt="5" wght="4.7881589476595074" />
        <Con id="14" src="4" tgt="5" wght="0.15255756637204737" />
        <Con id="16" src="3" tgt="15" wght="1.5188779106390276" />
        <Con id="17" src="15" tgt="5" wght="2.007330634233222" />
        <Con id="23" src="1" tgt="22" wght="1.645197281613946" />
        <Con id="24" src="22" tgt="5" wght="3.0296593082986707" />
        <Con id="26" src="3" tgt="25" wght="-3.00446969307104" />
        <Con id="27" src="25" tgt="5" wght="-4.9853225031368611" />
        <Con id="66" src="3" tgt="22" wght="3.3465526196717823" />
        <Con id="130" src="25" tgt="129" wght="-5" />
        <Con id="131" src="129" tgt="5" wght="2.4515948279924813" />
      </Connections>
    </Network>
    <Network id="23617" birthGen="147" fitness="1550">
      <Nodes>
        <Node type="bias" id="0" />
        <Node type="in" id="1" />
        <Node type="in" id="2" />
        <Node type="in" id="3" />
        <Node type="in" id="4" />
        <Node type="out" id="5" />
        <Node type="hid" id="15" />
        <Node type="hid" id="22" />
        <Node type="hid" id="25" />
        <Node type="hid" id="129" />
      </Nodes>
      <Connections>
        <Con id="11" src="1" tgt="5" wght="3.92531133769088" />
        <Con id="12" src="0" tgt="5" wght="4.7881589476595074" />
        <Con id="14" src="4" tgt="5" wght="4.3169726632356173" />
        <Con id="16" src="3" tgt="15" wght="1.4975060386335373" />
        <Con id="17" src="15" tgt="5" wght="1.9832878867672277" />
        <Con id="23" src="1" tgt="22" wght="-1.7619991906830321" />
        <Con id="24" src="22" tgt="5" wght="3.0296593082986707" />
        <Con id="26" src="3" tgt="25" wght="-3.00446969307104" />
        <Con id="27" src="25" tgt="5" wght="-5" />
        <Con id="66" src="3" tgt="22" wght="3.3465526196717823" />
        <Con id="130" src="25" tgt="129" wght="-5" />
        <Con id="131" src="129" tgt="5" wght="2.4515948279924813" />
      </Connections>
    </Network>
    <Network id="23610" birthGen="147" fitness="1150">
      <Nodes>
        <Node type="bias" id="0" />
        <Node type="in" id="1" />
        <Node type="in" id="2" />
        <Node type="in" id="3" />
        <Node type="in" id="4" />
        <Node type="out" id="5" />
        <Node type="hid" id="15" />
        <Node type="hid" id="22" />
        <Node type="hid" id="25" />
        <Node type="hid" id="129" />
      </Nodes>
      <Connections>
        <Con id="11" src="1" tgt="5" wght="3.92531133769088" />
        <Con id="12" src="0" tgt="5" wght="4.7881589476595074" />
        <Con id="14" src="4" tgt="5" wght="4.3334870917792943" />
        <Con id="16" src="3" tgt="15" wght="1.4975060386335373" />
        <Con id="17" src="15" tgt="5" wght="1.9832878867672277" />
        <Con id="23" src="1" tgt="22" wght="-1.7619991906830321" />
        <Con id="24" src="22" tgt="5" wght="3.0426689114726249" />
        <Con id="26" src="3" tgt="25" wght="-2.8554245627357093" />
        <Con id="27" src="25" tgt="5" wght="-5" />
        <Con id="66" src="3" tgt="22" wght="3.3465526196717823" />
        <Con id="130" src="25" tgt="129" wght="-5" />
        <Con id="131" src="129" tgt="5" wght="2.4515948279924813" />
      </Connections>
    </Network>
    <Network id="23495" birthGen="146" fitness="1500">
      <Nodes>
        <Node type="bias" id="0" />
        <Node type="in" id="1" />
        <Node type="in" id="2" />
        <Node type="in" id="3" />
        <Node type="in" id="4" />
        <Node type="out" id="5" />
        <Node type="hid" id="15" />
        <Node type="hid" id="22" />
        <Node type="hid" id="25" />
        <Node type="hid" id="129" />
      </Nodes>
      <Connections>
        <Con id="11" src="1" tgt="5" wght="3.9248272962868214" />
        <Con id="12" src="0" tgt="5" wght="5" />
        <Con id="14" src="4" tgt="5" wght="3.7537418705759169" />
        <Con id="16" src="3" tgt="15" wght="1.545168626286362" />
        <Con id="17" src="15" tgt="5" wght="2.9522500912512597" />
        <Con id="23" src="1" tgt="22" wght="-0.6890782183545654" />
        <Con id="24" src="22" tgt="5" wght="3.0296593082986707" />
        <Con id="26" src="3" tgt="25" wght="-3.00446969307104" />
        <Con id="27" src="25" tgt="5" wght="-4.9770779086800205" />
        <Con id="66" src="3" tgt="22" wght="3.3465526196717823" />
        <Con id="130" src="25" tgt="129" wght="-5" />
        <Con id="131" src="129" tgt="5" wght="-4.3563660094514489" />
      </Connections>
    </Network>
    <Network id="23605" birthGen="147" fitness="1100">
      <Nodes>
        <Node type="bias" id="0" />
        <Node type="in" id="1" />
        <Node type="in" id="2" />
        <Node type="in" id="3" />
        <Node type="in" id="4" />
        <Node type="out" id="5" />
        <Node type="hid" id="15" />
        <Node type="hid" id="22" />
        <Node type="hid" id="25" />
        <Node type="hid" id="129" />
      </Nodes>
      <Connections>
        <Con id="11" src="1" tgt="5" wght="-5" />
        <Con id="12" src="0" tgt="5" wght="4.7881589476595074" />
        <Con id="14" src="4" tgt="5" wght="0.15255756637204737" />
        <Con id="16" src="3" tgt="15" wght="1.5182016172276591" />
        <Con id="17" src="15" tgt="5" wght="2.0305929063367278" />
        <Con id="23" src="1" tgt="22" wght="1.645197281613946" />
        <Con id="24" src="22" tgt="5" wght="3.0296593082986707" />
        <Con id="26" src="3" tgt="25" wght="-3.00446969307104" />
        <Con id="27" src="25" tgt="5" wght="-4.9853225031368611" />
        <Con id="66" src="3" tgt="22" wght="3.3509233211921683" />
        <Con id="130" src="25" tgt="129" wght="-5" />
        <Con id="131" src="129" tgt="5" wght="2.4515948279924813" />
      </Connections>
    </Network>
    <Network id="23609" birthGen="147" fitness="1300">
      <Nodes>
        <Node type="bias" id="0" />
        <Node type="in" id="1" />
        <Node type="in" id="2" />
        <Node type="in" id="3" />
        <Node type="in" id="4" />
        <Node type="out" id="5" />
        <Node type="hid" id="15" />
        <Node type="hid" id="22" />
        <Node type="hid" id="25" />
        <Node type="hid" id="129" />
      </Nodes>
      <Connections>
        <Con id="9" src="3" tgt="5" wght="-1.0468261238512193" />
        <Con id="11" src="1" tgt="5" wght="-5" />
        <Con id="12" src="0" tgt="5" wght="4.767240016112436" />
        <Con id="14" src="4" tgt="5" wght="0.15255756637204737" />
        <Con id="16" src="3" tgt="15" wght="0.16496672361860876" />
        <Con id="17" src="15" tgt="5" wght="2.007330634233222" />
        <Con id="23" src="1" tgt="22" wght="1.645197281613946" />
        <Con id="24" src="22" tgt="5" wght="5" />
        <Con id="26" src="3" tgt="25" wght="-3.5935595950493231" />
        <Con id="27" src="25" tgt="5" wght="-5" />
        <Con id="66" src="3" tgt="22" wght="3.342756066874101" />
        <Con id="131" src="129" tgt="5" wght="2.4515948279924813" />
      </Connections>
    </Network>
    <Network id="23615" birthGen="147" fitness="1350">
      <Nodes>
        <Node type="bias" id="0" />
        <Node type="in" id="1" />
        <Node type="in" id="2" />
        <Node type="in" id="3" />
        <Node type="in" id="4" />
        <Node type="out" id="5" />
        <Node type="hid" id="15" />
        <Node type="hid" id="22" />
        <Node type="hid" id="25" />
        <Node type="hid" id="129" />
      </Nodes>
      <Connections>
        <Con id="11" src="1" tgt="5" wght="3.9248272962868214" />
        <Con id="12" src="0" tgt="5" wght="5" />
        <Con id="14" src="4" tgt="5" wght="3.7537418705759169" />
        <Con id="16" src="3" tgt="15" wght="1.545168626286362" />
        <Con id="17" src="15" tgt="5" wght="2.9522500912512597" />
        <Con id="23" src="1" tgt="22" wght="-0.6890782183545654" />
        <Con id="24" src="22" tgt="5" wght="3.0296593082986707" />
        <Con id="26" src="3" tgt="25" wght="-3.00446969307104" />
        <Con id="27" src="25" tgt="5" wght="-4.9770779086800205" />
        <Con id="66" src="3" tgt="22" wght="3.3465526196717823" />
        <Con id="130" src="25" tgt="129" wght="-5" />
        <Con id="131" src="129" tgt="5" wght="-4.3563660094514489" />
      </Connections>
    </Network>
    <Network id="23659" birthGen="147" fitness="1328.9393310546875">
      <Nodes>
        <Node type="bias" id="0" />
        <Node type="in" id="1" />
        <Node type="in" id="2" />
        <Node type="in" id="3" />
        <Node type="in" id="4" />
        <Node type="out" id="5" />
        <Node type="hid" id="15" />
      </Nodes>
      <Connections>
        <Con id="11" src="1" tgt="5" wght="-1.6870088162677008" />
        <Con id="12" src="0" tgt="5" wght="2.698255308654907" />
        <Con id="16" src="3" tgt="15" wght="1.4418480648760286" />
        <Con id="17" src="15" tgt="5" wght="-2.5226662003206886" />
      </Connections>
    </Network>
    <Network id="23648" birthGen="147" fitness="1474.1314290364583">
      <Nodes>
        <Node type="bias" id="0" />
        <Node type="in" id="1" />
        <Node type="in" id="2" />
        <Node type="in" id="3" />
        <Node type="in" id="4" />
        <Node type="out" id="5" />
        <Node type="hid" id="15" />
      </Nodes>
      <Connections>
        <Con id="11" src="1" tgt="5" wght="-3.2586659722342675" />
        <Con id="12" src="0" tgt="5" wght="2.7230750225403142" />
        <Con id="16" src="3" tgt="15" wght="2.5133780550150471" />
        <Con id="17" src="15" tgt="5" wght="-2.4897065149988209" />
      </Connections>
    </Network>
    <Network id="23635" birthGen="147" fitness="1367.2274169921875">
      <Nodes>
        <Node type="bias" id="0" />
        <Node type="in" id="1" />
        <Node type="in" id="2" />
        <Node type="in" id="3" />
        <Node type="in" id="4" />
        <Node type="out" id="5" />
        <Node type="hid" id="15" />
      </Nodes>
      <Connections>
        <Con id="11" src="1" tgt="5" wght="-1.7061006300578985" />
        <Con id="12" src="0" tgt="5" wght="2.7230750225403142" />
        <Con id="16" src="3" tgt="15" wght="2.5105220407386364" />
        <Con id="17" src="15" tgt="5" wght="-2.5226662003206886" />
      </Connections>
    </Network>
    <Network id="23644" birthGen="147" fitness="1505.0377604166667">
      <Nodes>
        <Node type="bias" id="0" />
        <Node type="in" id="1" />
        <Node type="in" id="2" />
        <Node type="in" id="3" />
        <Node type="in" id="4" />
        <Node type="out" id="5" />
        <Node type="hid" id="15" />
      </Nodes>
      <Connections>
        <Con id="11" src="1" tgt="5" wght="-3.2586659722342675" />
        <Con id="12" src="0" tgt="5" wght="2.7230750225403142" />
        <Con id="16" src="3" tgt="15" wght="2.5271189900706084" />
        <Con id="17" src="15" tgt="5" wght="-2.5275762755347966" />
      </Connections>
    </Network>
    <Network id="23640" birthGen="147" fitness="1196.3180338541667">
      <Nodes>
        <Node type="bias" id="0" />
        <Node type="in" id="1" />
        <Node type="in" id="2" />
        <Node type="in" id="3" />
        <Node type="in" id="4" />
        <Node type="out" id="5" />
        <Node type="hid" id="15" />
      </Nodes>
      <Connections>
        <Con id="11" src="1" tgt="5" wght="-3.2586659722342675" />
        <Con id="12" src="0" tgt="5" wght="2.7180141746618873" />
        <Con id="16" src="3" tgt="15" wght="0.16277737148978666" />
        <Con id="17" src="15" tgt="5" wght="-2.5275762755347966" />
      </Connections>
    </Network>
    <Network id="23628" birthGen="147" fitness="1276.6443684895833">
      <Nodes>
        <Node type="bias" id="0" />
        <Node type="in" id="1" />
        <Node type="in" id="2" />
        <Node type="in" id="3" />
        <Node type="in" id="4" />
        <Node type="out" id="5" />
        <Node type="hid" id="15" />
      </Nodes>
      <Connections>
        <Con id="11" src="1" tgt="5" wght="-2.3041296630265515" />
        <Con id="12" src="0" tgt="5" wght="2.7458874906429878" />
        <Con id="16" src="3" tgt="15" wght="2.5105220407386364" />
        <Con id="17" src="15" tgt="5" wght="-2.5226662003206886" />
      </Connections>
    </Network>
    <Network id="23327" birthGen="145" fitness="1377.6070149739583">
      <Nodes>
        <Node type="bias" id="0" />
        <Node type="in" id="1" />
        <Node type="in" id="2" />
        <Node type="in" id="3" />
        <Node type="in" id="4" />
        <Node type="out" id="5" />
        <Node type="hid" id="15" />
      </Nodes>
      <Connections>
        <Con id="11" src="1" tgt="5" wght="-3.2586659722342675" />
        <Con id="12" src="0" tgt="5" wght="2.7230750225403142" />
        <Con id="16" src="3" tgt="15" wght="2.5133780550150471" />
        <Con id="17" src="15" tgt="5" wght="-2.5275762755347966" />
      </Connections>
    </Network>
    <Network id="23512" birthGen="146" fitness="1571.1083170572917">
      <Nodes>
        <Node type="bias" id="0" />
        <Node type="in" id="1" />
        <Node type="in" id="2" />
        <Node type="in" id="3" />
        <Node type="in" id="4" />
        <Node type="out" id="5" />
        <Node type="hid" id="15" />
      </Nodes>
      <Connections>
        <Con id="11" src="1" tgt="5" wght="-3.2586659722342675" />
        <Con id="12" src="0" tgt="5" wght="2.698255308654907" />
        <Con id="16" src="3" tgt="15" wght="1.4418480648760286" />
        <Con id="17" src="15" tgt="5" wght="-2.5275762755347966" />
      </Connections>
    </Network>
    <Network id="23668" birthGen="147" fitness="1636.3235677083333">
      <Nodes>
        <Node type="bias" id="0" />
        <Node type="in" id="1" />
        <Node type="in" id="2" />
        <Node type="in" id="3" />
        <Node type="in" id="4" />
        <Node type="out" id="5" />
        <Node type="hid" id="15" />
        <Node type="hid" id="22" />
      </Nodes>
      <Connections>
        <Con id="9" src="3" tgt="5" wght="-2.1161942158284082" />
        <Con id="11" src="1" tgt="5" wght="-4.6892238607081973" />
        <Con id="12" src="0" tgt="5" wght="2.60244987669071" />
        <Con id="14" src="4" tgt="5" wght="2.0457422982841242" />
        <Con id="16" src="3" tgt="15" wght="1.4035449091484322" />
        <Con id="17" src="15" tgt="5" wght="-2.6142319003115566" />
        <Con id="23" src="1" tgt="22" wght="-4.11828072853414" />
        <Con id="24" src="22" tgt="5" wght="4.9888759156790314" />
        <Con id="87" src="2" tgt="15" wght="2.9458325356245041" />
        <Con id="98" src="22" tgt="15" wght="0.55714574176818132" />
      </Connections>
    </Network>
    <Network id="23692" birthGen="147" fitness="1582.0118001302083">
      <Nodes>
        <Node type="bias" id="0" />
        <Node type="in" id="1" />
        <Node type="in" id="2" />
        <Node type="in" id="3" />
        <Node type="in" id="4" />
        <Node type="out" id="5" />
        <Node type="hid" id="15" />
        <Node type="hid" id="22" />
      </Nodes>
      <Connections>
        <Con id="9" src="3" tgt="5" wght="-2.3225123915392016" />
        <Con id="11" src="1" tgt="5" wght="-4.7162881408905584" />
        <Con id="12" src="0" tgt="5" wght="2.59935926128107" />
        <Con id="14" src="4" tgt="5" wght="2.0457422982841242" />
        <Con id="16" src="3" tgt="15" wght="1.2322405808023202" />
        <Con id="17" src="15" tgt="5" wght="-2.5927930646956638" />
        <Con id="23" src="1" tgt="22" wght="-4.1109777204218645" />
        <Con id="24" src="22" tgt="5" wght="5" />
      </Connections>
    </Network>
    <Network id="23664" birthGen="147" fitness="1683.5126953125">
      <Nodes>
        <Node type="bias" id="0" />
        <Node type="in" id="1" />
        <Node type="in" id="2" />
        <Node type="in" id="3" />
        <Node type="in" id="4" />
        <Node type="out" id="5" />
        <Node type="hid" id="15" />
        <Node type="hid" id="22" />
      </Nodes>
      <Connections>
        <Con id="9" src="3" tgt="5" wght="-2.1161942158284082" />
        <Con id="11" src="1" tgt="5" wght="-4.6892238607081973" />
        <Con id="12" src="0" tgt="5" wght="2.60244987669071" />
        <Con id="14" src="4" tgt="5" wght="2.0503371822845131" />
        <Con id="16" src="3" tgt="15" wght="1.4035449091484322" />
        <Con id="17" src="15" tgt="5" wght="-2.6142319003115566" />
        <Con id="23" src="1" tgt="22" wght="-4.11828072853414" />
        <Con id="24" src="22" tgt="5" wght="4.9888759156790314" />
        <Con id="98" src="22" tgt="15" wght="0.55714574176818132" />
      </Connections>
    </Network>
    <Network id="23420" birthGen="146" fitness="1481.7539469401042">
      <Nodes>
        <Node type="bias" id="0" />
        <Node type="in" id="1" />
        <Node type="in" id="2" />
        <Node type="in" id="3" />
        <Node type="in" id="4" />
        <Node type="out" id="5" />
        <Node type="hid" id="15" />
        <Node type="hid" id="22" />
      </Nodes>
      <Connections>
        <Con id="9" src="3" tgt="5" wght="-2.1116351830105793" />
        <Con id="11" src="1" tgt="5" wght="-4.6892238607081973" />
        <Con id="12" src="0" tgt="5" wght="2.60244987669071" />
        <Con id="14" src="4" tgt="5" wght="2.0457422982841242" />
        <Con id="16" src="3" tgt="15" wght="1.4035449091484322" />
        <Con id="17" src="15" tgt="5" wght="-2.5922032794867795" />
        <Con id="23" src="1" tgt="22" wght="-4.11828072853414" />
        <Con id="24" src="22" tgt="5" wght="4.9888759156790314" />
        <Con id="98" src="22" tgt="15" wght="0.55714574176818132" />
      </Connections>
    </Network>
    <Network id="23687" birthGen="147" fitness="1433.642333984375">
      <Nodes>
        <Node type="bias" id="0" />
        <Node type="in" id="1" />
        <Node type="in" id="2" />
        <Node type="in" id="3" />
        <Node type="in" id="4" />
        <Node type="out" id="5" />
        <Node type="hid" id="15" />
        <Node type="hid" id="22" />
      </Nodes>
      <Connections>
        <Con id="9" src="3" tgt="5" wght="-2.3225123915392016" />
        <Con id="11" src="1" tgt="5" wght="-4.7162881408905584" />
        <Con id="12" src="0" tgt="5" wght="2.6074968999311583" />
        <Con id="14" src="4" tgt="5" wght="2.0823668541830385" />
        <Con id="16" src="3" tgt="15" wght="1.2179333410421531" />
        <Con id="17" src="15" tgt="5" wght="-2.5927930646956638" />
        <Con id="23" src="1" tgt="22" wght="-4.11828072853414" />
        <Con id="24" src="22" tgt="5" wght="4.9956119352939368" />
      </Connections>
    </Network>
    <Network id="23715" birthGen="147" fitness="1535.898193359375">
      <Nodes>
        <Node type="bias" id="0" />
        <Node type="in" id="1" />
        <Node type="in" id="2" />
        <Node type="in" id="3" />
        <Node type="in" id="4" />
        <Node type="out" id="5" />
        <Node type="hid" id="15" />
        <Node type="hid" id="22" />
      </Nodes>
      <Connections>
        <Con id="9" src="3" tgt="5" wght="-2.3225123915392016" />
        <Con id="11" src="1" tgt="5" wght="-4.758967788328329" />
        <Con id="12" src="0" tgt="5" wght="2.59935926128107" />
        <Con id="14" src="4" tgt="5" wght="2.0457422982841242" />
        <Con id="16" src="3" tgt="15" wght="1.2180282761629926" />
        <Con id="17" src="15" tgt="5" wght="-2.595627051660172" />
        <Con id="23" src="1" tgt="22" wght="-4.11828072853414" />
        <Con id="24" src="22" tgt="5" wght="4.9956119352939368" />
      </Connections>
    </Network>
    <Network id="23716" birthGen="147" fitness="1527.4239908854167">
      <Nodes>
        <Node type="bias" id="0" />
        <Node type="in" id="1" />
        <Node type="in" id="2" />
        <Node type="in" id="3" />
        <Node type="in" id="4" />
        <Node type="out" id="5" />
        <Node type="hid" id="15" />
        <Node type="hid" id="22" />
      </Nodes>
      <Connections>
        <Con id="9" src="3" tgt="5" wght="-2.3225123915392016" />
        <Con id="11" src="1" tgt="5" wght="-5" />
        <Con id="12" src="0" tgt="5" wght="2.59935926128107" />
        <Con id="14" src="4" tgt="5" wght="2.0457422982841242" />
        <Con id="16" src="3" tgt="15" wght="1.2180282761629926" />
        <Con id="17" src="15" tgt="5" wght="-2.5927930646956638" />
        <Con id="23" src="1" tgt="22" wght="-4.11828072853414" />
        <Con id="24" src="22" tgt="5" wght="3.9867735052837094" />
      </Connections>
    </Network>
    <Network id="23714" birthGen="147" fitness="2181.677205403646">
      <Nodes>
        <Node type="bias" id="0" />
        <Node type="in" id="1" />
        <Node type="in" id="2" />
        <Node type="in" id="3" />
        <Node type="in" id="4" />
        <Node type="out" id="5" />
        <Node type="hid" id="15" />
        <Node type="hid" id="22" />
      </Nodes>
      <Connections>
        <Con id="9" src="3" tgt="5" wght="-2.3225123915392016" />
        <Con id="11" src="1" tgt="5" wght="-5" />
        <Con id="12" src="0" tgt="5" wght="2.59935926128107" />
        <Con id="14" src="4" tgt="5" wght="2.0457422982841242" />
        <Con id="16" src="3" tgt="15" wght="0.90846348688688416" />
        <Con id="17" src="15" tgt="5" wght="-2.5927930646956638" />
        <Con id="23" src="1" tgt="22" wght="-4.11828072853414" />
        <Con id="24" src="22" tgt="5" wght="4.9956119352939368" />
      </Connections>
    </Network>
    <Network id="23681" birthGen="147" fitness="1587.8164876302083">
      <Nodes>
        <Node type="bias" id="0" />
        <Node type="in" id="1" />
        <Node type="in" id="2" />
        <Node type="in" id="3" />
        <Node type="in" id="4" />
        <Node type="out" id="5" />
        <Node type="hid" id="15" />
        <Node type="hid" id="22" />
      </Nodes>
      <Connections>
        <Con id="9" src="3" tgt="5" wght="-2.0970269706927693" />
        <Con id="11" src="1" tgt="5" wght="-4.6951455284833" />
        <Con id="12" src="0" tgt="5" wght="2.59935926128107" />
        <Con id="14" src="4" tgt="5" wght="2.0457422982841242" />
        <Con id="16" src="3" tgt="15" wght="1.4035449091484322" />
        <Con id="17" src="15" tgt="5" wght="-2.6903798885179642" />
        <Con id="23" src="1" tgt="22" wght="-4.11828072853414" />
        <Con id="24" src="22" tgt="5" wght="5" />
        <Con id="87" src="2" tgt="15" wght="4.0754016675055027" />
      </Connections>
    </Network>
    <Network id="23699" birthGen="147" fitness="1383.5186157226563">
      <Nodes>
        <Node type="bias" id="0" />
        <Node type="in" id="1" />
        <Node type="in" id="2" />
        <Node type="in" id="3" />
        <Node type="in" id="4" />
        <Node type="out" id="5" />
        <Node type="hid" id="15" />
        <Node type="hid" id="22" />
      </Nodes>
      <Connections>
        <Con id="9" src="3" tgt="5" wght="-2.324438873260263" />
        <Con id="11" src="1" tgt="5" wght="-4.7162881408905584" />
        <Con id="12" src="0" tgt="5" wght="2.59935926128107" />
        <Con id="14" src="4" tgt="5" wght="2.0457422982841242" />
        <Con id="16" src="3" tgt="15" wght="1.2180282761629926" />
        <Con id="17" src="15" tgt="5" wght="-2.6327761794112026" />
        <Con id="23" src="1" tgt="22" wght="-4.11828072853414" />
        <Con id="24" src="22" tgt="5" wght="4.9956119352939368" />
      </Connections>
    </Network>
    <Network id="23680" birthGen="147" fitness="1384.6636962890625">
      <Nodes>
        <Node type="bias" id="0" />
        <Node type="in" id="1" />
        <Node type="in" id="2" />
        <Node type="in" id="3" />
        <Node type="in" id="4" />
        <Node type="out" id="5" />
        <Node type="hid" id="15" />
        <Node type="hid" id="22" />
      </Nodes>
      <Connections>
        <Con id="9" src="3" tgt="5" wght="-2.1161942158284082" />
        <Con id="11" src="1" tgt="5" wght="-4.6892238607081973" />
        <Con id="12" src="0" tgt="5" wght="2.60244987669071" />
        <Con id="14" src="4" tgt="5" wght="2.0457422982841242" />
        <Con id="16" src="3" tgt="15" wght="1.4035449091484322" />
        <Con id="17" src="15" tgt="5" wght="-2.5922032794867795" />
        <Con id="23" src="1" tgt="22" wght="-4.1236392480089128" />
        <Con id="24" src="22" tgt="5" wght="4.9888759156790314" />
        <Con id="98" src="22" tgt="15" wght="0.55714574176818132" />
      </Connections>
    </Network>
    <Network id="23717" birthGen="147" fitness="1271.9595947265625">
      <Nodes>
        <Node type="bias" id="0" />
        <Node type="in" id="1" />
        <Node type="in" id="2" />
        <Node type="in" id="3" />
        <Node type="in" id="4" />
        <Node type="out" id="5" />
        <Node type="hid" id="15" />
        <Node type="hid" id="22" />
      </Nodes>
      <Connections>
        <Con id="9" src="3" tgt="5" wght="-2.3225123915392016" />
        <Con id="11" src="1" tgt="5" wght="-4.7162881408905584" />
        <Con id="12" src="0" tgt="5" wght="2.59935926128107" />
        <Con id="14" src="4" tgt="5" wght="2.0457422982841242" />
        <Con id="16" src="3" tgt="15" wght="1.4440833638648436" />
        <Con id="17" src="15" tgt="5" wght="-3.1748407625398" />
        <Con id="23" src="1" tgt="22" wght="-4.11828072853414" />
        <Con id="24" src="22" tgt="5" wght="4.9956119352939368" />
      </Connections>
    </Network>
    <Network id="23614" birthGen="147" fitness="1299.8216959635417">
      <Nodes>
        <Node type="bias" id="0" />
        <Node type="in" id="1" />
        <Node type="in" id="2" />
        <Node type="in" id="3" />
        <Node type="in" id="4" />
        <Node type="out" id="5" />
        <Node type="hid" id="15" />
        <Node type="hid" id="22" />
      </Nodes>
      <Connections>
        <Con id="9" src="3" tgt="5" wght="-2.0970269706927693" />
        <Con id="11" src="1" tgt="5" wght="-4.6951455284833" />
        <Con id="12" src="0" tgt="5" wght="4.7881589476595074" />
        <Con id="14" src="4" tgt="5" wght="4.3169726632356173" />
        <Con id="16" src="3" tgt="15" wght="1.2180282761629926" />
        <Con id="17" src="15" tgt="5" wght="-2.604398101009477" />
        <Con id="23" src="1" tgt="22" wght="-4.11828072853414" />
        <Con id="24" src="22" tgt="5" wght="4.9888759156790314" />
        <Con id="87" src="2" tgt="15" wght="4.0754016675055027" />
      </Connections>
    </Network>
    <Network id="23375" birthGen="145" fitness="1088.2721150716145">
      <Nodes>
        <Node type="bias" id="0" />
        <Node type="in" id="1" />
        <Node type="in" id="2" />
        <Node type="in" id="3" />
        <Node type="in" id="4" />
        <Node type="out" id="5" />
        <Node type="hid" id="15" />
        <Node type="hid" id="22" />
      </Nodes>
      <Connections>
        <Con id="9" src="3" tgt="5" wght="-2.0970269706927693" />
        <Con id="11" src="1" tgt="5" wght="-4.6951455284833" />
        <Con id="12" src="0" tgt="5" wght="2.59935926128107" />
        <Con id="14" src="4" tgt="5" wght="2.0457422982841242" />
        <Con id="16" src="3" tgt="15" wght="1.2180282761629926" />
        <Con id="17" src="15" tgt="5" wght="-2.604398101009477" />
        <Con id="23" src="1" tgt="22" wght="-4.11828072853414" />
        <Con id="24" src="22" tgt="5" wght="4.9888759156790314" />
        <Con id="87" src="2" tgt="15" wght="4.0754016675055027" />
      </Connections>
    </Network>
    <Network id="23670" birthGen="147" fitness="1497.584228515625">
      <Nodes>
        <Node type="bias" id="0" />
        <Node type="in" id="1" />
        <Node type="in" id="2" />
        <Node type="in" id="3" />
        <Node type="in" id="4" />
        <Node type="out" id="5" />
        <Node type="hid" id="22" />
      </Nodes>
      <Connections>
        <Con id="9" src="3" tgt="5" wght="-2.3049202250817844" />
        <Con id="11" src="1" tgt="5" wght="-4.9885432930854972" />
        <Con id="12" src="0" tgt="5" wght="-0.34366269382631975" />
        <Con id="14" src="4" tgt="5" wght="-0.829402851051569" />
        <Con id="23" src="1" tgt="22" wght="-4.5062485560648211" />
        <Con id="24" src="22" tgt="5" wght="5" />
      </Connections>
    </Network>
    <Network id="22931" birthGen="143" fitness="1420.3886311848958">
      <Nodes>
        <Node type="bias" id="0" />
        <Node type="in" id="1" />
        <Node type="in" id="2" />
        <Node type="in" id="3" />
        <Node type="in" id="4" />
        <Node type="out" id="5" />
        <Node type="hid" id="22" />
      </Nodes>
      <Connections>
        <Con id="9" src="3" tgt="5" wght="-2.2768008576101004" />
        <Con id="11" src="1" tgt="5" wght="-5" />
        <Con id="12" src="0" tgt="5" wght="-0.35567686504726925" />
        <Con id="14" src="4" tgt="5" wght="-0.83612728397964142" />
        <Con id="23" src="1" tgt="22" wght="-4.5123762231184994" />
        <Con id="24" src="22" tgt="5" wght="4.9843419590907407" />
      </Connections>
    </Network>
    <Network id="23545" birthGen="146" fitness="1562.2384440104167">
      <Nodes>
        <Node type="bias" id="0" />
        <Node type="in" id="1" />
        <Node type="in" id="2" />
        <Node type="in" id="3" />
        <Node type="in" id="4" />
        <Node type="out" id="5" />
        <Node type="hid" id="22" />
      </Nodes>
      <Connections>
        <Con id="9" src="3" tgt="5" wght="-2.3049202250817844" />
        <Con id="11" src="1" tgt="5" wght="-4.4037287288682663" />
        <Con id="12" src="0" tgt="5" wght="-0.34366269382631975" />
        <Con id="14" src="4" tgt="5" wght="-0.83612728397964142" />
        <Con id="23" src="1" tgt="22" wght="-4.5062485560648211" />
        <Con id="24" src="22" tgt="5" wght="5" />
      </Connections>
    </Network>
    <Network id="23729" birthGen="148" fitness="1100">
      <Nodes>
        <Node type="bias" id="0" />
        <Node type="in" id="1" />
        <Node type="in" id="2" />
        <Node type="in" id="3" />
        <Node type="in" id="4" />
        <Node type="out" id="5" />
        <Node type="hid" id="15" />
        <Node type="hid" id="22" />
        <Node type="hid" id="25" />
        <Node type="hid" id="129" />
        <Node type="hid" id="211" />
      </Nodes>
      <Connections>
        <Con id="11" src="1" tgt="5" wght="3.9248272962868214" />
        <Con id="12" src="0" tgt="5" wght="4.7881589476595074" />
        <Con id="14" src="4" tgt="5" wght="3.7537418705759169" />
        <Con id="16" src="3" tgt="15" wght="1.545168626286362" />
        <Con id="17" src="15" tgt="5" wght="1.9809190434350095" />
        <Con id="23" src="1" tgt="22" wght="-0.6890782183545654" />
        <Con id="24" src="22" tgt="5" wght="3.044395472801829" />
        <Con id="26" src="3" tgt="25" wght="-3.00446969307104" />
        <Con id="27" src="25" tgt="5" wght="-4.9770779086800205" />
        <Con id="66" src="3" tgt="22" wght="-1.3002275718988323" />
        <Con id="87" src="2" tgt="15" wght="2.0494552096351981" />
        <Con id="130" src="25" tgt="129" wght="1.9764300296083093" />
        <Con id="212" src="129" tgt="211" wght="3.5918480550659062" />
        <Con id="213" src="211" tgt="5" wght="5" />
      </Connections>
    </Network>
    <Network id="23730" birthGen="148" fitness="1350">
      <Nodes>
        <Node type="bias" id="0" />
        <Node type="in" id="1" />
        <Node type="in" id="2" />
        <Node type="in" id="3" />
        <Node type="in" id="4" />
        <Node type="out" id="5" />
        <Node type="hid" id="15" />
        <Node type="hid" id="22" />
        <Node type="hid" id="25" />
        <Node type="hid" id="129" />
        <Node type="hid" id="211" />
      </Nodes>
      <Connections>
        <Con id="11" src="1" tgt="5" wght="3.9248272962868214" />
        <Con id="12" src="0" tgt="5" wght="5" />
        <Con id="14" src="4" tgt="5" wght="3.7537418705759169" />
        <Con id="16" src="3" tgt="15" wght="2.0243588062836424" />
        <Con id="17" src="15" tgt="5" wght="1.9809190434350095" />
        <Con id="23" src="1" tgt="22" wght="-0.77624639278282015" />
        <Con id="24" src="22" tgt="5" wght="3.044395472801829" />
        <Con id="26" src="3" tgt="25" wght="-3.00446969307104" />
        <Con id="27" src="25" tgt="5" wght="-5" />
        <Con id="66" src="3" tgt="22" wght="3.3552329917825108" />
        <Con id="87" src="2" tgt="15" wght="2.0494552096351981" />
        <Con id="130" src="25" tgt="129" wght="-5" />
        <Con id="212" src="129" tgt="211" wght="2.2524704877382487" />
        <Con id="213" src="211" tgt="5" wght="5" />
      </Connections>
    </Network>
    <Network id="23731" birthGen="148" fitness="1350">
      <Nodes>
        <Node type="bias" id="0" />
        <Node type="in" id="1" />
        <Node type="in" id="2" />
        <Node type="in" id="3" />
        <Node type="in" id="4" />
        <Node type="out" id="5" />
        <Node type="hid" id="15" />
        <Node type="hid" id="22" />
        <Node type="hid" id="25" />
        <Node type="hid" id="129" />
        <Node type="hid" id="211" />
      </Nodes>
      <Connections>
        <Con id="11" src="1" tgt="5" wght="1.9793658345068885" />
        <Con id="12" src="0" tgt="5" wght="4.7881589476595074" />
        <Con id="14" src="4" tgt="5" wght="3.7537418705759169" />
        <Con id="16" src="3" tgt="15" wght="1.545168626286362" />
        <Con id="17" src="15" tgt="5" wght="1.3665027014544564" />
        <Con id="23" src="1" tgt="22" wght="-0.6890782183545654" />
        <Con id="24" src="22" tgt="5" wght="3.044395472801829" />
        <Con id="26" src="3" tgt="25" wght="-3.726373760606557" />
        <Con id="27" src="25" tgt="5" wght="-4.3601865612960564" />
        <Con id="66" src="3" tgt="22" wght="3.3552329917825108" />
        <Con id="87" src="2" tgt="15" wght="2.0494552096351981" />
        <Con id="130" src="25" tgt="129" wght="-5" />
        <Con id="212" src="129" tgt="211" wght="3.136850622891687" />
        <Con id="213" src="211" tgt="5" wght="5" />
      </Connections>
    </Network>
    <Network id="23732" birthGen="148" fitness="1300">
      <Nodes>
        <Node type="bias" id="0" />
        <Node type="in" id="1" />
        <Node type="in" id="2" />
        <Node type="in" id="3" />
        <Node type="in" id="4" />
        <Node type="out" id="5" />
        <Node type="hid" id="15" />
        <Node type="hid" id="22" />
        <Node type="hid" id="25" />
        <Node type="hid" id="129" />
        <Node type="hid" id="211" />
      </Nodes>
      <Connections>
        <Con id="11" src="1" tgt="5" wght="3.9248272962868214" />
        <Con id="12" src="0" tgt="5" wght="4.8045666036967454" />
        <Con id="14" src="4" tgt="5" wght="3.7537418705759169" />
        <Con id="16" src="3" tgt="15" wght="2.0065502891991063" />
        <Con id="17" src="15" tgt="5" wght="1.9809190434350095" />
        <Con id="23" src="1" tgt="22" wght="-0.6890782183545654" />
        <Con id="24" src="22" tgt="5" wght="3.0464914937572649" />
        <Con id="26" src="3" tgt="25" wght="-3.00446969307104" />
        <Con id="27" src="25" tgt="5" wght="-5" />
        <Con id="66" src="3" tgt="22" wght="3.3552329917825108" />
        <Con id="87" src="2" tgt="15" wght="2.0494552096351981" />
        <Con id="130" src="25" tgt="129" wght="-5" />
        <Con id="212" src="129" tgt="211" wght="3.1333874533518529" />
        <Con id="213" src="211" tgt="5" wght="5" />
      </Connections>
    </Network>
    <Network id="23733" birthGen="148" fitness="1450">
      <Nodes>
        <Node type="bias" id="0" />
        <Node type="in" id="1" />
        <Node type="in" id="2" />
        <Node type="in" id="3" />
        <Node type="in" id="4" />
        <Node type="out" id="5" />
        <Node type="hid" id="15" />
        <Node type="hid" id="22" />
        <Node type="hid" id="25" />
        <Node type="hid" id="129" />
        <Node type="hid" id="211" />
      </Nodes>
      <Connections>
        <Con id="11" src="1" tgt="5" wght="3.9248272962868214" />
        <Con id="12" src="0" tgt="5" wght="4.7881589476595074" />
        <Con id="14" src="4" tgt="5" wght="3.7537418705759169" />
        <Con id="16" src="3" tgt="15" wght="2.0065502891991063" />
        <Con id="17" src="15" tgt="5" wght="1.9809190434350095" />
        <Con id="23" src="1" tgt="22" wght="-0.6890782183545654" />
        <Con id="24" src="22" tgt="5" wght="3.044395472801829" />
        <Con id="26" src="3" tgt="25" wght="-3.0157170661408181" />
        <Con id="27" src="25" tgt="5" wght="-5" />
        <Con id="66" src="3" tgt="22" wght="3.3552329917825108" />
        <Con id="87" src="2" tgt="15" wght="2.0494552096351981" />
        <Con id="130" src="25" tgt="129" wght="-5" />
        <Con id="212" src="129" tgt="211" wght="3.136850622891687" />
        <Con id="213" src="211" tgt="5" wght="5" />
      </Connections>
    </Network>
    <Network id="23734" birthGen="148" fitness="1400">
      <Nodes>
        <Node type="bias" id="0" />
        <Node type="in" id="1" />
        <Node type="in" id="2" />
        <Node type="in" id="3" />
        <Node type="in" id="4" />
        <Node type="out" id="5" />
        <Node type="hid" id="15" />
        <Node type="hid" id="22" />
        <Node type="hid" id="25" />
        <Node type="hid" id="129" />
        <Node type="hid" id="211" />
      </Nodes>
      <Connections>
        <Con id="11" src="1" tgt="5" wght="3.9248272962868214" />
        <Con id="12" src="0" tgt="5" wght="4.7881589476595074" />
        <Con id="14" src="4" tgt="5" wght="3.7537418705759169" />
        <Con id="16" src="3" tgt="15" wght="2.0065502891991063" />
        <Con id="17" src="15" tgt="5" wght="1.9809190434350095" />
        <Con id="23" src="1" tgt="22" wght="-0.6890782183545654" />
        <Con id="24" src="22" tgt="5" wght="1.8859598872304735" />
        <Con id="26" src="3" tgt="25" wght="-3.00446969307104" />
        <Con id="27" src="25" tgt="5" wght="-4.9770779086800205" />
        <Con id="66" src="3" tgt="22" wght="3.3552329917825108" />
        <Con id="87" src="2" tgt="15" wght="2.0432900188245773" />
        <Con id="130" src="25" tgt="129" wght="-5" />
        <Con id="212" src="129" tgt="211" wght="3.136850622891687" />
        <Con id="213" src="211" tgt="5" wght="5" />
      </Connections>
    </Network>
    <Network id="23735" birthGen="148" fitness="1450">
      <Nodes>
        <Node type="bias" id="0" />
        <Node type="in" id="1" />
        <Node type="in" id="2" />
        <Node type="in" id="3" />
        <Node type="in" id="4" />
        <Node type="out" id="5" />
        <Node type="hid" id="15" />
        <Node type="hid" id="22" />
        <Node type="hid" id="25" />
        <Node type="hid" id="129" />
        <Node type="hid" id="211" />
      </Nodes>
      <Connections>
        <Con id="11" src="1" tgt="5" wght="1.9793658345068885" />
        <Con id="12" src="0" tgt="5" wght="4.831743067309465" />
        <Con id="14" src="4" tgt="5" wght="3.7537418705759169" />
        <Con id="16" src="3" tgt="15" wght="1.545168626286362" />
        <Con id="17" src="15" tgt="5" wght="1.3665027014544564" />
        <Con id="23" src="1" tgt="22" wght="-0.6890782183545654" />
        <Con id="24" src="22" tgt="5" wght="3.04098918891888" />
        <Con id="26" src="3" tgt="25" wght="-3.259234226117885" />
        <Con id="27" src="25" tgt="5" wght="-4.5842795577224873" />
        <Con id="66" src="3" tgt="22" wght="3.3552329917825108" />
        <Con id="87" src="2" tgt="15" wght="2.0494552096351981" />
        <Con id="130" src="25" tgt="129" wght="-5" />
        <Con id="212" src="129" tgt="211" wght="3.136850622891687" />
        <Con id="213" src="211" tgt="5" wght="5" />
      </Connections>
    </Network>
    <Network id="23736" birthGen="148" fitness="1400">
      <Nodes>
        <Node type="bias" id="0" />
        <Node type="in" id="1" />
        <Node type="in" id="2" />
        <Node type="in" id="3" />
        <Node type="in" id="4" />
        <Node type="out" id="5" />
        <Node type="hid" id="15" />
        <Node type="hid" id="22" />
        <Node type="hid" id="25" />
        <Node type="hid" id="129" />
        <Node type="hid" id="211" />
      </Nodes>
      <Connections>
        <Con id="11" src="1" tgt="5" wght="3.9248272962868214" />
        <Con id="12" src="0" tgt="5" wght="4.7881589476595074" />
        <Con id="14" src="4" tgt="5" wght="3.7537418705759169" />
        <Con id="16" src="3" tgt="15" wght="1.545168626286362" />
        <Con id="17" src="15" tgt="5" wght="1.9809190434350095" />
        <Con id="23" src="1" tgt="22" wght="-0.6890782183545654" />
        <Con id="24" src="22" tgt="5" wght="3.5582665302247332" />
        <Con id="26" src="3" tgt="25" wght="-4.0677313003611388" />
        <Con id="27" src="25" tgt="5" wght="-4.9770779086800205" />
        <Con id="66" src="3" tgt="22" wght="-2.3093609185889363" />
        <Con id="87" src="2" tgt="15" wght="2.0494552096351981" />
        <Con id="130" src="25" tgt="129" wght="1.9764300296083093" />
        <Con id="212" src="129" tgt="211" wght="3.136850622891687" />
        <Con id="213" src="211" tgt="5" wght="5" />
      </Connections>
    </Network>
    <Network id="23737" birthGen="148" fitness="1550">
      <Nodes>
        <Node type="bias" id="0" />
        <Node type="in" id="1" />
        <Node type="in" id="2" />
        <Node type="in" id="3" />
        <Node type="in" id="4" />
        <Node type="out" id="5" />
        <Node type="hid" id="15" />
        <Node type="hid" id="22" />
        <Node type="hid" id="25" />
        <Node type="hid" id="129" />
        <Node type="hid" id="211" />
      </Nodes>
      <Connections>
        <Con id="11" src="1" tgt="5" wght="3.9248272962868214" />
        <Con id="12" src="0" tgt="5" wght="4.7881589476595074" />
        <Con id="14" src="4" tgt="5" wght="3.7537418705759169" />
        <Con id="16" src="3" tgt="15" wght="1.545168626286362" />
        <Con id="17" src="15" tgt="5" wght="3.2303736135048333" />
        <Con id="23" src="1" tgt="22" wght="-4.2196559393778443" />
        <Con id="24" src="22" tgt="5" wght="3.0395527603104711" />
        <Con id="26" src="3" tgt="25" wght="-3.00446969307104" />
        <Con id="27" src="25" tgt="5" wght="-4.2197225672518766" />
        <Con id="66" src="3" tgt="22" wght="2.72306076053181" />
        <Con id="87" src="2" tgt="15" wght="2.0494552096351981" />
        <Con id="96" src="25" tgt="15" wght="1.6523293871432543" />
        <Con id="130" src="25" tgt="129" wght="-5" />
        <Con id="212" src="129" tgt="211" wght="-3.2963445642963052" />
        <Con id="213" src="211" tgt="5" wght="5" />
      </Connections>
    </Network>
    <Network id="23738" birthGen="148" fitness="1200">
      <Nodes>
        <Node type="bias" id="0" />
        <Node type="in" id="1" />
        <Node type="in" id="2" />
        <Node type="in" id="3" />
        <Node type="in" id="4" />
        <Node type="out" id="5" />
        <Node type="hid" id="15" />
        <Node type="hid" id="22" />
        <Node type="hid" id="25" />
        <Node type="hid" id="129" />
        <Node type="hid" id="211" />
      </Nodes>
      <Connections>
        <Con id="11" src="1" tgt="5" wght="3.9248272962868214" />
        <Con id="12" src="0" tgt="5" wght="4.7881589476595074" />
        <Con id="14" src="4" tgt="5" wght="3.7537418705759169" />
        <Con id="16" src="3" tgt="15" wght="1.545168626286362" />
        <Con id="17" src="15" tgt="5" wght="1.9809190434350095" />
        <Con id="23" src="1" tgt="22" wght="-0.6890782183545654" />
        <Con id="24" src="22" tgt="5" wght="3.044395472801829" />
        <Con id="26" src="3" tgt="25" wght="-3.00446969307104" />
        <Con id="27" src="25" tgt="5" wght="-4.9770779086800205" />
        <Con id="66" src="3" tgt="22" wght="3.5640472403050318" />
        <Con id="87" src="2" tgt="15" wght="2.03474240446646" />
        <Con id="130" src="25" tgt="129" wght="-5" />
        <Con id="212" src="129" tgt="211" wght="3.136850622891687" />
        <Con id="213" src="211" tgt="5" wght="5" />
      </Connections>
    </Network>
    <Network id="23739" birthGen="148" fitness="1350">
      <Nodes>
        <Node type="bias" id="0" />
        <Node type="in" id="1" />
        <Node type="in" id="2" />
        <Node type="in" id="3" />
        <Node type="in" id="4" />
        <Node type="out" id="5" />
        <Node type="hid" id="15" />
        <Node type="hid" id="22" />
        <Node type="hid" id="25" />
        <Node type="hid" id="129" />
        <Node type="hid" id="211" />
      </Nodes>
      <Connections>
        <Con id="11" src="1" tgt="5" wght="1.9793658345068885" />
        <Con id="12" src="0" tgt="5" wght="4.7881589476595074" />
        <Con id="14" src="4" tgt="5" wght="3.7537418705759169" />
        <Con id="16" src="3" tgt="15" wght="1.545168626286362" />
        <Con id="17" src="15" tgt="5" wght="1.3665027014544564" />
        <Con id="23" src="1" tgt="22" wght="-0.6890782183545654" />
        <Con id="24" src="22" tgt="5" wght="3.044395472801829" />
        <Con id="26" src="3" tgt="25" wght="-3.259234226117885" />
        <Con id="27" src="25" tgt="5" wght="-4.5842795577224873" />
        <Con id="66" src="3" tgt="22" wght="3.3552329917825108" />
        <Con id="87" src="2" tgt="15" wght="2.0494552096351981" />
        <Con id="130" src="25" tgt="129" wght="-5" />
        <Con id="212" src="129" tgt="211" wght="3.136850622891687" />
        <Con id="213" src="211" tgt="5" wght="5" />
      </Connections>
    </Network>
    <Network id="23740" birthGen="148" fitness="1150">
      <Nodes>
        <Node type="bias" id="0" />
        <Node type="in" id="1" />
        <Node type="in" id="2" />
        <Node type="in" id="3" />
        <Node type="in" id="4" />
        <Node type="out" id="5" />
        <Node type="hid" id="15" />
        <Node type="hid" id="22" />
        <Node type="hid" id="25" />
        <Node type="hid" id="129" />
        <Node type="hid" id="211" />
      </Nodes>
      <Connections>
        <Con id="11" src="1" tgt="5" wght="3.9248272962868214" />
        <Con id="12" src="0" tgt="5" wght="5" />
        <Con id="14" src="4" tgt="5" wght="3.7537418705759169" />
        <Con id="16" src="3" tgt="15" wght="2.0065502891991063" />
        <Con id="17" src="15" tgt="5" wght="1.9809190434350095" />
        <Con id="23" src="1" tgt="22" wght="-0.6890782183545654" />
        <Con id="24" src="22" tgt="5" wght="3.0316577791804376" />
        <Con id="26" src="3" tgt="25" wght="-3.0289996771297165" />
        <Con id="27" src="25" tgt="5" wght="-5" />
        <Con id="66" src="3" tgt="22" wght="3.3552329917825108" />
        <Con id="87" src="2" tgt="15" wght="2.0494552096351981" />
        <Con id="130" src="25" tgt="129" wght="-5" />
        <Con id="212" src="129" tgt="211" wght="3.136850622891687" />
        <Con id="213" src="211" tgt="5" wght="5" />
      </Connections>
    </Network>
    <Network id="23741" birthGen="148" fitness="1350">
      <Nodes>
        <Node type="bias" id="0" />
        <Node type="in" id="1" />
        <Node type="in" id="2" />
        <Node type="in" id="3" />
        <Node type="in" id="4" />
        <Node type="out" id="5" />
        <Node type="hid" id="15" />
        <Node type="hid" id="22" />
        <Node type="hid" id="25" />
        <Node type="hid" id="129" />
        <Node type="hid" id="211" />
      </Nodes>
      <Connections>
        <Con id="11" src="1" tgt="5" wght="3.9248272962868214" />
        <Con id="12" src="0" tgt="5" wght="4.7881589476595074" />
        <Con id="14" src="4" tgt="5" wght="3.7689695984150156" />
        <Con id="16" src="3" tgt="15" wght="1.545168626286362" />
        <Con id="17" src="15" tgt="5" wght="1.9809190434350095" />
        <Con id="23" src="1" tgt="22" wght="-0.6890782183545654" />
        <Con id="24" src="22" tgt="5" wght="3.044395472801829" />
        <Con id="26" src="3" tgt="25" wght="-3.00446969307104" />
        <Con id="27" src="25" tgt="5" wght="-4.9770779086800205" />
        <Con id="66" src="3" tgt="22" wght="-2.3093609185889363" />
        <Con id="87" src="2" tgt="15" wght="2.0494552096351981" />
        <Con id="130" src="25" tgt="129" wght="1.9764300296083093" />
        <Con id="212" src="129" tgt="211" wght="3.136850622891687" />
        <Con id="213" src="211" tgt="5" wght="5" />
      </Connections>
    </Network>
    <Network id="23742" birthGen="148" fitness="1300">
      <Nodes>
        <Node type="bias" id="0" />
        <Node type="in" id="1" />
        <Node type="in" id="2" />
        <Node type="in" id="3" />
        <Node type="in" id="4" />
        <Node type="out" id="5" />
        <Node type="hid" id="15" />
        <Node type="hid" id="22" />
        <Node type="hid" id="25" />
        <Node type="hid" id="129" />
        <Node type="hid" id="211" />
      </Nodes>
      <Connections>
        <Con id="11" src="1" tgt="5" wght="3.9248272962868214" />
        <Con id="12" src="0" tgt="5" wght="4.7881589476595074" />
        <Con id="14" src="4" tgt="5" wght="3.7537418705759169" />
        <Con id="16" src="3" tgt="15" wght="1.5547646458299049" />
        <Con id="17" src="15" tgt="5" wght="1.9809190434350095" />
        <Con id="23" src="1" tgt="22" wght="-0.6890782183545654" />
        <Con id="24" src="22" tgt="5" wght="3.044395472801829" />
        <Con id="26" src="3" tgt="25" wght="-3.00446969307104" />
        <Con id="27" src="25" tgt="5" wght="-4.9770779086800205" />
        <Con id="66" src="3" tgt="22" wght="3.5481633144002735" />
        <Con id="87" src="2" tgt="15" wght="2.0494552096351981" />
        <Con id="130" src="25" tgt="129" wght="-5" />
        <Con id="212" src="129" tgt="211" wght="3.136850622891687" />
        <Con id="213" src="211" tgt="5" wght="5" />
      </Connections>
    </Network>
    <Network id="23743" birthGen="148" fitness="1400">
      <Nodes>
        <Node type="bias" id="0" />
        <Node type="in" id="1" />
        <Node type="in" id="2" />
        <Node type="in" id="3" />
        <Node type="in" id="4" />
        <Node type="out" id="5" />
        <Node type="hid" id="15" />
        <Node type="hid" id="22" />
        <Node type="hid" id="25" />
        <Node type="hid" id="129" />
        <Node type="hid" id="211" />
      </Nodes>
      <Connections>
        <Con id="11" src="1" tgt="5" wght="1.8972120170109426" />
        <Con id="12" src="0" tgt="5" wght="4.7881589476595074" />
        <Con id="14" src="4" tgt="5" wght="3.7537418705759169" />
        <Con id="16" src="3" tgt="15" wght="1.545168626286362" />
        <Con id="17" src="15" tgt="5" wght="1.3665027014544564" />
        <Con id="23" src="1" tgt="22" wght="-0.6890782183545654" />
        <Con id="24" src="22" tgt="5" wght="3.044395472801829" />
        <Con id="26" src="3" tgt="25" wght="-3.259234226117885" />
        <Con id="27" src="25" tgt="5" wght="-4.5842795577224873" />
        <Con id="66" src="3" tgt="22" wght="4.1282351645708895" />
        <Con id="87" src="2" tgt="15" wght="2.0494552096351981" />
        <Con id="130" src="25" tgt="129" wght="-5" />
        <Con id="212" src="129" tgt="211" wght="3.136850622891687" />
        <Con id="213" src="211" tgt="5" wght="5" />
      </Connections>
    </Network>
    <Network id="23744" birthGen="148" fitness="1350">
      <Nodes>
        <Node type="bias" id="0" />
        <Node type="in" id="1" />
        <Node type="in" id="2" />
        <Node type="in" id="3" />
        <Node type="in" id="4" />
        <Node type="out" id="5" />
        <Node type="hid" id="15" />
        <Node type="hid" id="22" />
        <Node type="hid" id="25" />
        <Node type="hid" id="129" />
        <Node type="hid" id="211" />
      </Nodes>
      <Connections>
        <Con id="11" src="1" tgt="5" wght="1.005162582812348" />
        <Con id="12" src="0" tgt="5" wght="4.7881589476595074" />
        <Con id="14" src="4" tgt="5" wght="3.7537418705759169" />
        <Con id="16" src="3" tgt="15" wght="1.545168626286362" />
        <Con id="17" src="15" tgt="5" wght="1.2673760665555873" />
        <Con id="23" src="1" tgt="22" wght="-0.6890782183545654" />
        <Con id="24" src="22" tgt="5" wght="3.044395472801829" />
        <Con id="26" src="3" tgt="25" wght="-2.0856596098402473" />
        <Con id="27" src="25" tgt="5" wght="-4.5842795577224873" />
        <Con id="66" src="3" tgt="22" wght="3.3552329917825108" />
        <Con id="87" src="2" tgt="15" wght="2.0494552096351981" />
        <Con id="130" src="25" tgt="129" wght="-5" />
        <Con id="212" src="129" tgt="211" wght="3.136850622891687" />
        <Con id="213" src="211" tgt="5" wght="5" />
      </Connections>
    </Network>
    <Network id="23745" birthGen="148" fitness="1250">
      <Nodes>
        <Node type="bias" id="0" />
        <Node type="in" id="1" />
        <Node type="in" id="2" />
        <Node type="in" id="3" />
        <Node type="in" id="4" />
        <Node type="out" id="5" />
        <Node type="hid" id="15" />
        <Node type="hid" id="22" />
        <Node type="hid" id="25" />
        <Node type="hid" id="129" />
        <Node type="hid" id="211" />
      </Nodes>
      <Connections>
        <Con id="11" src="1" tgt="5" wght="3.9248272962868214" />
        <Con id="12" src="0" tgt="5" wght="4.7881589476595074" />
        <Con id="14" src="4" tgt="5" wght="3.7537418705759169" />
        <Con id="16" src="3" tgt="15" wght="2.0065502891991063" />
        <Con id="17" src="15" tgt="5" wght="1.4678999224451119" />
        <Con id="23" src="1" tgt="22" wght="-0.6890782183545654" />
        <Con id="24" src="22" tgt="5" wght="3.044395472801829" />
        <Con id="26" src="3" tgt="25" wght="-3.00446969307104" />
        <Con id="27" src="25" tgt="5" wght="-4.9770779086800205" />
        <Con id="66" src="3" tgt="22" wght="3.3552329917825108" />
        <Con id="87" src="2" tgt="15" wght="2.0432900188245773" />
        <Con id="130" src="25" tgt="129" wght="-5" />
        <Con id="212" src="129" tgt="211" wght="3.136850622891687" />
        <Con id="213" src="211" tgt="5" wght="5" />
      </Connections>
    </Network>
    <Network id="23746" birthGen="148" fitness="1300">
      <Nodes>
        <Node type="bias" id="0" />
        <Node type="in" id="1" />
        <Node type="in" id="2" />
        <Node type="in" id="3" />
        <Node type="in" id="4" />
        <Node type="out" id="5" />
        <Node type="hid" id="15" />
        <Node type="hid" id="22" />
        <Node type="hid" id="25" />
        <Node type="hid" id="129" />
        <Node type="hid" id="211" />
      </Nodes>
      <Connections>
        <Con id="11" src="1" tgt="5" wght="3.9248272962868214" />
        <Con id="12" src="0" tgt="5" wght="4.7881589476595074" />
        <Con id="14" src="4" tgt="5" wght="3.7537418705759169" />
        <Con id="16" src="3" tgt="15" wght="1.545168626286362" />
        <Con id="17" src="15" tgt="5" wght="1.9809190434350095" />
        <Con id="23" src="1" tgt="22" wght="-0.6890782183545654" />
        <Con id="24" src="22" tgt="5" wght="3.044395472801829" />
        <Con id="26" src="3" tgt="25" wght="-3.00446969307104" />
        <Con id="27" src="25" tgt="5" wght="-5" />
        <Con id="66" src="3" tgt="22" wght="3.3552329917825108" />
        <Con id="87" src="2" tgt="15" wght="2.0494552096351981" />
        <Con id="130" src="25" tgt="129" wght="-5" />
        <Con id="212" src="129" tgt="211" wght="3.136850622891687" />
        <Con id="213" src="211" tgt="5" wght="5" />
      </Connections>
    </Network>
    <Network id="23747" birthGen="148" fitness="1400">
      <Nodes>
        <Node type="bias" id="0" />
        <Node type="in" id="1" />
        <Node type="in" id="2" />
        <Node type="in" id="3" />
        <Node type="in" id="4" />
        <Node type="out" id="5" />
        <Node type="hid" id="15" />
        <Node type="hid" id="22" />
        <Node type="hid" id="25" />
        <Node type="hid" id="129" />
        <Node type="hid" id="211" />
      </Nodes>
      <Connections>
        <Con id="11" src="1" tgt="5" wght="3.9248272962868214" />
        <Con id="12" src="0" tgt="5" wght="4.7881589476595074" />
        <Con id="14" src="4" tgt="5" wght="3.7537418705759169" />
        <Con id="16" src="3" tgt="15" wght="1.545168626286362" />
        <Con id="17" src="15" tgt="5" wght="1.9809190434350095" />
        <Con id="23" src="1" tgt="22" wght="-0.6890782183545654" />
        <Con id="24" src="22" tgt="5" wght="3.044395472801829" />
        <Con id="26" src="3" tgt="25" wght="-3.00446969307104" />
        <Con id="27" src="25" tgt="5" wght="-4.9770779086800205" />
        <Con id="66" src="3" tgt="22" wght="-2.3093609185889363" />
        <Con id="87" src="2" tgt="15" wght="2.0494552096351981" />
        <Con id="130" src="25" tgt="129" wght="-5" />
        <Con id="212" src="129" tgt="211" wght="3.136850622891687" />
        <Con id="213" src="211" tgt="5" wght="5" />
      </Connections>
    </Network>
    <Network id="23748" birthGen="148" fitness="1300">
      <Nodes>
        <Node type="bias" id="0" />
        <Node type="in" id="1" />
        <Node type="in" id="2" />
        <Node type="in" id="3" />
        <Node type="in" id="4" />
        <Node type="out" id="5" />
        <Node type="hid" id="15" />
        <Node type="hid" id="22" />
        <Node type="hid" id="25" />
        <Node type="hid" id="129" />
        <Node type="hid" id="211" />
      </Nodes>
      <Connections>
        <Con id="11" src="1" tgt="5" wght="3.9248272962868214" />
        <Con id="12" src="0" tgt="5" wght="4.7881589476595074" />
        <Con id="14" src="4" tgt="5" wght="3.7537418705759169" />
        <Con id="16" src="3" tgt="15" wght="2.0065502891991063" />
        <Con id="17" src="15" tgt="5" wght="1.9809190434350095" />
        <Con id="23" src="1" tgt="22" wght="-0.6890782183545654" />
        <Con id="24" src="22" tgt="5" wght="3.044395472801829" />
        <Con id="26" src="3" tgt="25" wght="-3.00446969307104" />
        <Con id="27" src="25" tgt="5" wght="-4.9770779086800205" />
        <Con id="66" src="3" tgt="22" wght="3.3552329917825108" />
        <Con id="87" src="2" tgt="15" wght="2.0494552096351981" />
        <Con id="130" src="25" tgt="129" wght="-5" />
        <Con id="212" src="129" tgt="211" wght="3.136850622891687" />
        <Con id="213" src="211" tgt="5" wght="5" />
      </Connections>
    </Network>
    <Network id="23749" birthGen="148" fitness="1350">
      <Nodes>
        <Node type="bias" id="0" />
        <Node type="in" id="1" />
        <Node type="in" id="2" />
        <Node type="in" id="3" />
        <Node type="in" id="4" />
        <Node type="out" id="5" />
        <Node type="hid" id="15" />
        <Node type="hid" id="22" />
        <Node type="hid" id="25" />
        <Node type="hid" id="129" />
        <Node type="hid" id="211" />
      </Nodes>
      <Connections>
        <Con id="11" src="1" tgt="5" wght="1.9793658345068885" />
        <Con id="12" src="0" tgt="5" wght="4.7881589476595074" />
        <Con id="14" src="4" tgt="5" wght="3.7537418705759169" />
        <Con id="16" src="3" tgt="15" wght="1.545168626286362" />
        <Con id="17" src="15" tgt="5" wght="1.3665027014544564" />
        <Con id="23" src="1" tgt="22" wght="-0.6890782183545654" />
        <Con id="24" src="22" tgt="5" wght="3.044395472801829" />
        <Con id="26" src="3" tgt="25" wght="-3.00446969307104" />
        <Con id="27" src="25" tgt="5" wght="-4.5842795577224873" />
        <Con id="66" src="3" tgt="22" wght="3.3552329917825108" />
        <Con id="87" src="2" tgt="15" wght="2.0494552096351981" />
        <Con id="130" src="25" tgt="129" wght="-5" />
        <Con id="212" src="129" tgt="211" wght="3.136850622891687" />
        <Con id="213" src="211" tgt="5" wght="5" />
      </Connections>
    </Network>
    <Network id="23750" birthGen="148" fitness="1300">
      <Nodes>
        <Node type="bias" id="0" />
        <Node type="in" id="1" />
        <Node type="in" id="2" />
        <Node type="in" id="3" />
        <Node type="in" id="4" />
        <Node type="out" id="5" />
        <Node type="hid" id="15" />
        <Node type="hid" id="22" />
        <Node type="hid" id="25" />
        <Node type="hid" id="129" />
        <Node type="hid" id="211" />
      </Nodes>
      <Connections>
        <Con id="11" src="1" tgt="5" wght="3.9248272962868214" />
        <Con id="12" src="0" tgt="5" wght="4.7881589476595074" />
        <Con id="14" src="4" tgt="5" wght="3.7537418705759169" />
        <Con id="16" src="3" tgt="15" wght="1.545168626286362" />
        <Con id="17" src="15" tgt="5" wght="1.9809190434350095" />
        <Con id="23" src="1" tgt="22" wght="-0.6890782183545654" />
        <Con id="24" src="22" tgt="5" wght="3.044395472801829" />
        <Con id="26" src="3" tgt="25" wght="-3.259234226117885" />
        <Con id="27" src="25" tgt="5" wght="-4.9770779086800205" />
        <Con id="66" src="3" tgt="22" wght="3.3552329917825108" />
        <Con id="87" src="2" tgt="15" wght="2.0494552096351981" />
        <Con id="130" src="25" tgt="129" wght="1.9764300296083093" />
        <Con id="212" src="129" tgt="211" wght="3.136850622891687" />
        <Con id="213" src="211" tgt="5" wght="5" />
      </Connections>
    </Network>
    <Network id="23751" birthGen="148" fitness="1150">
      <Nodes>
        <Node type="bias" id="0" />
        <Node type="in" id="1" />
        <Node type="in" id="2" />
        <Node type="in" id="3" />
        <Node type="in" id="4" />
        <Node type="out" id="5" />
        <Node type="hid" id="15" />
        <Node type="hid" id="22" />
        <Node type="hid" id="25" />
        <Node type="hid" id="129" />
        <Node type="hid" id="211" />
      </Nodes>
      <Connections>
        <Con id="11" src="1" tgt="5" wght="3.9248272962868214" />
        <Con id="12" src="0" tgt="5" wght="5" />
        <Con id="14" src="4" tgt="5" wght="3.7537418705759169" />
        <Con id="16" src="3" tgt="15" wght="1.545168626286362" />
        <Con id="17" src="15" tgt="5" wght="1.9809190434350095" />
        <Con id="23" src="1" tgt="22" wght="-4.2196559393778443" />
        <Con id="24" src="22" tgt="5" wght="3.044395472801829" />
        <Con id="26" src="3" tgt="25" wght="-3.00446969307104" />
        <Con id="27" src="25" tgt="5" wght="-4.2197225672518766" />
        <Con id="66" src="3" tgt="22" wght="2.72306076053181" />
        <Con id="87" src="2" tgt="15" wght="2.0494552096351981" />
        <Con id="130" src="25" tgt="129" wght="-5" />
        <Con id="212" src="129" tgt="211" wght="3.136850622891687" />
        <Con id="213" src="211" tgt="5" wght="5" />
      </Connections>
    </Network>
    <Network id="23752" birthGen="148" fitness="1350">
      <Nodes>
        <Node type="bias" id="0" />
        <Node type="in" id="1" />
        <Node type="in" id="2" />
        <Node type="in" id="3" />
        <Node type="in" id="4" />
        <Node type="out" id="5" />
        <Node type="hid" id="15" />
        <Node type="hid" id="22" />
        <Node type="hid" id="25" />
        <Node type="hid" id="129" />
        <Node type="hid" id="211" />
      </Nodes>
      <Connections>
        <Con id="11" src="1" tgt="5" wght="3.9248272962868214" />
        <Con id="12" src="0" tgt="5" wght="4.7881589476595074" />
        <Con id="14" src="4" tgt="5" wght="3.7537418705759169" />
        <Con id="16" src="3" tgt="15" wght="1.545168626286362" />
        <Con id="17" src="15" tgt="5" wght="1.9809190434350095" />
        <Con id="23" src="1" tgt="22" wght="-4.2196559393778443" />
        <Con id="24" src="22" tgt="5" wght="3.0395527603104711" />
        <Con id="26" src="3" tgt="25" wght="-3.00446969307104" />
        <Con id="27" src="25" tgt="5" wght="-4.2197225672518766" />
        <Con id="66" src="3" tgt="22" wght="3.3552329917825108" />
        <Con id="87" src="2" tgt="15" wght="2.0494552096351981" />
        <Con id="130" src="25" tgt="129" wght="-5" />
        <Con id="212" src="129" tgt="211" wght="-3.2963445642963052" />
        <Con id="213" src="211" tgt="5" wght="5" />
      </Connections>
    </Network>
    <Network id="23753" birthGen="148" fitness="1400">
      <Nodes>
        <Node type="bias" id="0" />
        <Node type="in" id="1" />
        <Node type="in" id="2" />
        <Node type="in" id="3" />
        <Node type="in" id="4" />
        <Node type="out" id="5" />
        <Node type="hid" id="15" />
        <Node type="hid" id="22" />
        <Node type="hid" id="25" />
        <Node type="hid" id="129" />
        <Node type="hid" id="211" />
      </Nodes>
      <Connections>
        <Con id="11" src="1" tgt="5" wght="3.9248272962868214" />
        <Con id="12" src="0" tgt="5" wght="4.7881589476595074" />
        <Con id="14" src="4" tgt="5" wght="3.7537418705759169" />
        <Con id="16" src="3" tgt="15" wght="1.545168626286362" />
        <Con id="17" src="15" tgt="5" wght="1.9809190434350095" />
        <Con id="23" src="1" tgt="22" wght="-0.6890782183545654" />
        <Con id="24" src="22" tgt="5" wght="3.044395472801829" />
        <Con id="26" src="3" tgt="25" wght="-3.00446969307104" />
        <Con id="27" src="25" tgt="5" wght="-4.9770779086800205" />
        <Con id="66" src="3" tgt="22" wght="3.3552329917825108" />
        <Con id="87" src="2" tgt="15" wght="2.0494552096351981" />
        <Con id="130" src="25" tgt="129" wght="-5" />
        <Con id="212" src="129" tgt="211" wght="3.136850622891687" />
        <Con id="213" src="211" tgt="5" wght="5" />
      </Connections>
    </Network>
    <Network id="23754" birthGen="148" fitness="1450">
      <Nodes>
        <Node type="bias" id="0" />
        <Node type="in" id="1" />
        <Node type="in" id="2" />
        <Node type="in" id="3" />
        <Node type="in" id="4" />
        <Node type="out" id="5" />
        <Node type="hid" id="15" />
        <Node type="hid" id="22" />
        <Node type="hid" id="25" />
        <Node type="hid" id="129" />
        <Node type="hid" id="211" />
      </Nodes>
      <Connections>
        <Con id="11" src="1" tgt="5" wght="1.9793658345068885" />
        <Con id="12" src="0" tgt="5" wght="4.7881589476595074" />
        <Con id="14" src="4" tgt="5" wght="3.7537418705759169" />
        <Con id="16" src="3" tgt="15" wght="1.545168626286362" />
        <Con id="17" src="15" tgt="5" wght="1.9809190434350095" />
        <Con id="23" src="1" tgt="22" wght="-0.6890782183545654" />
        <Con id="24" src="22" tgt="5" wght="3.044395472801829" />
        <Con id="26" src="3" tgt="25" wght="-3.259234226117885" />
        <Con id="27" src="25" tgt="5" wght="-5" />
        <Con id="66" src="3" tgt="22" wght="3.3552329917825108" />
        <Con id="87" src="2" tgt="15" wght="2.0494552096351981" />
        <Con id="130" src="25" tgt="129" wght="-5" />
        <Con id="212" src="129" tgt="211" wght="3.136850622891687" />
        <Con id="213" src="211" tgt="5" wght="5" />
      </Connections>
    </Network>
    <Network id="23755" birthGen="148" fitness="1450">
      <Nodes>
        <Node type="bias" id="0" />
        <Node type="in" id="1" />
        <Node type="in" id="2" />
        <Node type="in" id="3" />
        <Node type="in" id="4" />
        <Node type="out" id="5" />
        <Node type="hid" id="15" />
        <Node type="hid" id="22" />
        <Node type="hid" id="25" />
        <Node type="hid" id="129" />
        <Node type="hid" id="211" />
      </Nodes>
      <Connections>
        <Con id="11" src="1" tgt="5" wght="3.9248272962868214" />
        <Con id="12" src="0" tgt="5" wght="4.7881589476595074" />
        <Con id="14" src="4" tgt="5" wght="3.7537418705759169" />
        <Con id="16" src="3" tgt="15" wght="2.0065502891991063" />
        <Con id="17" src="15" tgt="5" wght="1.9809190434350095" />
        <Con id="23" src="1" tgt="22" wght="-0.6890782183545654" />
        <Con id="24" src="22" tgt="5" wght="3.044395472801829" />
        <Con id="26" src="3" tgt="25" wght="-3.00446969307104" />
        <Con id="27" src="25" tgt="5" wght="-4.9770779086800205" />
        <Con id="66" src="3" tgt="22" wght="3.3552329917825108" />
        <Con id="87" src="2" tgt="15" wght="2.0432900188245773" />
        <Con id="130" src="25" tgt="129" wght="-5" />
        <Con id="212" src="129" tgt="211" wght="3.136850622891687" />
        <Con id="213" src="211" tgt="5" wght="5" />
      </Connections>
    </Network>
    <Network id="23756" birthGen="148" fitness="1100">
      <Nodes>
        <Node type="bias" id="0" />
        <Node type="in" id="1" />
        <Node type="in" id="2" />
        <Node type="in" id="3" />
        <Node type="in" id="4" />
        <Node type="out" id="5" />
        <Node type="hid" id="15" />
        <Node type="hid" id="22" />
        <Node type="hid" id="25" />
        <Node type="hid" id="129" />
        <Node type="hid" id="211" />
      </Nodes>
      <Connections>
        <Con id="11" src="1" tgt="5" wght="3.9248272962868214" />
        <Con id="12" src="0" tgt="5" wght="4.7881589476595074" />
        <Con id="14" src="4" tgt="5" wght="3.7537418705759169" />
        <Con id="16" src="3" tgt="15" wght="1.545168626286362" />
        <Con id="17" src="15" tgt="5" wght="3.2303736135048333" />
        <Con id="23" src="1" tgt="22" wght="-4.2196559393778443" />
        <Con id="24" src="22" tgt="5" wght="3.044395472801829" />
        <Con id="26" src="3" tgt="25" wght="-3.00446969307104" />
        <Con id="27" src="25" tgt="5" wght="-4.2197225672518766" />
        <Con id="66" src="3" tgt="22" wght="2.72306076053181" />
        <Con id="87" src="2" tgt="15" wght="2.0494552096351981" />
        <Con id="130" src="25" tgt="129" wght="-5" />
        <Con id="212" src="129" tgt="211" wght="3.136850622891687" />
        <Con id="213" src="211" tgt="5" wght="5" />
      </Connections>
    </Network>
    <Network id="23757" birthGen="148" fitness="1350">
      <Nodes>
        <Node type="bias" id="0" />
        <Node type="in" id="1" />
        <Node type="in" id="2" />
        <Node type="in" id="3" />
        <Node type="in" id="4" />
        <Node type="out" id="5" />
        <Node type="hid" id="15" />
        <Node type="hid" id="22" />
        <Node type="hid" id="25" />
        <Node type="hid" id="129" />
        <Node type="hid" id="211" />
      </Nodes>
      <Connections>
        <Con id="11" src="1" tgt="5" wght="3.9248272962868214" />
        <Con id="12" src="0" tgt="5" wght="5" />
        <Con id="14" src="4" tgt="5" wght="3.7537418705759169" />
        <Con id="16" src="3" tgt="15" wght="2.0065502891991063" />
        <Con id="17" src="15" tgt="5" wght="1.9809190434350095" />
        <Con id="23" src="1" tgt="22" wght="-0.6890782183545654" />
        <Con id="24" src="22" tgt="5" wght="3.044395472801829" />
        <Con id="26" src="3" tgt="25" wght="-3.00446969307104" />
        <Con id="27" src="25" tgt="5" wght="-5" />
        <Con id="66" src="3" tgt="22" wght="3.3552329917825108" />
        <Con id="87" src="2" tgt="15" wght="2.0494552096351981" />
        <Con id="130" src="25" tgt="129" wght="-5" />
        <Con id="212" src="129" tgt="211" wght="3.136850622891687" />
        <Con id="213" src="211" tgt="5" wght="5" />
      </Connections>
    </Network>
    <Network id="23758" birthGen="148" fitness="1300">
      <Nodes>
        <Node type="bias" id="0" />
        <Node type="in" id="1" />
        <Node type="in" id="2" />
        <Node type="in" id="3" />
        <Node type="in" id="4" />
        <Node type="out" id="5" />
        <Node type="hid" id="15" />
        <Node type="hid" id="22" />
        <Node type="hid" id="25" />
        <Node type="hid" id="129" />
        <Node type="hid" id="211" />
      </Nodes>
      <Connections>
        <Con id="11" src="1" tgt="5" wght="3.9248272962868214" />
        <Con id="12" src="0" tgt="5" wght="5" />
        <Con id="14" src="4" tgt="5" wght="3.7537418705759169" />
        <Con id="16" src="3" tgt="15" wght="2.0065502891991063" />
        <Con id="17" src="15" tgt="5" wght="1.9809190434350095" />
        <Con id="23" src="1" tgt="22" wght="-0.6890782183545654" />
        <Con id="24" src="22" tgt="5" wght="3.044395472801829" />
        <Con id="26" src="3" tgt="25" wght="-3.00446969307104" />
        <Con id="27" src="25" tgt="5" wght="-4.9770779086800205" />
        <Con id="66" src="3" tgt="22" wght="3.3552329917825108" />
        <Con id="87" src="2" tgt="15" wght="2.0432900188245773" />
        <Con id="130" src="25" tgt="129" wght="-5" />
        <Con id="212" src="129" tgt="211" wght="3.136850622891687" />
        <Con id="213" src="211" tgt="5" wght="5" />
      </Connections>
    </Network>
    <Network id="23759" birthGen="148" fitness="1250">
      <Nodes>
        <Node type="bias" id="0" />
        <Node type="in" id="1" />
        <Node type="in" id="2" />
        <Node type="in" id="3" />
        <Node type="in" id="4" />
        <Node type="out" id="5" />
        <Node type="hid" id="15" />
        <Node type="hid" id="22" />
        <Node type="hid" id="25" />
        <Node type="hid" id="129" />
        <Node type="hid" id="211" />
      </Nodes>
      <Connections>
        <Con id="11" src="1" tgt="5" wght="3.9248272962868214" />
        <Con id="12" src="0" tgt="5" wght="4.7881589476595074" />
        <Con id="14" src="4" tgt="5" wght="3.7537418705759169" />
        <Con id="16" src="3" tgt="15" wght="1.545168626286362" />
        <Con id="17" src="15" tgt="5" wght="3.2303736135048333" />
        <Con id="23" src="1" tgt="22" wght="-4.2196559393778443" />
        <Con id="24" src="22" tgt="5" wght="3.044395472801829" />
        <Con id="26" src="3" tgt="25" wght="-3.00446969307104" />
        <Con id="27" src="25" tgt="5" wght="-5" />
        <Con id="66" src="3" tgt="22" wght="2.72306076053181" />
        <Con id="87" src="2" tgt="15" wght="2.0494552096351981" />
        <Con id="130" src="25" tgt="129" wght="-5" />
        <Con id="212" src="129" tgt="211" wght="-3.2963445642963052" />
        <Con id="213" src="211" tgt="5" wght="5" />
      </Connections>
    </Network>
    <Network id="23760" birthGen="148" fitness="1350">
      <Nodes>
        <Node type="bias" id="0" />
        <Node type="in" id="1" />
        <Node type="in" id="2" />
        <Node type="in" id="3" />
        <Node type="in" id="4" />
        <Node type="out" id="5" />
        <Node type="hid" id="15" />
        <Node type="hid" id="22" />
        <Node type="hid" id="25" />
        <Node type="hid" id="129" />
        <Node type="hid" id="211" />
      </Nodes>
      <Connections>
        <Con id="11" src="1" tgt="5" wght="3.9248272962868214" />
        <Con id="12" src="0" tgt="5" wght="4.7881589476595074" />
        <Con id="14" src="4" tgt="5" wght="3.7537418705759169" />
        <Con id="16" src="3" tgt="15" wght="2.0065502891991063" />
        <Con id="17" src="15" tgt="5" wght="1.9809190434350095" />
        <Con id="23" src="1" tgt="22" wght="-0.6890782183545654" />
        <Con id="24" src="22" tgt="5" wght="3.044395472801829" />
        <Con id="26" src="3" tgt="25" wght="-3.00446969307104" />
        <Con id="27" src="25" tgt="5" wght="-4.9770779086800205" />
        <Con id="66" src="3" tgt="22" wght="3.3552329917825108" />
        <Con id="87" src="2" tgt="15" wght="2.0494552096351981" />
        <Con id="130" src="25" tgt="129" wght="-5" />
        <Con id="212" src="129" tgt="211" wght="3.136850622891687" />
        <Con id="213" src="211" tgt="5" wght="5" />
      </Connections>
    </Network>
    <Network id="23761" birthGen="148" fitness="1500">
      <Nodes>
        <Node type="bias" id="0" />
        <Node type="in" id="1" />
        <Node type="in" id="2" />
        <Node type="in" id="3" />
        <Node type="in" id="4" />
        <Node type="out" id="5" />
        <Node type="hid" id="15" />
        <Node type="hid" id="22" />
        <Node type="hid" id="25" />
        <Node type="hid" id="129" />
        <Node type="hid" id="211" />
      </Nodes>
      <Connections>
        <Con id="11" src="1" tgt="5" wght="3.9248272962868214" />
        <Con id="12" src="0" tgt="5" wght="4.7881589476595074" />
        <Con id="14" src="4" tgt="5" wght="3.7537418705759169" />
        <Con id="16" src="3" tgt="15" wght="1.545168626286362" />
        <Con id="17" src="15" tgt="5" wght="3.2303736135048333" />
        <Con id="23" src="1" tgt="22" wght="-0.6890782183545654" />
        <Con id="24" src="22" tgt="5" wght="3.0395527603104711" />
        <Con id="26" src="3" tgt="25" wght="-3.00446969307104" />
        <Con id="27" src="25" tgt="5" wght="-5" />
        <Con id="66" src="3" tgt="22" wght="3.3552329917825108" />
        <Con id="87" src="2" tgt="15" wght="2.0494552096351981" />
        <Con id="130" src="25" tgt="129" wght="-5" />
        <Con id="212" src="129" tgt="211" wght="3.136850622891687" />
        <Con id="213" src="211" tgt="5" wght="5" />
      </Connections>
    </Network>
    <Network id="23762" birthGen="148" fitness="1250">
      <Nodes>
        <Node type="bias" id="0" />
        <Node type="in" id="1" />
        <Node type="in" id="2" />
        <Node type="in" id="3" />
        <Node type="in" id="4" />
        <Node type="out" id="5" />
        <Node type="hid" id="15" />
        <Node type="hid" id="22" />
        <Node type="hid" id="25" />
        <Node type="hid" id="129" />
      </Nodes>
      <Connections>
        <Con id="11" src="1" tgt="5" wght="3.92531133769088" />
        <Con id="12" src="0" tgt="5" wght="4.7881589476595074" />
        <Con id="14" src="4" tgt="5" wght="4.3169726632356173" />
        <Con id="16" src="3" tgt="15" wght="1.4975060386335373" />
        <Con id="17" src="15" tgt="5" wght="1.9832878867672277" />
        <Con id="23" src="1" tgt="22" wght="-1.7619991906830321" />
        <Con id="24" src="22" tgt="5" wght="3.0296593082986707" />
        <Con id="26" src="3" tgt="25" wght="-3.00446969307104" />
        <Con id="27" src="25" tgt="5" wght="-5" />
        <Con id="66" src="3" tgt="22" wght="3.3457078052917497" />
        <Con id="130" src="25" tgt="129" wght="-5" />
        <Con id="131" src="129" tgt="5" wght="2.4515948279924813" />
      </Connections>
    </Network>
    <Network id="23763" birthGen="148" fitness="1049.9981079101563">
      <Nodes>
        <Node type="bias" id="0" />
        <Node type="in" id="1" />
        <Node type="in" id="2" />
        <Node type="in" id="3" />
        <Node type="in" id="4" />
        <Node type="out" id="5" />
        <Node type="hid" id="15" />
        <Node type="hid" id="22" />
        <Node type="hid" id="25" />
        <Node type="hid" id="129" />
      </Nodes>
      <Connections>
        <Con id="11" src="1" tgt="5" wght="3.9248272962868214" />
        <Con id="12" src="0" tgt="5" wght="5" />
        <Con id="14" src="4" tgt="5" wght="3.7537418705759169" />
        <Con id="16" src="3" tgt="15" wght="1.545168626286362" />
        <Con id="17" src="15" tgt="5" wght="2.9522500912512597" />
        <Con id="23" src="1" tgt="22" wght="-0.023266749987827962" />
        <Con id="24" src="22" tgt="5" wght="3.0296593082986707" />
        <Con id="26" src="3" tgt="25" wght="-3.00446969307104" />
        <Con id="27" src="25" tgt="5" wght="-4.9770779086800205" />
        <Con id="66" src="3" tgt="22" wght="3.3465526196717823" />
        <Con id="130" src="25" tgt="129" wght="-5" />
        <Con id="131" src="129" tgt="5" wght="-4.3563660094514489" />
      </Connections>
    </Network>
    <Network id="23764" birthGen="148" fitness="1699.9996337890625">
      <Nodes>
        <Node type="bias" id="0" />
        <Node type="in" id="1" />
        <Node type="in" id="2" />
        <Node type="in" id="3" />
        <Node type="in" id="4" />
        <Node type="out" id="5" />
        <Node type="hid" id="15" />
        <Node type="hid" id="22" />
        <Node type="hid" id="25" />
        <Node type="hid" id="129" />
      </Nodes>
      <Connections>
        <Con id="11" src="1" tgt="5" wght="4.5321963789783535" />
        <Con id="12" src="0" tgt="5" wght="4.7881589476595074" />
        <Con id="14" src="4" tgt="5" wght="4.3334870917792943" />
        <Con id="16" src="3" tgt="15" wght="1.4975060386335373" />
        <Con id="17" src="15" tgt="5" wght="2.2783932700562515" />
        <Con id="23" src="1" tgt="22" wght="-1.7619991906830321" />
        <Con id="24" src="22" tgt="5" wght="3.0426689114726249" />
        <Con id="26" src="3" tgt="25" wght="-2.8554245627357093" />
        <Con id="27" src="25" tgt="5" wght="-5" />
        <Con id="66" src="3" tgt="22" wght="3.3465526196717823" />
        <Con id="130" src="25" tgt="129" wght="-5" />
        <Con id="131" src="129" tgt="5" wght="2.4515948279924813" />
      </Connections>
    </Network>
    <Network id="23765" birthGen="148" fitness="1100">
      <Nodes>
        <Node type="bias" id="0" />
        <Node type="in" id="1" />
        <Node type="in" id="2" />
        <Node type="in" id="3" />
        <Node type="in" id="4" />
        <Node type="out" id="5" />
        <Node type="hid" id="15" />
        <Node type="hid" id="22" />
        <Node type="hid" id="25" />
        <Node type="hid" id="129" />
      </Nodes>
      <Connections>
        <Con id="11" src="1" tgt="5" wght="3.92531133769088" />
        <Con id="12" src="0" tgt="5" wght="4.7881589476595074" />
        <Con id="14" src="4" tgt="5" wght="4.1667084532706484" />
        <Con id="16" src="3" tgt="15" wght="1.4975060386335373" />
        <Con id="17" src="15" tgt="5" wght="1.9832878867672277" />
        <Con id="23" src="1" tgt="22" wght="-1.7619991906830321" />
        <Con id="24" src="22" tgt="5" wght="3.0426689114726249" />
        <Con id="26" src="3" tgt="25" wght="-2.8554245627357093" />
        <Con id="27" src="25" tgt="5" wght="-5" />
        <Con id="66" src="3" tgt="22" wght="3.3465526196717823" />
        <Con id="130" src="25" tgt="129" wght="-5" />
        <Con id="131" src="129" tgt="5" wght="2.4515948279924813" />
      </Connections>
    </Network>
    <Network id="23766" birthGen="148" fitness="1449.9140625">
      <Nodes>
        <Node type="bias" id="0" />
        <Node type="in" id="1" />
        <Node type="in" id="2" />
        <Node type="in" id="3" />
        <Node type="in" id="4" />
        <Node type="out" id="5" />
        <Node type="hid" id="15" />
        <Node type="hid" id="22" />
        <Node type="hid" id="25" />
        <Node type="hid" id="129" />
      </Nodes>
      <Connections>
        <Con id="11" src="1" tgt="5" wght="3.92531133769088" />
        <Con id="12" src="0" tgt="5" wght="4.7881589476595074" />
        <Con id="14" src="4" tgt="5" wght="4.3169726632356173" />
        <Con id="16" src="3" tgt="15" wght="1.4975060386335373" />
        <Con id="17" src="15" tgt="5" wght="1.9832878867672277" />
        <Con id="24" src="22" tgt="5" wght="3.0296593082986707" />
        <Con id="26" src="3" tgt="25" wght="-3.00446969307104" />
        <Con id="27" src="25" tgt="5" wght="-5" />
        <Con id="66" src="3" tgt="22" wght="3.3465526196717823" />
        <Con id="130" src="25" tgt="129" wght="-5" />
        <Con id="131" src="129" tgt="5" wght="2.4515948279924813" />
      </Connections>
    </Network>
    <Network id="23767" birthGen="148" fitness="1650">
      <Nodes>
        <Node type="bias" id="0" />
        <Node type="in" id="1" />
        <Node type="in" id="2" />
        <Node type="in" id="3" />
        <Node type="in" id="4" />
        <Node type="out" id="5" />
        <Node type="hid" id="15" />
        <Node type="hid" id="22" />
        <Node type="hid" id="25" />
        <Node type="hid" id="129" />
      </Nodes>
      <Connections>
        <Con id="11" src="1" tgt="5" wght="3.92531133769088" />
        <Con id="12" src="0" tgt="5" wght="4.7869879825401025" />
        <Con id="14" src="4" tgt="5" wght="4.3334870917792943" />
        <Con id="16" src="3" tgt="15" wght="1.4975060386335373" />
        <Con id="17" src="15" tgt="5" wght="1.9832878867672277" />
        <Con id="23" src="1" tgt="22" wght="-1.7619991906830321" />
        <Con id="24" src="22" tgt="5" wght="3.0426689114726249" />
        <Con id="26" src="3" tgt="25" wght="-2.8554245627357093" />
        <Con id="27" src="25" tgt="5" wght="-5" />
        <Con id="66" src="3" tgt="22" wght="3.3465526196717823" />
        <Con id="130" src="25" tgt="129" wght="-5" />
        <Con id="131" src="129" tgt="5" wght="2.4515948279924813" />
      </Connections>
    </Network>
    <Network id="23768" birthGen="148" fitness="1451.5795491536458">
      <Nodes>
        <Node type="bias" id="0" />
        <Node type="in" id="1" />
        <Node type="in" id="2" />
        <Node type="in" id="3" />
        <Node type="in" id="4" />
        <Node type="out" id="5" />
        <Node type="hid" id="15" />
        <Node type="hid" id="22" />
        <Node type="hid" id="25" />
        <Node type="hid" id="129" />
      </Nodes>
      <Connections>
        <Con id="11" src="1" tgt="5" wght="3.92531133769088" />
        <Con id="12" src="0" tgt="5" wght="3.2082815608009696" />
        <Con id="14" src="4" tgt="5" wght="4.3169726632356173" />
        <Con id="16" src="3" tgt="15" wght="1.4975060386335373" />
        <Con id="17" src="15" tgt="5" wght="1.9832878867672277" />
        <Con id="23" src="1" tgt="22" wght="-1.7619991906830321" />
        <Con id="24" src="22" tgt="5" wght="-1.9336549984291196" />
        <Con id="26" src="3" tgt="25" wght="-3.00446969307104" />
        <Con id="27" src="25" tgt="5" wght="-5" />
        <Con id="66" src="3" tgt="22" wght="2.9995686514303088" />
        <Con id="130" src="25" tgt="129" wght="-5" />
        <Con id="131" src="129" tgt="5" wght="2.4515948279924813" />
      </Connections>
    </Network>
    <Network id="23769" birthGen="148" fitness="1400">
      <Nodes>
        <Node type="bias" id="0" />
        <Node type="in" id="1" />
        <Node type="in" id="2" />
        <Node type="in" id="3" />
        <Node type="in" id="4" />
        <Node type="out" id="5" />
        <Node type="hid" id="15" />
        <Node type="hid" id="22" />
        <Node type="hid" id="25" />
        <Node type="hid" id="129" />
      </Nodes>
      <Connections>
        <Con id="11" src="1" tgt="5" wght="3.9248272962868214" />
        <Con id="12" src="0" tgt="5" wght="5" />
        <Con id="14" src="4" tgt="5" wght="3.7537418705759169" />
        <Con id="16" src="3" tgt="15" wght="1.545168626286362" />
        <Con id="17" src="15" tgt="5" wght="2.9522500912512597" />
        <Con id="23" src="1" tgt="22" wght="-0.6890782183545654" />
        <Con id="24" src="22" tgt="5" wght="3.0296593082986707" />
        <Con id="26" src="3" tgt="25" wght="-3.00446969307104" />
        <Con id="27" src="25" tgt="5" wght="-4.5537730632349849" />
        <Con id="66" src="3" tgt="22" wght="3.3465526196717823" />
        <Con id="130" src="25" tgt="129" wght="-5" />
        <Con id="131" src="129" tgt="5" wght="-4.3563660094514489" />
      </Connections>
    </Network>
    <Network id="23770" birthGen="148" fitness="1399.9996744791667">
      <Nodes>
        <Node type="bias" id="0" />
        <Node type="in" id="1" />
        <Node type="in" id="2" />
        <Node type="in" id="3" />
        <Node type="in" id="4" />
        <Node type="out" id="5" />
        <Node type="hid" id="15" />
        <Node type="hid" id="22" />
        <Node type="hid" id="25" />
        <Node type="hid" id="129" />
      </Nodes>
      <Connections>
        <Con id="11" src="1" tgt="5" wght="3.8920181923166171" />
        <Con id="12" src="0" tgt="5" wght="4.7881589476595074" />
        <Con id="14" src="4" tgt="5" wght="4.3169726632356173" />
        <Con id="16" src="3" tgt="15" wght="1.4975060386335373" />
        <Con id="17" src="15" tgt="5" wght="1.0517402502292907" />
        <Con id="23" src="1" tgt="22" wght="-1.7619991906830321" />
        <Con id="24" src="22" tgt="5" wght="3.0296593082986707" />
        <Con id="26" src="3" tgt="25" wght="-3.00446969307104" />
        <Con id="27" src="25" tgt="5" wght="-5" />
        <Con id="66" src="3" tgt="22" wght="3.3465526196717823" />
        <Con id="130" src="25" tgt="129" wght="-5" />
        <Con id="131" src="129" tgt="5" wght="2.4515948279924813" />
      </Connections>
    </Network>
    <Network id="23771" birthGen="148" fitness="1350">
      <Nodes>
        <Node type="bias" id="0" />
        <Node type="in" id="1" />
        <Node type="in" id="2" />
        <Node type="in" id="3" />
        <Node type="in" id="4" />
        <Node type="out" id="5" />
        <Node type="hid" id="15" />
        <Node type="hid" id="22" />
        <Node type="hid" id="25" />
        <Node type="hid" id="129" />
      </Nodes>
      <Connections>
        <Con id="9" src="3" tgt="5" wght="-1.0468261238512193" />
