<?xml version="1.0" encoding="utf-8"?>
<Root>
  <ActivationFunctions>
    <Fn id="0" name="SteepenedSigmoid" prob="1" />
  </ActivationFunctions>
  <Networks>
    <Network id="18346" birthGen="151" fitness="2425.0762939453125">
      <Nodes>
        <Node type="bias" id="0" />
        <Node type="in" id="1" />
        <Node type="in" id="2" />
        <Node type="in" id="3" />
        <Node type="in" id="4" />
        <Node type="in" id="5" />
        <Node type="in" id="6" />
        <Node type="in" id="7" />
        <Node type="in" id="8" />
        <Node type="in" id="9" />
        <Node type="in" id="10" />
        <Node type="out" id="11" />
        <Node type="hid" id="94" />
      </Nodes>
      <Connections>
        <Con id="24" src="9" tgt="11" wght="-0.61471901871790446" />
        <Con id="31" src="8" tgt="11" wght="-2.0233253367818373" />
        <Con id="32" src="4" tgt="11" wght="-3.5082417638362675" />
        <Con id="36" src="0" tgt="11" wght="1.1641345437250248" />
        <Con id="40" src="10" tgt="11" wght="4.6261484444551613" />
        <Con id="41" src="6" tgt="11" wght="-0.60867277481023152" />
        <Con id="42" src="7" tgt="11" wght="-4.5557131385892493" />
        <Con id="46" src="5" tgt="11" wght="-3.8632092221018239" />
        <Con id="50" src="2" tgt="11" wght="-0.0041577480291908331" />
        <Con id="51" src="1" tgt="11" wght="-0.28319631445271631" />
        <Con id="95" src="3" tgt="94" wght="-0.60935794067028837" />
        <Con id="96" src="94" tgt="11" wght="4.6749177945162179" />
      </Connections>
    </Network>
  </Networks>
</Root>