<?xml version="1.0" encoding="utf-8"?>
<Root>
  <ActivationFunctions>
    <Fn id="0" name="SteepenedSigmoid" prob="1" />
  </ActivationFunctions>
  <Networks>
    <Network id="296612" birthGen="1723" fitness="108332.6953125">
      <Nodes>
        <Node type="bias" id="0" />
        <Node type="in" id="1" />
        <Node type="in" id="2" />
        <Node type="in" id="3" />
        <Node type="in" id="4" />
        <Node type="in" id="5" />
        <Node type="in" id="6" />
        <Node type="in" id="7" />
        <Node type="in" id="8" />
        <Node type="in" id="9" />
        <Node type="in" id="10" />
        <Node type="in" id="11" />
        <Node type="in" id="12" />
        <Node type="out" id="13" />
        <Node type="out" id="14" />
        <Node type="hid" id="65" />
        <Node type="hid" id="160" />
        <Node type="hid" id="190" />
        <Node type="hid" id="224" />
        <Node type="hid" id="230" />
        <Node type="hid" id="267" />
        <Node type="hid" id="348" />
        <Node type="hid" id="1110" />
        <Node type="hid" id="1153" />
        <Node type="hid" id="1226" />
        <Node type="hid" id="1392" />
        <Node type="hid" id="1405" />
        <Node type="hid" id="2595" />
        <Node type="hid" id="3380" />
        <Node type="hid" id="3482" />
        <Node type="hid" id="3520" />
        <Node type="hid" id="3544" />
        <Node type="hid" id="3746" />
        <Node type="hid" id="3993" />
        <Node type="hid" id="4093" />
        <Node type="hid" id="4301" />
        <Node type="hid" id="4339" />
        <Node type="hid" id="4415" />
        <Node type="hid" id="4581" />
        <Node type="hid" id="4977" />
        <Node type="hid" id="5093" />
        <Node type="hid" id="5409" />
        <Node type="hid" id="5568" />
        <Node type="hid" id="5713" />
        <Node type="hid" id="6054" />
        <Node type="hid" id="6190" />
        <Node type="hid" id="6258" />
      </Nodes>
      <Connections>
        <Con id="21" src="3" tgt="13" wght="3.2838120078668" />
        <Con id="43" src="9" tgt="13" wght="-1.981057907665934" />
        <Con id="44" src="5" tgt="13" wght="4.7384039693879867" />
        <Con id="63" src="4" tgt="14" wght="1.6147320189628955" />
        <Con id="66" src="11" tgt="65" wght="4.3125145594841454" />
        <Con id="71" src="8" tgt="14" wght="-2.2393539543579206" />
        <Con id="74" src="7" tgt="13" wght="3.3249632948739274" />
        <Con id="172" src="65" tgt="160" wght="2.5993991394435634" />
        <Con id="191" src="160" tgt="190" wght="1.3915528708858032" />
        <Con id="192" src="190" tgt="13" wght="0.72945734602132573" />
        <Con id="193" src="8" tgt="160" wght="-3.5841750359580073" />
        <Con id="221" src="5" tgt="160" wght="-2.1696008414150372" />
        <Con id="226" src="224" tgt="160" wght="2.7235164146692119" />
        <Con id="232" src="230" tgt="224" wght="-4.6692549165327168" />
        <Con id="257" src="5" tgt="190" wght="1.9797020816716497" />
        <Con id="268" src="6" tgt="267" wght="-2.4718574422908874" />
        <Con id="392" src="9" tgt="160" wght="4.9752480988036751" />
        <Con id="423" src="9" tgt="230" wght="-2.5137290012805908" />
        <Con id="447" src="2" tgt="224" wght="-1.035528491339115" />
        <Con id="504" src="267" tgt="190" wght="-4.9342654959239409" />
        <Con id="638" src="11" tgt="230" wght="-5" />
        <Con id="643" src="10" tgt="14" wght="4.2018410442253" />
        <Con id="644" src="8" tgt="13" wght="4.9867172092888836" />
        <Con id="648" src="1" tgt="160" wght="-1.2029708075320498" />
        <Con id="651" src="6" tgt="224" wght="2.7687056522728071" />
        <Con id="661" src="9" tgt="65" wght="5" />
        <Con id="682" src="11" tgt="267" wght="3.4297639217530356" />
        <Con id="692" src="190" tgt="14" wght="-4.21951676100031" />
        <Con id="732" src="11" tgt="13" wght="1.8687996689836583" />
        <Con id="808" src="5" tgt="65" wght="-4.126377337796578" />
        <Con id="865" src="267" tgt="224" wght="-3.2244800157050983" />
        <Con id="870" src="0" tgt="160" wght="-2.2199833082410594" />
        <Con id="896" src="4" tgt="230" wght="5" />
        <Con id="926" src="8" tgt="224" wght="1.7879109956813386" />
        <Con id="953" src="5" tgt="230" wght="-3.1740687588988639" />
        <Con id="1111" src="348" tgt="1110" wght="3.1093593581438732" />
        <Con id="1133" src="1110" tgt="160" wght="-0.32002035111951166" />
        <Con id="1145" src="11" tgt="348" wght="3.6016638030092265" />
        <Con id="1155" src="1153" tgt="230" wght="-5" />
        <Con id="1188" src="5" tgt="1110" wght="-1.8974660676084809" />
        <Con id="1227" src="6" tgt="1226" wght="-2.3814834785462171" />
        <Con id="1228" src="1226" tgt="1153" wght="-0.83769045369536355" />
        <Con id="1267" src="10" tgt="348" wght="1.987529834219568" />
        <Con id="1311" src="1226" tgt="160" wght="0.38260045848198465" />
        <Con id="1393" src="230" tgt="1392" wght="1.7173737379417224" />
        <Con id="1394" src="1392" tgt="65" wght="-2.2606932045891881" />
        <Con id="1407" src="1405" tgt="65" wght="3.1956851699067235" />
        <Con id="1431" src="11" tgt="1110" wght="-1.1410609855910658" />
        <Con id="1464" src="1" tgt="1226" wght="5" />
        <Con id="1531" src="11" tgt="1226" wght="-4.9965770231069335" />
        <Con id="1877" src="230" tgt="13" wght="3.88603586875045" />
        <Con id="1882" src="8" tgt="348" wght="0.53066299762576818" />
        <Con id="1909" src="1153" tgt="1405" wght="-4.505344714253698" />
        <Con id="1938" src="1153" tgt="160" wght="2.0838031956707534" />
        <Con id="1946" src="9" tgt="1226" wght="4.6821810829357968" />
        <Con id="1951" src="1226" tgt="13" wght="2.1452615913706969" />
        <Con id="1956" src="4" tgt="1392" wght="0.40808774414059712" />
        <Con id="1967" src="11" tgt="1392" wght="4.2814340525264427" />
        <Con id="1998" src="3" tgt="348" wght="5" />
        <Con id="1999" src="12" tgt="224" wght="2.66945334815518" />
        <Con id="2009" src="1110" tgt="65" wght="-4.6445071814542525" />
        <Con id="2010" src="1226" tgt="65" wght="-5" />
        <Con id="2018" src="8" tgt="65" wght="4.8715455393561582" />
        <Con id="2028" src="9" tgt="224" wght="-2.0519541274150788" />
        <Con id="2030" src="9" tgt="1392" wght="-1.1024636613920189" />
        <Con id="2046" src="348" tgt="65" wght="0.10923320473432008" />
        <Con id="2068" src="1110" tgt="1405" wght="-3.0889962936064514" />
        <Con id="2081" src="2" tgt="1153" wght="-3.6122458296907118" />
        <Con id="2089" src="1" tgt="1153" wght="-4.9609078249451883" />
        <Con id="2099" src="7" tgt="1153" wght="0.65460064448416233" />
        <Con id="2102" src="9" tgt="1405" wght="1.6812236391252837" />
        <Con id="2104" src="5" tgt="1405" wght="-3.463738710831644" />
        <Con id="2106" src="0" tgt="224" wght="-5" />
        <Con id="2118" src="3" tgt="1392" wght="4.0342277711720982" />
        <Con id="2152" src="4" tgt="348" wght="0.22781691853324182" />
        <Con id="2153" src="3" tgt="1226" wght="-4.9883226863915" />
        <Con id="2154" src="4" tgt="224" wght="3.3349857497779336" />
        <Con id="2161" src="267" tgt="1153" wght="-3.7288451713873427" />
        <Con id="2182" src="10" tgt="1110" wght="-3.5980692785233259" />
        <Con id="2195" src="10" tgt="224" wght="-1.0362206575462491" />
        <Con id="2202" src="1405" tgt="160" wght="-0.86932901971359311" />
        <Con id="2216" src="348" tgt="230" wght="2.9783029643000547" />
        <Con id="2225" src="1392" tgt="1405" wght="4.1613707924739218" />
        <Con id="2231" src="12" tgt="1110" wght="-1.3337228598950448" />
        <Con id="2240" src="8" tgt="1226" wght="1.7232351122662934" />
        <Con id="2251" src="7" tgt="348" wght="0.56826066165861744" />
        <Con id="2253" src="1153" tgt="1392" wght="-0.42615167432480688" />
        <Con id="2282" src="7" tgt="230" wght="1.0519021982327104" />
        <Con id="2326" src="10" tgt="1226" wght="-3.102375715719683" />
        <Con id="2344" src="8" tgt="1392" wght="-2.117046521015201" />
        <Con id="2365" src="1153" tgt="348" wght="-0.0697753495065041" />
        <Con id="2376" src="12" tgt="230" wght="2.1583277134985881" />
        <Con id="2382" src="1" tgt="65" wght="-4.9613655172288418" />
        <Con id="2411" src="1405" tgt="14" wght="0.92568112276239034" />
        <Con id="2446" src="3" tgt="1153" wght="-0.17508347213039915" />
        <Con id="2447" src="230" tgt="160" wght="0.5628200684801441" />
        <Con id="2532" src="1392" tgt="13" wght="-0.62574890568067132" />
        <Con id="2596" src="2" tgt="2595" wght="1.9591951541537878" />
        <Con id="2597" src="2595" tgt="13" wght="1.19840520074439" />
        <Con id="2688" src="2595" tgt="1405" wght="-4.9623051767501352" />
        <Con id="2711" src="230" tgt="2595" wght="0.77455417052447584" />
        <Con id="2894" src="0" tgt="2595" wght="2.8621763162683838" />
        <Con id="2947" src="5" tgt="2595" wght="-0.73653181448919725" />
        <Con id="3043" src="348" tgt="2595" wght="-2.5124832490443234" />
        <Con id="3144" src="2" tgt="13" wght="0.25510712211488318" />
        <Con id="3219" src="2595" tgt="65" wght="-3.0846861849407694" />
        <Con id="3381" src="348" tgt="3380" wght="-4.9564339971034492" />
        <Con id="3437" src="3380" tgt="65" wght="0.15895334592575161" />
        <Con id="3462" src="1392" tgt="3380" wght="0.15394929845319694" />
        <Con id="3483" src="1" tgt="3482" wght="1.6537324045645982" />
        <Con id="3521" src="1226" tgt="3520" wght="-4.2723663148302613" />
        <Con id="3529" src="3520" tgt="13" wght="2.3585603333955794" />
        <Con id="3545" src="267" tgt="3544" wght="-0.90215441228317617" />
        <Con id="3546" src="3544" tgt="348" wght="4.8346474523788459" />
        <Con id="3568" src="3520" tgt="3544" wght="-4.26168180757016" />
        <Con id="3588" src="3544" tgt="3482" wght="4.6915910576604709" />
        <Con id="3601" src="6" tgt="3482" wght="-3.3939532006931068" />
        <Con id="3612" src="1" tgt="3380" wght="-4.1722668013380639" />
        <Con id="3619" src="3544" tgt="3380" wght="0.77366593016597374" />
        <Con id="3627" src="3482" tgt="14" wght="1.6040258862281178" />
        <Con id="3670" src="2" tgt="3380" wght="-1.9474613207011382" />
        <Con id="3692" src="2" tgt="3520" wght="1.6340021252402914" />
        <Con id="3745" src="3" tgt="3380" wght="2.6930226310213303" />
        <Con id="3748" src="3746" tgt="13" wght="4.3747027715825" />
        <Con id="3780" src="3746" tgt="1226" wght="1.6299338529597289" />
        <Con id="3805" src="3482" tgt="224" wght="-0.19759286608169116" />
        <Con id="3875" src="6" tgt="13" wght="-3.9728537206823074" />
        <Con id="3989" src="3746" tgt="3482" wght="-5" />
        <Con id="3995" src="3993" tgt="2595" wght="-1.8728600571166072" />
        <Con id="4075" src="1" tgt="3746" wght="-3.3553145590243258" />
        <Con id="4094" src="3520" tgt="4093" wght="-0.65405186522347414" />
        <Con id="4095" src="4093" tgt="224" wght="5" />
        <Con id="4112" src="4093" tgt="13" wght="3.5139064413614305" />
        <Con id="4219" src="4093" tgt="65" wght="-3.1422489913374188" />
        <Con id="4282" src="3993" tgt="1110" wght="3.527771688221224" />
        <Con id="4302" src="9" tgt="4301" wght="4.5234879804775119" />
        <Con id="4330" src="11" tgt="3993" wght="-5" />
        <Con id="4340" src="3" tgt="4339" wght="-4.9421942387922968" />
        <Con id="4341" src="4339" tgt="230" wght="1.996064334898578" />
        <Con id="4343" src="11" tgt="4093" wght="3.2893750031614144" />
        <Con id="4384" src="1405" tgt="4093" wght="0.21606068921051375" />
        <Con id="4416" src="3" tgt="4415" wght="-5" />
        <Con id="4417" src="4415" tgt="224" wght="4.440749853596186" />
        <Con id="4443" src="2595" tgt="4093" wght="2.906799913055663" />
        <Con id="4469" src="4301" tgt="348" wght="4.9951830580838026" />
        <Con id="4480" src="4301" tgt="4339" wght="1.0753908051782413" />
        <Con id="4482" src="4301" tgt="13" wght="-1.752230996130995" />
        <Con id="4483" src="12" tgt="3746" wght="1.25419500813607" />
        <Con id="4582" src="3482" tgt="4581" wght="-5" />
        <Con id="4583" src="4581" tgt="1110" wght="4.826091233722182" />
        <Con id="4590" src="3993" tgt="224" wght="2.97845012403588" />
        <Con id="4614" src="4339" tgt="224" wght="3.3688465525499307" />
        <Con id="4676" src="1153" tgt="4339" wght="-4.5175577589231253" />
        <Con id="4684" src="4415" tgt="348" wght="-1.3795757923635494" />
        <Con id="4738" src="1" tgt="4415" wght="3.372252677059572" />
        <Con id="4819" src="4301" tgt="3993" wght="-0.86047836650758391" />
        <Con id="4899" src="4415" tgt="1153" wght="2.1225880707761444" />
        <Con id="4929" src="4581" tgt="3993" wght="4.2647281521931291" />
        <Con id="4978" src="1226" tgt="4977" wght="-3.2478762690419405" />
        <Con id="4979" src="4977" tgt="3380" wght="-0.38661992158294389" />
        <Con id="5075" src="10" tgt="4301" wght="0.12645453350026223" />
        <Con id="5094" src="1110" tgt="5093" wght="-5" />
        <Con id="5095" src="5093" tgt="230" wght="5" />
        <Con id="5205" src="5" tgt="4093" wght="1.0797875023658969" />
        <Con id="5255" src="4977" tgt="2595" wght="2.3181425998519969" />
        <Con id="5263" src="3520" tgt="4977" wght="4.9824705400690537" />
        <Con id="5371" src="11" tgt="4581" wght="-3.6890887949382716" />
        <Con id="5410" src="4" tgt="5409" wght="5" />
        <Con id="5411" src="5409" tgt="1110" wght="4.9985635064329177" />
        <Con id="5423" src="3746" tgt="5093" wght="-2.1633056069818362" />
        <Con id="5446" src="5093" tgt="4339" wght="-2.8687212499062262" />
        <Con id="5569" src="1" tgt="5568" wght="-0.36450647286893184" />
        <Con id="5570" src="5568" tgt="224" wght="-4.3877741368487477" />
        <Con id="5639" src="1" tgt="5409" wght="-1.6573450108990073" />
        <Con id="5714" src="3380" tgt="5713" wght="-3.9345717387298653" />
        <Con id="5715" src="5713" tgt="1405" wght="5" />
        <Con id="5737" src="3482" tgt="4977" wght="-2.8974709510694261" />
        <Con id="5860" src="3993" tgt="5568" wght="4.0813458493133234" />
        <Con id="5881" src="10" tgt="5409" wght="-4.3161843047081785" />
        <Con id="6055" src="4301" tgt="6054" wght="-0.98485698513757225" />
        <Con id="6056" src="6054" tgt="1226" wght="4.9862500817015611" />
        <Con id="6124" src="6054" tgt="5093" wght="2.2340551316989088" />
        <Con id="6159" src="1226" tgt="5713" wght="-0.10149188805371523" />
        <Con id="6191" src="3" tgt="6190" wght="-4.0434688120720326" />
        <Con id="6192" src="6190" tgt="3993" wght="5" />
        <Con id="6259" src="0" tgt="6258" wght="-1.9147325322794952" />
        <Con id="6260" src="6258" tgt="13" wght="5" />
      </Connections>
    </Network>
  </Networks>
</Root>