<?xml version="1.0" encoding="utf-8"?>
<Root>
  <ActivationFunctions>
    <Fn id="0" name="SteepenedSigmoid" prob="1" />
  </ActivationFunctions>
  <Networks>
    <Network id="80116" birthGen="378" fitness="63977.9765625">
      <Nodes>
        <Node type="bias" id="0" />
        <Node type="in" id="1" />
        <Node type="in" id="2" />
        <Node type="in" id="3" />
        <Node type="in" id="4" />
        <Node type="in" id="5" />
        <Node type="in" id="6" />
        <Node type="in" id="7" />
        <Node type="in" id="8" />
        <Node type="in" id="9" />
        <Node type="in" id="10" />
        <Node type="in" id="11" />
        <Node type="in" id="12" />
        <Node type="out" id="13" />
        <Node type="out" id="14" />
        <Node type="hid" id="65" />
        <Node type="hid" id="160" />
        <Node type="hid" id="187" />
        <Node type="hid" id="190" />
        <Node type="hid" id="706" />
        <Node type="hid" id="717" />
        <Node type="hid" id="752" />
        <Node type="hid" id="909" />
        <Node type="hid" id="939" />
      </Nodes>
      <Connections>
        <Con id="21" src="3" tgt="13" wght="4.5161855668759845" />
        <Con id="44" src="5" tgt="13" wght="2.0646454912233403" />
        <Con id="45" src="4" tgt="13" wght="5" />
        <Con id="49" src="1" tgt="13" wght="4.0843856472508016" />
        <Con id="50" src="2" tgt="13" wght="-1.3275248971579656" />
        <Con id="63" src="4" tgt="14" wght="1.2482752600363292" />
        <Con id="64" src="6" tgt="13" wght="1.6415174814458198" />
        <Con id="66" src="11" tgt="65" wght="1.8155891979536025" />
        <Con id="67" src="65" tgt="13" wght="-4.980900445850093" />
        <Con id="71" src="8" tgt="14" wght="-1.6766544452964822" />
        <Con id="74" src="7" tgt="13" wght="-4.29299132982029" />
        <Con id="161" src="2" tgt="160" wght="-0.46789974560902908" />
        <Con id="162" src="160" tgt="13" wght="-4.0371334314782041" />
        <Con id="172" src="65" tgt="160" wght="1.5309146459886775" />
        <Con id="174" src="5" tgt="65" wght="2.9083302694718074" />
        <Con id="177" src="6" tgt="65" wght="1.9952197525667643" />
        <Con id="180" src="160" tgt="14" wght="1.9758826321178529" />
        <Con id="181" src="12" tgt="65" wght="-4.9317150938271395" />
        <Con id="186" src="4" tgt="65" wght="-4.99726700057851" />
        <Con id="188" src="2" tgt="187" wght="-1.0107642050037013" />
        <Con id="192" src="190" tgt="13" wght="3.2548411503566075" />
        <Con id="193" src="8" tgt="160" wght="-4.9672221453485408" />
        <Con id="198" src="0" tgt="160" wght="-2.5363872446198061" />
        <Con id="204" src="10" tgt="65" wght="-2.7146339223541216" />
        <Con id="221" src="5" tgt="160" wght="-3.5818403223746511" />
        <Con id="239" src="187" tgt="190" wght="0.20711194663619609" />
        <Con id="292" src="6" tgt="187" wght="0.67095409027416841" />
        <Con id="366" src="11" tgt="187" wght="0.46152677343872478" />
        <Con id="381" src="1" tgt="65" wght="2.5895575709621821" />
        <Con id="385" src="0" tgt="187" wght="-4.066714926328153" />
        <Con id="386" src="11" tgt="160" wght="2.9777656898989759" />
        <Con id="469" src="8" tgt="187" wght="0.60102232496962782" />
        <Con id="518" src="187" tgt="65" wght="0.076884717161257221" />
        <Con id="635" src="7" tgt="65" wght="0.658561416502367" />
        <Con id="644" src="8" tgt="13" wght="-1.9745039188724014" />
        <Con id="648" src="1" tgt="160" wght="-3.9319703407569815" />
        <Con id="661" src="9" tgt="65" wght="-3.3161229732332878" />
        <Con id="683" src="3" tgt="190" wght="0.30030035159014762" />
        <Con id="684" src="1" tgt="187" wght="2.9716474606803089" />
        <Con id="688" src="187" tgt="13" wght="-4.1933320447101892" />
        <Con id="704" src="12" tgt="187" wght="4.30309635952958" />
        <Con id="707" src="3" tgt="706" wght="-4.0523120874804839" />
        <Con id="708" src="706" tgt="187" wght="5" />
        <Con id="718" src="160" tgt="717" wght="-1.6394409298454904" />
        <Con id="719" src="717" tgt="190" wght="-2.1794535871073308" />
        <Con id="737" src="8" tgt="190" wght="0.0796553073450923" />
        <Con id="753" src="187" tgt="752" wght="-4.0744452777614564" />
        <Con id="754" src="752" tgt="160" wght="5" />
        <Con id="766" src="7" tgt="706" wght="-0.97433068092671" />
        <Con id="782" src="6" tgt="717" wght="-1.9182089802359845" />
        <Con id="786" src="10" tgt="190" wght="-0.36523660603295649" />
        <Con id="792" src="2" tgt="717" wght="2.3363588705582061" />
        <Con id="802" src="10" tgt="717" wght="-2.3819404580617816" />
        <Con id="807" src="8" tgt="706" wght="1.1427897110890279" />
        <Con id="816" src="752" tgt="13" wght="-3.5443719383329153" />
        <Con id="854" src="706" tgt="717" wght="2.6687977124709477" />
        <Con id="910" src="0" tgt="909" wght="3.657516882894237" />
        <Con id="911" src="909" tgt="13" wght="4.9665499130910069" />
        <Con id="940" src="6" tgt="939" wght="3.8195627690473462" />
        <Con id="941" src="939" tgt="160" wght="3.3152510365319903" />
        <Con id="950" src="5" tgt="706" wght="2.9288488469488234" />
        <Con id="970" src="187" tgt="160" wght="-1.161642207062284" />
        <Con id="997" src="706" tgt="909" wght="4.7815724229440093" />
        <Con id="1029" src="3" tgt="909" wght="-1.6402105708148604" />
        <Con id="1079" src="1" tgt="909" wght="-2.4911891809817019" />
        <Con id="1100" src="160" tgt="909" wght="-2.4235184362879219" />
        <Con id="1179" src="0" tgt="706" wght="-4.9830151302898757" />
        <Con id="1209" src="10" tgt="752" wght="2.3765509021144484" />
        <Con id="1221" src="9" tgt="706" wght="2.4333298485726118" />
      </Connections>
    </Network>
    <Network id="80045" birthGen="377" fitness="64209.625">
      <Nodes>
        <Node type="bias" id="0" />
        <Node type="in" id="1" />
        <Node type="in" id="2" />
        <Node type="in" id="3" />
        <Node type="in" id="4" />
        <Node type="in" id="5" />
        <Node type="in" id="6" />
        <Node type="in" id="7" />
        <Node type="in" id="8" />
        <Node type="in" id="9" />
        <Node type="in" id="10" />
        <Node type="in" id="11" />
        <Node type="in" id="12" />
        <Node type="out" id="13" />
        <Node type="out" id="14" />
        <Node type="hid" id="65" />
        <Node type="hid" id="160" />
        <Node type="hid" id="187" />
        <Node type="hid" id="190" />
        <Node type="hid" id="706" />
        <Node type="hid" id="717" />
        <Node type="hid" id="752" />
        <Node type="hid" id="909" />
        <Node type="hid" id="939" />
      </Nodes>
      <Connections>
        <Con id="21" src="3" tgt="13" wght="4.5161855668759845" />
        <Con id="44" src="5" tgt="13" wght="2.0646454912233403" />
        <Con id="45" src="4" tgt="13" wght="5" />
        <Con id="49" src="1" tgt="13" wght="4.0843856472508016" />
        <Con id="50" src="2" tgt="13" wght="-1.3450395856511403" />
        <Con id="63" src="4" tgt="14" wght="1.2482752600363292" />
        <Con id="64" src="6" tgt="13" wght="1.6415174814458198" />
        <Con id="66" src="11" tgt="65" wght="1.8155891979536025" />
        <Con id="67" src="65" tgt="13" wght="-4.980900445850093" />
        <Con id="71" src="8" tgt="14" wght="-1.6766544452964822" />
        <Con id="74" src="7" tgt="13" wght="-4.29299132982029" />
        <Con id="161" src="2" tgt="160" wght="-0.46789974560902908" />
        <Con id="162" src="160" tgt="13" wght="-4.0371334314782041" />
        <Con id="172" src="65" tgt="160" wght="1.5309146459886775" />
        <Con id="174" src="5" tgt="65" wght="2.888888992343273" />
        <Con id="177" src="6" tgt="65" wght="1.9952197525667643" />
        <Con id="180" src="160" tgt="14" wght="1.9758826321178529" />
        <Con id="181" src="12" tgt="65" wght="-4.9317150938271395" />
        <Con id="186" src="4" tgt="65" wght="-4.99726700057851" />
        <Con id="188" src="2" tgt="187" wght="-1.0129613379837286" />
        <Con id="192" src="190" tgt="13" wght="3.2281890685227297" />
        <Con id="193" src="8" tgt="160" wght="-4.9809758504249757" />
        <Con id="198" src="0" tgt="160" wght="-2.5363872446198061" />
        <Con id="204" src="10" tgt="65" wght="-2.7146339223541216" />
        <Con id="221" src="5" tgt="160" wght="-3.5818403223746511" />
        <Con id="239" src="187" tgt="190" wght="0.21610667956844309" />
        <Con id="292" src="6" tgt="187" wght="0.67095409027416841" />
        <Con id="366" src="11" tgt="187" wght="0.47492770435352888" />
        <Con id="381" src="1" tgt="65" wght="2.5965126729896277" />
        <Con id="385" src="0" tgt="187" wght="-4.066714926328153" />
        <Con id="386" src="11" tgt="160" wght="2.9777656898989759" />
        <Con id="469" src="8" tgt="187" wght="0.60102232496962782" />
        <Con id="518" src="187" tgt="65" wght="0.076884717161257221" />
        <Con id="635" src="7" tgt="65" wght="0.658561416502367" />
        <Con id="644" src="8" tgt="13" wght="-1.9745039188724014" />
        <Con id="648" src="1" tgt="160" wght="-3.9319703407569815" />
        <Con id="661" src="9" tgt="65" wght="-3.3161229732332878" />
        <Con id="683" src="3" tgt="190" wght="0.30030035159014762" />
        <Con id="684" src="1" tgt="187" wght="2.9728400767243568" />
        <Con id="688" src="187" tgt="13" wght="-4.1933320447101892" />
        <Con id="704" src="12" tgt="187" wght="4.30309635952958" />
        <Con id="707" src="3" tgt="706" wght="-4.0523120874804839" />
        <Con id="708" src="706" tgt="187" wght="5" />
        <Con id="718" src="160" tgt="717" wght="-1.6394409298454904" />
        <Con id="719" src="717" tgt="190" wght="-2.1794535871073308" />
        <Con id="753" src="187" tgt="752" wght="-4.0744452777614564" />
        <Con id="754" src="752" tgt="160" wght="5" />
        <Con id="766" src="7" tgt="706" wght="0.0935154668400866" />
        <Con id="782" src="6" tgt="717" wght="-1.9182089802359845" />
        <Con id="786" src="10" tgt="190" wght="-0.36523660603295649" />
        <Con id="792" src="2" tgt="717" wght="2.3363588705582061" />
        <Con id="802" src="10" tgt="717" wght="-2.3819404580617816" />
        <Con id="807" src="8" tgt="706" wght="0.84897215490636113" />
        <Con id="816" src="752" tgt="13" wght="-3.538374420047036" />
        <Con id="910" src="0" tgt="909" wght="3.657516882894237" />
        <Con id="911" src="909" tgt="13" wght="4.9665499130910069" />
        <Con id="940" src="6" tgt="939" wght="3.8195627690473462" />
        <Con id="941" src="939" tgt="160" wght="3.3152510365319903" />
        <Con id="950" src="5" tgt="706" wght="2.9288488469488234" />
        <Con id="970" src="187" tgt="160" wght="-1.161642207062284" />
        <Con id="997" src="706" tgt="909" wght="4.7815724229440093" />
        <Con id="1029" src="3" tgt="909" wght="-1.63331734963925" />
        <Con id="1079" src="1" tgt="909" wght="-2.9026225302368402" />
        <Con id="1100" src="160" tgt="909" wght="-2.4076287987520595" />
        <Con id="1179" src="0" tgt="706" wght="-4.9830151302898757" />
        <Con id="1209" src="10" tgt="752" wght="2.3711794355605593" />
        <Con id="1221" src="9" tgt="706" wght="2.4333298485726118" />
      </Connections>
    </Network>
    <Network id="79985" birthGen="377" fitness="63921.84765625">
      <Nodes>
        <Node type="bias" id="0" />
        <Node type="in" id="1" />
        <Node type="in" id="2" />
        <Node type="in" id="3" />
        <Node type="in" id="4" />
        <Node type="in" id="5" />
        <Node type="in" id="6" />
        <Node type="in" id="7" />
        <Node type="in" id="8" />
        <Node type="in" id="9" />
        <Node type="in" id="10" />
        <Node type="in" id="11" />
        <Node type="in" id="12" />
        <Node type="out" id="13" />
        <Node type="out" id="14" />
        <Node type="hid" id="65" />
        <Node type="hid" id="160" />
        <Node type="hid" id="187" />
        <Node type="hid" id="190" />
        <Node type="hid" id="706" />
        <Node type="hid" id="717" />
        <Node type="hid" id="752" />
        <Node type="hid" id="909" />
        <Node type="hid" id="939" />
      </Nodes>
      <Connections>
        <Con id="21" src="3" tgt="13" wght="4.5161855668759845" />
        <Con id="44" src="5" tgt="13" wght="2.0646454912233403" />
        <Con id="45" src="4" tgt="13" wght="5" />
        <Con id="49" src="1" tgt="13" wght="4.0843856472508016" />
        <Con id="50" src="2" tgt="13" wght="-1.3275248971579656" />
        <Con id="63" src="4" tgt="14" wght="1.2482752600363292" />
        <Con id="64" src="6" tgt="13" wght="1.6415174814458198" />
        <Con id="66" src="11" tgt="65" wght="1.8149880421245943" />
        <Con id="67" src="65" tgt="13" wght="-4.980900445850093" />
        <Con id="71" src="8" tgt="14" wght="-1.6640991635397444" />
        <Con id="74" src="7" tgt="13" wght="-4.29299132982029" />
        <Con id="161" src="2" tgt="160" wght="-0.46789974560902908" />
        <Con id="162" src="160" tgt="13" wght="-4.0371334314782041" />
        <Con id="172" src="65" tgt="160" wght="1.5309146459886775" />
        <Con id="174" src="5" tgt="65" wght="2.9083302694718074" />
        <Con id="177" src="6" tgt="65" wght="1.9952197525667643" />
        <Con id="180" src="160" tgt="14" wght="1.9758826321178529" />
        <Con id="181" src="12" tgt="65" wght="-4.9317150938271395" />
        <Con id="186" src="4" tgt="65" wght="-4.99726700057851" />
        <Con id="188" src="2" tgt="187" wght="-1.0107642050037013" />
        <Con id="192" src="190" tgt="13" wght="3.2548411503566075" />
        <Con id="193" src="8" tgt="160" wght="-4.9809758504249757" />
        <Con id="198" src="0" tgt="160" wght="-2.5363872446198061" />
        <Con id="204" src="10" tgt="65" wght="-2.7146339223541216" />
        <Con id="221" src="5" tgt="160" wght="-3.5818403223746511" />
        <Con id="239" src="187" tgt="190" wght="0.20711194663619609" />
        <Con id="292" src="6" tgt="187" wght="0.67095409027416841" />
        <Con id="366" src="11" tgt="187" wght="0.46152677343872478" />
        <Con id="381" src="1" tgt="65" wght="2.5895575709621821" />
        <Con id="385" src="0" tgt="187" wght="-4.066714926328153" />
        <Con id="386" src="11" tgt="160" wght="2.9777656898989759" />
        <Con id="469" src="8" tgt="187" wght="0.6177999022140469" />
        <Con id="518" src="187" tgt="65" wght="0.076884717161257221" />
        <Con id="635" src="7" tgt="65" wght="0.658561416502367" />
        <Con id="644" src="8" tgt="13" wght="-1.9745039188724014" />
        <Con id="648" src="1" tgt="160" wght="-3.9319703407569815" />
        <Con id="661" src="9" tgt="65" wght="-3.3161229732332878" />
        <Con id="683" src="3" tgt="190" wght="0.30030035159014762" />
        <Con id="684" src="1" tgt="187" wght="2.9716474606803089" />
        <Con id="688" src="187" tgt="13" wght="-4.1933320447101892" />
        <Con id="704" src="12" tgt="187" wght="4.30309635952958" />
        <Con id="707" src="3" tgt="706" wght="-4.0523120874804839" />
        <Con id="708" src="706" tgt="187" wght="5" />
        <Con id="718" src="160" tgt="717" wght="-1.6394409298454904" />
        <Con id="719" src="717" tgt="190" wght="-2.1794535871073308" />
        <Con id="753" src="187" tgt="752" wght="-4.0479460013415212" />
        <Con id="754" src="752" tgt="160" wght="5" />
        <Con id="766" src="7" tgt="706" wght="-0.97433068092671" />
        <Con id="782" src="6" tgt="717" wght="-1.9291766843880558" />
        <Con id="786" src="10" tgt="190" wght="-0.36523660603295649" />
        <Con id="792" src="2" tgt="717" wght="2.4267048836690615" />
        <Con id="802" src="10" tgt="717" wght="-2.3819404580617816" />
        <Con id="807" src="8" tgt="706" wght="0.84897215490636113" />
        <Con id="816" src="752" tgt="13" wght="-3.5443719383329153" />
        <Con id="854" src="706" tgt="717" wght="2.6687977124709477" />
        <Con id="910" src="0" tgt="909" wght="3.657516882894237" />
        <Con id="911" src="909" tgt="13" wght="4.9665499130910069" />
        <Con id="940" src="6" tgt="939" wght="3.8195627690473462" />
        <Con id="941" src="939" tgt="160" wght="3.3152510365319903" />
        <Con id="950" src="5" tgt="706" wght="2.9288488469488234" />
        <Con id="970" src="187" tgt="160" wght="-1.161642207062284" />
        <Con id="997" src="706" tgt="909" wght="4.7815724229440093" />
        <Con id="1029" src="3" tgt="909" wght="-1.6402105708148604" />
        <Con id="1079" src="1" tgt="909" wght="-2.4911891809817019" />
        <Con id="1100" src="160" tgt="909" wght="-2.4235184362879219" />
        <Con id="1179" src="0" tgt="706" wght="-4.9830151302898757" />
        <Con id="1209" src="10" tgt="752" wght="2.3708079216863762" />
        <Con id="1221" src="9" tgt="706" wght="2.4333298485726118" />
      </Connections>
    </Network>
    <Network id="80228" birthGen="378" fitness="107419.0703125">
      <Nodes>
        <Node type="bias" id="0" />
        <Node type="in" id="1" />
        <Node type="in" id="2" />
        <Node type="in" id="3" />
        <Node type="in" id="4" />
        <Node type="in" id="5" />
        <Node type="in" id="6" />
        <Node type="in" id="7" />
        <Node type="in" id="8" />
        <Node type="in" id="9" />
        <Node type="in" id="10" />
        <Node type="in" id="11" />
        <Node type="in" id="12" />
        <Node type="out" id="13" />
        <Node type="out" id="14" />
        <Node type="hid" id="65" />
        <Node type="hid" id="160" />
        <Node type="hid" id="190" />
        <Node type="hid" id="224" />
        <Node type="hid" id="230" />
        <Node type="hid" id="267" />
        <Node type="hid" id="348" />
        <Node type="hid" id="1110" />
        <Node type="hid" id="1153" />
        <Node type="hid" id="1226" />
        <Node type="hid" id="1392" />
        <Node type="hid" id="1405" />
        <Node type="hid" id="1538" />
        <Node type="hid" id="1573" />
      </Nodes>
      <Connections>
        <Con id="21" src="3" tgt="13" wght="0.65897045556174727" />
        <Con id="43" src="9" tgt="13" wght="5" />
        <Con id="44" src="5" tgt="13" wght="-4.98905380823975" />
        <Con id="50" src="2" tgt="13" wght="-3.440801920841186" />
        <Con id="63" src="4" tgt="14" wght="1.5436597913881764" />
        <Con id="64" src="6" tgt="13" wght="1.5185834865344001" />
        <Con id="66" src="11" tgt="65" wght="-0.85836776446509433" />
        <Con id="67" src="65" tgt="13" wght="-1.8067990547775206" />
        <Con id="71" src="8" tgt="14" wght="-1.481178152920535" />
        <Con id="74" src="7" tgt="13" wght="1.2001743469644732" />
        <Con id="172" src="65" tgt="160" wght="1.9689317989584529" />
        <Con id="191" src="160" tgt="190" wght="1.7818698223621923" />
        <Con id="192" src="190" tgt="13" wght="1.0533352284653508" />
        <Con id="193" src="8" tgt="160" wght="-4.9709411017697773" />
        <Con id="221" src="5" tgt="160" wght="-0.7007846474577778" />
        <Con id="226" src="224" tgt="160" wght="-0.95842385978713929" />
        <Con id="232" src="230" tgt="224" wght="5" />
        <Con id="257" src="5" tgt="190" wght="2.3790433105496245" />
        <Con id="268" src="6" tgt="267" wght="-2.4937188789384872" />
        <Con id="349" src="2" tgt="348" wght="-3.3931162849969718" />
        <Con id="392" src="9" tgt="160" wght="2.74694656911958" />
        <Con id="399" src="3" tgt="224" wght="-4.8263991766110061" />
        <Con id="423" src="9" tgt="230" wght="-4.9594716442011348" />
        <Con id="447" src="2" tgt="224" wght="1.1729309055954218" />
        <Con id="504" src="267" tgt="190" wght="-4.6682450165661216" />
        <Con id="643" src="10" tgt="14" wght="3.4426080481072945" />
        <Con id="644" src="8" tgt="13" wght="1.6360366105350157" />
        <Con id="648" src="1" tgt="160" wght="-1.5288415873790284" />
        <Con id="651" src="6" tgt="224" wght="2.3482278981486235" />
        <Con id="656" src="1" tgt="13" wght="4.12193305169484" />
        <Con id="671" src="7" tgt="65" wght="1.8546895496547222" />
        <Con id="682" src="11" tgt="267" wght="3.324149529688095" />
        <Con id="692" src="190" tgt="14" wght="-4.9638328914014185" />
        <Con id="808" src="5" tgt="65" wght="1.6001623422694347" />
        <Con id="870" src="0" tgt="160" wght="-2.4618644034730837" />
        <Con id="896" src="4" tgt="230" wght="-3.5278585160004274" />
        <Con id="953" src="5" tgt="230" wght="2.6225963786662509" />
        <Con id="1103" src="3" tgt="230" wght="-3.8731969892978668" />
        <Con id="1111" src="348" tgt="1110" wght="4.6718524410683751" />
        <Con id="1112" src="1110" tgt="230" wght="4.9551304920515946" />
        <Con id="1133" src="1110" tgt="160" wght="1.2325767908154213" />
        <Con id="1145" src="11" tgt="348" wght="2.7451958190862396" />
        <Con id="1155" src="1153" tgt="230" wght="5" />
        <Con id="1188" src="5" tgt="1110" wght="-1.2963853970872092" />
        <Con id="1220" src="4" tgt="348" wght="-2.6821706577931161" />
        <Con id="1227" src="6" tgt="1226" wght="-2.3589951439796391" />
        <Con id="1228" src="1226" tgt="1153" wght="4.4938837410882115" />
        <Con id="1267" src="10" tgt="348" wght="-4.33748472481966" />
        <Con id="1311" src="1226" tgt="160" wght="-1.2384553160518408" />
        <Con id="1393" src="230" tgt="1392" wght="1.3955795524769992" />
        <Con id="1394" src="1392" tgt="65" wght="4.721317425647193" />
        <Con id="1406" src="10" tgt="1405" wght="4.7949494514614344" />
        <Con id="1407" src="1405" tgt="65" wght="-3.1015854235738516" />
        <Con id="1431" src="11" tgt="1110" wght="2.6929999593826541" />
        <Con id="1539" src="11" tgt="1538" wght="3.3504545156249446" />
        <Con id="1540" src="1538" tgt="13" wght="5" />
        <Con id="1574" src="8" tgt="1573" wght="0.53320079828535871" />
        <Con id="1575" src="1573" tgt="224" wght="3.3041835668291673" />
      </Connections>
    </Network>
    <Network id="80162" birthGen="378" fitness="107869.6953125">
      <Nodes>
        <Node type="bias" id="0" />
        <Node type="in" id="1" />
        <Node type="in" id="2" />
        <Node type="in" id="3" />
        <Node type="in" id="4" />
        <Node type="in" id="5" />
        <Node type="in" id="6" />
        <Node type="in" id="7" />
        <Node type="in" id="8" />
        <Node type="in" id="9" />
        <Node type="in" id="10" />
        <Node type="in" id="11" />
        <Node type="in" id="12" />
        <Node type="out" id="13" />
        <Node type="out" id="14" />
        <Node type="hid" id="65" />
        <Node type="hid" id="160" />
        <Node type="hid" id="190" />
        <Node type="hid" id="224" />
        <Node type="hid" id="230" />
        <Node type="hid" id="267" />
        <Node type="hid" id="348" />
        <Node type="hid" id="1110" />
        <Node type="hid" id="1153" />
        <Node type="hid" id="1226" />
        <Node type="hid" id="1392" />
        <Node type="hid" id="1405" />
      </Nodes>
      <Connections>
        <Con id="21" src="3" tgt="13" wght="1.6514107373439653" />
        <Con id="43" src="9" tgt="13" wght="4.8554863849354728" />
        <Con id="44" src="5" tgt="13" wght="-4.254850655700408" />
        <Con id="50" src="2" tgt="13" wght="-3.73583599724956" />
        <Con id="63" src="4" tgt="14" wght="2.8310584907135512" />
        <Con id="64" src="6" tgt="13" wght="1.4734907480373467" />
        <Con id="66" src="11" tgt="65" wght="-0.85836776446509433" />
        <Con id="67" src="65" tgt="13" wght="-1.8401728306326623" />
        <Con id="71" src="8" tgt="14" wght="-1.4582867330269973" />
        <Con id="74" src="7" tgt="13" wght="0.4283832580729951" />
        <Con id="172" src="65" tgt="160" wght="1.5459156064915598" />
        <Con id="191" src="160" tgt="190" wght="2.0301477515845652" />
        <Con id="192" src="190" tgt="13" wght="-0.93663028348251576" />
        <Con id="193" src="8" tgt="160" wght="-4.2554445603446558" />
        <Con id="221" src="5" tgt="160" wght="0.3021409926241585" />
        <Con id="226" src="224" tgt="160" wght="-0.55373693081280861" />
        <Con id="232" src="230" tgt="224" wght="4.8392715777192166" />
        <Con id="257" src="5" tgt="190" wght="2.3864426976302626" />
        <Con id="268" src="6" tgt="267" wght="-2.4937188789384872" />
        <Con id="349" src="2" tgt="348" wght="-3.7794569295762495" />
        <Con id="392" src="9" tgt="160" wght="2.7183804129713192" />
        <Con id="399" src="3" tgt="224" wght="-0.065195572464298288" />
        <Con id="423" src="9" tgt="230" wght="-4.3607685019878915" />
        <Con id="447" src="2" tgt="224" wght="3.5751686241960483" />
        <Con id="504" src="267" tgt="190" wght="-4.6534577699816762" />
        <Con id="638" src="11" tgt="230" wght="-3.787306776948657" />
        <Con id="643" src="10" tgt="14" wght="3.3929230804741266" />
        <Con id="644" src="8" tgt="13" wght="4.73006921022323" />
        <Con id="648" src="1" tgt="160" wght="-1.4048393722623587" />
        <Con id="651" src="6" tgt="224" wght="2.583677813261871" />
        <Con id="656" src="1" tgt="13" wght="4.12193305169484" />
        <Con id="661" src="9" tgt="65" wght="3.8309321828643306" />
        <Con id="671" src="7" tgt="65" wght="2.0667700866712537" />
        <Con id="682" src="11" tgt="267" wght="3.3282729691951949" />
        <Con id="692" src="190" tgt="14" wght="-4.9638328914014185" />
        <Con id="732" src="11" tgt="13" wght="3.3238030558445226" />
        <Con id="808" src="5" tgt="65" wght="1.6252481713513645" />
        <Con id="813" src="267" tgt="348" wght="-2.4393996689468622" />
        <Con id="865" src="267" tgt="224" wght="3.680559890344739" />
        <Con id="870" src="0" tgt="160" wght="-2.4618644034730837" />
        <Con id="896" src="4" tgt="230" wght="-3.5118711158769824" />
        <Con id="926" src="8" tgt="224" wght="0.53320079828535871" />
        <Con id="953" src="5" tgt="230" wght="2.8347058288597138" />
        <Con id="1103" src="3" tgt="230" wght="3.8628220757742362" />
        <Con id="1111" src="348" tgt="1110" wght="4.6718524410683751" />
        <Con id="1112" src="1110" tgt="230" wght="4.9548002639167041" />
        <Con id="1133" src="1110" tgt="160" wght="0.56168657039184788" />
        <Con id="1145" src="11" tgt="348" wght="3.071331430368518" />
        <Con id="1155" src="1153" tgt="230" wght="4.787882323502485" />
        <Con id="1188" src="5" tgt="1110" wght="3.8108131475746632" />
        <Con id="1227" src="6" tgt="1226" wght="-2.3367963969509744" />
        <Con id="1228" src="1226" tgt="1153" wght="4.0708685716442377" />
        <Con id="1267" src="10" tgt="348" wght="1.1446173700288824" />
        <Con id="1311" src="1226" tgt="160" wght="1.7702890571927281" />
        <Con id="1393" src="230" tgt="1392" wght="0.56429763949146861" />
        <Con id="1394" src="1392" tgt="65" wght="4.4162513707952833" />
        <Con id="1406" src="10" tgt="1405" wght="-1.5801523020491004" />
        <Con id="1407" src="1405" tgt="65" wght="-2.9442953271791339" />
        <Con id="1431" src="11" tgt="1110" wght="-0.70007399118318647" />
        <Con id="1464" src="1" tgt="1226" wght="2.4063405487686396" />
        <Con id="1531" src="11" tgt="1226" wght="-3.7051592435634082" />
      </Connections>
    </Network>
    <Network id="80142" birthGen="378" fitness="107688.7578125">
      <Nodes>
        <Node type="bias" id="0" />
        <Node type="in" id="1" />
        <Node type="in" id="2" />
        <Node type="in" id="3" />
        <Node type="in" id="4" />
        <Node type="in" id="5" />
        <Node type="in" id="6" />
        <Node type="in" id="7" />
        <Node type="in" id="8" />
        <Node type="in" id="9" />
        <Node type="in" id="10" />
        <Node type="in" id="11" />
        <Node type="in" id="12" />
        <Node type="out" id="13" />
        <Node type="out" id="14" />
        <Node type="hid" id="65" />
        <Node type="hid" id="160" />
        <Node type="hid" id="190" />
        <Node type="hid" id="224" />
        <Node type="hid" id="230" />
        <Node type="hid" id="267" />
        <Node type="hid" id="348" />
        <Node type="hid" id="1110" />
        <Node type="hid" id="1153" />
        <Node type="hid" id="1226" />
        <Node type="hid" id="1392" />
        <Node type="hid" id="1405" />
        <Node type="hid" id="1538" />
        <Node type="hid" id="1573" />
      </Nodes>
      <Connections>
        <Con id="21" src="3" tgt="13" wght="0.65897045556174727" />
        <Con id="43" src="9" tgt="13" wght="5" />
        <Con id="44" src="5" tgt="13" wght="-4.98905380823975" />
        <Con id="50" src="2" tgt="13" wght="-3.2349986494116973" />
        <Con id="63" src="4" tgt="14" wght="1.5436597913881764" />
        <Con id="64" src="6" tgt="13" wght="1.5185834865344001" />
        <Con id="66" src="11" tgt="65" wght="-0.85836776446509433" />
        <Con id="67" src="65" tgt="13" wght="-1.8067990547775206" />
        <Con id="71" src="8" tgt="14" wght="-1.4296218256679203" />
        <Con id="74" src="7" tgt="13" wght="1.2001743469644732" />
        <Con id="172" src="65" tgt="160" wght="1.9689317989584529" />
        <Con id="191" src="160" tgt="190" wght="1.7812270160618668" />
        <Con id="192" src="190" tgt="13" wght="1.0533352284653508" />
        <Con id="193" src="8" tgt="160" wght="-4.9709411017697773" />
        <Con id="221" src="5" tgt="160" wght="-0.7007846474577778" />
        <Con id="226" src="224" tgt="160" wght="-0.95842385978713929" />
        <Con id="232" src="230" tgt="224" wght="5" />
        <Con id="257" src="5" tgt="190" wght="2.3790433105496245" />
        <Con id="268" src="6" tgt="267" wght="-2.4937188789384872" />
        <Con id="349" src="2" tgt="348" wght="-3.4432774178328791" />
        <Con id="392" src="9" tgt="160" wght="2.74694656911958" />
        <Con id="399" src="3" tgt="224" wght="-5" />
        <Con id="423" src="9" tgt="230" wght="-4.9594716442011348" />
        <Con id="447" src="2" tgt="224" wght="1.1729309055954218" />
        <Con id="504" src="267" tgt="190" wght="-4.6682450165661216" />
        <Con id="643" src="10" tgt="14" wght="3.4426080481072945" />
        <Con id="644" src="8" tgt="13" wght="1.6360366105350157" />
        <Con id="648" src="1" tgt="160" wght="-1.5288415873790284" />
        <Con id="651" src="6" tgt="224" wght="2.3482278981486235" />
        <Con id="656" src="1" tgt="13" wght="4.12193305169484" />
        <Con id="671" src="7" tgt="65" wght="1.8546895496547222" />
        <Con id="682" src="11" tgt="267" wght="3.324149529688095" />
        <Con id="692" src="190" tgt="14" wght="-4.9360010766706477" />
        <Con id="808" src="5" tgt="65" wght="1.6001623422694347" />
        <Con id="870" src="0" tgt="160" wght="-2.4618644034730837" />
        <Con id="896" src="4" tgt="230" wght="-3.5278585160004274" />
        <Con id="953" src="5" tgt="230" wght="2.6225963786662509" />
        <Con id="1103" src="3" tgt="230" wght="-3.8731969892978668" />
        <Con id="1111" src="348" tgt="1110" wght="4.6718524410683751" />
        <Con id="1112" src="1110" tgt="230" wght="4.9551304920515946" />
        <Con id="1133" src="1110" tgt="160" wght="1.267683655194918" />
        <Con id="1145" src="11" tgt="348" wght="2.7451958190862396" />
        <Con id="1155" src="1153" tgt="230" wght="5" />
        <Con id="1188" src="5" tgt="1110" wght="0.90832731887656559" />
        <Con id="1220" src="4" tgt="348" wght="-2.6821706577931161" />
        <Con id="1227" src="6" tgt="1226" wght="-2.3589951439796391" />
        <Con id="1228" src="1226" tgt="1153" wght="4.4938837410882115" />
        <Con id="1267" src="10" tgt="348" wght="-4.33748472481966" />
        <Con id="1311" src="1226" tgt="160" wght="0.065353488744362309" />
        <Con id="1393" src="230" tgt="1392" wght="1.3955795524769992" />
        <Con id="1394" src="1392" tgt="65" wght="4.721317425647193" />
        <Con id="1406" src="10" tgt="1405" wght="4.7949494514614344" />
        <Con id="1407" src="1405" tgt="65" wght="-3.1015854235738516" />
        <Con id="1431" src="11" tgt="1110" wght="2.6929999593826541" />
        <Con id="1539" src="11" tgt="1538" wght="3.3504545156249446" />
        <Con id="1540" src="1538" tgt="13" wght="5" />
        <Con id="1574" src="8" tgt="1573" wght="0.53320079828535871" />
        <Con id="1575" src="1573" tgt="224" wght="3.3041835668291673" />
      </Connections>
    </Network>
    <Network id="80174" birthGen="378" fitness="107669.59375">
      <Nodes>
        <Node type="bias" id="0" />
        <Node type="in" id="1" />
        <Node type="in" id="2" />
        <Node type="in" id="3" />
        <Node type="in" id="4" />
        <Node type="in" id="5" />
        <Node type="in" id="6" />
        <Node type="in" id="7" />
        <Node type="in" id="8" />
        <Node type="in" id="9" />
        <Node type="in" id="10" />
        <Node type="in" id="11" />
        <Node type="in" id="12" />
        <Node type="out" id="13" />
        <Node type="out" id="14" />
        <Node type="hid" id="65" />
        <Node type="hid" id="160" />
        <Node type="hid" id="190" />
        <Node type="hid" id="224" />
        <Node type="hid" id="230" />
        <Node type="hid" id="267" />
        <Node type="hid" id="348" />
        <Node type="hid" id="1110" />
        <Node type="hid" id="1153" />
        <Node type="hid" id="1226" />
        <Node type="hid" id="1392" />
        <Node type="hid" id="1405" />
        <Node type="hid" id="1538" />
        <Node type="hid" id="1573" />
      </Nodes>
      <Connections>
        <Con id="21" src="3" tgt="13" wght="0.65897045556174727" />
        <Con id="43" src="9" tgt="13" wght="5" />
        <Con id="44" src="5" tgt="13" wght="-4.98905380823975" />
        <Con id="50" src="2" tgt="13" wght="-3.2349986494116973" />
        <Con id="63" src="4" tgt="14" wght="1.5606521805510329" />
        <Con id="64" src="6" tgt="13" wght="1.5185834865344001" />
        <Con id="66" src="11" tgt="65" wght="-0.85836776446509433" />
        <Con id="67" src="65" tgt="13" wght="-1.8067990547775206" />
        <Con id="71" src="8" tgt="14" wght="-1.4584603435193788" />
        <Con id="74" src="7" tgt="13" wght="1.2001743469644732" />
        <Con id="172" src="65" tgt="160" wght="1.9689317989584529" />
        <Con id="191" src="160" tgt="190" wght="1.7812270160618668" />
        <Con id="192" src="190" tgt="13" wght="1.0533352284653508" />
        <Con id="193" src="8" tgt="160" wght="-4.9784672630398914" />
        <Con id="221" src="5" tgt="160" wght="-0.7007846474577778" />
        <Con id="226" src="224" tgt="160" wght="-0.80314480699598789" />
        <Con id="232" src="230" tgt="224" wght="5" />
        <Con id="257" src="5" tgt="190" wght="2.3790433105496245" />
        <Con id="268" src="6" tgt="267" wght="-2.4937188789384872" />
        <Con id="349" src="2" tgt="348" wght="-3.3931162849969718" />
        <Con id="392" src="9" tgt="160" wght="2.74694656911958" />
        <Con id="399" src="3" tgt="224" wght="-5" />
        <Con id="423" src="9" tgt="230" wght="-4.9594716442011348" />
        <Con id="447" src="2" tgt="224" wght="1.1729309055954218" />
        <Con id="504" src="267" tgt="190" wght="-4.6682450165661216" />
        <Con id="643" src="10" tgt="14" wght="3.4426080481072945" />
        <Con id="644" src="8" tgt="13" wght="1.6360366105350157" />
        <Con id="648" src="1" tgt="160" wght="-1.5288415873790284" />
        <Con id="651" src="6" tgt="224" wght="2.3482278981486235" />
        <Con id="656" src="1" tgt="13" wght="2.478616830135524" />
        <Con id="671" src="7" tgt="65" wght="1.8546895496547222" />
        <Con id="682" src="11" tgt="267" wght="3.324149529688095" />
        <Con id="692" src="190" tgt="14" wght="-4.9638328914014185" />
        <Con id="808" src="5" tgt="65" wght="1.6001623422694347" />
        <Con id="870" src="0" tgt="160" wght="-2.4618644034730837" />
        <Con id="896" src="4" tgt="230" wght="-3.5278585160004274" />
        <Con id="953" src="5" tgt="230" wght="2.6225963786662509" />
        <Con id="1103" src="3" tgt="230" wght="-3.8731969892978668" />
        <Con id="1111" src="348" tgt="1110" wght="4.6718524410683751" />
        <Con id="1112" src="1110" tgt="230" wght="4.9551304920515946" />
        <Con id="1133" src="1110" tgt="160" wght="1.2325767908154213" />
        <Con id="1145" src="11" tgt="348" wght="2.7451958190862396" />
        <Con id="1155" src="1153" tgt="230" wght="5" />
        <Con id="1188" src="5" tgt="1110" wght="0.90832731887656559" />
        <Con id="1220" src="4" tgt="348" wght="-2.6821706577931161" />
        <Con id="1227" src="6" tgt="1226" wght="-2.3589951439796391" />
        <Con id="1228" src="1226" tgt="1153" wght="4.58110538199155" />
        <Con id="1267" src="10" tgt="348" wght="-4.33748472481966" />
        <Con id="1311" src="1226" tgt="160" wght="-1.2384553160518408" />
        <Con id="1393" src="230" tgt="1392" wght="1.3955795524769992" />
        <Con id="1394" src="1392" tgt="65" wght="4.721317425647193" />
        <Con id="1406" src="10" tgt="1405" wght="4.7949494514614344" />
        <Con id="1407" src="1405" tgt="65" wght="-3.1015854235738516" />
        <Con id="1431" src="11" tgt="1110" wght="2.6929999593826541" />
        <Con id="1539" src="11" tgt="1538" wght="3.3504545156249446" />
        <Con id="1540" src="1538" tgt="13" wght="5" />
        <Con id="1574" src="8" tgt="1573" wght="0.53320079828535871" />
        <Con id="1575" src="1573" tgt="224" wght="3.3041835668291673" />
      </Connections>
    </Network>
    <Network id="80200" birthGen="378" fitness="107789.9296875">
      <Nodes>
        <Node type="bias" id="0" />
        <Node type="in" id="1" />
        <Node type="in" id="2" />
        <Node type="in" id="3" />
        <Node type="in" id="4" />
        <Node type="in" id="5" />
        <Node type="in" id="6" />
        <Node type="in" id="7" />
        <Node type="in" id="8" />
        <Node type="in" id="9" />
        <Node type="in" id="10" />
        <Node type="in" id="11" />
        <Node type="in" id="12" />
        <Node type="out" id="13" />
        <Node type="out" id="14" />
        <Node type="hid" id="65" />
        <Node type="hid" id="160" />
        <Node type="hid" id="190" />
        <Node type="hid" id="224" />
        <Node type="hid" id="230" />
        <Node type="hid" id="267" />
        <Node type="hid" id="348" />
        <Node type="hid" id="1110" />
        <Node type="hid" id="1153" />
        <Node type="hid" id="1226" />
        <Node type="hid" id="1392" />
        <Node type="hid" id="1405" />
      </Nodes>
      <Connections>
        <Con id="21" src="3" tgt="13" wght="1.6514107373439653" />
        <Con id="43" src="9" tgt="13" wght="4.8554863849354728" />
        <Con id="44" src="5" tgt="13" wght="-4.254850655700408" />
        <Con id="50" src="2" tgt="13" wght="-3.73583599724956" />
        <Con id="63" src="4" tgt="14" wght="2.8310584907135512" />
        <Con id="64" src="6" tgt="13" wght="1.4734907480373467" />
        <Con id="66" src="11" tgt="65" wght="-0.85836776446509433" />
        <Con id="67" src="65" tgt="13" wght="-1.8401728306326623" />
        <Con id="71" src="8" tgt="14" wght="-1.4582867330269973" />
        <Con id="74" src="7" tgt="13" wght="0.4283832580729951" />
        <Con id="172" src="65" tgt="160" wght="1.5459156064915598" />
        <Con id="191" src="160" tgt="190" wght="2.01873670046901" />
        <Con id="192" src="190" tgt="13" wght="-0.93663028348251576" />
        <Con id="193" src="8" tgt="160" wght="-5" />
        <Con id="221" src="5" tgt="160" wght="0.3021409926241585" />
        <Con id="226" src="224" tgt="160" wght="-0.55373693081280861" />
        <Con id="232" src="230" tgt="224" wght="4.8392715777192166" />
        <Con id="257" src="5" tgt="190" wght="2.3864426976302626" />
        <Con id="268" src="6" tgt="267" wght="-2.4937188789384872" />
        <Con id="349" src="2" tgt="348" wght="-3.7794569295762495" />
        <Con id="392" src="9" tgt="160" wght="2.7183804129713192" />
        <Con id="399" src="3" tgt="224" wght="-0.065195572464298288" />
        <Con id="423" src="9" tgt="230" wght="-4.3607685019878915" />
        <Con id="447" src="2" tgt="224" wght="3.5751686241960483" />
        <Con id="504" src="267" tgt="190" wght="-4.6534577699816762" />
        <Con id="638" src="11" tgt="230" wght="-3.787306776948657" />
        <Con id="643" src="10" tgt="14" wght="3.3929230804741266" />
        <Con id="644" src="8" tgt="13" wght="4.73006921022323" />
        <Con id="648" src="1" tgt="160" wght="-1.4074295303214461" />
        <Con id="651" src="6" tgt="224" wght="1.7119739329594497" />
        <Con id="656" src="1" tgt="13" wght="4.12193305169484" />
        <Con id="661" src="9" tgt="65" wght="3.8309321828643306" />
        <Con id="671" src="7" tgt="65" wght="2.0667700866712537" />
        <Con id="682" src="11" tgt="267" wght="3.3282729691951949" />
        <Con id="692" src="190" tgt="14" wght="-4.9638328914014185" />
        <Con id="732" src="11" tgt="13" wght="3.3238030558445226" />
        <Con id="808" src="5" tgt="65" wght="1.6252481713513645" />
        <Con id="813" src="267" tgt="348" wght="-2.4393996689468622" />
        <Con id="865" src="267" tgt="224" wght="3.680559890344739" />
        <Con id="870" src="0" tgt="160" wght="-2.4618644034730837" />
        <Con id="896" src="4" tgt="230" wght="-1.8449623400326816" />
        <Con id="926" src="8" tgt="224" wght="0.53320079828535871" />
        <Con id="953" src="5" tgt="230" wght="2.8347058288597138" />
        <Con id="1103" src="3" tgt="230" wght="3.8628220757742362" />
        <Con id="1111" src="348" tgt="1110" wght="4.6718524410683751" />
        <Con id="1112" src="1110" tgt="230" wght="4.9608349008452262" />
        <Con id="1133" src="1110" tgt="160" wght="0.56168657039184788" />
        <Con id="1145" src="11" tgt="348" wght="3.071331430368518" />
        <Con id="1155" src="1153" tgt="230" wght="4.787882323502485" />
        <Con id="1188" src="5" tgt="1110" wght="3.8108131475746632" />
        <Con id="1227" src="6" tgt="1226" wght="-2.3367963969509744" />
        <Con id="1228" src="1226" tgt="1153" wght="4.0708685716442377" />
        <Con id="1267" src="10" tgt="348" wght="1.1446173700288824" />
        <Con id="1311" src="1226" tgt="160" wght="1.7702890571927281" />
        <Con id="1393" src="230" tgt="1392" wght="0.56429763949146861" />
        <Con id="1394" src="1392" tgt="65" wght="4.3785974861861732" />
        <Con id="1406" src="10" tgt="1405" wght="-2.1925184648549707" />
        <Con id="1407" src="1405" tgt="65" wght="-2.9442953271791339" />
        <Con id="1431" src="11" tgt="1110" wght="-0.70007399118318647" />
        <Con id="1464" src="1" tgt="1226" wght="2.4248794643733018" />
        <Con id="1531" src="11" tgt="1226" wght="-3.7051592435634082" />
      </Connections>
    </Network>
    <Network id="80179" birthGen="378" fitness="107769.4453125">
      <Nodes>
        <Node type="bias" id="0" />
        <Node type="in" id="1" />
        <Node type="in" id="2" />
        <Node type="in" id="3" />
        <Node type="in" id="4" />
        <Node type="in" id="5" />
        <Node type="in" id="6" />
        <Node type="in" id="7" />
        <Node type="in" id="8" />
        <Node type="in" id="9" />
        <Node type="in" id="10" />
        <Node type="in" id="11" />
        <Node type="in" id="12" />
        <Node type="out" id="13" />
        <Node type="out" id="14" />
        <Node type="hid" id="65" />
        <Node type="hid" id="160" />
        <Node type="hid" id="190" />
        <Node type="hid" id="224" />
        <Node type="hid" id="230" />
        <Node type="hid" id="267" />
        <Node type="hid" id="348" />
        <Node type="hid" id="1110" />
        <Node type="hid" id="1153" />
        <Node type="hid" id="1226" />
        <Node type="hid" id="1392" />
        <Node type="hid" id="1405" />
        <Node type="hid" id="1538" />
        <Node type="hid" id="1573" />
      </Nodes>
      <Connections>
        <Con id="21" src="3" tgt="13" wght="0.65897045556174727" />
        <Con id="43" src="9" tgt="13" wght="5" />
        <Con id="44" src="5" tgt="13" wght="-4.98905380823975" />
        <Con id="50" src="2" tgt="13" wght="-3.2590880026570694" />
        <Con id="63" src="4" tgt="14" wght="1.5676456761702167" />
        <Con id="64" src="6" tgt="13" wght="1.5185834865344001" />
        <Con id="66" src="11" tgt="65" wght="-0.85836776446509433" />
        <Con id="67" src="65" tgt="13" wght="-1.8067990547775206" />
        <Con id="71" src="8" tgt="14" wght="-1.4584603435193788" />
        <Con id="74" src="7" tgt="13" wght="1.1593244463752046" />
        <Con id="172" src="65" tgt="160" wght="1.9689317989584529" />
        <Con id="191" src="160" tgt="190" wght="1.7812270160618668" />
        <Con id="192" src="190" tgt="13" wght="1.0533352284653508" />
        <Con id="193" src="8" tgt="160" wght="-4.9709411017697773" />
        <Con id="221" src="5" tgt="160" wght="-0.7007846474577778" />
        <Con id="226" src="224" tgt="160" wght="-0.80314480699598789" />
        <Con id="232" src="230" tgt="224" wght="5" />
        <Con id="257" src="5" tgt="190" wght="2.3790433105496245" />
        <Con id="268" src="6" tgt="267" wght="-2.4937188789384872" />
        <Con id="349" src="2" tgt="348" wght="-3.3931162849969718" />
        <Con id="392" src="9" tgt="160" wght="2.74694656911958" />
        <Con id="399" src="3" tgt="224" wght="-5" />
        <Con id="423" src="9" tgt="230" wght="-4.9594716442011348" />
        <Con id="447" src="2" tgt="224" wght="1.1729309055954218" />
        <Con id="504" src="267" tgt="190" wght="-4.6682450165661216" />
        <Con id="643" src="10" tgt="14" wght="3.4426080481072945" />
        <Con id="644" src="8" tgt="13" wght="1.6360366105350157" />
        <Con id="648" src="1" tgt="160" wght="-1.5288415873790284" />
        <Con id="651" src="6" tgt="224" wght="2.3482278981486235" />
        <Con id="656" src="1" tgt="13" wght="2.478616830135524" />
        <Con id="671" src="7" tgt="65" wght="1.8546895496547222" />
        <Con id="682" src="11" tgt="267" wght="3.324149529688095" />
        <Con id="692" src="190" tgt="14" wght="-4.9638328914014185" />
        <Con id="808" src="5" tgt="65" wght="1.6001623422694347" />
        <Con id="870" src="0" tgt="160" wght="-2.4618644034730837" />
        <Con id="896" src="4" tgt="230" wght="-3.5278585160004274" />
        <Con id="953" src="5" tgt="230" wght="2.6225963786662509" />
        <Con id="1103" src="3" tgt="230" wght="-3.8731969892978668" />
        <Con id="1111" src="348" tgt="1110" wght="4.6718524410683751" />
        <Con id="1112" src="1110" tgt="230" wght="4.9551304920515946" />
        <Con id="1133" src="1110" tgt="160" wght="1.2325767908154213" />
        <Con id="1145" src="11" tgt="348" wght="2.7451958190862396" />
        <Con id="1155" src="1153" tgt="230" wght="5" />
        <Con id="1188" src="5" tgt="1110" wght="0.90832731887656559" />
        <Con id="1220" src="4" tgt="348" wght="-2.6821706577931161" />
        <Con id="1227" src="6" tgt="1226" wght="-2.3589951439796391" />
        <Con id="1228" src="1226" tgt="1153" wght="4.58110538199155" />
        <Con id="1267" src="10" tgt="348" wght="-4.33748472481966" />
        <Con id="1311" src="1226" tgt="160" wght="-1.2384553160518408" />
        <Con id="1393" src="230" tgt="1392" wght="1.3955795524769992" />
        <Con id="1394" src="1392" tgt="65" wght="4.721317425647193" />
        <Con id="1406" src="10" tgt="1405" wght="4.7949494514614344" />
        <Con id="1407" src="1405" tgt="65" wght="-3.1015854235738516" />
        <Con id="1431" src="11" tgt="1110" wght="2.6929999593826541" />
        <Con id="1539" src="11" tgt="1538" wght="3.3504545156249446" />
        <Con id="1540" src="1538" tgt="13" wght="5" />
        <Con id="1574" src="8" tgt="1573" wght="0.53320079828535871" />
        <Con id="1575" src="1573" tgt="224" wght="3.3041835668291673" />
      </Connections>
    </Network>
    <Network id="80238" birthGen="378" fitness="107647.8203125">
      <Nodes>
        <Node type="bias" id="0" />
        <Node type="in" id="1" />
        <Node type="in" id="2" />
        <Node type="in" id="3" />
        <Node type="in" id="4" />
        <Node type="in" id="5" />
        <Node type="in" id="6" />
        <Node type="in" id="7" />
        <Node type="in" id="8" />
        <Node type="in" id="9" />
        <Node type="in" id="10" />
        <Node type="in" id="11" />
        <Node type="in" id="12" />
        <Node type="out" id="13" />
        <Node type="out" id="14" />
        <Node type="hid" id="65" />
        <Node type="hid" id="160" />
        <Node type="hid" id="190" />
        <Node type="hid" id="224" />
        <Node type="hid" id="230" />
        <Node type="hid" id="267" />
        <Node type="hid" id="348" />
        <Node type="hid" id="1110" />
        <Node type="hid" id="1153" />
        <Node type="hid" id="1226" />
        <Node type="hid" id="1392" />
        <Node type="hid" id="1405" />
        <Node type="hid" id="1538" />
        <Node type="hid" id="1573" />
      </Nodes>
      <Connections>
        <Con id="21" src="3" tgt="13" wght="0.65897045556174727" />
        <Con id="43" src="9" tgt="13" wght="5" />
        <Con id="44" src="5" tgt="13" wght="-4.98905380823975" />
        <Con id="50" src="2" tgt="13" wght="-3.2349986494116973" />
        <Con id="63" src="4" tgt="14" wght="1.5436597913881764" />
        <Con id="64" src="6" tgt="13" wght="1.5185834865344001" />
        <Con id="66" src="11" tgt="65" wght="-0.85836776446509433" />
        <Con id="67" src="65" tgt="13" wght="-1.8067990547775206" />
        <Con id="71" src="8" tgt="14" wght="-1.4584603435193788" />
        <Con id="74" src="7" tgt="13" wght="1.2001743469644732" />
        <Con id="172" src="65" tgt="160" wght="1.9689317989584529" />
        <Con id="191" src="160" tgt="190" wght="1.7812270160618668" />
        <Con id="192" src="190" tgt="13" wght="1.0533352284653508" />
        <Con id="193" src="8" tgt="160" wght="-4.9709411017697773" />
        <Con id="221" src="5" tgt="160" wght="-1.7536269816829981" />
        <Con id="226" src="224" tgt="160" wght="-1.6458195810802074" />
        <Con id="232" src="230" tgt="224" wght="5" />
        <Con id="257" src="5" tgt="190" wght="2.3790433105496245" />
        <Con id="268" src="6" tgt="267" wght="-2.4937188789384872" />
        <Con id="349" src="2" tgt="348" wght="-3.3931162849969718" />
        <Con id="392" src="9" tgt="160" wght="2.74694656911958" />
        <Con id="399" src="3" tgt="224" wght="-5" />
        <Con id="423" src="9" tgt="230" wght="-4.9594716442011348" />
        <Con id="447" src="2" tgt="224" wght="1.1729309055954218" />
        <Con id="504" src="267" tgt="190" wght="-4.6682450165661216" />
        <Con id="643" src="10" tgt="14" wght="3.4426080481072945" />
        <Con id="644" src="8" tgt="13" wght="1.6360366105350157" />
        <Con id="648" src="1" tgt="160" wght="-1.5288415873790284" />
        <Con id="651" src="6" tgt="224" wght="2.3482278981486235" />
        <Con id="656" src="1" tgt="13" wght="4.12193305169484" />
        <Con id="671" src="7" tgt="65" wght="1.8546895496547222" />
        <Con id="682" src="11" tgt="267" wght="3.324149529688095" />
        <Con id="692" src="190" tgt="14" wght="-4.9638328914014185" />
        <Con id="808" src="5" tgt="65" wght="1.6001623422694347" />
        <Con id="870" src="0" tgt="160" wght="-2.4618644034730837" />
        <Con id="896" src="4" tgt="230" wght="-3.5278585160004274" />
        <Con id="953" src="5" tgt="230" wght="2.6225963786662509" />
        <Con id="1103" src="3" tgt="230" wght="-3.8731969892978668" />
        <Con id="1111" src="348" tgt="1110" wght="4.6718524410683751" />
        <Con id="1112" src="1110" tgt="230" wght="4.9551304920515946" />
        <Con id="1133" src="1110" tgt="160" wght="1.2325767908154213" />
        <Con id="1145" src="11" tgt="348" wght="2.7451958190862396" />
        <Con id="1155" src="1153" tgt="230" wght="5" />
        <Con id="1188" src="5" tgt="1110" wght="0.90832731887656559" />
        <Con id="1220" src="4" tgt="348" wght="-3.2808884447649946" />
        <Con id="1227" src="6" tgt="1226" wght="-2.3589951439796391" />
        <Con id="1228" src="1226" tgt="1153" wght="4.4938837410882115" />
        <Con id="1267" src="10" tgt="348" wght="-4.33748472481966" />
        <Con id="1311" src="1226" tgt="160" wght="-1.2384553160518408" />
        <Con id="1393" src="230" tgt="1392" wght="1.3955795524769992" />
        <Con id="1394" src="1392" tgt="65" wght="4.721317425647193" />
        <Con id="1406" src="10" tgt="1405" wght="4.7949494514614344" />
        <Con id="1407" src="1405" tgt="65" wght="-3.1015854235738516" />
        <Con id="1431" src="11" tgt="1110" wght="2.6929999593826541" />
        <Con id="1539" src="11" tgt="1538" wght="3.3504545156249446" />
        <Con id="1540" src="1538" tgt="13" wght="5" />
        <Con id="1574" src="8" tgt="1573" wght="0.53320079828535871" />
        <Con id="1575" src="1573" tgt="224" wght="3.3041835668291673" />
        <Con id="1707" src="10" tgt="1110" wght="1.869436064735055" />
      </Connections>
    </Network>
    <Network id="80234" birthGen="378" fitness="107647.8203125">
      <Nodes>
        <Node type="bias" id="0" />
        <Node type="in" id="1" />
        <Node type="in" id="2" />
        <Node type="in" id="3" />
        <Node type="in" id="4" />
        <Node type="in" id="5" />
        <Node type="in" id="6" />
        <Node type="in" id="7" />
        <Node type="in" id="8" />
        <Node type="in" id="9" />
        <Node type="in" id="10" />
        <Node type="in" id="11" />
        <Node type="in" id="12" />
        <Node type="out" id="13" />
        <Node type="out" id="14" />
        <Node type="hid" id="65" />
        <Node type="hid" id="160" />
        <Node type="hid" id="190" />
        <Node type="hid" id="224" />
        <Node type="hid" id="230" />
        <Node type="hid" id="267" />
        <Node type="hid" id="348" />
        <Node type="hid" id="1110" />
        <Node type="hid" id="1153" />
        <Node type="hid" id="1226" />
        <Node type="hid" id="1392" />
        <Node type="hid" id="1405" />
        <Node type="hid" id="1538" />
        <Node type="hid" id="1573" />
      </Nodes>
      <Connections>
        <Con id="21" src="3" tgt="13" wght="0.65897045556174727" />
        <Con id="43" src="9" tgt="13" wght="5" />
        <Con id="44" src="5" tgt="13" wght="-4.98905380823975" />
        <Con id="50" src="2" tgt="13" wght="-3.2349986494116973" />
        <Con id="63" src="4" tgt="14" wght="1.5436597913881764" />
        <Con id="64" src="6" tgt="13" wght="1.5185834865344001" />
        <Con id="66" src="11" tgt="65" wght="-0.85836776446509433" />
        <Con id="67" src="65" tgt="13" wght="-1.8067990547775206" />
        <Con id="71" src="8" tgt="14" wght="-1.4584603435193788" />
        <Con id="74" src="7" tgt="13" wght="1.2001743469644732" />
        <Con id="172" src="65" tgt="160" wght="1.9689317989584529" />
        <Con id="191" src="160" tgt="190" wght="1.7812270160618668" />
        <Con id="192" src="190" tgt="13" wght="1.0533352284653508" />
        <Con id="193" src="8" tgt="160" wght="-4.9709411017697773" />
        <Con id="221" src="5" tgt="160" wght="-1.7536269816829981" />
        <Con id="226" src="224" tgt="160" wght="-1.6458195810802074" />
        <Con id="232" src="230" tgt="224" wght="5" />
        <Con id="257" src="5" tgt="190" wght="2.3790433105496245" />
        <Con id="268" src="6" tgt="267" wght="-2.4937188789384872" />
        <Con id="349" src="2" tgt="348" wght="-3.3931162849969718" />
        <Con id="392" src="9" tgt="160" wght="2.74694656911958" />
        <Con id="399" src="3" tgt="224" wght="-5" />
        <Con id="423" src="9" tgt="230" wght="-4.9594716442011348" />
        <Con id="447" src="2" tgt="224" wght="1.1729309055954218" />
        <Con id="504" src="267" tgt="190" wght="-4.6682450165661216" />
        <Con id="643" src="10" tgt="14" wght="3.4426080481072945" />
        <Con id="644" src="8" tgt="13" wght="1.6360366105350157" />
        <Con id="648" src="1" tgt="160" wght="-1.5288415873790284" />
        <Con id="651" src="6" tgt="224" wght="2.3482278981486235" />
        <Con id="656" src="1" tgt="13" wght="4.12193305169484" />
        <Con id="671" src="7" tgt="65" wght="1.8546895496547222" />
        <Con id="682" src="11" tgt="267" wght="3.324149529688095" />
        <Con id="692" src="190" tgt="14" wght="-4.9638328914014185" />
        <Con id="808" src="5" tgt="65" wght="1.6001623422694347" />
        <Con id="870" src="0" tgt="160" wght="-2.4618644034730837" />
        <Con id="896" src="4" tgt="230" wght="-3.5278585160004274" />
        <Con id="953" src="5" tgt="230" wght="2.6225963786662509" />
        <Con id="1103" src="3" tgt="230" wght="-3.8731969892978668" />
        <Con id="1111" src="348" tgt="1110" wght="4.6718524410683751" />
        <Con id="1112" src="1110" tgt="230" wght="4.9551304920515946" />
        <Con id="1133" src="1110" tgt="160" wght="1.2325767908154213" />
        <Con id="1145" src="11" tgt="348" wght="2.7451958190862396" />
        <Con id="1155" src="1153" tgt="230" wght="5" />
        <Con id="1188" src="5" tgt="1110" wght="0.90832731887656559" />
        <Con id="1220" src="4" tgt="348" wght="-3.2808884447649946" />
        <Con id="1227" src="6" tgt="1226" wght="-2.3589951439796391" />
        <Con id="1228" src="1226" tgt="1153" wght="4.4938837410882115" />
        <Con id="1267" src="10" tgt="348" wght="-4.33748472481966" />
        <Con id="1311" src="1226" tgt="160" wght="-1.2384553160518408" />
        <Con id="1393" src="230" tgt="1392" wght="1.3955795524769992" />
        <Con id="1394" src="1392" tgt="65" wght="4.721317425647193" />
        <Con id="1406" src="10" tgt="1405" wght="4.7949494514614344" />
        <Con id="1407" src="1405" tgt="65" wght="-3.1015854235738516" />
        <Con id="1431" src="11" tgt="1110" wght="2.6929999593826541" />
        <Con id="1539" src="11" tgt="1538" wght="3.3504545156249446" />
        <Con id="1540" src="1538" tgt="13" wght="4.9432690472668641" />
        <Con id="1574" src="8" tgt="1573" wght="0.53320079828535871" />
        <Con id="1575" src="1573" tgt="224" wght="3.3041835668291673" />
      </Connections>
    </Network>
    <Network id="80235" birthGen="378" fitness="107647.8203125">
      <Nodes>
        <Node type="bias" id="0" />
        <Node type="in" id="1" />
        <Node type="in" id="2" />
        <Node type="in" id="3" />
        <Node type="in" id="4" />
        <Node type="in" id="5" />
        <Node type="in" id="6" />
        <Node type="in" id="7" />
        <Node type="in" id="8" />
        <Node type="in" id="9" />
        <Node type="in" id="10" />
        <Node type="in" id="11" />
        <Node type="in" id="12" />
        <Node type="out" id="13" />
        <Node type="out" id="14" />
        <Node type="hid" id="65" />
        <Node type="hid" id="160" />
        <Node type="hid" id="190" />
        <Node type="hid" id="224" />
        <Node type="hid" id="230" />
        <Node type="hid" id="267" />
        <Node type="hid" id="348" />
        <Node type="hid" id="1110" />
        <Node type="hid" id="1153" />
        <Node type="hid" id="1226" />
        <Node type="hid" id="1392" />
        <Node type="hid" id="1405" />
        <Node type="hid" id="1538" />
        <Node type="hid" id="1573" />
      </Nodes>
      <Connections>
        <Con id="21" src="3" tgt="13" wght="0.65897045556174727" />
        <Con id="43" src="9" tgt="13" wght="5" />
        <Con id="44" src="5" tgt="13" wght="-4.98905380823975" />
        <Con id="50" src="2" tgt="13" wght="-3.2349986494116973" />
        <Con id="63" src="4" tgt="14" wght="1.5436597913881764" />
        <Con id="64" src="6" tgt="13" wght="1.5185834865344001" />
        <Con id="66" src="11" tgt="65" wght="-0.85836776446509433" />
        <Con id="67" src="65" tgt="13" wght="-1.8067990547775206" />
        <Con id="71" src="8" tgt="14" wght="-1.4584603435193788" />
        <Con id="74" src="7" tgt="13" wght="1.2001743469644732" />
        <Con id="172" src="65" tgt="160" wght="1.9689317989584529" />
        <Con id="191" src="160" tgt="190" wght="1.7812270160618668" />
        <Con id="192" src="190" tgt="13" wght="1.0533352284653508" />
        <Con id="193" src="8" tgt="160" wght="-4.9709411017697773" />
        <Con id="221" src="5" tgt="160" wght="-1.7536269816829981" />
        <Con id="226" src="224" tgt="160" wght="-1.6458195810802074" />
        <Con id="232" src="230" tgt="224" wght="5" />
        <Con id="257" src="5" tgt="190" wght="2.3790433105496245" />
        <Con id="268" src="6" tgt="267" wght="-2.4937188789384872" />
        <Con id="349" src="2" tgt="348" wght="-3.3931162849969718" />
        <Con id="392" src="9" tgt="160" wght="2.74694656911958" />
        <Con id="399" src="3" tgt="224" wght="-5" />
        <Con id="423" src="9" tgt="230" wght="-4.9594716442011348" />
        <Con id="447" src="2" tgt="224" wght="1.1729309055954218" />
        <Con id="504" src="267" tgt="190" wght="-4.6682450165661216" />
        <Con id="643" src="10" tgt="14" wght="3.4426080481072945" />
        <Con id="644" src="8" tgt="13" wght="1.6360366105350157" />
        <Con id="648" src="1" tgt="160" wght="-1.5288415873790284" />
        <Con id="651" src="6" tgt="224" wght="2.3482278981486235" />
        <Con id="656" src="1" tgt="13" wght="4.12193305169484" />
        <Con id="671" src="7" tgt="65" wght="1.8546895496547222" />
        <Con id="682" src="11" tgt="267" wght="3.324149529688095" />
        <Con id="692" src="190" tgt="14" wght="-4.9638328914014185" />
        <Con id="808" src="5" tgt="65" wght="1.6001623422694347" />
        <Con id="870" src="0" tgt="160" wght="-2.4618644034730837" />
        <Con id="896" src="4" tgt="230" wght="-3.5278585160004274" />
        <Con id="953" src="5" tgt="230" wght="2.6225963786662509" />
        <Con id="1103" src="3" tgt="230" wght="-3.8731969892978668" />
        <Con id="1111" src="348" tgt="1110" wght="5" />
        <Con id="1112" src="1110" tgt="230" wght="4.9551304920515946" />
        <Con id="1133" src="1110" tgt="160" wght="1.2325767908154213" />
        <Con id="1145" src="11" tgt="348" wght="2.7451958190862396" />
        <Con id="1155" src="1153" tgt="230" wght="5" />
        <Con id="1188" src="5" tgt="1110" wght="0.90832731887656559" />
        <Con id="1220" src="4" tgt="348" wght="-3.2808884447649946" />
        <Con id="1227" src="6" tgt="1226" wght="-2.3589951439796391" />
        <Con id="1228" src="1226" tgt="1153" wght="4.4938837410882115" />
        <Con id="1267" src="10" tgt="348" wght="-4.33748472481966" />
        <Con id="1311" src="1226" tgt="160" wght="-1.2384553160518408" />
        <Con id="1393" src="230" tgt="1392" wght="1.3955795524769992" />
        <Con id="1394" src="1392" tgt="65" wght="4.721317425647193" />
        <Con id="1406" src="10" tgt="1405" wght="4.7949494514614344" />
        <Con id="1407" src="1405" tgt="65" wght="-3.1015854235738516" />
        <Con id="1431" src="11" tgt="1110" wght="2.6929999593826541" />
        <Con id="1539" src="11" tgt="1538" wght="3.3504545156249446" />
        <Con id="1540" src="1538" tgt="13" wght="5" />
        <Con id="1574" src="8" tgt="1573" wght="0.53320079828535871" />
        <Con id="1575" src="1573" tgt="224" wght="3.3041835668291673" />
      </Connections>
    </Network>
    <Network id="80239" birthGen="378" fitness="107647.8203125">
      <Nodes>
        <Node type="bias" id="0" />
        <Node type="in" id="1" />
        <Node type="in" id="2" />
        <Node type="in" id="3" />
        <Node type="in" id="4" />
        <Node type="in" id="5" />
        <Node type="in" id="6" />
        <Node type="in" id="7" />
        <Node type="in" id="8" />
        <Node type="in" id="9" />
        <Node type="in" id="10" />
        <Node type="in" id="11" />
        <Node type="in" id="12" />
        <Node type="out" id="13" />
        <Node type="out" id="14" />
        <Node type="hid" id="65" />
        <Node type="hid" id="160" />
        <Node type="hid" id="190" />
        <Node type="hid" id="224" />
        <Node type="hid" id="230" />
        <Node type="hid" id="267" />
        <Node type="hid" id="348" />
        <Node type="hid" id="1110" />
        <Node type="hid" id="1153" />
        <Node type="hid" id="1226" />
        <Node type="hid" id="1392" />
        <Node type="hid" id="1405" />
        <Node type="hid" id="1538" />
        <Node type="hid" id="1573" />
      </Nodes>
      <Connections>
        <Con id="21" src="3" tgt="13" wght="0.65897045556174727" />
        <Con id="43" src="9" tgt="13" wght="5" />
        <Con id="44" src="5" tgt="13" wght="-4.98905380823975" />
        <Con id="50" src="2" tgt="13" wght="-3.2349986494116973" />
        <Con id="63" src="4" tgt="14" wght="1.5436597913881764" />
        <Con id="64" src="6" tgt="13" wght="1.5185834865344001" />
        <Con id="66" src="11" tgt="65" wght="-0.85836776446509433" />
        <Con id="67" src="65" tgt="13" wght="-1.8067990547775206" />
        <Con id="71" src="8" tgt="14" wght="-1.4584603435193788" />
        <Con id="74" src="7" tgt="13" wght="1.2001743469644732" />
        <Con id="172" src="65" tgt="160" wght="1.9689317989584529" />
        <Con id="191" src="160" tgt="190" wght="1.7812270160618668" />
        <Con id="192" src="190" tgt="13" wght="1.2146754160789353" />
        <Con id="193" src="8" tgt="160" wght="-4.9709411017697773" />
        <Con id="221" src="5" tgt="160" wght="-1.7536269816829981" />
        <Con id="226" src="224" tgt="160" wght="-1.6458195810802074" />
        <Con id="232" src="230" tgt="224" wght="5" />
        <Con id="257" src="5" tgt="190" wght="2.3790433105496245" />
        <Con id="268" src="6" tgt="267" wght="-2.4937188789384872" />
        <Con id="349" src="2" tgt="348" wght="-3.3931162849969718" />
        <Con id="392" src="9" tgt="160" wght="2.74694656911958" />
        <Con id="399" src="3" tgt="224" wght="-5" />
        <Con id="423" src="9" tgt="230" wght="-4.9594716442011348" />
        <Con id="447" src="2" tgt="224" wght="1.1729309055954218" />
        <Con id="504" src="267" tgt="190" wght="-4.6682450165661216" />
        <Con id="643" src="10" tgt="14" wght="3.4426080481072945" />
        <Con id="644" src="8" tgt="13" wght="1.6360366105350157" />
        <Con id="648" src="1" tgt="160" wght="-1.5288415873790284" />
        <Con id="651" src="6" tgt="224" wght="2.3482278981486235" />
        <Con id="656" src="1" tgt="13" wght="4.12193305169484" />
        <Con id="671" src="7" tgt="65" wght="1.8546895496547222" />
        <Con id="682" src="11" tgt="267" wght="3.324149529688095" />
        <Con id="692" src="190" tgt="14" wght="-4.9638328914014185" />
        <Con id="808" src="5" tgt="65" wght="1.6001623422694347" />
        <Con id="870" src="0" tgt="160" wght="-2.4618644034730837" />
        <Con id="896" src="4" tgt="230" wght="-3.5278585160004274" />
        <Con id="953" src="5" tgt="230" wght="2.6225963786662509" />
        <Con id="1103" src="3" tgt="230" wght="-3.8731969892978668" />
        <Con id="1111" src="348" tgt="1110" wght="4.6718524410683751" />
        <Con id="1112" src="1110" tgt="230" wght="4.9551304920515946" />
        <Con id="1133" src="1110" tgt="160" wght="1.2325767908154213" />
        <Con id="1145" src="11" tgt="348" wght="2.7451958190862396" />
        <Con id="1155" src="1153" tgt="230" wght="5" />
        <Con id="1188" src="5" tgt="1110" wght="0.90832731887656559" />
        <Con id="1220" src="4" tgt="348" wght="-3.2808884447649946" />
        <Con id="1227" src="6" tgt="1226" wght="-2.3589951439796391" />
        <Con id="1228" src="1226" tgt="1153" wght="4.4938837410882115" />
        <Con id="1267" src="10" tgt="348" wght="-4.33748472481966" />
        <Con id="1311" src="1226" tgt="160" wght="-1.2384553160518408" />
        <Con id="1393" src="230" tgt="1392" wght="1.3955795524769992" />
        <Con id="1394" src="1392" tgt="65" wght="4.721317425647193" />
        <Con id="1406" src="10" tgt="1405" wght="4.7949494514614344" />
        <Con id="1407" src="1405" tgt="65" wght="-3.1015854235738516" />
        <Con id="1431" src="11" tgt="1110" wght="2.6929999593826541" />
        <Con id="1539" src="11" tgt="1538" wght="3.3504545156249446" />
        <Con id="1540" src="1538" tgt="13" wght="5" />
        <Con id="1574" src="8" tgt="1573" wght="0.53320079828535871" />
        <Con id="1575" src="1573" tgt="224" wght="3.3041835668291673" />
      </Connections>
    </Network>
    <Network id="79969" birthGen="376" fitness="107647.8203125">
      <Nodes>
        <Node type="bias" id="0" />
        <Node type="in" id="1" />
        <Node type="in" id="2" />
        <Node type="in" id="3" />
        <Node type="in" id="4" />
        <Node type="in" id="5" />
        <Node type="in" id="6" />
        <Node type="in" id="7" />
        <Node type="in" id="8" />
        <Node type="in" id="9" />
        <Node type="in" id="10" />
        <Node type="in" id="11" />
        <Node type="in" id="12" />
        <Node type="out" id="13" />
        <Node type="out" id="14" />
        <Node type="hid" id="65" />
        <Node type="hid" id="160" />
        <Node type="hid" id="190" />
        <Node type="hid" id="224" />
        <Node type="hid" id="230" />
        <Node type="hid" id="267" />
        <Node type="hid" id="348" />
        <Node type="hid" id="1110" />
        <Node type="hid" id="1153" />
        <Node type="hid" id="1226" />
        <Node type="hid" id="1392" />
        <Node type="hid" id="1405" />
        <Node type="hid" id="1538" />
        <Node type="hid" id="1573" />
      </Nodes>
      <Connections>
        <Con id="21" src="3" tgt="13" wght="0.65897045556174727" />
        <Con id="43" src="9" tgt="13" wght="5" />
        <Con id="44" src="5" tgt="13" wght="-4.98905380823975" />
        <Con id="50" src="2" tgt="13" wght="-3.2349986494116973" />
        <Con id="63" src="4" tgt="14" wght="1.5436597913881764" />
        <Con id="64" src="6" tgt="13" wght="1.5185834865344001" />
        <Con id="66" src="11" tgt="65" wght="-0.85836776446509433" />
        <Con id="67" src="65" tgt="13" wght="-1.8067990547775206" />
        <Con id="71" src="8" tgt="14" wght="-1.4584603435193788" />
        <Con id="74" src="7" tgt="13" wght="1.2001743469644732" />
        <Con id="172" src="65" tgt="160" wght="1.9689317989584529" />
        <Con id="191" src="160" tgt="190" wght="1.7812270160618668" />
        <Con id="192" src="190" tgt="13" wght="1.0533352284653508" />
        <Con id="193" src="8" tgt="160" wght="-4.9709411017697773" />
        <Con id="221" src="5" tgt="160" wght="-1.7536269816829981" />
        <Con id="226" src="224" tgt="160" wght="-1.6458195810802074" />
        <Con id="232" src="230" tgt="224" wght="5" />
        <Con id="257" src="5" tgt="190" wght="2.3790433105496245" />
        <Con id="268" src="6" tgt="267" wght="-2.4937188789384872" />
        <Con id="349" src="2" tgt="348" wght="-3.3931162849969718" />
        <Con id="392" src="9" tgt="160" wght="2.74694656911958" />
        <Con id="399" src="3" tgt="224" wght="-5" />
        <Con id="423" src="9" tgt="230" wght="-4.9594716442011348" />
        <Con id="447" src="2" tgt="224" wght="1.1729309055954218" />
        <Con id="504" src="267" tgt="190" wght="-4.6682450165661216" />
        <Con id="643" src="10" tgt="14" wght="3.4426080481072945" />
        <Con id="644" src="8" tgt="13" wght="1.6360366105350157" />
        <Con id="648" src="1" tgt="160" wght="-1.5288415873790284" />
        <Con id="651" src="6" tgt="224" wght="2.3482278981486235" />
        <Con id="656" src="1" tgt="13" wght="4.12193305169484" />
        <Con id="671" src="7" tgt="65" wght="1.8546895496547222" />
        <Con id="682" src="11" tgt="267" wght="3.324149529688095" />
        <Con id="692" src="190" tgt="14" wght="-4.9638328914014185" />
        <Con id="808" src="5" tgt="65" wght="1.6001623422694347" />
        <Con id="870" src="0" tgt="160" wght="-2.4618644034730837" />
        <Con id="896" src="4" tgt="230" wght="-3.5278585160004274" />
        <Con id="953" src="5" tgt="230" wght="2.6225963786662509" />
        <Con id="1103" src="3" tgt="230" wght="-3.8731969892978668" />
        <Con id="1111" src="348" tgt="1110" wght="4.6718524410683751" />
        <Con id="1112" src="1110" tgt="230" wght="4.9551304920515946" />
        <Con id="1133" src="1110" tgt="160" wght="1.2325767908154213" />
        <Con id="1145" src="11" tgt="348" wght="2.7451958190862396" />
        <Con id="1155" src="1153" tgt="230" wght="5" />
        <Con id="1188" src="5" tgt="1110" wght="0.90832731887656559" />
        <Con id="1220" src="4" tgt="348" wght="-3.2808884447649946" />
        <Con id="1227" src="6" tgt="1226" wght="-2.3589951439796391" />
        <Con id="1228" src="1226" tgt="1153" wght="4.4938837410882115" />
        <Con id="1267" src="10" tgt="348" wght="-4.33748472481966" />
        <Con id="1311" src="1226" tgt="160" wght="-1.2384553160518408" />
        <Con id="1393" src="230" tgt="1392" wght="1.3955795524769992" />
        <Con id="1394" src="1392" tgt="65" wght="4.721317425647193" />
        <Con id="1406" src="10" tgt="1405" wght="4.7949494514614344" />
        <Con id="1407" src="1405" tgt="65" wght="-3.1015854235738516" />
        <Con id="1431" src="11" tgt="1110" wght="2.6929999593826541" />
        <Con id="1539" src="11" tgt="1538" wght="3.3504545156249446" />
        <Con id="1540" src="1538" tgt="13" wght="5" />
        <Con id="1574" src="8" tgt="1573" wght="0.53320079828535871" />
        <Con id="1575" src="1573" tgt="224" wght="3.3041835668291673" />
      </Connections>
    </Network>
    <Network id="80233" birthGen="378" fitness="107647.8125">
      <Nodes>
        <Node type="bias" id="0" />
        <Node type="in" id="1" />
        <Node type="in" id="2" />
        <Node type="in" id="3" />
        <Node type="in" id="4" />
        <Node type="in" id="5" />
        <Node type="in" id="6" />
        <Node type="in" id="7" />
        <Node type="in" id="8" />
        <Node type="in" id="9" />
        <Node type="in" id="10" />
        <Node type="in" id="11" />
        <Node type="in" id="12" />
        <Node type="out" id="13" />
        <Node type="out" id="14" />
        <Node type="hid" id="65" />
        <Node type="hid" id="160" />
        <Node type="hid" id="190" />
        <Node type="hid" id="224" />
        <Node type="hid" id="230" />
        <Node type="hid" id="267" />
        <Node type="hid" id="348" />
        <Node type="hid" id="1110" />
        <Node type="hid" id="1153" />
        <Node type="hid" id="1226" />
        <Node type="hid" id="1392" />
        <Node type="hid" id="1405" />
        <Node type="hid" id="1538" />
        <Node type="hid" id="1573" />
      </Nodes>
      <Connections>
        <Con id="21" src="3" tgt="13" wght="0.65897045556174727" />
        <Con id="43" src="9" tgt="13" wght="5" />
        <Con id="44" src="5" tgt="13" wght="-4.98905380823975" />
        <Con id="50" src="2" tgt="13" wght="-3.2349986494116973" />
        <Con id="63" src="4" tgt="14" wght="1.5436597913881764" />
        <Con id="64" src="6" tgt="13" wght="1.5185834865344001" />
        <Con id="66" src="11" tgt="65" wght="-0.85836776446509433" />
        <Con id="67" src="65" tgt="13" wght="-1.8067990547775206" />
        <Con id="71" src="8" tgt="14" wght="-1.4584603435193788" />
        <Con id="74" src="7" tgt="13" wght="1.2001743469644732" />
        <Con id="172" src="65" tgt="160" wght="1.9689317989584529" />
        <Con id="191" src="160" tgt="190" wght="1.7812270160618668" />
        <Con id="192" src="190" tgt="13" wght="1.0533352284653508" />
        <Con id="193" src="8" tgt="160" wght="-4.9709411017697773" />
        <Con id="221" src="5" tgt="160" wght="-1.7536269816829981" />
        <Con id="226" src="224" tgt="160" wght="-1.6458195810802074" />
        <Con id="232" src="230" tgt="224" wght="5" />
        <Con id="257" src="5" tgt="190" wght="2.3790433105496245" />
        <Con id="268" src="6" tgt="267" wght="-2.4937188789384872" />
        <Con id="349" src="2" tgt="348" wght="-3.3931162849969718" />
        <Con id="392" src="9" tgt="160" wght="2.74694656911958" />
        <Con id="399" src="3" tgt="224" wght="-5" />
        <Con id="423" src="9" tgt="230" wght="-4.9594716442011348" />
        <Con id="447" src="2" tgt="224" wght="2.070682150279584" />
        <Con id="504" src="267" tgt="190" wght="-4.6682450165661216" />
        <Con id="643" src="10" tgt="14" wght="3.4426080481072945" />
        <Con id="644" src="8" tgt="13" wght="1.6360366105350157" />
        <Con id="648" src="1" tgt="160" wght="-1.5288415873790284" />
        <Con id="651" src="6" tgt="224" wght="2.3482278981486235" />
        <Con id="656" src="1" tgt="13" wght="4.12193305169484" />
        <Con id="671" src="7" tgt="65" wght="1.8546895496547222" />
        <Con id="682" src="11" tgt="267" wght="3.324149529688095" />
        <Con id="692" src="190" tgt="14" wght="-4.9638328914014185" />
        <Con id="808" src="5" tgt="65" wght="1.6001623422694347" />
        <Con id="870" src="0" tgt="160" wght="-2.4618644034730837" />
        <Con id="896" src="4" tgt="230" wght="-3.5278585160004274" />
        <Con id="953" src="5" tgt="230" wght="2.6225963786662509" />
        <Con id="1103" src="3" tgt="230" wght="-3.8731969892978668" />
        <Con id="1111" src="348" tgt="1110" wght="4.6718524410683751" />
        <Con id="1112" src="1110" tgt="230" wght="5" />
        <Con id="1133" src="1110" tgt="160" wght="1.2325767908154213" />
        <Con id="1145" src="11" tgt="348" wght="2.7451958190862396" />
        <Con id="1155" src="1153" tgt="230" wght="5" />
        <Con id="1188" src="5" tgt="1110" wght="0.90832731887656559" />
        <Con id="1220" src="4" tgt="348" wght="-3.2808884447649946" />
        <Con id="1227" src="6" tgt="1226" wght="-2.3589951439796391" />
        <Con id="1228" src="1226" tgt="1153" wght="4.4938837410882115" />
        <Con id="1267" src="10" tgt="348" wght="-4.33748472481966" />
        <Con id="1311" src="1226" tgt="160" wght="-1.2384553160518408" />
        <Con id="1393" src="230" tgt="1392" wght="1.3955795524769992" />
        <Con id="1394" src="1392" tgt="65" wght="4.721317425647193" />
        <Con id="1406" src="10" tgt="1405" wght="4.7949494514614344" />
        <Con id="1407" src="1405" tgt="65" wght="-3.1015854235738516" />
        <Con id="1431" src="11" tgt="1110" wght="1.4496383187322714" />
        <Con id="1539" src="11" tgt="1538" wght="3.3504545156249446" />
        <Con id="1540" src="1538" tgt="13" wght="5" />
        <Con id="1574" src="8" tgt="1573" wght="0.53320079828535871" />
        <Con id="1575" src="1573" tgt="224" wght="3.3041835668291673" />
      </Connections>
    </Network>
    <Network id="80144" birthGen="378" fitness="107767.71875">
      <Nodes>
        <Node type="bias" id="0" />
        <Node type="in" id="1" />
        <Node type="in" id="2" />
        <Node type="in" id="3" />
        <Node type="in" id="4" />
        <Node type="in" id="5" />
        <Node type="in" id="6" />
        <Node type="in" id="7" />
        <Node type="in" id="8" />
        <Node type="in" id="9" />
        <Node type="in" id="10" />
        <Node type="in" id="11" />
        <Node type="in" id="12" />
        <Node type="out" id="13" />
        <Node type="out" id="14" />
        <Node type="hid" id="65" />
        <Node type="hid" id="160" />
        <Node type="hid" id="190" />
        <Node type="hid" id="224" />
        <Node type="hid" id="230" />
        <Node type="hid" id="267" />
        <Node type="hid" id="348" />
        <Node type="hid" id="1110" />
        <Node type="hid" id="1153" />
        <Node type="hid" id="1226" />
        <Node type="hid" id="1392" />
        <Node type="hid" id="1405" />
        <Node type="hid" id="1538" />
        <Node type="hid" id="1573" />
      </Nodes>
      <Connections>
        <Con id="21" src="3" tgt="13" wght="0.65897045556174727" />
        <Con id="43" src="9" tgt="13" wght="5" />
        <Con id="44" src="5" tgt="13" wght="-4.98905380823975" />
        <Con id="50" src="2" tgt="13" wght="-3.2349986494116973" />
        <Con id="63" src="4" tgt="14" wght="1.5436597913881764" />
        <Con id="64" src="6" tgt="13" wght="1.5185834865344001" />
        <Con id="66" src="11" tgt="65" wght="-0.85836776446509433" />
        <Con id="67" src="65" tgt="13" wght="-1.8067990547775206" />
        <Con id="71" src="8" tgt="14" wght="-1.4296218256679203" />
        <Con id="74" src="7" tgt="13" wght="1.2001743469644732" />
        <Con id="172" src="65" tgt="160" wght="1.9689317989584529" />
        <Con id="191" src="160" tgt="190" wght="1.7812270160618668" />
        <Con id="192" src="190" tgt="13" wght="1.0533352284653508" />
        <Con id="193" src="8" tgt="160" wght="-4.9709411017697773" />
        <Con id="221" src="5" tgt="160" wght="-0.7007846474577778" />
        <Con id="226" src="224" tgt="160" wght="-0.95842385978713929" />
        <Con id="232" src="230" tgt="224" wght="5" />
        <Con id="257" src="5" tgt="190" wght="2.3790433105496245" />
        <Con id="268" src="6" tgt="267" wght="-2.4937188789384872" />
        <Con id="349" src="2" tgt="348" wght="-3.4432774178328791" />
        <Con id="392" src="9" tgt="160" wght="2.74694656911958" />
        <Con id="399" src="3" tgt="224" wght="-5" />
        <Con id="423" src="9" tgt="230" wght="-4.9594716442011348" />
        <Con id="447" src="2" tgt="224" wght="1.1729309055954218" />
        <Con id="504" src="267" tgt="190" wght="-4.6682450165661216" />
        <Con id="643" src="10" tgt="14" wght="3.4426080481072945" />
        <Con id="644" src="8" tgt="13" wght="1.6360366105350157" />
        <Con id="648" src="1" tgt="160" wght="-1.5288415873790284" />
        <Con id="651" src="6" tgt="224" wght="2.3482278981486235" />
        <Con id="656" src="1" tgt="13" wght="4.12193305169484" />
        <Con id="671" src="7" tgt="65" wght="1.8546895496547222" />
        <Con id="682" src="11" tgt="267" wght="3.324149529688095" />
        <Con id="692" src="190" tgt="14" wght="-4.9638328914014185" />
        <Con id="808" src="5" tgt="65" wght="1.6001623422694347" />
        <Con id="870" src="0" tgt="160" wght="-2.4618644034730837" />
        <Con id="896" src="4" tgt="230" wght="-3.5278585160004274" />
        <Con id="953" src="5" tgt="230" wght="2.7638074160243087" />
        <Con id="1103" src="3" tgt="230" wght="-3.8731969892978668" />
        <Con id="1111" src="348" tgt="1110" wght="4.6718524410683751" />
        <Con id="1112" src="1110" tgt="230" wght="4.9551304920515946" />
        <Con id="1133" src="1110" tgt="160" wght="1.267683655194918" />
        <Con id="1145" src="11" tgt="348" wght="2.7451958190862396" />
        <Con id="1155" src="1153" tgt="230" wght="5" />
        <Con id="1188" src="5" tgt="1110" wght="0.90832731887656559" />
        <Con id="1220" src="4" tgt="348" wght="-2.6821706577931161" />
        <Con id="1227" src="6" tgt="1226" wght="-2.3589951439796391" />
        <Con id="1228" src="1226" tgt="1153" wght="4.4938837410882115" />
        <Con id="1267" src="10" tgt="348" wght="-4.33748472481966" />
        <Con id="1311" src="1226" tgt="160" wght="0.065353488744362309" />
        <Con id="1393" src="230" tgt="1392" wght="1.3955795524769992" />
        <Con id="1394" src="1392" tgt="65" wght="4.721317425647193" />
        <Con id="1406" src="10" tgt="1405" wght="4.7949494514614344" />
        <Con id="1407" src="1405" tgt="65" wght="-3.1015854235738516" />
        <Con id="1431" src="11" tgt="1110" wght="2.6929999593826541" />
        <Con id="1539" src="11" tgt="1538" wght="3.3504545156249446" />
        <Con id="1540" src="1538" tgt="13" wght="5" />
        <Con id="1574" src="8" tgt="1573" wght="1.1306884537531654" />
        <Con id="1575" src="1573" tgt="224" wght="3.3041835668291673" />
      </Connections>
    </Network>
    <Network id="80140" birthGen="378" fitness="107767.71875">
      <Nodes>
        <Node type="bias" id="0" />
        <Node type="in" id="1" />
        <Node type="in" id="2" />
        <Node type="in" id="3" />
        <Node type="in" id="4" />
        <Node type="in" id="5" />
        <Node type="in" id="6" />
        <Node type="in" id="7" />
        <Node type="in" id="8" />
        <Node type="in" id="9" />
        <Node type="in" id="10" />
        <Node type="in" id="11" />
        <Node type="in" id="12" />
        <Node type="out" id="13" />
        <Node type="out" id="14" />
        <Node type="hid" id="65" />
        <Node type="hid" id="160" />
        <Node type="hid" id="190" />
        <Node type="hid" id="224" />
        <Node type="hid" id="230" />
        <Node type="hid" id="267" />
        <Node type="hid" id="348" />
        <Node type="hid" id="1110" />
        <Node type="hid" id="1153" />
        <Node type="hid" id="1226" />
        <Node type="hid" id="1392" />
        <Node type="hid" id="1405" />
        <Node type="hid" id="1538" />
        <Node type="hid" id="1573" />
      </Nodes>
      <Connections>
        <Con id="21" src="3" tgt="13" wght="0.65897045556174727" />
        <Con id="43" src="9" tgt="13" wght="5" />
        <Con id="44" src="5" tgt="13" wght="-4.98905380823975" />
        <Con id="50" src="2" tgt="13" wght="-3.2349986494116973" />
        <Con id="63" src="4" tgt="14" wght="1.5436597913881764" />
        <Con id="64" src="6" tgt="13" wght="1.5185834865344001" />
        <Con id="66" src="11" tgt="65" wght="-0.85836776446509433" />
        <Con id="67" src="65" tgt="13" wght="-1.8067990547775206" />
        <Con id="71" src="8" tgt="14" wght="-1.4296218256679203" />
        <Con id="74" src="7" tgt="13" wght="1.2001743469644732" />
        <Con id="172" src="65" tgt="160" wght="1.9689317989584529" />
        <Con id="191" src="160" tgt="190" wght="1.7812270160618668" />
        <Con id="192" src="190" tgt="13" wght="1.0533352284653508" />
        <Con id="193" src="8" tgt="160" wght="-4.9709411017697773" />
        <Con id="221" src="5" tgt="160" wght="-0.7007846474577778" />
        <Con id="226" src="224" tgt="160" wght="-0.95842385978713929" />
        <Con id="232" src="230" tgt="224" wght="5" />
        <Con id="257" src="5" tgt="190" wght="2.3790433105496245" />
        <Con id="268" src="6" tgt="267" wght="-2.4937188789384872" />
        <Con id="349" src="2" tgt="348" wght="-3.4432774178328791" />
        <Con id="392" src="9" tgt="160" wght="2.74694656911958" />
        <Con id="399" src="3" tgt="224" wght="-5" />
        <Con id="423" src="9" tgt="230" wght="-4.9594716442011348" />
        <Con id="447" src="2" tgt="224" wght="1.1729309055954218" />
        <Con id="504" src="267" tgt="190" wght="-4.6682450165661216" />
        <Con id="643" src="10" tgt="14" wght="3.4426080481072945" />
        <Con id="644" src="8" tgt="13" wght="1.6360366105350157" />
        <Con id="648" src="1" tgt="160" wght="-1.5288415873790284" />
        <Con id="651" src="6" tgt="224" wght="2.3482278981486235" />
        <Con id="656" src="1" tgt="13" wght="4.12193305169484" />
        <Con id="671" src="7" tgt="65" wght="1.8546895496547222" />
        <Con id="682" src="11" tgt="267" wght="3.324149529688095" />
        <Con id="692" src="190" tgt="14" wght="-4.9638328914014185" />
        <Con id="808" src="5" tgt="65" wght="1.6001623422694347" />
        <Con id="870" src="0" tgt="160" wght="-2.4618644034730837" />
        <Con id="896" src="4" tgt="230" wght="-3.5278585160004274" />
        <Con id="953" src="5" tgt="230" wght="2.6225963786662509" />
        <Con id="1103" src="3" tgt="230" wght="-3.8731969892978668" />
        <Con id="1111" src="348" tgt="1110" wght="4.6718524410683751" />
        <Con id="1112" src="1110" tgt="230" wght="4.9551304920515946" />
        <Con id="1133" src="1110" tgt="160" wght="1.267683655194918" />
        <Con id="1145" src="11" tgt="348" wght="2.7451958190862396" />
        <Con id="1155" src="1153" tgt="230" wght="5" />
        <Con id="1188" src="5" tgt="1110" wght="0.50895431217146514" />
        <Con id="1220" src="4" tgt="348" wght="-2.6821706577931161" />
        <Con id="1227" src="6" tgt="1226" wght="-2.3589951439796391" />
        <Con id="1228" src="1226" tgt="1153" wght="4.4938837410882115" />
        <Con id="1267" src="10" tgt="348" wght="-4.33748472481966" />
        <Con id="1311" src="1226" tgt="160" wght="0.065353488744362309" />
        <Con id="1393" src="230" tgt="1392" wght="1.3955795524769992" />
        <Con id="1394" src="1392" tgt="65" wght="4.721317425647193" />
        <Con id="1406" src="10" tgt="1405" wght="4.7949494514614344" />
        <Con id="1407" src="1405" tgt="65" wght="-3.1015854235738516" />
        <Con id="1431" src="11" tgt="1110" wght="2.6929999593826541" />
        <Con id="1539" src="11" tgt="1538" wght="3.3504545156249446" />
        <Con id="1540" src="1538" tgt="13" wght="5" />
        <Con id="1574" src="8" tgt="1573" wght="0.53320079828535871" />
        <Con id="1575" src="1573" tgt="224" wght="3.3041835668291673" />
      </Connections>
    </Network>
    <Network id="80121" birthGen="378" fitness="51695.98828125">
      <Nodes>
        <Node type="bias" id="0" />
        <Node type="in" id="1" />
        <Node type="in" id="2" />
        <Node type="in" id="3" />
        <Node type="in" id="4" />
        <Node type="in" id="5" />
        <Node type="in" id="6" />
        <Node type="in" id="7" />
        <Node type="in" id="8" />
        <Node type="in" id="9" />
        <Node type="in" id="10" />
        <Node type="in" id="11" />
        <Node type="in" id="12" />
        <Node type="out" id="13" />
        <Node type="out" id="14" />
        <Node type="hid" id="65" />
        <Node type="hid" id="160" />
        <Node type="hid" id="187" />
        <Node type="hid" id="190" />
        <Node type="hid" id="706" />
        <Node type="hid" id="717" />
        <Node type="hid" id="752" />
        <Node type="hid" id="909" />
        <Node type="hid" id="939" />
      </Nodes>
      <Connections>
        <Con id="21" src="3" tgt="13" wght="4.5161855668759845" />
        <Con id="44" src="5" tgt="13" wght="-1.5337156178429723" />
        <Con id="45" src="4" tgt="13" wght="5" />
        <Con id="49" src="1" tgt="13" wght="4.07418096165911" />
        <Con id="50" src="2" tgt="13" wght="-2.6128291741787608" />
        <Con id="63" src="4" tgt="14" wght="1.2482752600363292" />
        <Con id="64" src="6" tgt="13" wght="1.6415174814458198" />
        <Con id="66" src="11" tgt="65" wght="1.8155891979536025" />
        <Con id="67" src="65" tgt="13" wght="-4.980900445850093" />
        <Con id="71" src="8" tgt="14" wght="-1.6766544452964822" />
        <Con id="74" src="7" tgt="13" wght="3.2936213398352265" />
        <Con id="161" src="2" tgt="160" wght="-0.454065498765098" />
        <Con id="162" src="160" tgt="13" wght="-4.0612378316598088" />
        <Con id="172" src="65" tgt="160" wght="1.5309146459886775" />
        <Con id="174" src="5" tgt="65" wght="2.888888992343273" />
        <Con id="177" src="6" tgt="65" wght="1.9952197525667643" />
        <Con id="180" src="160" tgt="14" wght="1.9583516076083012" />
        <Con id="181" src="12" tgt="65" wght="-4.9317150938271395" />
        <Con id="186" src="4" tgt="65" wght="-4.9693996920327459" />
        <Con id="188" src="2" tgt="187" wght="-0.99945540660845666" />
        <Con id="192" src="190" tgt="13" wght="3.2548411503566075" />
        <Con id="193" src="8" tgt="160" wght="-4.9809758504249757" />
        <Con id="198" src="0" tgt="160" wght="-2.5363872446198061" />
        <Con id="204" src="10" tgt="65" wght="-2.739200156166735" />
        <Con id="221" src="5" tgt="160" wght="-3.5818403223746511" />
        <Con id="239" src="187" tgt="190" wght="0.21610667956844309" />
        <Con id="292" src="6" tgt="187" wght="0.67095409027416841" />
        <Con id="366" src="11" tgt="187" wght="0.47492770435352888" />
        <Con id="381" src="1" tgt="65" wght="2.5895575709621821" />
        <Con id="385" src="0" tgt="187" wght="-4.066714926328153" />
        <Con id="386" src="11" tgt="160" wght="2.9404211792707065" />
        <Con id="469" src="8" tgt="187" wght="0.60102232496962782" />
        <Con id="518" src="187" tgt="65" wght="0.076884717161257221" />
        <Con id="635" src="7" tgt="65" wght="0.658561416502367" />
        <Con id="644" src="8" tgt="13" wght="-1.9745039188724014" />
        <Con id="648" src="1" tgt="160" wght="-3.9319703407569815" />
        <Con id="661" src="9" tgt="65" wght="-4.0049790569657695" />
        <Con id="683" src="3" tgt="190" wght="0.30466151387054607" />
        <Con id="684" src="1" tgt="187" wght="2.9728400767243568" />
        <Con id="688" src="187" tgt="13" wght="-4.1933320447101892" />
        <Con id="704" src="12" tgt="187" wght="4.30309635952958" />
        <Con id="707" src="3" tgt="706" wght="-5" />
        <Con id="708" src="706" tgt="187" wght="5" />
        <Con id="718" src="160" tgt="717" wght="-1.6394409298454904" />
        <Con id="719" src="717" tgt="190" wght="-2.1794535871073308" />
        <Con id="753" src="187" tgt="752" wght="-4.084317322999742" />
        <Con id="754" src="752" tgt="160" wght="5" />
        <Con id="766" src="7" tgt="706" wght="-0.99037515920970531" />
        <Con id="782" src="6" tgt="717" wght="-2.5313853658735752" />
        <Con id="786" src="10" tgt="190" wght="-1.503086270403545" />
        <Con id="792" src="2" tgt="717" wght="2.3363588705582061" />
        <Con id="802" src="10" tgt="717" wght="-2.3819404580617816" />
        <Con id="807" src="8" tgt="706" wght="0.84897215490636113" />
        <Con id="811" src="11" tgt="717" wght="-1.7167677637189627" />
        <Con id="816" src="752" tgt="13" wght="-3.5443719383329153" />
        <Con id="854" src="706" tgt="717" wght="0.86251745466142893" />
        <Con id="910" src="0" tgt="909" wght="3.6819903209101508" />
        <Con id="911" src="909" tgt="13" wght="4.9665499130910069" />
        <Con id="940" src="6" tgt="939" wght="3.8301689965578962" />
        <Con id="941" src="939" tgt="160" wght="3.3152510365319903" />
        <Con id="950" src="5" tgt="706" wght="2.9265623912222676" />
        <Con id="970" src="187" tgt="160" wght="-1.161642207062284" />
        <Con id="1029" src="3" tgt="909" wght="-1.6402105708148604" />
        <Con id="1079" src="1" tgt="909" wght="-2.9026225302368402" />
        <Con id="1100" src="160" tgt="909" wght="-2.4076287987520595" />
        <Con id="1179" src="0" tgt="706" wght="-4.9830151302898757" />
        <Con id="1209" src="10" tgt="752" wght="2.3711794355605593" />
      </Connections>
    </Network>
    <Network id="80122" birthGen="378" fitness="51695.98828125">
      <Nodes>
        <Node type="bias" id="0" />
        <Node type="in" id="1" />
        <Node type="in" id="2" />
        <Node type="in" id="3" />
        <Node type="in" id="4" />
        <Node type="in" id="5" />
        <Node type="in" id="6" />
        <Node type="in" id="7" />
        <Node type="in" id="8" />
        <Node type="in" id="9" />
        <Node type="in" id="10" />
        <Node type="in" id="11" />
        <Node type="in" id="12" />
        <Node type="out" id="13" />
        <Node type="out" id="14" />
        <Node type="hid" id="65" />
        <Node type="hid" id="160" />
        <Node type="hid" id="187" />
        <Node type="hid" id="190" />
        <Node type="hid" id="706" />
        <Node type="hid" id="717" />
        <Node type="hid" id="752" />
        <Node type="hid" id="909" />
        <Node type="hid" id="939" />
      </Nodes>
      <Connections>
        <Con id="21" src="3" tgt="13" wght="4.5161855668759845" />
        <Con id="44" src="5" tgt="13" wght="-1.5337156178429723" />
        <Con id="45" src="4" tgt="13" wght="5" />
        <Con id="49" src="1" tgt="13" wght="4.07418096165911" />
        <Con id="50" src="2" tgt="13" wght="-2.6128291741787608" />
        <Con id="63" src="4" tgt="14" wght="1.2482752600363292" />
        <Con id="64" src="6" tgt="13" wght="1.6415174814458198" />
        <Con id="66" src="11" tgt="65" wght="1.8155891979536025" />
        <Con id="67" src="65" tgt="13" wght="-4.980900445850093" />
        <Con id="71" src="8" tgt="14" wght="-1.6766544452964822" />
        <Con id="74" src="7" tgt="13" wght="3.2936213398352265" />
        <Con id="161" src="2" tgt="160" wght="-0.454065498765098" />
        <Con id="162" src="160" tgt="13" wght="-4.0612378316598088" />
        <Con id="172" src="65" tgt="160" wght="1.5309146459886775" />
        <Con id="174" src="5" tgt="65" wght="2.888888992343273" />
        <Con id="177" src="6" tgt="65" wght="1.9952197525667643" />
        <Con id="180" src="160" tgt="14" wght="1.9583516076083012" />
        <Con id="181" src="12" tgt="65" wght="-4.9317150938271395" />
        <Con id="186" src="4" tgt="65" wght="-4.99726700057851" />
        <Con id="188" src="2" tgt="187" wght="-0.99945540660845666" />
        <Con id="192" src="190" tgt="13" wght="3.2548411503566075" />
        <Con id="193" src="8" tgt="160" wght="-4.9809758504249757" />
        <Con id="198" src="0" tgt="160" wght="-2.5363872446198061" />
        <Con id="204" src="10" tgt="65" wght="-2.739200156166735" />
        <Con id="221" src="5" tgt="160" wght="-3.5818403223746511" />
        <Con id="239" src="187" tgt="190" wght="0.21610667956844309" />
        <Con id="292" src="6" tgt="187" wght="0.67095409027416841" />
        <Con id="366" src="11" tgt="187" wght="0.47492770435352888" />
        <Con id="381" src="1" tgt="65" wght="2.5895575709621821" />
        <Con id="385" src="0" tgt="187" wght="-4.066714926328153" />
        <Con id="386" src="11" tgt="160" wght="2.9404211792707065" />
        <Con id="469" src="8" tgt="187" wght="0.60102232496962782" />
        <Con id="518" src="187" tgt="65" wght="0.076884717161257221" />
        <Con id="635" src="7" tgt="65" wght="0.658561416502367" />
        <Con id="644" src="8" tgt="13" wght="-1.9745039188724014" />
        <Con id="648" src="1" tgt="160" wght="-3.9319703407569815" />
        <Con id="661" src="9" tgt="65" wght="-4.0049790569657695" />
        <Con id="683" src="3" tgt="190" wght="0.30466151387054607" />
        <Con id="684" src="1" tgt="187" wght="2.9728400767243568" />
        <Con id="688" src="187" tgt="13" wght="-4.1933320447101892" />
        <Con id="704" src="12" tgt="187" wght="4.30309635952958" />
        <Con id="707" src="3" tgt="706" wght="-5" />
        <Con id="708" src="706" tgt="187" wght="5" />
        <Con id="718" src="160" tgt="717" wght="-1.6394409298454904" />
        <Con id="719" src="717" tgt="190" wght="-2.1794535871073308" />
        <Con id="753" src="187" tgt="752" wght="-4.084317322999742" />
        <Con id="754" src="752" tgt="160" wght="5" />
