<?xml version="1.0" encoding="utf-8"?>
<Root>
  <ActivationFunctions>
    <Fn id="0" name="SteepenedSigmoid" prob="1" />
  </ActivationFunctions>
  <Networks>
    <Network id="76024" birthGen="344" fitness="108452.921875">
      <Nodes>
        <Node type="bias" id="0" />
        <Node type="in" id="1" />
        <Node type="in" id="2" />
        <Node type="in" id="3" />
        <Node type="in" id="4" />
        <Node type="in" id="5" />
        <Node type="in" id="6" />
        <Node type="in" id="7" />
        <Node type="in" id="8" />
        <Node type="in" id="9" />
        <Node type="in" id="10" />
        <Node type="in" id="11" />
        <Node type="in" id="12" />
        <Node type="out" id="13" />
        <Node type="out" id="14" />
        <Node type="hid" id="65" />
        <Node type="hid" id="160" />
        <Node type="hid" id="190" />
        <Node type="hid" id="224" />
        <Node type="hid" id="230" />
        <Node type="hid" id="267" />
        <Node type="hid" id="348" />
        <Node type="hid" id="1110" />
        <Node type="hid" id="1153" />
        <Node type="hid" id="1226" />
        <Node type="hid" id="1392" />
        <Node type="hid" id="1405" />
      </Nodes>
      <Connections>
        <Con id="21" src="3" tgt="13" wght="0.89684241999635017" />
        <Con id="43" src="9" tgt="13" wght="4.8627933585250078" />
        <Con id="44" src="5" tgt="13" wght="-4.264041013084352" />
        <Con id="50" src="2" tgt="13" wght="-2.30032361112535" />
        <Con id="63" src="4" tgt="14" wght="1.5937451886260026" />
        <Con id="64" src="6" tgt="13" wght="1.5185834865344001" />
        <Con id="66" src="11" tgt="65" wght="-1.1997964885085821" />
        <Con id="67" src="65" tgt="13" wght="-1.8242365076025726" />
        <Con id="71" src="8" tgt="14" wght="-1.5307403726591335" />
        <Con id="74" src="7" tgt="13" wght="2.3090491600929051" />
        <Con id="172" src="65" tgt="160" wght="1.9689317989584529" />
        <Con id="191" src="160" tgt="190" wght="1.0703513358912189" />
        <Con id="192" src="190" tgt="13" wght="1.0334648831331728" />
        <Con id="193" src="8" tgt="160" wght="-4.8397068766758036" />
        <Con id="221" src="5" tgt="160" wght="-0.68595632668423312" />
        <Con id="226" src="224" tgt="160" wght="-0.55373693081280861" />
        <Con id="232" src="230" tgt="224" wght="4.7985699765894285" />
        <Con id="257" src="5" tgt="190" wght="2.3790433105496245" />
        <Con id="268" src="6" tgt="267" wght="-2.4846688944432622" />
        <Con id="349" src="2" tgt="348" wght="-4.57449521869421" />
        <Con id="392" src="9" tgt="160" wght="2.74694656911958" />
        <Con id="399" src="3" tgt="224" wght="-4.1676514269784093" />
        <Con id="423" src="9" tgt="230" wght="-4.4412964256480336" />
        <Con id="447" src="2" tgt="224" wght="3.0302106351731095" />
        <Con id="504" src="267" tgt="190" wght="-4.6590307511818159" />
        <Con id="643" src="10" tgt="14" wght="3.43826977277846" />
        <Con id="644" src="8" tgt="13" wght="-1.1687923036515713" />
        <Con id="648" src="1" tgt="160" wght="-1.4159978663856776" />
        <Con id="651" src="6" tgt="224" wght="-3.9673510286957026" />
        <Con id="656" src="1" tgt="13" wght="4.12193305169484" />
        <Con id="671" src="7" tgt="65" wght="3.4705649214881409" />
        <Con id="682" src="11" tgt="267" wght="3.3282729691951949" />
        <Con id="692" src="190" tgt="14" wght="-4.9781119598789214" />
        <Con id="732" src="11" tgt="13" wght="3.3343956060905975" />
        <Con id="808" src="5" tgt="65" wght="1.598639921285212" />
        <Con id="870" src="0" tgt="160" wght="-2.4618644034730837" />
        <Con id="896" src="4" tgt="230" wght="-3.505841962438903" />
        <Con id="926" src="8" tgt="224" wght="0.53320079828535871" />
        <Con id="953" src="5" tgt="230" wght="2.8103114121822044" />
        <Con id="1103" src="3" tgt="230" wght="3.8543884368813184" />
        <Con id="1111" src="348" tgt="1110" wght="4.6718524410683751" />
        <Con id="1112" src="1110" tgt="230" wght="4.9479119559351155" />
        <Con id="1133" src="1110" tgt="160" wght="0.56168657039184788" />
        <Con id="1145" src="11" tgt="348" wght="3.0376324035165485" />
        <Con id="1155" src="1153" tgt="230" wght="5" />
        <Con id="1188" src="5" tgt="1110" wght="3.8108131475746632" />
        <Con id="1220" src="4" tgt="348" wght="-2.6847264729440212" />
        <Con id="1227" src="6" tgt="1226" wght="-2.3531276497870346" />
        <Con id="1267" src="10" tgt="348" wght="2.23228951709192" />
        <Con id="1311" src="1226" tgt="160" wght="1.7726232936642183" />
        <Con id="1393" src="230" tgt="1392" wght="2.7894210460769235" />
        <Con id="1394" src="1392" tgt="65" wght="5" />
        <Con id="1406" src="10" tgt="1405" wght="-1.5801523020491004" />
        <Con id="1407" src="1405" tgt="65" wght="0.98905571133002612" />
        <Con id="1431" src="11" tgt="1110" wght="3.9075660159436514" />
      </Connections>
    </Network>
  </Networks>
</Root>