<?xml version="1.0" encoding="utf-8"?>
<Root>
  <ActivationFunctions>
    <Fn id="0" name="SteepenedSigmoid" prob="1" />
  </ActivationFunctions>
  <Networks>
    <Network id="37194" birthGen="46" fitness="4988.072591145833">
      <Nodes>
        <Node type="bias" id="0" />
        <Node type="in" id="1" />
        <Node type="in" id="2" />
        <Node type="in" id="3" />
        <Node type="in" id="4" />
        <Node type="out" id="5" />
        <Node type="hid" id="15" />
        <Node type="hid" id="22" />
        <Node type="hid" id="25" />
        <Node type="hid" id="129" />
        <Node type="hid" id="247" />
      </Nodes>
      <Connections>
        <Con id="11" src="1" tgt="5" wght="4.0592548177720884" />
        <Con id="12" src="0" tgt="5" wght="3.3518776272452446" />
        <Con id="14" src="4" tgt="5" wght="-0.27670715488519038" />
        <Con id="16" src="3" tgt="15" wght="1.4232352202851208" />
        <Con id="17" src="15" tgt="5" wght="4.5832819935587246" />
        <Con id="23" src="1" tgt="22" wght="-0.86610749931457387" />
        <Con id="24" src="22" tgt="5" wght="4.463303607069312" />
        <Con id="26" src="3" tgt="25" wght="-4.24707019071611" />
        <Con id="27" src="25" tgt="5" wght="-4.6773443366093685" />
        <Con id="66" src="3" tgt="22" wght="4.6078914308437318" />
        <Con id="130" src="25" tgt="129" wght="-5" />
        <Con id="131" src="129" tgt="5" wght="2.4304548710001117" />
        <Con id="244" src="3" tgt="5" wght="5" />
        <Con id="248" src="1" tgt="247" wght="3.9039334210691852" />
        <Con id="249" src="247" tgt="5" wght="5" />
      </Connections>
    </Network>
  </Networks>
</Root>