<?xml version="1.0" encoding="utf-8"?>
<Root>
  <ActivationFunctions>
    <Fn id="0" name="SteepenedSigmoid" prob="1" />
  </ActivationFunctions>
  <Networks>
    <Network id="37716" birthGen="49" fitness="4768.350911458333">
      <Nodes>
        <Node type="bias" id="0" />
        <Node type="in" id="1" />
        <Node type="in" id="2" />
        <Node type="in" id="3" />
        <Node type="in" id="4" />
        <Node type="out" id="5" />
        <Node type="hid" id="15" />
        <Node type="hid" id="22" />
        <Node type="hid" id="25" />
        <Node type="hid" id="129" />
        <Node type="hid" id="211" />
      </Nodes>
      <Connections>
        <Con id="9" src="3" tgt="5" wght="-4.2121519695357845" />
        <Con id="11" src="1" tgt="5" wght="-3.1348004903780859" />
        <Con id="12" src="0" tgt="5" wght="2.9038518621579392" />
        <Con id="14" src="4" tgt="5" wght="0.96449408695247563" />
        <Con id="16" src="3" tgt="15" wght="1.4288282817808349" />
        <Con id="17" src="15" tgt="5" wght="-3.6376473937415224" />
        <Con id="23" src="1" tgt="22" wght="0.62576603636450323" />
        <Con id="24" src="22" tgt="5" wght="0.1322570626498619" />
        <Con id="26" src="3" tgt="25" wght="3.2511320141025704" />
        <Con id="27" src="25" tgt="5" wght="-0.41670682252003982" />
        <Con id="66" src="3" tgt="22" wght="-4.79678506962955" />
        <Con id="87" src="2" tgt="15" wght="4.8459569031046081" />
        <Con id="98" src="22" tgt="15" wght="0.73087849304173047" />
        <Con id="130" src="25" tgt="129" wght="-2.6502420576638497" />
        <Con id="212" src="129" tgt="211" wght="1.8555687037312971" />
        <Con id="213" src="211" tgt="5" wght="4.9921241560467156" />
        <Con id="222" src="2" tgt="5" wght="2.4197341720874697" />
        <Con id="252" src="4" tgt="25" wght="3.041974675855279" />
      </Connections>
    </Network>
  </Networks>
</Root>