<?xml version="1.0" encoding="utf-8"?>
<Root>
  <ActivationFunctions>
    <Fn id="0" name="Linear" prob="0.25" />
    <Fn id="1" name="BipolarSigmoid" prob="0.25" />
    <Fn id="2" name="Gaussian" prob="0.25" />
    <Fn id="3" name="Sine" prob="0.25" />
  </ActivationFunctions>
  <Networks>
    <Network id="18329" birthGen="1" fitness="2685.9525553385415">
      <Nodes>
        <Node type="bias" id="0" fnId="0" />
        <Node type="in" id="1" fnId="0" />
        <Node type="in" id="2" fnId="0" />
        <Node type="in" id="3" fnId="0" />
        <Node type="in" id="4" fnId="0" />
        <Node type="out" id="5" fnId="0" />
        <Node type="out" id="6" fnId="0" />
        <Node type="hid" id="21" fnId="0" />
        <Node type="hid" id="89" fnId="0" />
      </Nodes>
      <Connections>
        <Con id="16" src="4" tgt="6" wght="0.36588765559935571" />
        <Con id="22" src="2" tgt="21" wght="0.93514013617052227" />
        <Con id="23" src="21" tgt="5" wght="0.45320937848541232" />
        <Con id="24" src="3" tgt="5" wght="-0.061721685821640865" />
        <Con id="29" src="21" tgt="6" wght="0.97925450273948833" />
        <Con id="44" src="2" tgt="6" wght="2.13637109169766" />
        <Con id="90" src="21" tgt="89" wght="0.4793962692136714" />
        <Con id="91" src="89" tgt="6" wght="3.7851791394269485" />
      </Connections>
    </Network>
  </Networks>
</Root>