<?xml version="1.0" encoding="utf-8"?>
<Root>
  <ActivationFunctions>
    <Fn id="0" name="SteepenedSigmoid" prob="1" />
  </ActivationFunctions>
  <Networks>
    <Network id="12750" birthGen="79" fitness="3499.9996744791665">
      <Nodes>
        <Node type="bias" id="0" />
        <Node type="in" id="1" />
        <Node type="in" id="2" />
        <Node type="in" id="3" />
        <Node type="in" id="4" />
        <Node type="out" id="5" />
        <Node type="hid" id="49" />
        <Node type="hid" id="70" />
      </Nodes>
      <Connections>
        <Con id="12" src="1" tgt="5" wght="3.6783326730459933" />
        <Con id="13" src="0" tgt="5" wght="-1.8250320943130216" />
        <Con id="14" src="2" tgt="5" wght="1.6872433667054512" />
        <Con id="15" src="4" tgt="5" wght="-1.6471331544550791" />
        <Con id="50" src="0" tgt="49" wght="0.82324640987848419" />
        <Con id="71" src="49" tgt="70" wght="3.497481610307775" />
        <Con id="72" src="70" tgt="5" wght="4.99795001605093" />
        <Con id="84" src="49" tgt="5" wght="2.5349891522618755" />
      </Connections>
    </Network>
  </Networks>
</Root>