<?xml version="1.0" encoding="utf-8"?>
<Root>
  <ActivationFunctions>
    <Fn id="0" name="SteepenedSigmoid" prob="1" />
  </ActivationFunctions>
  <Networks>
    <Network id="18034" birthGen="150" fitness="1889.6384887695313">
      <Nodes>
        <Node type="bias" id="0" />
        <Node type="in" id="1" />
        <Node type="in" id="2" />
        <Node type="in" id="3" />
        <Node type="in" id="4" />
        <Node type="in" id="5" />
        <Node type="in" id="6" />
        <Node type="in" id="7" />
        <Node type="in" id="8" />
        <Node type="in" id="9" />
        <Node type="in" id="10" />
        <Node type="out" id="11" />
        <Node type="hid" id="42" />
        <Node type="hid" id="48" />
      </Nodes>
      <Connections>
        <Con id="19" src="7" tgt="11" wght="-3.8788900051391293" />
        <Con id="26" src="5" tgt="11" wght="-3.9213409119010523" />
        <Con id="27" src="0" tgt="11" wght="1.7583065731161283" />
        <Con id="28" src="2" tgt="11" wght="-3.3478386064811243" />
        <Con id="29" src="10" tgt="11" wght="-1.9584314461858083" />
        <Con id="30" src="1" tgt="11" wght="-1.6475948552463415" />
        <Con id="31" src="3" tgt="11" wght="-2.7068076109530681" />
        <Con id="32" src="4" tgt="11" wght="-0.89172752644230435" />
        <Con id="33" src="9" tgt="11" wght="-0.79490279891811289" />
        <Con id="37" src="6" tgt="11" wght="-0.82253721601106133" />
        <Con id="38" src="8" tgt="11" wght="-4.3330903897922557" />
        <Con id="43" src="4" tgt="42" wght="-3.8712698464201067" />
        <Con id="44" src="42" tgt="11" wght="5" />
        <Con id="49" src="2" tgt="48" wght="1.7567952957607633" />
        <Con id="50" src="48" tgt="11" wght="2.0949901891973908" />
        <Con id="51" src="42" tgt="48" wght="2.8266021719741881" />
        <Con id="55" src="10" tgt="42" wght="0.10326487375950133" />
        <Con id="89" src="9" tgt="42" wght="0.22863372153591627" />
        <Con id="90" src="8" tgt="42" wght="-0.60176949423417225" />
        <Con id="91" src="5" tgt="42" wght="-0.60551721791013269" />
      </Connections>
    </Network>
    <Network id="17906" birthGen="149" fitness="1633.2858276367188">
      <Nodes>
        <Node type="bias" id="0" />
        <Node type="in" id="1" />
        <Node type="in" id="2" />
        <Node type="in" id="3" />
        <Node type="in" id="4" />
        <Node type="in" id="5" />
        <Node type="in" id="6" />
        <Node type="in" id="7" />
        <Node type="in" id="8" />
        <Node type="in" id="9" />
        <Node type="in" id="10" />
        <Node type="out" id="11" />
        <Node type="hid" id="42" />
        <Node type="hid" id="48" />
      </Nodes>
      <Connections>
        <Con id="19" src="7" tgt="11" wght="-3.8788900051391293" />
        <Con id="26" src="5" tgt="11" wght="-3.9213409119010523" />
        <Con id="27" src="0" tgt="11" wght="1.7583065731161283" />
        <Con id="28" src="2" tgt="11" wght="-3.3478386064811243" />
        <Con id="29" src="10" tgt="11" wght="-1.9584314461858083" />
        <Con id="30" src="1" tgt="11" wght="-1.6475948552463415" />
        <Con id="31" src="3" tgt="11" wght="-2.7068076109530681" />
        <Con id="32" src="4" tgt="11" wght="-0.89172752644230435" />
        <Con id="33" src="9" tgt="11" wght="-0.79490279891811289" />
        <Con id="37" src="6" tgt="11" wght="-0.79286144810668879" />
        <Con id="38" src="8" tgt="11" wght="-4.3330903897922557" />
        <Con id="43" src="4" tgt="42" wght="-3.8712698464201067" />
        <Con id="44" src="42" tgt="11" wght="5" />
        <Con id="49" src="2" tgt="48" wght="1.7567952957607633" />
        <Con id="50" src="48" tgt="11" wght="2.0949901891973908" />
        <Con id="51" src="42" tgt="48" wght="2.8266021719741881" />
        <Con id="55" src="10" tgt="42" wght="0.10326487375950133" />
        <Con id="89" src="9" tgt="42" wght="0.24598253837674416" />
        <Con id="90" src="8" tgt="42" wght="-0.61295250644120047" />
        <Con id="91" src="5" tgt="42" wght="-0.60551721791013269" />
      </Connections>
    </Network>
    <Network id="18027" birthGen="150" fitness="1832.6090087890625">
      <Nodes>
        <Node type="bias" id="0" />
        <Node type="in" id="1" />
        <Node type="in" id="2" />
        <Node type="in" id="3" />
        <Node type="in" id="4" />
        <Node type="in" id="5" />
        <Node type="in" id="6" />
        <Node type="in" id="7" />
        <Node type="in" id="8" />
        <Node type="in" id="9" />
        <Node type="in" id="10" />
        <Node type="out" id="11" />
        <Node type="hid" id="42" />
        <Node type="hid" id="48" />
      </Nodes>
      <Connections>
        <Con id="19" src="7" tgt="11" wght="-3.8788900051391293" />
        <Con id="26" src="5" tgt="11" wght="-3.9213409119010523" />
        <Con id="27" src="0" tgt="11" wght="1.7140150594067964" />
        <Con id="28" src="2" tgt="11" wght="-3.3636163569485609" />
        <Con id="29" src="10" tgt="11" wght="-1.9391850783346058" />
        <Con id="30" src="1" tgt="11" wght="-1.6475948552463415" />
        <Con id="31" src="3" tgt="11" wght="-2.7068076109530681" />
        <Con id="32" src="4" tgt="11" wght="-0.89172752644230435" />
        <Con id="33" src="9" tgt="11" wght="-0.79490279891811289" />
        <Con id="37" src="6" tgt="11" wght="-0.79286144810668879" />
        <Con id="38" src="8" tgt="11" wght="-3.3252540141415055" />
        <Con id="43" src="4" tgt="42" wght="-3.8712698464201067" />
        <Con id="44" src="42" tgt="11" wght="5" />
        <Con id="49" src="2" tgt="48" wght="1.7567952957607633" />
        <Con id="50" src="48" tgt="11" wght="2.0949901891973908" />
        <Con id="51" src="42" tgt="48" wght="2.8266021719741881" />
        <Con id="55" src="10" tgt="42" wght="0.10326487375950133" />
        <Con id="89" src="9" tgt="42" wght="0.24598253837674416" />
        <Con id="90" src="8" tgt="42" wght="-0.61295250644120047" />
        <Con id="91" src="5" tgt="42" wght="-0.60551721791013269" />
      </Connections>
    </Network>
    <Network id="18044" birthGen="150" fitness="1285.7049560546875">
      <Nodes>
        <Node type="bias" id="0" />
        <Node type="in" id="1" />
        <Node type="in" id="2" />
        <Node type="in" id="3" />
        <Node type="in" id="4" />
        <Node type="in" id="5" />
        <Node type="in" id="6" />
        <Node type="in" id="7" />
        <Node type="in" id="8" />
        <Node type="in" id="9" />
        <Node type="in" id="10" />
        <Node type="out" id="11" />
        <Node type="hid" id="42" />
        <Node type="hid" id="48" />
      </Nodes>
      <Connections>
        <Con id="19" src="7" tgt="11" wght="-3.8788900051391293" />
        <Con id="26" src="5" tgt="11" wght="-3.9213409119010523" />
        <Con id="27" src="0" tgt="11" wght="1.7140150594067964" />
        <Con id="28" src="2" tgt="11" wght="-3.3478386064811243" />
        <Con id="29" src="10" tgt="11" wght="-1.9391850783346058" />
        <Con id="30" src="1" tgt="11" wght="-1.1729374214964396" />
        <Con id="31" src="3" tgt="11" wght="-2.7068076109530681" />
        <Con id="32" src="4" tgt="11" wght="-0.89172752644230435" />
        <Con id="33" src="9" tgt="11" wght="-0.79490279891811289" />
        <Con id="37" src="6" tgt="11" wght="-0.79286144810668879" />
        <Con id="38" src="8" tgt="11" wght="-3.3252540141415055" />
        <Con id="43" src="4" tgt="42" wght="-3.8712698464201067" />
        <Con id="44" src="42" tgt="11" wght="5" />
        <Con id="49" src="2" tgt="48" wght="1.7643776108648033" />
        <Con id="50" src="48" tgt="11" wght="2.0949901891973908" />
        <Con id="51" src="42" tgt="48" wght="2.8266021719741881" />
        <Con id="55" src="10" tgt="42" wght="0.10326487375950133" />
        <Con id="89" src="9" tgt="42" wght="0.24598253837674416" />
        <Con id="90" src="8" tgt="42" wght="-0.88452973969534554" />
        <Con id="91" src="5" tgt="42" wght="-0.60551721791013269" />
      </Connections>
    </Network>
    <Network id="17923" birthGen="149" fitness="1468.5047607421875">
      <Nodes>
        <Node type="bias" id="0" />
        <Node type="in" id="1" />
        <Node type="in" id="2" />
        <Node type="in" id="3" />
        <Node type="in" id="4" />
        <Node type="in" id="5" />
        <Node type="in" id="6" />
        <Node type="in" id="7" />
        <Node type="in" id="8" />
        <Node type="in" id="9" />
        <Node type="in" id="10" />
        <Node type="out" id="11" />
        <Node type="hid" id="42" />
        <Node type="hid" id="48" />
      </Nodes>
      <Connections>
        <Con id="19" src="7" tgt="11" wght="-3.8788900051391293" />
        <Con id="26" src="5" tgt="11" wght="-3.9213409119010523" />
        <Con id="27" src="0" tgt="11" wght="1.7140150594067964" />
        <Con id="28" src="2" tgt="11" wght="-3.3478386064811243" />
        <Con id="29" src="10" tgt="11" wght="-1.9391850783346058" />
        <Con id="30" src="1" tgt="11" wght="-1.6475948552463415" />
        <Con id="31" src="3" tgt="11" wght="-2.7068076109530681" />
        <Con id="32" src="4" tgt="11" wght="-0.89172752644230435" />
        <Con id="33" src="9" tgt="11" wght="-0.79490279891811289" />
        <Con id="37" src="6" tgt="11" wght="-0.79286144810668879" />
        <Con id="38" src="8" tgt="11" wght="-4.3330903897922557" />
        <Con id="43" src="4" tgt="42" wght="-3.8712698464201067" />
        <Con id="44" src="42" tgt="11" wght="5" />
        <Con id="49" src="2" tgt="48" wght="1.7567952957607633" />
        <Con id="50" src="48" tgt="11" wght="2.1060958457684631" />
        <Con id="51" src="42" tgt="48" wght="2.8266021719741881" />
        <Con id="55" src="10" tgt="42" wght="0.10326487375950133" />
        <Con id="89" src="9" tgt="42" wght="0.24598253837674416" />
        <Con id="90" src="8" tgt="42" wght="-0.61295250644120047" />
        <Con id="91" src="5" tgt="42" wght="-0.60551721791013269" />
      </Connections>
    </Network>
    <Network id="18040" birthGen="150" fitness="1889.189208984375">
      <Nodes>
        <Node type="bias" id="0" />
        <Node type="in" id="1" />
        <Node type="in" id="2" />
        <Node type="in" id="3" />
        <Node type="in" id="4" />
        <Node type="in" id="5" />
        <Node type="in" id="6" />
        <Node type="in" id="7" />
        <Node type="in" id="8" />
        <Node type="in" id="9" />
        <Node type="in" id="10" />
        <Node type="out" id="11" />
        <Node type="hid" id="42" />
        <Node type="hid" id="48" />
      </Nodes>
      <Connections>
        <Con id="19" src="7" tgt="11" wght="-3.8788900051391293" />
        <Con id="26" src="5" tgt="11" wght="-3.9213409119010523" />
        <Con id="27" src="0" tgt="11" wght="1.7583065731161283" />
        <Con id="28" src="2" tgt="11" wght="-3.3478386064811243" />
        <Con id="29" src="10" tgt="11" wght="-1.9391850783346058" />
        <Con id="30" src="1" tgt="11" wght="-1.6475948552463415" />
        <Con id="31" src="3" tgt="11" wght="-2.7068076109530681" />
        <Con id="32" src="4" tgt="11" wght="-0.89172752644230435" />
        <Con id="33" src="9" tgt="11" wght="-0.79490279891811289" />
        <Con id="37" src="6" tgt="11" wght="-0.79286144810668879" />
        <Con id="38" src="8" tgt="11" wght="-3.3252540141415055" />
        <Con id="43" src="4" tgt="42" wght="-3.8712698464201067" />
        <Con id="44" src="42" tgt="11" wght="5" />
        <Con id="49" src="2" tgt="48" wght="1.7567952957607633" />
        <Con id="50" src="48" tgt="11" wght="2.0949901891973908" />
        <Con id="51" src="42" tgt="48" wght="2.8266021719741881" />
        <Con id="55" src="10" tgt="42" wght="0.10326487375950133" />
        <Con id="89" src="9" tgt="42" wght="0.24598253837674416" />
        <Con id="90" src="8" tgt="42" wght="-0.61295250644120047" />
        <Con id="91" src="5" tgt="42" wght="-0.60551721791013269" />
      </Connections>
    </Network>
    <Network id="18053" birthGen="150" fitness="1605.6447143554688">
      <Nodes>
        <Node type="bias" id="0" />
        <Node type="in" id="1" />
        <Node type="in" id="2" />
        <Node type="in" id="3" />
        <Node type="in" id="4" />
        <Node type="in" id="5" />
        <Node type="in" id="6" />
        <Node type="in" id="7" />
        <Node type="in" id="8" />
        <Node type="in" id="9" />
        <Node type="in" id="10" />
        <Node type="out" id="11" />
        <Node type="hid" id="42" />
        <Node type="hid" id="48" />
        <Node type="hid" id="121" />
      </Nodes>
      <Connections>
        <Con id="19" src="7" tgt="11" wght="-5" />
        <Con id="26" src="5" tgt="11" wght="-5" />
        <Con id="27" src="0" tgt="11" wght="1.8765875505384577" />
        <Con id="28" src="2" tgt="11" wght="-2.539893751963973" />
        <Con id="29" src="10" tgt="11" wght="-1.8901213859008317" />
        <Con id="30" src="1" tgt="11" wght="2.0285666634864703" />
        <Con id="31" src="3" tgt="11" wght="-2.6933252379808819" />
        <Con id="32" src="4" tgt="11" wght="-0.15369915053472011" />
        <Con id="33" src="9" tgt="11" wght="-1.4915255012668973" />
        <Con id="38" src="8" tgt="11" wght="-3.7232413547307024" />
        <Con id="43" src="4" tgt="42" wght="-1.7954713575950039" />
        <Con id="44" src="42" tgt="11" wght="3.2868741401071309" />
        <Con id="49" src="2" tgt="48" wght="-4.4864834821789961" />
        <Con id="50" src="48" tgt="11" wght="0.29178700485859865" />
        <Con id="55" src="10" tgt="42" wght="0.10578531622774479" />
        <Con id="81" src="48" tgt="42" wght="-0.79020380508154631" />
        <Con id="89" src="9" tgt="42" wght="0.23901935718348949" />
        <Con id="90" src="8" tgt="42" wght="-0.931012042604078" />
        <Con id="91" src="5" tgt="42" wght="-0.5534331826493144" />
        <Con id="95" src="6" tgt="42" wght="1.8491821885179422" />
        <Con id="122" src="1" tgt="121" wght="-3.7668269963766186" />
        <Con id="123" src="121" tgt="11" wght="5" />
        <Con id="129" src="3" tgt="48" wght="-3.5576053446940881" />
        <Con id="143" src="6" tgt="48" wght="0.964066436943555" />
        <Con id="153" src="4" tgt="48" wght="-2.2263065802283881" />
        <Con id="181" src="7" tgt="48" wght="-0.45053200648789771" />
      </Connections>
    </Network>
    <Network id="17941" birthGen="149" fitness="1481.1632080078125">
      <Nodes>
        <Node type="bias" id="0" />
        <Node type="in" id="1" />
        <Node type="in" id="2" />
        <Node type="in" id="3" />
        <Node type="in" id="4" />
        <Node type="in" id="5" />
        <Node type="in" id="6" />
        <Node type="in" id="7" />
        <Node type="in" id="8" />
        <Node type="in" id="9" />
        <Node type="in" id="10" />
        <Node type="out" id="11" />
        <Node type="hid" id="42" />
        <Node type="hid" id="48" />
        <Node type="hid" id="121" />
      </Nodes>
      <Connections>
        <Con id="19" src="7" tgt="11" wght="-5" />
        <Con id="26" src="5" tgt="11" wght="-5" />
        <Con id="27" src="0" tgt="11" wght="1.8765875505384577" />
        <Con id="28" src="2" tgt="11" wght="-2.539893751963973" />
        <Con id="29" src="10" tgt="11" wght="-1.6895940257136304" />
        <Con id="30" src="1" tgt="11" wght="2.0285666634864703" />
        <Con id="31" src="3" tgt="11" wght="-2.6933252379808819" />
        <Con id="32" src="4" tgt="11" wght="-0.15369915053472011" />
        <Con id="33" src="9" tgt="11" wght="-1.7470804315518409" />
        <Con id="38" src="8" tgt="11" wght="-3.7232413547307024" />
        <Con id="43" src="4" tgt="42" wght="-1.7954713575950039" />
        <Con id="44" src="42" tgt="11" wght="3.2868741401071309" />
        <Con id="49" src="2" tgt="48" wght="-4.4864834821789961" />
        <Con id="50" src="48" tgt="11" wght="1.3024030799321042" />
        <Con id="55" src="10" tgt="42" wght="0.10578531622774479" />
        <Con id="81" src="48" tgt="42" wght="-0.79020380508154631" />
        <Con id="89" src="9" tgt="42" wght="0.23901935718348949" />
        <Con id="90" src="8" tgt="42" wght="-0.931012042604078" />
        <Con id="91" src="5" tgt="42" wght="-0.5534331826493144" />
        <Con id="95" src="6" tgt="42" wght="1.8491821885179422" />
        <Con id="122" src="1" tgt="121" wght="-3.7668269963766186" />
        <Con id="123" src="121" tgt="11" wght="4.1648207816730922" />
        <Con id="129" src="3" tgt="48" wght="-3.9769197690803959" />
        <Con id="143" src="6" tgt="48" wght="0.964066436943555" />
        <Con id="153" src="4" tgt="48" wght="-2.2263065802283881" />
        <Con id="181" src="7" tgt="48" wght="-0.45053200648789771" />
      </Connections>
    </Network>
    <Network id="18059" birthGen="150" fitness="1831.647705078125">
      <Nodes>
        <Node type="bias" id="0" />
        <Node type="in" id="1" />
        <Node type="in" id="2" />
        <Node type="in" id="3" />
        <Node type="in" id="4" />
        <Node type="in" id="5" />
        <Node type="in" id="6" />
        <Node type="in" id="7" />
        <Node type="in" id="8" />
        <Node type="in" id="9" />
        <Node type="in" id="10" />
        <Node type="out" id="11" />
        <Node type="hid" id="42" />
        <Node type="hid" id="48" />
        <Node type="hid" id="121" />
      </Nodes>
      <Connections>
        <Con id="19" src="7" tgt="11" wght="-5" />
        <Con id="26" src="5" tgt="11" wght="-5" />
        <Con id="27" src="0" tgt="11" wght="1.8765875505384577" />
        <Con id="28" src="2" tgt="11" wght="-1.7904349092089582" />
        <Con id="29" src="10" tgt="11" wght="-1.6895940257136304" />
        <Con id="30" src="1" tgt="11" wght="2.0285666634864703" />
        <Con id="31" src="3" tgt="11" wght="-2.6933252379808819" />
        <Con id="32" src="4" tgt="11" wght="-0.15369915053472011" />
        <Con id="33" src="9" tgt="11" wght="-1.7470804315518409" />
        <Con id="38" src="8" tgt="11" wght="-3.7232413547307024" />
        <Con id="43" src="4" tgt="42" wght="-1.7954713575950039" />
        <Con id="44" src="42" tgt="11" wght="1.8668193721158501" />
        <Con id="49" src="2" tgt="48" wght="-4.4864834821789961" />
        <Con id="50" src="48" tgt="11" wght="1.3024030799321042" />
        <Con id="55" src="10" tgt="42" wght="0.10578531622774479" />
        <Con id="81" src="48" tgt="42" wght="-0.79020380508154631" />
        <Con id="89" src="9" tgt="42" wght="0.23901935718348949" />
        <Con id="90" src="8" tgt="42" wght="-0.931012042604078" />
        <Con id="91" src="5" tgt="42" wght="-0.5534331826493144" />
        <Con id="95" src="6" tgt="42" wght="1.8358298934668604" />
        <Con id="122" src="1" tgt="121" wght="-3.7668269963766186" />
        <Con id="123" src="121" tgt="11" wght="4.1648207816730922" />
        <Con id="129" src="3" tgt="48" wght="-3.9769197690803959" />
        <Con id="143" src="6" tgt="48" wght="0.964066436943555" />
        <Con id="153" src="4" tgt="48" wght="-2.2263065802283881" />
        <Con id="181" src="7" tgt="48" wght="-0.45053200648789771" />
      </Connections>
    </Network>
    <Network id="18061" birthGen="150" fitness="1979.64599609375">
      <Nodes>
        <Node type="bias" id="0" />
        <Node type="in" id="1" />
        <Node type="in" id="2" />
        <Node type="in" id="3" />
        <Node type="in" id="4" />
        <Node type="in" id="5" />
        <Node type="in" id="6" />
        <Node type="in" id="7" />
        <Node type="in" id="8" />
        <Node type="in" id="9" />
        <Node type="in" id="10" />
        <Node type="out" id="11" />
        <Node type="hid" id="42" />
        <Node type="hid" id="48" />
        <Node type="hid" id="121" />
      </Nodes>
      <Connections>
        <Con id="19" src="7" tgt="11" wght="-5" />
        <Con id="26" src="5" tgt="11" wght="-5" />
        <Con id="27" src="0" tgt="11" wght="1.8765875505384577" />
        <Con id="28" src="2" tgt="11" wght="-2.539893751963973" />
        <Con id="29" src="10" tgt="11" wght="-1.6895940257136304" />
        <Con id="30" src="1" tgt="11" wght="2.0285666634864703" />
        <Con id="31" src="3" tgt="11" wght="-2.6933252379808819" />
        <Con id="32" src="4" tgt="11" wght="-0.15369915053472011" />
        <Con id="33" src="9" tgt="11" wght="-1.7470804315518409" />
        <Con id="38" src="8" tgt="11" wght="-3.7232413547307024" />
        <Con id="43" src="4" tgt="42" wght="-1.7954713575950039" />
        <Con id="44" src="42" tgt="11" wght="1.8668193721158501" />
        <Con id="49" src="2" tgt="48" wght="-4.4864834821789961" />
        <Con id="50" src="48" tgt="11" wght="1.3024030799321042" />
        <Con id="55" src="10" tgt="42" wght="0.10578531622774479" />
        <Con id="81" src="48" tgt="42" wght="-0.79020380508154631" />
        <Con id="89" src="9" tgt="42" wght="0.23901935718348949" />
        <Con id="90" src="8" tgt="42" wght="-0.14262891119505172" />
        <Con id="91" src="5" tgt="42" wght="-0.5534331826493144" />
        <Con id="95" src="6" tgt="42" wght="1.8491821885179422" />
        <Con id="122" src="1" tgt="121" wght="-3.7668269963766186" />
        <Con id="123" src="121" tgt="11" wght="4.1648207816730922" />
        <Con id="129" src="3" tgt="48" wght="-3.9769197690803959" />
        <Con id="143" src="6" tgt="48" wght="0.964066436943555" />
        <Con id="153" src="4" tgt="48" wght="-2.2263065802283881" />
        <Con id="181" src="7" tgt="48" wght="-0.45053200648789771" />
      </Connections>
    </Network>
    <Network id="17931" birthGen="149" fitness="1460.1182250976563">
      <Nodes>
        <Node type="bias" id="0" />
        <Node type="in" id="1" />
        <Node type="in" id="2" />
        <Node type="in" id="3" />
        <Node type="in" id="4" />
        <Node type="in" id="5" />
        <Node type="in" id="6" />
        <Node type="in" id="7" />
        <Node type="in" id="8" />
        <Node type="in" id="9" />
        <Node type="in" id="10" />
        <Node type="out" id="11" />
        <Node type="hid" id="42" />
        <Node type="hid" id="48" />
        <Node type="hid" id="121" />
      </Nodes>
      <Connections>
        <Con id="19" src="7" tgt="11" wght="-5" />
        <Con id="26" src="5" tgt="11" wght="-5" />
        <Con id="27" src="0" tgt="11" wght="1.8765875505384577" />
        <Con id="28" src="2" tgt="11" wght="-2.539893751963973" />
        <Con id="29" src="10" tgt="11" wght="-1.8901213859008317" />
        <Con id="30" src="1" tgt="11" wght="2.0285666634864703" />
        <Con id="31" src="3" tgt="11" wght="-2.6933252379808819" />
        <Con id="32" src="4" tgt="11" wght="-0.15369915053472011" />
        <Con id="33" src="9" tgt="11" wght="-1.4915255012668973" />
        <Con id="38" src="8" tgt="11" wght="-3.7232413547307024" />
        <Con id="43" src="4" tgt="42" wght="-1.7954713575950039" />
        <Con id="44" src="42" tgt="11" wght="3.2868741401071309" />
        <Con id="49" src="2" tgt="48" wght="-4.4864834821789961" />
        <Con id="50" src="48" tgt="11" wght="0.29178700485859865" />
        <Con id="55" src="10" tgt="42" wght="0.10578531622774479" />
        <Con id="81" src="48" tgt="42" wght="-0.79020380508154631" />
        <Con id="89" src="9" tgt="42" wght="0.23901935718348949" />
        <Con id="90" src="8" tgt="42" wght="-0.931012042604078" />
        <Con id="91" src="5" tgt="42" wght="-0.5534331826493144" />
        <Con id="95" src="6" tgt="42" wght="1.8491821885179422" />
        <Con id="122" src="1" tgt="121" wght="-3.7668269963766186" />
        <Con id="123" src="121" tgt="11" wght="4.1648207816730922" />
        <Con id="129" src="3" tgt="48" wght="-3.9769197690803959" />
        <Con id="143" src="6" tgt="48" wght="0.964066436943555" />
        <Con id="153" src="4" tgt="48" wght="-2.2263065802283881" />
        <Con id="181" src="7" tgt="48" wght="-0.45053200648789771" />
      </Connections>
    </Network>
    <Network id="18084" birthGen="150" fitness="2054.4158935546875">
      <Nodes>
        <Node type="bias" id="0" />
        <Node type="in" id="1" />
        <Node type="in" id="2" />
        <Node type="in" id="3" />
        <Node type="in" id="4" />
        <Node type="in" id="5" />
        <Node type="in" id="6" />
        <Node type="in" id="7" />
        <Node type="in" id="8" />
        <Node type="in" id="9" />
        <Node type="in" id="10" />
        <Node type="out" id="11" />
        <Node type="hid" id="42" />
      </Nodes>
      <Connections>
        <Con id="19" src="7" tgt="11" wght="-5" />
        <Con id="26" src="5" tgt="11" wght="-4.2300860561037972" />
        <Con id="27" src="0" tgt="11" wght="1.7039244892998773" />
        <Con id="30" src="1" tgt="11" wght="0.59895292872015971" />
        <Con id="31" src="3" tgt="11" wght="-2.4300804316486126" />
        <Con id="38" src="8" tgt="11" wght="-2.15978426415472" />
        <Con id="43" src="4" tgt="42" wght="-1.9287380685480893" />
        <Con id="44" src="42" tgt="11" wght="5" />
      </Connections>
    </Network>
    <Network id="17852" birthGen="148" fitness="1861.9891967773438">
      <Nodes>
        <Node type="bias" id="0" />
        <Node type="in" id="1" />
        <Node type="in" id="2" />
        <Node type="in" id="3" />
        <Node type="in" id="4" />
        <Node type="in" id="5" />
        <Node type="in" id="6" />
        <Node type="in" id="7" />
        <Node type="in" id="8" />
        <Node type="in" id="9" />
        <Node type="in" id="10" />
        <Node type="out" id="11" />
        <Node type="hid" id="42" />
      </Nodes>
      <Connections>
        <Con id="19" src="7" tgt="11" wght="-5" />
        <Con id="26" src="5" tgt="11" wght="-4.7841884188589479" />
        <Con id="27" src="0" tgt="11" wght="1.7039244892998773" />
        <Con id="30" src="1" tgt="11" wght="0.59895292872015971" />
        <Con id="31" src="3" tgt="11" wght="-2.7502285830440356" />
        <Con id="38" src="8" tgt="11" wght="-2.15978426415472" />
        <Con id="43" src="4" tgt="42" wght="-1.9287380685480893" />
        <Con id="44" src="42" tgt="11" wght="5" />
      </Connections>
    </Network>
    <Network id="18088" birthGen="150" fitness="2561.66845703125">
      <Nodes>
        <Node type="bias" id="0" />
        <Node type="in" id="1" />
        <Node type="in" id="2" />
        <Node type="in" id="3" />
        <Node type="in" id="4" />
        <Node type="in" id="5" />
        <Node type="in" id="6" />
        <Node type="in" id="7" />
        <Node type="in" id="8" />
        <Node type="in" id="9" />
        <Node type="in" id="10" />
        <Node type="out" id="11" />
        <Node type="hid" id="42" />
      </Nodes>
      <Connections>
        <Con id="19" src="7" tgt="11" wght="-5" />
        <Con id="26" src="5" tgt="11" wght="-4.7841884188589479" />
        <Con id="27" src="0" tgt="11" wght="1.7039244892998773" />
        <Con id="30" src="1" tgt="11" wght="0.59895292872015971" />
        <Con id="31" src="3" tgt="11" wght="-2.7502285830440356" />
        <Con id="38" src="8" tgt="11" wght="-2.15978426415472" />
        <Con id="43" src="4" tgt="42" wght="-1.9287380685480893" />
        <Con id="44" src="42" tgt="11" wght="5" />
      </Connections>
    </Network>
    <Network id="18085" birthGen="150" fitness="1985.1802978515625">
      <Nodes>
        <Node type="bias" id="0" />
        <Node type="in" id="1" />
        <Node type="in" id="2" />
        <Node type="in" id="3" />
        <Node type="in" id="4" />
        <Node type="in" id="5" />
        <Node type="in" id="6" />
        <Node type="in" id="7" />
        <Node type="in" id="8" />
        <Node type="in" id="9" />
        <Node type="in" id="10" />
        <Node type="out" id="11" />
        <Node type="hid" id="42" />
      </Nodes>
      <Connections>
        <Con id="19" src="7" tgt="11" wght="-5" />
        <Con id="26" src="5" tgt="11" wght="-4.7841884188589479" />
        <Con id="27" src="0" tgt="11" wght="1.7039244892998773" />
        <Con id="30" src="1" tgt="11" wght="0.59895292872015971" />
        <Con id="31" src="3" tgt="11" wght="-2.7502285830440356" />
        <Con id="38" src="8" tgt="11" wght="-2.15978426415472" />
        <Con id="43" src="4" tgt="42" wght="-1.9287380685480893" />
        <Con id="44" src="42" tgt="11" wght="5" />
      </Connections>
    </Network>
    <Network id="18093" birthGen="150" fitness="1068.1238403320313">
      <Nodes>
        <Node type="bias" id="0" />
        <Node type="in" id="1" />
        <Node type="in" id="2" />
        <Node type="in" id="3" />
        <Node type="in" id="4" />
        <Node type="in" id="5" />
        <Node type="in" id="6" />
        <Node type="in" id="7" />
        <Node type="in" id="8" />
        <Node type="in" id="9" />
        <Node type="in" id="10" />
        <Node type="out" id="11" />
        <Node type="hid" id="42" />
      </Nodes>
      <Connections>
        <Con id="19" src="7" tgt="11" wght="-5" />
        <Con id="26" src="5" tgt="11" wght="-4.7841884188589479" />
        <Con id="27" src="0" tgt="11" wght="1.7039244892998773" />
        <Con id="30" src="1" tgt="11" wght="0.59895292872015971" />
        <Con id="31" src="3" tgt="11" wght="-2.7502285830440356" />
        <Con id="38" src="8" tgt="11" wght="-2.15978426415472" />
        <Con id="43" src="4" tgt="42" wght="-1.9287380685480893" />
        <Con id="44" src="42" tgt="11" wght="5" />
      </Connections>
    </Network>
    <Network id="18092" birthGen="150" fitness="1779.767822265625">
      <Nodes>
        <Node type="bias" id="0" />
        <Node type="in" id="1" />
        <Node type="in" id="2" />
        <Node type="in" id="3" />
        <Node type="in" id="4" />
        <Node type="in" id="5" />
        <Node type="in" id="6" />
        <Node type="in" id="7" />
        <Node type="in" id="8" />
        <Node type="in" id="9" />
        <Node type="in" id="10" />
        <Node type="out" id="11" />
        <Node type="hid" id="42" />
      </Nodes>
      <Connections>
        <Con id="19" src="7" tgt="11" wght="-5" />
        <Con id="26" src="5" tgt="11" wght="-4.7841884188589479" />
        <Con id="27" src="0" tgt="11" wght="1.7039244892998773" />
        <Con id="30" src="1" tgt="11" wght="0.59895292872015971" />
        <Con id="31" src="3" tgt="11" wght="-2.7502285830440356" />
        <Con id="38" src="8" tgt="11" wght="-2.15978426415472" />
        <Con id="43" src="4" tgt="42" wght="-1.9287380685480893" />
        <Con id="44" src="42" tgt="11" wght="5" />
      </Connections>
    </Network>
    <Network id="18107" birthGen="150" fitness="1124.9304046630859">
      <Nodes>
        <Node type="bias" id="0" />
        <Node type="in" id="1" />
        <Node type="in" id="2" />
        <Node type="in" id="3" />
        <Node type="in" id="4" />
        <Node type="in" id="5" />
        <Node type="in" id="6" />
        <Node type="in" id="7" />
        <Node type="in" id="8" />
        <Node type="in" id="9" />
        <Node type="in" id="10" />
        <Node type="out" id="11" />
        <Node type="hid" id="42" />
        <Node type="hid" id="48" />
      </Nodes>
      <Connections>
        <Con id="19" src="7" tgt="11" wght="-5" />
        <Con id="26" src="5" tgt="11" wght="-3.9554965712505235" />
        <Con id="27" src="0" tgt="11" wght="2.1775991143710587" />
        <Con id="28" src="2" tgt="11" wght="-0.70614673700353781" />
        <Con id="30" src="1" tgt="11" wght="0.81391652552677907" />
        <Con id="31" src="3" tgt="11" wght="-2.7753087302580544" />
        <Con id="32" src="4" tgt="11" wght="-1.2305968402967371" />
        <Con id="33" src="9" tgt="11" wght="-1.7234569738011496" />
        <Con id="38" src="8" tgt="11" wght="-3.173442999602778" />
        <Con id="43" src="4" tgt="42" wght="-3.0255707823046172" />
        <Con id="44" src="42" tgt="11" wght="2.6133065870109955" />
        <Con id="49" src="2" tgt="48" wght="-0.48328314711438142" />
        <Con id="50" src="48" tgt="11" wght="1.3135875822730698" />
        <Con id="55" src="10" tgt="42" wght="0.83902944181136041" />
        <Con id="56" src="7" tgt="42" wght="3.6785731675142368" />
        <Con id="89" src="9" tgt="42" wght="0.71374753704003546" />
        <Con id="95" src="6" tgt="42" wght="3.0976844683842213" />
      </Connections>
    </Network>
    <Network id="18121" birthGen="150" fitness="582.4803466796875">
      <Nodes>
        <Node type="bias" id="0" />
        <Node type="in" id="1" />
        <Node type="in" id="2" />
        <Node type="in" id="3" />
        <Node type="in" id="4" />
        <Node type="in" id="5" />
        <Node type="in" id="6" />
        <Node type="in" id="7" />
        <Node type="in" id="8" />
        <Node type="in" id="9" />
        <Node type="in" id="10" />
        <Node type="out" id="11" />
        <Node type="hid" id="42" />
        <Node type="hid" id="48" />
      </Nodes>
      <Connections>
        <Con id="19" src="7" tgt="11" wght="-5" />
        <Con id="26" src="5" tgt="11" wght="-3.9554965712505235" />
        <Con id="27" src="0" tgt="11" wght="2.1775991143710587" />
        <Con id="28" src="2" tgt="11" wght="-0.70614673700353781" />
        <Con id="30" src="1" tgt="11" wght="0.81391652552677907" />
        <Con id="31" src="3" tgt="11" wght="-2.7753087302580544" />
        <Con id="32" src="4" tgt="11" wght="-1.2305968402967371" />
        <Con id="33" src="9" tgt="11" wght="-1.7234569738011496" />
        <Con id="38" src="8" tgt="11" wght="-3.173442999602778" />
        <Con id="43" src="4" tgt="42" wght="-3.0255707823046172" />
        <Con id="44" src="42" tgt="11" wght="2.6372759267279773" />
        <Con id="49" src="2" tgt="48" wght="-0.48328314711438142" />
        <Con id="50" src="48" tgt="11" wght="1.3375026560294789" />
        <Con id="55" src="10" tgt="42" wght="0.83902944181136041" />
        <Con id="56" src="7" tgt="42" wght="3.6785731675142368" />
        <Con id="89" src="9" tgt="42" wght="0.71374753704003546" />
        <Con id="95" src="6" tgt="42" wght="3.0956073687815495" />
      </Connections>
    </Network>
    <Network id="17981" birthGen="149" fitness="2436.5711669921875">
      <Nodes>
        <Node type="bias" id="0" />
        <Node type="in" id="1" />
        <Node type="in" id="2" />
        <Node type="in" id="3" />
        <Node type="in" id="4" />
        <Node type="in" id="5" />
        <Node type="in" id="6" />
        <Node type="in" id="7" />
        <Node type="in" id="8" />
        <Node type="in" id="9" />
        <Node type="in" id="10" />
        <Node type="out" id="11" />
        <Node type="hid" id="42" />
        <Node type="hid" id="48" />
      </Nodes>
      <Connections>
        <Con id="19" src="7" tgt="11" wght="-5" />
        <Con id="26" src="5" tgt="11" wght="-3.9554965712505235" />
        <Con id="27" src="0" tgt="11" wght="2.1775991143710587" />
        <Con id="28" src="2" tgt="11" wght="-0.70614673700353781" />
        <Con id="30" src="1" tgt="11" wght="0.81391652552677907" />
        <Con id="31" src="3" tgt="11" wght="-2.7753087302580544" />
        <Con id="32" src="4" tgt="11" wght="-1.2305968402967371" />
        <Con id="33" src="9" tgt="11" wght="-1.7234569738011496" />
        <Con id="38" src="8" tgt="11" wght="-3.173442999602778" />
        <Con id="43" src="4" tgt="42" wght="-3.0255707823046172" />
        <Con id="44" src="42" tgt="11" wght="2.6372759267279773" />
        <Con id="49" src="2" tgt="48" wght="-0.62923920257850519" />
        <Con id="50" src="48" tgt="11" wght="0.60580485156482111" />
        <Con id="55" src="10" tgt="42" wght="0.83902944181136041" />
        <Con id="56" src="7" tgt="42" wght="4.0413030687398557" />
        <Con id="89" src="9" tgt="42" wght="0.71374753704003546" />
        <Con id="95" src="6" tgt="42" wght="3.0956073687815495" />
      </Connections>
    </Network>
    <Network id="18101" birthGen="150" fitness="549.22035980224609">
      <Nodes>
        <Node type="bias" id="0" />
        <Node type="in" id="1" />
        <Node type="in" id="2" />
        <Node type="in" id="3" />
        <Node type="in" id="4" />
        <Node type="in" id="5" />
        <Node type="in" id="6" />
        <Node type="in" id="7" />
        <Node type="in" id="8" />
        <Node type="in" id="9" />
        <Node type="in" id="10" />
        <Node type="out" id="11" />
        <Node type="hid" id="42" />
        <Node type="hid" id="48" />
      </Nodes>
      <Connections>
        <Con id="19" src="7" tgt="11" wght="-5" />
        <Con id="26" src="5" tgt="11" wght="-3.9554965712505235" />
        <Con id="27" src="0" tgt="11" wght="2.1775991143710587" />
        <Con id="28" src="2" tgt="11" wght="-0.70614673700353781" />
        <Con id="30" src="1" tgt="11" wght="0.81391652552677907" />
        <Con id="31" src="3" tgt="11" wght="-2.7753087302580544" />
        <Con id="32" src="4" tgt="11" wght="-1.2305968402967371" />
        <Con id="33" src="9" tgt="11" wght="-1.7234569738011496" />
        <Con id="38" src="8" tgt="11" wght="-3.2630152745968326" />
        <Con id="43" src="4" tgt="42" wght="-3.0255707823046172" />
        <Con id="44" src="42" tgt="11" wght="2.6393554990872405" />
        <Con id="49" src="2" tgt="48" wght="-0.48328314711438142" />
        <Con id="50" src="48" tgt="11" wght="0.59757988892432523" />
        <Con id="55" src="10" tgt="42" wght="0.83902944181136041" />
        <Con id="56" src="7" tgt="42" wght="3.72906853226295" />
        <Con id="89" src="9" tgt="42" wght="0.75339540225865465" />
        <Con id="95" src="6" tgt="42" wght="3.0956073687815495" />
      </Connections>
    </Network>
    <Network id="18114" birthGen="150" fitness="2117.2735595703125">
      <Nodes>
        <Node type="bias" id="0" />
        <Node type="in" id="1" />
        <Node type="in" id="2" />
        <Node type="in" id="3" />
        <Node type="in" id="4" />
        <Node type="in" id="5" />
        <Node type="in" id="6" />
        <Node type="in" id="7" />
        <Node type="in" id="8" />
        <Node type="in" id="9" />
        <Node type="in" id="10" />
        <Node type="out" id="11" />
        <Node type="hid" id="42" />
        <Node type="hid" id="48" />
      </Nodes>
      <Connections>
        <Con id="19" src="7" tgt="11" wght="-5" />
        <Con id="26" src="5" tgt="11" wght="-3.9554965712505235" />
        <Con id="27" src="0" tgt="11" wght="2.1775991143710587" />
        <Con id="28" src="2" tgt="11" wght="-0.69603681431654452" />
        <Con id="30" src="1" tgt="11" wght="0.81391652552677907" />
        <Con id="31" src="3" tgt="11" wght="-2.7753087302580544" />
        <Con id="32" src="4" tgt="11" wght="-1.2305968402967371" />
        <Con id="33" src="9" tgt="11" wght="-1.7234569738011496" />
        <Con id="38" src="8" tgt="11" wght="-3.173442999602778" />
        <Con id="43" src="4" tgt="42" wght="-3.0255707823046172" />
        <Con id="44" src="42" tgt="11" wght="2.6372759267279773" />
        <Con id="49" src="2" tgt="48" wght="-0.48328314711438142" />
        <Con id="50" src="48" tgt="11" wght="1.3135875822730698" />
        <Con id="55" src="10" tgt="42" wght="0.83902944181136041" />
        <Con id="56" src="7" tgt="42" wght="3.6785731675142368" />
        <Con id="89" src="9" tgt="42" wght="0.71374753704003546" />
        <Con id="95" src="6" tgt="42" wght="3.0976844683842213" />
      </Connections>
    </Network>
    <Network id="18099" birthGen="150" fitness="2326.0048828125">
      <Nodes>
        <Node type="bias" id="0" />
        <Node type="in" id="1" />
        <Node type="in" id="2" />
        <Node type="in" id="3" />
        <Node type="in" id="4" />
        <Node type="in" id="5" />
        <Node type="in" id="6" />
        <Node type="in" id="7" />
        <Node type="in" id="8" />
        <Node type="in" id="9" />
        <Node type="in" id="10" />
        <Node type="out" id="11" />
        <Node type="hid" id="42" />
        <Node type="hid" id="48" />
      </Nodes>
      <Connections>
        <Con id="19" src="7" tgt="11" wght="-5" />
        <Con id="26" src="5" tgt="11" wght="-3.9554965712505235" />
        <Con id="27" src="0" tgt="11" wght="2.1775991143710587" />
        <Con id="28" src="2" tgt="11" wght="-0.70614673700353781" />
        <Con id="30" src="1" tgt="11" wght="0.81391652552677907" />
        <Con id="31" src="3" tgt="11" wght="-2.7753087302580544" />
        <Con id="32" src="4" tgt="11" wght="-1.2305968402967371" />
        <Con id="33" src="9" tgt="11" wght="-1.7234569738011496" />
        <Con id="38" src="8" tgt="11" wght="-2.17235802524122" />
        <Con id="43" src="4" tgt="42" wght="-3.0255707823046172" />
        <Con id="44" src="42" tgt="11" wght="2.6372759267279773" />
        <Con id="49" src="2" tgt="48" wght="-0.48328314711438142" />
        <Con id="50" src="48" tgt="11" wght="1.3135875822730698" />
        <Con id="55" src="10" tgt="42" wght="0.83902944181136041" />
        <Con id="56" src="7" tgt="42" wght="3.6785731675142368" />
        <Con id="89" src="9" tgt="42" wght="0.22267717324378644" />
        <Con id="95" src="6" tgt="42" wght="3.0976844683842213" />
      </Connections>
    </Network>
    <Network id="18134" birthGen="150" fitness="2331.391357421875">
      <Nodes>
        <Node type="bias" id="0" />
        <Node type="in" id="1" />
        <Node type="in" id="2" />
        <Node type="in" id="3" />
        <Node type="in" id="4" />
        <Node type="in" id="5" />
        <Node type="in" id="6" />
        <Node type="in" id="7" />
        <Node type="in" id="8" />
        <Node type="in" id="9" />
        <Node type="in" id="10" />
        <Node type="out" id="11" />
        <Node type="hid" id="42" />
        <Node type="hid" id="48" />
        <Node type="hid" id="121" />
      </Nodes>
      <Connections>
        <Con id="19" src="7" tgt="11" wght="-4.9780449354115239" />
        <Con id="26" src="5" tgt="11" wght="-5" />
        <Con id="27" src="0" tgt="11" wght="1.8765875505384577" />
        <Con id="28" src="2" tgt="11" wght="-2.5515893287883409" />
        <Con id="29" src="10" tgt="11" wght="-1.9399931719454366" />
        <Con id="30" src="1" tgt="11" wght="2.0285666634864703" />
        <Con id="31" src="3" tgt="11" wght="-2.297243318796041" />
        <Con id="32" src="4" tgt="11" wght="-2.9183978834754507" />
        <Con id="33" src="9" tgt="11" wght="-1.2099291207963963" />
        <Con id="38" src="8" tgt="11" wght="-3.4621068831832273" />
        <Con id="43" src="4" tgt="42" wght="-3.0555956319065833" />
        <Con id="44" src="42" tgt="11" wght="2.2059252523576451" />
        <Con id="49" src="2" tgt="48" wght="-4.5042779604014918" />
        <Con id="50" src="48" tgt="11" wght="1.2864514346135345" />
        <Con id="55" src="10" tgt="42" wght="0.31603947681139827" />
        <Con id="89" src="9" tgt="42" wght="0.23901935718348949" />
        <Con id="90" src="8" tgt="42" wght="-0.18699042351103723" />
        <Con id="91" src="5" tgt="42" wght="-3.4123203524482957" />
        <Con id="95" src="6" tgt="42" wght="0.9885697085468701" />
        <Con id="122" src="1" tgt="121" wght="-2.0102791301906109" />
        <Con id="123" src="121" tgt="11" wght="5" />
        <Con id="129" src="3" tgt="48" wght="-3.6768708032464987" />
      </Connections>
    </Network>
    <Network id="18023" birthGen="149" fitness="1491.1959838867188">
      <Nodes>
        <Node type="bias" id="0" />
        <Node type="in" id="1" />
        <Node type="in" id="2" />
        <Node type="in" id="3" />
        <Node type="in" id="4" />
        <Node type="in" id="5" />
        <Node type="in" id="6" />
        <Node type="in" id="7" />
        <Node type="in" id="8" />
        <Node type="in" id="9" />
        <Node type="in" id="10" />
        <Node type="out" id="11" />
        <Node type="hid" id="42" />
        <Node type="hid" id="48" />
        <Node type="hid" id="121" />
      </Nodes>
      <Connections>
        <Con id="19" src="7" tgt="11" wght="-4.9780449354115239" />
        <Con id="26" src="5" tgt="11" wght="-5" />
        <Con id="27" src="0" tgt="11" wght="1.8765875505384577" />
        <Con id="28" src="2" tgt="11" wght="-2.5515893287883409" />
        <Con id="29" src="10" tgt="11" wght="-1.9399931719454366" />
        <Con id="30" src="1" tgt="11" wght="2.0285666634864703" />
        <Con id="31" src="3" tgt="11" wght="-2.297243318796041" />
        <Con id="32" src="4" tgt="11" wght="-2.9183978834754507" />
        <Con id="33" src="9" tgt="11" wght="-1.2099291207963963" />
        <Con id="38" src="8" tgt="11" wght="-3.4621068831832273" />
        <Con id="43" src="4" tgt="42" wght="-3.0555956319065833" />
        <Con id="44" src="42" tgt="11" wght="2.2059252523576451" />
        <Con id="49" src="2" tgt="48" wght="-4.5042779604014918" />
        <Con id="50" src="48" tgt="11" wght="1.2864514346135345" />
        <Con id="55" src="10" tgt="42" wght="0.31603947681139827" />
        <Con id="89" src="9" tgt="42" wght="0.23901935718348949" />
        <Con id="90" src="8" tgt="42" wght="-0.18699042351103723" />
        <Con id="91" src="5" tgt="42" wght="-3.4123203524482957" />
        <Con id="95" src="6" tgt="42" wght="0.9885697085468701" />
        <Con id="122" src="1" tgt="121" wght="-2.0102791301906109" />
        <Con id="123" src="121" tgt="11" wght="5" />
        <Con id="129" src="3" tgt="48" wght="-3.6768708032464987" />
      </Connections>
    </Network>
    <Network id="18139" birthGen="150" fitness="1063.0260314941406">
      <Nodes>
        <Node type="bias" id="0" />
        <Node type="in" id="1" />
        <Node type="in" id="2" />
        <Node type="in" id="3" />
        <Node type="in" id="4" />
        <Node type="in" id="5" />
        <Node type="in" id="6" />
        <Node type="in" id="7" />
        <Node type="in" id="8" />
        <Node type="in" id="9" />
        <Node type="in" id="10" />
        <Node type="out" id="11" />
        <Node type="hid" id="42" />
        <Node type="hid" id="48" />
        <Node type="hid" id="121" />
      </Nodes>
      <Connections>
        <Con id="19" src="7" tgt="11" wght="-4.9780449354115239" />
        <Con id="26" src="5" tgt="11" wght="-5" />
        <Con id="27" src="0" tgt="11" wght="1.8765875505384577" />
        <Con id="28" src="2" tgt="11" wght="-2.5515893287883409" />
        <Con id="29" src="10" tgt="11" wght="-1.9399931719454366" />
        <Con id="30" src="1" tgt="11" wght="2.0285666634864703" />
        <Con id="31" src="3" tgt="11" wght="-2.297243318796041" />
        <Con id="32" src="4" tgt="11" wght="-2.9183978834754507" />
        <Con id="33" src="9" tgt="11" wght="-1.2099291207963963" />
        <Con id="38" src="8" tgt="11" wght="-3.4621068831832273" />
        <Con id="43" src="4" tgt="42" wght="-3.0555956319065833" />
        <Con id="44" src="42" tgt="11" wght="2.2059252523576451" />
        <Con id="49" src="2" tgt="48" wght="-4.5042779604014918" />
        <Con id="50" src="48" tgt="11" wght="1.2864514346135345" />
        <Con id="55" src="10" tgt="42" wght="0.31603947681139827" />
        <Con id="89" src="9" tgt="42" wght="0.35748140302742326" />
        <Con id="90" src="8" tgt="42" wght="-0.18699042351103723" />
        <Con id="91" src="5" tgt="42" wght="-3.4123203524482957" />
        <Con id="95" src="6" tgt="42" wght="0.9885697085468701" />
        <Con id="122" src="1" tgt="121" wght="-2.0102791301906109" />
        <Con id="123" src="121" tgt="11" wght="5" />
        <Con id="129" src="3" tgt="48" wght="-3.6768708032464987" />
      </Connections>
    </Network>
    <Network id="18130" birthGen="150" fitness="1128.7682495117188">
      <Nodes>
        <Node type="bias" id="0" />
        <Node type="in" id="1" />
        <Node type="in" id="2" />
        <Node type="in" id="3" />
        <Node type="in" id="4" />
        <Node type="in" id="5" />
        <Node type="in" id="6" />
        <Node type="in" id="7" />
        <Node type="in" id="8" />
        <Node type="in" id="9" />
        <Node type="in" id="10" />
        <Node type="out" id="11" />
        <Node type="hid" id="42" />
        <Node type="hid" id="48" />
        <Node type="hid" id="121" />
      </Nodes>
      <Connections>
        <Con id="19" src="7" tgt="11" wght="-4.9780449354115239" />
        <Con id="26" src="5" tgt="11" wght="-5" />
        <Con id="27" src="0" tgt="11" wght="1.8765875505384577" />
        <Con id="28" src="2" tgt="11" wght="-1.3492351285373088" />
        <Con id="29" src="10" tgt="11" wght="-3.1790016890994259" />
        <Con id="30" src="1" tgt="11" wght="2.0285666634864703" />
        <Con id="31" src="3" tgt="11" wght="-2.297243318796041" />
        <Con id="32" src="4" tgt="11" wght="-2.9183978834754507" />
        <Con id="33" src="9" tgt="11" wght="-1.2099291207963963" />
        <Con id="38" src="8" tgt="11" wght="-3.4621068831832273" />
        <Con id="43" src="4" tgt="42" wght="-3.0573691693476968" />
        <Con id="44" src="42" tgt="11" wght="2.2059252523576451" />
        <Con id="49" src="2" tgt="48" wght="-4.5042779604014918" />
        <Con id="50" src="48" tgt="11" wght="1.2864514346135345" />
        <Con id="55" src="10" tgt="42" wght="-0.30123457186269126" />
        <Con id="89" src="9" tgt="42" wght="0.33271230772962057" />
        <Con id="90" src="8" tgt="42" wght="-0.18699042351103723" />
        <Con id="91" src="5" tgt="42" wght="-0.5534331826493144" />
        <Con id="95" src="6" tgt="42" wght="0.9885697085468701" />
        <Con id="122" src="1" tgt="121" wght="-2.0095622685930659" />
        <Con id="123" src="121" tgt="11" wght="5" />
        <Con id="129" src="3" tgt="48" wght="-3.6768708032464987" />
      </Connections>
    </Network>
    <Network id="18131" birthGen="150" fitness="1905.2418212890625">
      <Nodes>
        <Node type="bias" id="0" />
        <Node type="in" id="1" />
        <Node type="in" id="2" />
        <Node type="in" id="3" />
        <Node type="in" id="4" />
        <Node type="in" id="5" />
        <Node type="in" id="6" />
        <Node type="in" id="7" />
        <Node type="in" id="8" />
        <Node type="in" id="9" />
        <Node type="in" id="10" />
        <Node type="out" id="11" />
        <Node type="hid" id="42" />
        <Node type="hid" id="48" />
        <Node type="hid" id="121" />
      </Nodes>
      <Connections>
        <Con id="19" src="7" tgt="11" wght="-4.9780449354115239" />
        <Con id="26" src="5" tgt="11" wght="-5" />
        <Con id="27" src="0" tgt="11" wght="1.8765875505384577" />
        <Con id="28" src="2" tgt="11" wght="-2.5515893287883409" />
        <Con id="29" src="10" tgt="11" wght="-1.9399931719454366" />
        <Con id="30" src="1" tgt="11" wght="3.0051061971349893" />
        <Con id="31" src="3" tgt="11" wght="-2.297243318796041" />
        <Con id="32" src="4" tgt="11" wght="-2.9183978834754507" />
        <Con id="33" src="9" tgt="11" wght="-1.2099291207963963" />
        <Con id="38" src="8" tgt="11" wght="-3.4621068831832273" />
        <Con id="43" src="4" tgt="42" wght="-3.0555956319065833" />
        <Con id="44" src="42" tgt="11" wght="2.2059252523576451" />
        <Con id="49" src="2" tgt="48" wght="-4.5042779604014918" />
        <Con id="50" src="48" tgt="11" wght="1.2864514346135345" />
        <Con id="55" src="10" tgt="42" wght="0.31603947681139827" />
        <Con id="89" src="9" tgt="42" wght="0.35748140302742326" />
        <Con id="90" src="8" tgt="42" wght="-0.18699042351103723" />
        <Con id="91" src="5" tgt="42" wght="-3.4123203524482957" />
        <Con id="95" src="6" tgt="42" wght="0.45604379729136812" />
        <Con id="122" src="1" tgt="121" wght="-2.0102791301906109" />
        <Con id="123" src="121" tgt="11" wght="5" />
        <Con id="129" src="3" tgt="48" wght="-2.7179894907795417" />
      </Connections>
    </Network>
    <Network id="18009" birthGen="149" fitness="2101.2372436523438">
      <Nodes>
        <Node type="bias" id="0" />
        <Node type="in" id="1" />
        <Node type="in" id="2" />
        <Node type="in" id="3" />
        <Node type="in" id="4" />
        <Node type="in" id="5" />
        <Node type="in" id="6" />
        <Node type="in" id="7" />
        <Node type="in" id="8" />
        <Node type="in" id="9" />
        <Node type="in" id="10" />
        <Node type="out" id="11" />
        <Node type="hid" id="42" />
        <Node type="hid" id="48" />
        <Node type="hid" id="121" />
      </Nodes>
      <Connections>
        <Con id="19" src="7" tgt="11" wght="-4.9780449354115239" />
        <Con id="26" src="5" tgt="11" wght="-5" />
        <Con id="27" src="0" tgt="11" wght="1.8765875505384577" />
        <Con id="28" src="2" tgt="11" wght="-1.3492351285373088" />
        <Con id="29" src="10" tgt="11" wght="-3.1790016890994259" />
        <Con id="30" src="1" tgt="11" wght="2.0285666634864703" />
        <Con id="31" src="3" tgt="11" wght="-2.297243318796041" />
        <Con id="32" src="4" tgt="11" wght="-2.9183978834754507" />
        <Con id="33" src="9" tgt="11" wght="-1.2099291207963963" />
        <Con id="38" src="8" tgt="11" wght="-3.4621068831832273" />
        <Con id="43" src="4" tgt="42" wght="-3.0573691693476968" />
        <Con id="44" src="42" tgt="11" wght="2.2059252523576451" />
        <Con id="49" src="2" tgt="48" wght="-4.5042779604014918" />
        <Con id="50" src="48" tgt="11" wght="1.2864514346135345" />
        <Con id="55" src="10" tgt="42" wght="-0.30123457186269126" />
        <Con id="89" src="9" tgt="42" wght="0.35748140302742326" />
        <Con id="90" src="8" tgt="42" wght="-0.18699042351103723" />
        <Con id="91" src="5" tgt="42" wght="-0.5534331826493144" />
        <Con id="95" src="6" tgt="42" wght="0.9885697085468701" />
        <Con id="122" src="1" tgt="121" wght="-2.0102791301906109" />
        <Con id="123" src="121" tgt="11" wght="5" />
        <Con id="129" src="3" tgt="48" wght="-3.6768708032464987" />
      </Connections>
    </Network>
    <Network id="18144" birthGen="151" fitness="2259.9147338867188">
      <Nodes>
        <Node type="bias" id="0" />
        <Node type="in" id="1" />
        <Node type="in" id="2" />
        <Node type="in" id="3" />
        <Node type="in" id="4" />
        <Node type="in" id="5" />
        <Node type="in" id="6" />
        <Node type="in" id="7" />
        <Node type="in" id="8" />
        <Node type="in" id="9" />
        <Node type="in" id="10" />
        <Node type="out" id="11" />
        <Node type="hid" id="42" />
        <Node type="hid" id="48" />
      </Nodes>
      <Connections>
        <Con id="19" src="7" tgt="11" wght="-3.8788900051391293" />
        <Con id="26" src="5" tgt="11" wght="-3.9280604215178374" />
        <Con id="27" src="0" tgt="11" wght="1.7140150594067964" />
        <Con id="28" src="2" tgt="11" wght="-3.3478386064811243" />
        <Con id="29" src="10" tgt="11" wght="-1.9391850783346058" />
        <Con id="30" src="1" tgt="11" wght="-1.6475948552463415" />
        <Con id="31" src="3" tgt="11" wght="-2.7068076109530681" />
        <Con id="32" src="4" tgt="11" wght="-0.89172752644230435" />
        <Con id="33" src="9" tgt="11" wght="-0.79490279891811289" />
        <Con id="37" src="6" tgt="11" wght="-0.79286144810668879" />
        <Con id="38" src="8" tgt="11" wght="-4.3330903897922557" />
        <Con id="43" src="4" tgt="42" wght="-3.8712698464201067" />
        <Con id="44" src="42" tgt="11" wght="5" />
        <Con id="49" src="2" tgt="48" wght="1.7649661570783921" />
        <Con id="50" src="48" tgt="11" wght="2.1060958457684631" />
        <Con id="51" src="42" tgt="48" wght="2.8266021719741881" />
        <Con id="55" src="10" tgt="42" wght="0.10326487375950133" />
        <Con id="89" src="9" tgt="42" wght="0.24598253837674416" />
        <Con id="90" src="8" tgt="42" wght="-0.61295250644120047" />
        <Con id="91" src="5" tgt="42" wght="-0.60551721791013269" />
      </Connections>
    </Network>
    <Network id="18145" birthGen="151" fitness="2250.8372802734375">
      <Nodes>
        <Node type="bias" id="0" />
        <Node type="in" id="1" />
        <Node type="in" id="2" />
        <Node type="in" id="3" />
        <Node type="in" id="4" />
        <Node type="in" id="5" />
        <Node type="in" id="6" />
        <Node type="in" id="7" />
        <Node type="in" id="8" />
        <Node type="in" id="9" />
        <Node type="in" id="10" />
        <Node type="out" id="11" />
        <Node type="hid" id="42" />
        <Node type="hid" id="48" />
      </Nodes>
      <Connections>
        <Con id="19" src="7" tgt="11" wght="-3.8788900051391293" />
        <Con id="26" src="5" tgt="11" wght="-3.9213409119010523" />
        <Con id="27" src="0" tgt="11" wght="1.7140150594067964" />
        <Con id="28" src="2" tgt="11" wght="-3.3478386064811243" />
        <Con id="29" src="10" tgt="11" wght="-1.949690387629321" />
        <Con id="30" src="1" tgt="11" wght="-1.1729374214964396" />
        <Con id="31" src="3" tgt="11" wght="-2.7068076109530681" />
        <Con id="32" src="4" tgt="11" wght="-0.89172752644230435" />
        <Con id="33" src="9" tgt="11" wght="-0.79490279891811289" />
        <Con id="37" src="6" tgt="11" wght="-0.79286144810668879" />
        <Con id="38" src="8" tgt="11" wght="-3.3470666413295405" />
        <Con id="43" src="4" tgt="42" wght="-3.8712698464201067" />
        <Con id="44" src="42" tgt="11" wght="5" />
        <Con id="49" src="2" tgt="48" wght="1.7643776108648033" />
        <Con id="50" src="48" tgt="11" wght="2.0949901891973908" />
        <Con id="51" src="42" tgt="48" wght="2.8266021719741881" />
        <Con id="55" src="10" tgt="42" wght="0.10326487375950133" />
        <Con id="89" src="9" tgt="42" wght="0.24598253837674416" />
        <Con id="90" src="8" tgt="42" wght="-0.88452973969534554" />
        <Con id="91" src="5" tgt="42" wght="-0.61408855123402073" />
      </Connections>
    </Network>
    <Network id="18146" birthGen="151" fitness="1326.2384643554688">
      <Nodes>
        <Node type="bias" id="0" />
        <Node type="in" id="1" />
        <Node type="in" id="2" />
        <Node type="in" id="3" />
        <Node type="in" id="4" />
        <Node type="in" id="5" />
        <Node type="in" id="6" />
        <Node type="in" id="7" />
        <Node type="in" id="8" />
        <Node type="in" id="9" />
        <Node type="in" id="10" />
        <Node type="out" id="11" />
        <Node type="hid" id="42" />
        <Node type="hid" id="48" />
      </Nodes>
      <Connections>
        <Con id="19" src="7" tgt="11" wght="-3.8788900051391293" />
        <Con id="26" src="5" tgt="11" wght="-3.9213409119010523" />
        <Con id="27" src="0" tgt="11" wght="1.7583065731161283" />
        <Con id="28" src="2" tgt="11" wght="-3.3478386064811243" />
        <Con id="29" src="10" tgt="11" wght="-1.9584314461858083" />
        <Con id="30" src="1" tgt="11" wght="-1.6475948552463415" />
        <Con id="31" src="3" tgt="11" wght="-2.7068076109530681" />
        <Con id="32" src="4" tgt="11" wght="-0.89172752644230435" />
        <Con id="33" src="9" tgt="11" wght="-0.79490279891811289" />
        <Con id="37" src="6" tgt="11" wght="-0.82253721601106133" />
        <Con id="38" src="8" tgt="11" wght="-4.3330903897922557" />
        <Con id="43" src="4" tgt="42" wght="-3.8712698464201067" />
        <Con id="44" src="42" tgt="11" wght="5" />
        <Con id="49" src="2" tgt="48" wght="1.7567952957607633" />
        <Con id="50" src="48" tgt="11" wght="1.1052625013032058" />
        <Con id="51" src="42" tgt="48" wght="2.8266021719741881" />
        <Con id="55" src="10" tgt="42" wght="0.10326487375950133" />
        <Con id="89" src="9" tgt="42" wght="0.22863372153591627" />
        <Con id="90" src="8" tgt="42" wght="-0.60176949423417225" />
        <Con id="91" src="5" tgt="42" wght="-0.60551721791013269" />
      </Connections>
    </Network>
    <Network id="18147" birthGen="151" fitness="1769.4597778320313">
      <Nodes>
        <Node type="bias" id="0" />
        <Node type="in" id="1" />
        <Node type="in" id="2" />
        <Node type="in" id="3" />
        <Node type="in" id="4" />
        <Node type="in" id="5" />
        <Node type="in" id="6" />
        <Node type="in" id="7" />
        <Node type="in" id="8" />
        <Node type="in" id="9" />
        <Node type="in" id="10" />
        <Node type="out" id="11" />
        <Node type="hid" id="42" />
        <Node type="hid" id="48" />
      </Nodes>
      <Connections>
        <Con id="19" src="7" tgt="11" wght="-3.8788900051391293" />
        <Con id="26" src="5" tgt="11" wght="-3.9231155389918562" />
        <Con id="27" src="0" tgt="11" wght="1.7140150594067964" />
        <Con id="28" src="2" tgt="11" wght="-3.3478386064811243" />
        <Con id="29" src="10" tgt="11" wght="-1.9109974311842759" />
        <Con id="30" src="1" tgt="11" wght="-1.6475948552463415" />
        <Con id="31" src="3" tgt="11" wght="-2.7068076109530681" />
        <Con id="32" src="4" tgt="11" wght="-0.89172752644230435" />
        <Con id="33" src="9" tgt="11" wght="-0.79490279891811289" />
        <Con id="37" src="6" tgt="11" wght="-0.79286144810668879" />
        <Con id="38" src="8" tgt="11" wght="-4.3330903897922557" />
        <Con id="43" src="4" tgt="42" wght="-3.8712698464201067" />
        <Con id="44" src="42" tgt="11" wght="5" />
        <Con id="49" src="2" tgt="48" wght="1.7567952957607633" />
        <Con id="50" src="48" tgt="11" wght="2.1060958457684631" />
        <Con id="51" src="42" tgt="48" wght="2.8266021719741881" />
        <Con id="55" src="10" tgt="42" wght="0.10326487375950133" />
        <Con id="89" src="9" tgt="42" wght="0.24598253837674416" />
        <Con id="90" src="8" tgt="42" wght="-0.61295250644120047" />
        <Con id="91" src="5" tgt="42" wght="-0.5774878679338451" />
      </Connections>
    </Network>
    <Network id="18148" birthGen="151" fitness="2527.64111328125">
      <Nodes>
        <Node type="bias" id="0" />
        <Node type="in" id="1" />
        <Node type="in" id="2" />
        <Node type="in" id="3" />
        <Node type="in" id="4" />
        <Node type="in" id="5" />
        <Node type="in" id="6" />
        <Node type="in" id="7" />
        <Node type="in" id="8" />
        <Node type="in" id="9" />
        <Node type="in" id="10" />
        <Node type="out" id="11" />
        <Node type="hid" id="42" />
        <Node type="hid" id="48" />
      </Nodes>
      <Connections>
        <Con id="19" src="7" tgt="11" wght="-3.8788900051391293" />
        <Con id="26" src="5" tgt="11" wght="-3.9213409119010523" />
        <Con id="27" src="0" tgt="11" wght="1.7140150594067964" />
        <Con id="28" src="2" tgt="11" wght="-3.33685840525442" />
        <Con id="29" src="10" tgt="11" wght="-1.9372742087855745" />
        <Con id="30" src="1" tgt="11" wght="-1.1729374214964396" />
        <Con id="31" src="3" tgt="11" wght="-2.7068076109530681" />
        <Con id="32" src="4" tgt="11" wght="-0.89172752644230435" />
        <Con id="33" src="9" tgt="11" wght="-0.79490279891811289" />
        <Con id="37" src="6" tgt="11" wght="-0.79286144810668879" />
        <Con id="38" src="8" tgt="11" wght="-3.3252540141415055" />
        <Con id="43" src="4" tgt="42" wght="-3.8712698464201067" />
        <Con id="44" src="42" tgt="11" wght="5" />
        <Con id="49" src="2" tgt="48" wght="1.7643776108648033" />
        <Con id="50" src="48" tgt="11" wght="2.0949901891973908" />
        <Con id="51" src="42" tgt="48" wght="2.8266021719741881" />
        <Con id="55" src="10" tgt="42" wght="0.10326487375950133" />
        <Con id="89" src="9" tgt="42" wght="0.24598253837674416" />
        <Con id="90" src="8" tgt="42" wght="-0.89508032644643054" />
        <Con id="91" src="5" tgt="42" wght="-0.60551721791013269" />
      </Connections>
    </Network>
    <Network id="18149" birthGen="151" fitness="2025.0429077148438">
      <Nodes>
        <Node type="bias" id="0" />
        <Node type="in" id="1" />
        <Node type="in" id="2" />
        <Node type="in" id="3" />
        <Node type="in" id="4" />
        <Node type="in" id="5" />
        <Node type="in" id="6" />
        <Node type="in" id="7" />
        <Node type="in" id="8" />
        <Node type="in" id="9" />
        <Node type="in" id="10" />
        <Node type="out" id="11" />
        <Node type="hid" id="42" />
        <Node type="hid" id="48" />
      </Nodes>
      <Connections>
        <Con id="19" src="7" tgt="11" wght="-3.8788900051391293" />
        <Con id="26" src="5" tgt="11" wght="-3.9213409119010523" />
        <Con id="27" src="0" tgt="11" wght="1.7583065731161283" />
        <Con id="28" src="2" tgt="11" wght="-3.3478386064811243" />
        <Con id="29" src="10" tgt="11" wght="-1.9584314461858083" />
        <Con id="30" src="1" tgt="11" wght="-1.6475948552463415" />
        <Con id="31" src="3" tgt="11" wght="-2.7068076109530681" />
        <Con id="32" src="4" tgt="11" wght="-0.89172752644230435" />
        <Con id="33" src="9" tgt="11" wght="-0.78188014785319715" />
        <Con id="37" src="6" tgt="11" wght="-0.82253721601106133" />
        <Con id="38" src="8" tgt="11" wght="-4.3330903897922557" />
        <Con id="43" src="4" tgt="42" wght="-3.8712698464201067" />
        <Con id="44" src="42" tgt="11" wght="5" />
        <Con id="49" src="2" tgt="48" wght="1.7567952957607633" />
        <Con id="50" src="48" tgt="11" wght="2.0949901891973908" />
        <Con id="51" src="42" tgt="48" wght="2.8266021719741881" />
        <Con id="55" src="10" tgt="42" wght="0.10326487375950133" />
        <Con id="89" src="9" tgt="42" wght="0.22863372153591627" />
        <Con id="90" src="8" tgt="42" wght="-0.60176949423417225" />
        <Con id="91" src="5" tgt="42" wght="-0.60551721791013269" />
      </Connections>
    </Network>
    <Network id="18150" birthGen="151" fitness="1">
      <Nodes>
        <Node type="bias" id="0" />
        <Node type="in" id="1" />
        <Node type="in" id="2" />
        <Node type="in" id="3" />
        <Node type="in" id="4" />
        <Node type="in" id="5" />
        <Node type="in" id="6" />
        <Node type="in" id="7" />
        <Node type="in" id="8" />
        <Node type="in" id="9" />
        <Node type="in" id="10" />
        <Node type="out" id="11" />
        <Node type="hid" id="42" />
        <Node type="hid" id="48" />
      </Nodes>
      <Connections>
        <Con id="19" src="7" tgt="11" wght="-3.8788900051391293" />
        <Con id="26" src="5" tgt="11" wght="3.76228304579854" />
        <Con id="27" src="0" tgt="11" wght="1.7140150594067964" />
        <Con id="28" src="2" tgt="11" wght="-3.3478386064811243" />
        <Con id="29" src="10" tgt="11" wght="-1.9391850783346058" />
        <Con id="30" src="1" tgt="11" wght="-1.1729374214964396" />
        <Con id="31" src="3" tgt="11" wght="-2.7068076109530681" />
        <Con id="32" src="4" tgt="11" wght="-0.89172752644230435" />
        <Con id="33" src="9" tgt="11" wght="-0.79490279891811289" />
        <Con id="37" src="6" tgt="11" wght="-0.79286144810668879" />
        <Con id="38" src="8" tgt="11" wght="-3.3252540141415055" />
        <Con id="43" src="4" tgt="42" wght="-3.8712698464201067" />
        <Con id="44" src="42" tgt="11" wght="5" />
        <Con id="49" src="2" tgt="48" wght="1.7643776108648033" />
        <Con id="50" src="48" tgt="11" wght="2.0949901891973908" />
        <Con id="51" src="42" tgt="48" wght="2.8266021719741881" />
        <Con id="55" src="10" tgt="42" wght="0.10326487375950133" />
        <Con id="89" src="9" tgt="42" wght="-3.920403472147882" />
        <Con id="90" src="8" tgt="42" wght="-0.88452973969534554" />
        <Con id="91" src="5" tgt="42" wght="-0.60551721791013269" />
      </Connections>
    </Network>
    <Network id="18151" birthGen="151" fitness="1972.0836181640625">
      <Nodes>
        <Node type="bias" id="0" />
        <Node type="in" id="1" />
        <Node type="in" id="2" />
        <Node type="in" id="3" />
        <Node type="in" id="4" />
        <Node type="in" id="5" />
        <Node type="in" id="6" />
        <Node type="in" id="7" />
        <Node type="in" id="8" />
        <Node type="in" id="9" />
        <Node type="in" id="10" />
        <Node type="out" id="11" />
        <Node type="hid" id="42" />
        <Node type="hid" id="48" />
      </Nodes>
      <Connections>
        <Con id="19" src="7" tgt="11" wght="-3.8788900051391293" />
        <Con id="26" src="5" tgt="11" wght="-3.9213409119010523" />
        <Con id="27" src="0" tgt="11" wght="1.7583065731161283" />
        <Con id="28" src="2" tgt="11" wght="-3.3478386064811243" />
        <Con id="29" src="10" tgt="11" wght="-1.9274019881032098" />
        <Con id="30" src="1" tgt="11" wght="-1.6475948552463415" />
        <Con id="31" src="3" tgt="11" wght="-2.7068076109530681" />
        <Con id="32" src="4" tgt="11" wght="-0.88668957806867277" />
        <Con id="33" src="9" tgt="11" wght="-0.79490279891811289" />
        <Con id="37" src="6" tgt="11" wght="-0.79286144810668879" />
        <Con id="38" src="8" tgt="11" wght="-3.3252540141415055" />
        <Con id="43" src="4" tgt="42" wght="-3.8712698464201067" />
        <Con id="44" src="42" tgt="11" wght="5" />
        <Con id="49" src="2" tgt="48" wght="1.7567952957607633" />
        <Con id="50" src="48" tgt="11" wght="2.0949901891973908" />
        <Con id="51" src="42" tgt="48" wght="2.8266021719741881" />
        <Con id="55" src="10" tgt="42" wght="0.10326487375950133" />
        <Con id="89" src="9" tgt="42" wght="0.24598253837674416" />
        <Con id="90" src="8" tgt="42" wght="-0.61295250644120047" />
        <Con id="91" src="5" tgt="42" wght="-0.60551721791013269" />
      </Connections>
    </Network>
    <Network id="18152" birthGen="151" fitness="1880.6795654296875">
      <Nodes>
        <Node type="bias" id="0" />
        <Node type="in" id="1" />
        <Node type="in" id="2" />
        <Node type="in" id="3" />
        <Node type="in" id="4" />
        <Node type="in" id="5" />
        <Node type="in" id="6" />
        <Node type="in" id="7" />
        <Node type="in" id="8" />
        <Node type="in" id="9" />
        <Node type="in" id="10" />
        <Node type="out" id="11" />
        <Node type="hid" id="42" />
        <Node type="hid" id="48" />
      </Nodes>
      <Connections>
        <Con id="19" src="7" tgt="11" wght="-3.8788900051391293" />
        <Con id="26" src="5" tgt="11" wght="-3.9213409119010523" />
        <Con id="27" src="0" tgt="11" wght="1.7583065731161283" />
        <Con id="28" src="2" tgt="11" wght="-3.3478386064811243" />
        <Con id="29" src="10" tgt="11" wght="-1.9584314461858083" />
        <Con id="30" src="1" tgt="11" wght="-1.6475948552463415" />
        <Con id="31" src="3" tgt="11" wght="-2.7068076109530681" />
        <Con id="32" src="4" tgt="11" wght="-0.94628155238167366" />
        <Con id="33" src="9" tgt="11" wght="-0.79490279891811289" />
        <Con id="37" src="6" tgt="11" wght="-0.79286144810668879" />
        <Con id="38" src="8" tgt="11" wght="-4.3330903897922557" />
        <Con id="43" src="4" tgt="42" wght="-3.8712698464201067" />
        <Con id="44" src="42" tgt="11" wght="5" />
        <Con id="49" src="2" tgt="48" wght="1.7567952957607633" />
        <Con id="50" src="48" tgt="11" wght="1.5227081816810122" />
        <Con id="51" src="42" tgt="48" wght="2.8266021719741881" />
        <Con id="55" src="10" tgt="42" wght="0.10326487375950133" />
        <Con id="89" src="9" tgt="42" wght="0.24598253837674416" />
        <Con id="90" src="8" tgt="42" wght="-0.61295250644120047" />
        <Con id="91" src="5" tgt="42" wght="-0.60551721791013269" />
      </Connections>
    </Network>
    <Network id="18153" birthGen="151" fitness="1685.6318359375">
      <Nodes>
        <Node type="bias" id="0" />
        <Node type="in" id="1" />
        <Node type="in" id="2" />
        <Node type="in" id="3" />
        <Node type="in" id="4" />
        <Node type="in" id="5" />
        <Node type="in" id="6" />
        <Node type="in" id="7" />
        <Node type="in" id="8" />
        <Node type="in" id="9" />
        <Node type="in" id="10" />
        <Node type="out" id="11" />
        <Node type="hid" id="42" />
        <Node type="hid" id="48" />
      </Nodes>
      <Connections>
        <Con id="19" src="7" tgt="11" wght="-3.8788900051391293" />
        <Con id="26" src="5" tgt="11" wght="-3.9213409119010523" />
        <Con id="27" src="0" tgt="11" wght="1.7140150594067964" />
        <Con id="28" src="2" tgt="11" wght="-3.3478386064811243" />
        <Con id="29" src="10" tgt="11" wght="-1.9391850783346058" />
        <Con id="30" src="1" tgt="11" wght="-2.4099478532949363" />
        <Con id="31" src="3" tgt="11" wght="-2.8139155213414369" />
        <Con id="32" src="4" tgt="11" wght="-0.89172752644230435" />
        <Con id="33" src="9" tgt="11" wght="-0.79490279891811289" />
        <Con id="37" src="6" tgt="11" wght="-0.79286144810668879" />
        <Con id="38" src="8" tgt="11" wght="-4.3330903897922557" />
        <Con id="43" src="4" tgt="42" wght="-3.8712698464201067" />
        <Con id="44" src="42" tgt="11" wght="5" />
        <Con id="49" src="2" tgt="48" wght="1.7567952957607633" />
        <Con id="50" src="48" tgt="11" wght="2.1060958457684631" />
        <Con id="51" src="42" tgt="48" wght="2.8266021719741881" />
        <Con id="55" src="10" tgt="42" wght="0.10326487375950133" />
        <Con id="89" src="9" tgt="42" wght="0.24598253837674416" />
        <Con id="90" src="8" tgt="42" wght="-0.61295250644120047" />
        <Con id="91" src="5" tgt="42" wght="-0.60551721791013269" />
      </Connections>
    </Network>
    <Network id="18154" birthGen="151" fitness="2151.1952514648438">
      <Nodes>
        <Node type="bias" id="0" />
        <Node type="in" id="1" />
        <Node type="in" id="2" />
        <Node type="in" id="3" />
        <Node type="in" id="4" />
        <Node type="in" id="5" />
        <Node type="in" id="6" />
        <Node type="in" id="7" />
        <Node type="in" id="8" />
        <Node type="in" id="9" />
        <Node type="in" id="10" />
        <Node type="out" id="11" />
        <Node type="hid" id="42" />
        <Node type="hid" id="48" />
      </Nodes>
      <Connections>
        <Con id="19" src="7" tgt="11" wght="-3.8788900051391293" />
        <Con id="26" src="5" tgt="11" wght="-3.9213409119010523" />
        <Con id="27" src="0" tgt="11" wght="1.7140150594067964" />
        <Con id="28" src="2" tgt="11" wght="-3.3478386064811243" />
        <Con id="29" src="10" tgt="11" wght="-1.9302264615767093" />
        <Con id="30" src="1" tgt="11" wght="-1.6475948552463415" />
        <Con id="31" src="3" tgt="11" wght="-2.7068076109530681" />
        <Con id="32" src="4" tgt="11" wght="-0.89172752644230435" />
        <Con id="33" src="9" tgt="11" wght="-0.79490279891811289" />
        <Con id="37" src="6" tgt="11" wght="-0.79286144810668879" />
        <Con id="38" src="8" tgt="11" wght="-4.3330903897922557" />
        <Con id="43" src="4" tgt="42" wght="-3.8712698464201067" />
        <Con id="44" src="42" tgt="11" wght="5" />
        <Con id="49" src="2" tgt="48" wght="1.7567952957607633" />
        <Con id="50" src="48" tgt="11" wght="2.10267403737306" />
        <Con id="51" src="42" tgt="48" wght="2.8266021719741881" />
        <Con id="55" src="10" tgt="42" wght="0.10326487375950133" />
        <Con id="89" src="9" tgt="42" wght="0.24598253837674416" />
        <Con id="90" src="8" tgt="42" wght="-0.61295250644120047" />
        <Con id="91" src="5" tgt="42" wght="-0.60551721791013269" />
      </Connections>
    </Network>
    <Network id="18155" birthGen="151" fitness="1537.2111206054688">
      <Nodes>
        <Node type="bias" id="0" />
        <Node type="in" id="1" />
        <Node type="in" id="2" />
        <Node type="in" id="3" />
        <Node type="in" id="4" />
        <Node type="in" id="5" />
        <Node type="in" id="6" />
        <Node type="in" id="7" />
        <Node type="in" id="8" />
        <Node type="in" id="9" />
        <Node type="in" id="10" />
        <Node type="out" id="11" />
        <Node type="hid" id="42" />
        <Node type="hid" id="48" />
      </Nodes>
      <Connections>
        <Con id="19" src="7" tgt="11" wght="-3.8788900051391293" />
        <Con id="26" src="5" tgt="11" wght="-3.9213409119010523" />
        <Con id="27" src="0" tgt="11" wght="1.7140150594067964" />
        <Con id="28" src="2" tgt="11" wght="-3.3478386064811243" />
        <Con id="29" src="10" tgt="11" wght="-1.9391850783346058" />
        <Con id="30" src="1" tgt="11" wght="-1.1729374214964396" />
        <Con id="31" src="3" tgt="11" wght="-2.7068076109530681" />
        <Con id="32" src="4" tgt="11" wght="-0.89172752644230435" />
        <Con id="33" src="9" tgt="11" wght="-0.79490279891811289" />
        <Con id="37" src="6" tgt="11" wght="-0.79286144810668879" />
        <Con id="38" src="8" tgt="11" wght="-3.3252540141415055" />
        <Con id="43" src="4" tgt="42" wght="-3.8712698464201067" />
        <Con id="44" src="42" tgt="11" wght="5" />
        <Con id="49" src="2" tgt="48" wght="1.7643776108648033" />
        <Con id="50" src="48" tgt="11" wght="2.6221378670358462" />
        <Con id="51" src="42" tgt="48" wght="2.8266021719741881" />
        <Con id="55" src="10" tgt="42" wght="0.10326487375950133" />
        <Con id="89" src="9" tgt="42" wght="0.24598253837674416" />
        <Con id="90" src="8" tgt="42" wght="-0.88452973969534554" />
        <Con id="91" src="5" tgt="42" wght="-0.60551721791013269" />
      </Connections>
    </Network>
    <Network id="18156" birthGen="151" fitness="2288.0498046875">
      <Nodes>
        <Node type="bias" id="0" />
        <Node type="in" id="1" />
        <Node type="in" id="2" />
        <Node type="in" id="3" />
        <Node type="in" id="4" />
        <Node type="in" id="5" />
        <Node type="in" id="6" />
        <Node type="in" id="7" />
        <Node type="in" id="8" />
        <Node type="in" id="9" />
        <Node type="in" id="10" />
        <Node type="out" id="11" />
        <Node type="hid" id="42" />
        <Node type="hid" id="48" />
      </Nodes>
      <Connections>
        <Con id="19" src="7" tgt="11" wght="-3.8788900051391293" />
        <Con id="26" src="5" tgt="11" wght="-3.9213409119010523" />
        <Con id="27" src="0" tgt="11" wght="1.7583065731161283" />
        <Con id="28" src="2" tgt="11" wght="-3.3478386064811243" />
        <Con id="29" src="10" tgt="11" wght="-1.9391850783346058" />
        <Con id="30" src="1" tgt="11" wght="-1.6475948552463415" />
        <Con id="31" src="3" tgt="11" wght="-2.7068076109530681" />
        <Con id="32" src="4" tgt="11" wght="-0.89172752644230435" />
        <Con id="33" src="9" tgt="11" wght="-0.79490279891811289" />
        <Con id="37" src="6" tgt="11" wght="-0.79286144810668879" />
        <Con id="38" src="8" tgt="11" wght="-3.3252540141415055" />
        <Con id="43" src="4" tgt="42" wght="-3.8712698464201067" />
        <Con id="44" src="42" tgt="11" wght="5" />
        <Con id="49" src="2" tgt="48" wght="1.7567952957607633" />
        <Con id="50" src="48" tgt="11" wght="2.0949901891973908" />
        <Con id="51" src="42" tgt="48" wght="2.8266021719741881" />
        <Con id="55" src="10" tgt="42" wght="0.10326487375950133" />
        <Con id="89" src="9" tgt="42" wght="0.24598253837674416" />
        <Con id="90" src="8" tgt="42" wght="-0.61295250644120047" />
        <Con id="91" src="5" tgt="42" wght="-0.60551721791013269" />
      </Connections>
    </Network>
    <Network id="18157" birthGen="151" fitness="1730.57373046875">
      <Nodes>
        <Node type="bias" id="0" />
        <Node type="in" id="1" />
        <Node type="in" id="2" />
        <Node type="in" id="3" />
        <Node type="in" id="4" />
        <Node type="in" id="5" />
        <Node type="in" id="6" />
        <Node type="in" id="7" />
        <Node type="in" id="8" />
        <Node type="in" id="9" />
        <Node type="in" id="10" />
        <Node type="out" id="11" />
        <Node type="hid" id="42" />
        <Node type="hid" id="48" />
      </Nodes>
      <Connections>
        <Con id="19" src="7" tgt="11" wght="-3.8788900051391293" />
        <Con id="26" src="5" tgt="11" wght="-3.9213409119010523" />
        <Con id="27" src="0" tgt="11" wght="1.7583065731161283" />
        <Con id="28" src="2" tgt="11" wght="-3.3636163569485609" />
        <Con id="29" src="10" tgt="11" wght="-1.9391850783346058" />
        <Con id="30" src="1" tgt="11" wght="-1.6475948552463415" />
        <Con id="31" src="3" tgt="11" wght="-2.7068076109530681" />
        <Con id="32" src="4" tgt="11" wght="-0.89172752644230435" />
        <Con id="33" src="9" tgt="11" wght="-0.79490279891811289" />
        <Con id="37" src="6" tgt="11" wght="-0.79286144810668879" />
        <Con id="38" src="8" tgt="11" wght="-3.3252540141415055" />
        <Con id="43" src="4" tgt="42" wght="-3.8712698464201067" />
        <Con id="44" src="42" tgt="11" wght="5" />
        <Con id="49" src="2" tgt="48" wght="1.7567952957607633" />
        <Con id="50" src="48" tgt="11" wght="2.0949901891973908" />
        <Con id="51" src="42" tgt="48" wght="2.8266021719741881" />
        <Con id="55" src="10" tgt="42" wght="0.10326487375950133" />
        <Con id="89" src="9" tgt="42" wght="0.24598253837674416" />
        <Con id="90" src="8" tgt="42" wght="-0.61295250644120047" />
        <Con id="91" src="5" tgt="42" wght="-0.60551721791013269" />
      </Connections>
    </Network>
    <Network id="18158" birthGen="151" fitness="1778.2786865234375">
      <Nodes>
        <Node type="bias" id="0" />
        <Node type="in" id="1" />
        <Node type="in" id="2" />
        <Node type="in" id="3" />
        <Node type="in" id="4" />
        <Node type="in" id="5" />
        <Node type="in" id="6" />
        <Node type="in" id="7" />
        <Node type="in" id="8" />
        <Node type="in" id="9" />
        <Node type="in" id="10" />
        <Node type="out" id="11" />
        <Node type="hid" id="42" />
        <Node type="hid" id="48" />
      </Nodes>
      <Connections>
        <Con id="19" src="7" tgt="11" wght="-3.8788900051391293" />
        <Con id="26" src="5" tgt="11" wght="-3.9213409119010523" />
        <Con id="27" src="0" tgt="11" wght="1.7140150594067964" />
        <Con id="28" src="2" tgt="11" wght="-3.3478386064811243" />
        <Con id="29" src="10" tgt="11" wght="-1.9391850783346058" />
        <Con id="30" src="1" tgt="11" wght="-1.6475948552463415" />
        <Con id="31" src="3" tgt="11" wght="-2.7068076109530681" />
        <Con id="32" src="4" tgt="11" wght="-0.89172752644230435" />
        <Con id="33" src="9" tgt="11" wght="-0.79490279891811289" />
        <Con id="37" src="6" tgt="11" wght="-0.79286144810668879" />
        <Con id="38" src="8" tgt="11" wght="-4.3330903897922557" />
        <Con id="43" src="4" tgt="42" wght="-3.8712698464201067" />
        <Con id="44" src="42" tgt="11" wght="5" />
        <Con id="49" src="2" tgt="48" wght="1.7567952957607633" />
        <Con id="50" src="48" tgt="11" wght="2.0949901891973908" />
        <Con id="51" src="42" tgt="48" wght="2.8266021719741881" />
        <Con id="55" src="10" tgt="42" wght="0.10326487375950133" />
        <Con id="89" src="9" tgt="42" wght="0.24598253837674416" />
        <Con id="90" src="8" tgt="42" wght="-0.61295250644120047" />
        <Con id="91" src="5" tgt="42" wght="-0.60551721791013269" />
      </Connections>
    </Network>
    <Network id="18159" birthGen="151" fitness="1716.8611450195313">
      <Nodes>
        <Node type="bias" id="0" />
        <Node type="in" id="1" />
        <Node type="in" id="2" />
        <Node type="in" id="3" />
        <Node type="in" id="4" />
        <Node type="in" id="5" />
        <Node type="in" id="6" />
        <Node type="in" id="7" />
        <Node type="in" id="8" />
        <Node type="in" id="9" />
        <Node type="in" id="10" />
        <Node type="out" id="11" />
        <Node type="hid" id="42" />
        <Node type="hid" id="48" />
      </Nodes>
      <Connections>
        <Con id="19" src="7" tgt="11" wght="-3.8788900051391293" />
        <Con id="26" src="5" tgt="11" wght="-3.9213409119010523" />
        <Con id="27" src="0" tgt="11" wght="1.7140150594067964" />
        <Con id="28" src="2" tgt="11" wght="-3.3636163569485609" />
        <Con id="29" src="10" tgt="11" wght="-1.9391850783346058" />
        <Con id="30" src="1" tgt="11" wght="-1.6475948552463415" />
        <Con id="31" src="3" tgt="11" wght="-2.7068076109530681" />
        <Con id="32" src="4" tgt="11" wght="-0.89172752644230435" />
        <Con id="33" src="9" tgt="11" wght="-0.79490279891811289" />
        <Con id="37" src="6" tgt="11" wght="-0.79286144810668879" />
        <Con id="38" src="8" tgt="11" wght="-4.3330903897922557" />
        <Con id="43" src="4" tgt="42" wght="-3.8712698464201067" />
        <Con id="44" src="42" tgt="11" wght="5" />
        <Con id="49" src="2" tgt="48" wght="1.7567952957607633" />
        <Con id="50" src="48" tgt="11" wght="2.1060958457684631" />
        <Con id="51" src="42" tgt="48" wght="2.8266021719741881" />
        <Con id="55" src="10" tgt="42" wght="0.10326487375950133" />
        <Con id="89" src="9" tgt="42" wght="0.24598253837674416" />
        <Con id="90" src="8" tgt="42" wght="-0.61295250644120047" />
        <Con id="91" src="5" tgt="42" wght="-0.60551721791013269" />
      </Connections>
    </Network>
    <Network id="18160" birthGen="151" fitness="2057.6846313476563">
      <Nodes>
        <Node type="bias" id="0" />
        <Node type="in" id="1" />
        <Node type="in" id="2" />
        <Node type="in" id="3" />
        <Node type="in" id="4" />
        <Node type="in" id="5" />
        <Node type="in" id="6" />
        <Node type="in" id="7" />
        <Node type="in" id="8" />
        <Node type="in" id="9" />
        <Node type="in" id="10" />
        <Node type="out" id="11" />
        <Node type="hid" id="42" />
        <Node type="hid" id="48" />
      </Nodes>
      <Connections>
        <Con id="19" src="7" tgt="11" wght="-3.8788900051391293" />
        <Con id="26" src="5" tgt="11" wght="-3.9213409119010523" />
        <Con id="27" src="0" tgt="11" wght="1.7140150594067964" />
        <Con id="28" src="2" tgt="11" wght="-3.3478386064811243" />
        <Con id="29" src="10" tgt="11" wght="-1.9391850783346058" />
        <Con id="30" src="1" tgt="11" wght="-1.1729374214964396" />
        <Con id="31" src="3" tgt="11" wght="-2.7068076109530681" />
        <Con id="32" src="4" tgt="11" wght="-0.89172752644230435" />
        <Con id="33" src="9" tgt="11" wght="-0.79490279891811289" />
        <Con id="37" src="6" tgt="11" wght="-0.79286144810668879" />
        <Con id="38" src="8" tgt="11" wght="-3.3252540141415055" />
        <Con id="43" src="4" tgt="42" wght="-3.8712698464201067" />
        <Con id="44" src="42" tgt="11" wght="5" />
        <Con id="49" src="2" tgt="48" wght="1.7567952957607633" />
        <Con id="50" src="48" tgt="11" wght="2.0949901891973908" />
        <Con id="51" src="42" tgt="48" wght="2.8266021719741881" />
        <Con id="55" src="10" tgt="42" wght="0.10326487375950133" />
        <Con id="89" src="9" tgt="42" wght="0.24598253837674416" />
        <Con id="90" src="8" tgt="42" wght="-0.88452973969534554" />
        <Con id="91" src="5" tgt="42" wght="-0.60551721791013269" />
      </Connections>
    </Network>
    <Network id="18161" birthGen="151" fitness="1696.1356811523438">
      <Nodes>
        <Node type="bias" id="0" />
        <Node type="in" id="1" />
        <Node type="in" id="2" />
        <Node type="in" id="3" />
        <Node type="in" id="4" />
        <Node type="in" id="5" />
        <Node type="in" id="6" />
        <Node type="in" id="7" />
        <Node type="in" id="8" />
        <Node type="in" id="9" />
        <Node type="in" id="10" />
        <Node type="out" id="11" />
        <Node type="hid" id="42" />
        <Node type="hid" id="48" />
      </Nodes>
      <Connections>
        <Con id="19" src="7" tgt="11" wght="-3.8788900051391293" />
        <Con id="26" src="5" tgt="11" wght="-3.9213409119010523" />
        <Con id="27" src="0" tgt="11" wght="1.7140150594067964" />
        <Con id="28" src="2" tgt="11" wght="-3.3478386064811243" />
        <Con id="29" src="10" tgt="11" wght="-1.9391850783346058" />
        <Con id="30" src="1" tgt="11" wght="-1.6475948552463415" />
        <Con id="31" src="3" tgt="11" wght="-2.7068076109530681" />
        <Con id="32" src="4" tgt="11" wght="-0.89172752644230435" />
        <Con id="33" src="9" tgt="11" wght="-0.79490279891811289" />
        <Con id="37" src="6" tgt="11" wght="-0.79286144810668879" />
        <Con id="38" src="8" tgt="11" wght="-4.3330903897922557" />
        <Con id="43" src="4" tgt="42" wght="-3.8712698464201067" />
        <Con id="44" src="42" tgt="11" wght="5" />
        <Con id="49" src="2" tgt="48" wght="1.7643776108648033" />
        <Con id="50" src="48" tgt="11" wght="2.1060958457684631" />
        <Con id="51" src="42" tgt="48" wght="2.8266021719741881" />
        <Con id="55" src="10" tgt="42" wght="0.10326487375950133" />
        <Con id="89" src="9" tgt="42" wght="0.24598253837674416" />
        <Con id="90" src="8" tgt="42" wght="-0.88452973969534554" />
        <Con id="91" src="5" tgt="42" wght="-0.60551721791013269" />
      </Connections>
    </Network>
    <Network id="18162" birthGen="151" fitness="2496.6336669921875">
      <Nodes>
        <Node type="bias" id="0" />
        <Node type="in" id="1" />
        <Node type="in" id="2" />
        <Node type="in" id="3" />
        <Node type="in" id="4" />
        <Node type="in" id="5" />
        <Node type="in" id="6" />
        <Node type="in" id="7" />
        <Node type="in" id="8" />
        <Node type="in" id="9" />
        <Node type="in" id="10" />
        <Node type="out" id="11" />
        <Node type="hid" id="42" />
        <Node type="hid" id="48" />
      </Nodes>
      <Connections>
        <Con id="19" src="7" tgt="11" wght="-3.8788900051391293" />
        <Con id="26" src="5" tgt="11" wght="-3.9213409119010523" />
        <Con id="27" src="0" tgt="11" wght="1.7583065731161283" />
        <Con id="28" src="2" tgt="11" wght="-3.3478386064811243" />
        <Con id="29" src="10" tgt="11" wght="-1.9584314461858083" />
        <Con id="30" src="1" tgt="11" wght="-1.6475948552463415" />
        <Con id="31" src="3" tgt="11" wght="-2.7068076109530681" />
        <Con id="32" src="4" tgt="11" wght="-0.89172752644230435" />
        <Con id="33" src="9" tgt="11" wght="-0.79490279891811289" />
        <Con id="37" src="6" tgt="11" wght="-0.82253721601106133" />
        <Con id="38" src="8" tgt="11" wght="-4.3330903897922557" />
        <Con id="43" src="4" tgt="42" wght="-3.8712698464201067" />
        <Con id="44" src="42" tgt="11" wght="5" />
        <Con id="49" src="2" tgt="48" wght="1.7567952957607633" />
        <Con id="50" src="48" tgt="11" wght="2.0949901891973908" />
        <Con id="51" src="42" tgt="48" wght="2.8266021719741881" />
        <Con id="55" src="10" tgt="42" wght="0.10326487375950133" />
        <Con id="89" src="9" tgt="42" wght="0.24598253837674416" />
        <Con id="90" src="8" tgt="42" wght="-0.60176949423417225" />
        <Con id="91" src="5" tgt="42" wght="-0.60551721791013269" />
      </Connections>
    </Network>
    <Network id="18163" birthGen="151" fitness="2474.342529296875">
      <Nodes>
        <Node type="bias" id="0" />
        <Node type="in" id="1" />
        <Node type="in" id="2" />
        <Node type="in" id="3" />
        <Node type="in" id="4" />
        <Node type="in" id="5" />
        <Node type="in" id="6" />
        <Node type="in" id="7" />
        <Node type="in" id="8" />
        <Node type="in" id="9" />
        <Node type="in" id="10" />
        <Node type="out" id="11" />
        <Node type="hid" id="42" />
        <Node type="hid" id="48" />
      </Nodes>
      <Connections>
        <Con id="19" src="7" tgt="11" wght="-3.8788900051391293" />
        <Con id="26" src="5" tgt="11" wght="-3.9213409119010523" />
        <Con id="27" src="0" tgt="11" wght="1.7140150594067964" />
        <Con id="28" src="2" tgt="11" wght="-3.3478386064811243" />
        <Con id="29" src="10" tgt="11" wght="-1.9391850783346058" />
        <Con id="30" src="1" tgt="11" wght="-1.6475948552463415" />
        <Con id="31" src="3" tgt="11" wght="-2.7068076109530681" />
        <Con id="32" src="4" tgt="11" wght="-0.89172752644230435" />
        <Con id="33" src="9" tgt="11" wght="-0.79490279891811289" />
        <Con id="37" src="6" tgt="11" wght="-0.79286144810668879" />
        <Con id="38" src="8" tgt="11" wght="-3.3252540141415055" />
        <Con id="43" src="4" tgt="42" wght="-3.8712698464201067" />
        <Con id="44" src="42" tgt="11" wght="5" />
        <Con id="49" src="2" tgt="48" wght="1.7567952957607633" />
        <Con id="50" src="48" tgt="11" wght="2.0949901891973908" />
        <Con id="51" src="42" tgt="48" wght="2.8266021719741881" />
        <Con id="55" src="10" tgt="42" wght="0.10326487375950133" />
        <Con id="89" src="9" tgt="42" wght="0.24598253837674416" />
        <Con id="90" src="8" tgt="42" wght="-0.61295250644120047" />
        <Con id="91" src="5" tgt="42" wght="-0.60551721791013269" />
      </Connections>
    </Network>
    <Network id="18164" birthGen="151" fitness="2256.7603759765625">
      <Nodes>
        <Node type="bias" id="0" />
        <Node type="in" id="1" />
        <Node type="in" id="2" />
        <Node type="in" id="3" />
        <Node type="in" id="4" />
        <Node type="in" id="5" />
        <Node type="in" id="6" />
        <Node type="in" id="7" />
        <Node type="in" id="8" />
        <Node type="in" id="9" />
        <Node type="in" id="10" />
        <Node type="out" id="11" />
        <Node type="hid" id="42" />
        <Node type="hid" id="48" />
      </Nodes>
      <Connections>
        <Con id="19" src="7" tgt="11" wght="-3.8788900051391293" />
        <Con id="26" src="5" tgt="11" wght="-3.9213409119010523" />
        <Con id="27" src="0" tgt="11" wght="1.7140150594067964" />
        <Con id="28" src="2" tgt="11" wght="-3.3636163569485609" />
        <Con id="29" src="10" tgt="11" wght="-1.9391850783346058" />
        <Con id="30" src="1" tgt="11" wght="-1.6475948552463415" />
        <Con id="31" src="3" tgt="11" wght="-2.7068076109530681" />
        <Con id="32" src="4" tgt="11" wght="-0.89172752644230435" />
        <Con id="33" src="9" tgt="11" wght="-0.79490279891811289" />
        <Con id="37" src="6" tgt="11" wght="-0.79286144810668879" />
        <Con id="38" src="8" tgt="11" wght="-3.3252540141415055" />
        <Con id="43" src="4" tgt="42" wght="-3.8712698464201067" />
        <Con id="44" src="42" tgt="11" wght="5" />
        <Con id="49" src="2" tgt="48" wght="1.7567952957607633" />
        <Con id="50" src="48" tgt="11" wght="2.0949901891973908" />
        <Con id="51" src="42" tgt="48" wght="2.8266021719741881" />
        <Con id="55" src="10" tgt="42" wght="0.10326487375950133" />
        <Con id="89" src="9" tgt="42" wght="0.22863372153591627" />
        <Con id="90" src="8" tgt="42" wght="-0.61295250644120047" />
        <Con id="91" src="5" tgt="42" wght="-0.60551721791013269" />
      </Connections>
    </Network>
    <Network id="18165" birthGen="151" fitness="2178.5714721679688">
      <Nodes>
        <Node type="bias" id="0" />
        <Node type="in" id="1" />
        <Node type="in" id="2" />
        <Node type="in" id="3" />
        <Node type="in" id="4" />
        <Node type="in" id="5" />
        <Node type="in" id="6" />
        <Node type="in" id="7" />
        <Node type="in" id="8" />
        <Node type="in" id="9" />
        <Node type="in" id="10" />
        <Node type="out" id="11" />
        <Node type="hid" id="42" />
        <Node type="hid" id="48" />
      </Nodes>
      <Connections>
        <Con id="19" src="7" tgt="11" wght="-3.8788900051391293" />
        <Con id="26" src="5" tgt="11" wght="-3.9213409119010523" />
        <Con id="27" src="0" tgt="11" wght="1.7140150594067964" />
        <Con id="28" src="2" tgt="11" wght="-3.3478386064811243" />
        <Con id="29" src="10" tgt="11" wght="-1.9391850783346058" />
        <Con id="30" src="1" tgt="11" wght="-1.6475948552463415" />
        <Con id="31" src="3" tgt="11" wght="-2.7068076109530681" />
        <Con id="32" src="4" tgt="11" wght="-0.89172752644230435" />
        <Con id="33" src="9" tgt="11" wght="-0.79490279891811289" />
        <Con id="37" src="6" tgt="11" wght="-0.79286144810668879" />
        <Con id="38" src="8" tgt="11" wght="-4.3330903897922557" />
        <Con id="43" src="4" tgt="42" wght="-3.8712698464201067" />
        <Con id="44" src="42" tgt="11" wght="5" />
        <Con id="49" src="2" tgt="48" wght="1.7567952957607633" />
        <Con id="50" src="48" tgt="11" wght="2.1060958457684631" />
        <Con id="51" src="42" tgt="48" wght="2.8266021719741881" />
        <Con id="55" src="10" tgt="42" wght="0.10326487375950133" />
        <Con id="89" src="9" tgt="42" wght="0.24598253837674416" />
        <Con id="90" src="8" tgt="42" wght="-0.61295250644120047" />
        <Con id="91" src="5" tgt="42" wght="-0.60551721791013269" />
      </Connections>
    </Network>
    <Network id="18166" birthGen="151" fitness="2481.2628173828125">
      <Nodes>
        <Node type="bias" id="0" />
        <Node type="in" id="1" />
        <Node type="in" id="2" />
        <Node type="in" id="3" />
        <Node type="in" id="4" />
        <Node type="in" id="5" />
        <Node type="in" id="6" />
        <Node type="in" id="7" />
        <Node type="in" id="8" />
        <Node type="in" id="9" />
        <Node type="in" id="10" />
        <Node type="out" id="11" />
        <Node type="hid" id="42" />
        <Node type="hid" id="48" />
      </Nodes>
      <Connections>
        <Con id="19" src="7" tgt="11" wght="-3.8788900051391293" />
        <Con id="26" src="5" tgt="11" wght="-3.9213409119010523" />
        <Con id="27" src="0" tgt="11" wght="1.7583065731161283" />
        <Con id="28" src="2" tgt="11" wght="-3.3478386064811243" />
        <Con id="29" src="10" tgt="11" wght="-1.9391850783346058" />
        <Con id="30" src="1" tgt="11" wght="-1.6475948552463415" />
        <Con id="31" src="3" tgt="11" wght="-2.7068076109530681" />
        <Con id="32" src="4" tgt="11" wght="-0.89172752644230435" />
        <Con id="33" src="9" tgt="11" wght="-0.79490279891811289" />
        <Con id="37" src="6" tgt="11" wght="-0.79286144810668879" />
        <Con id="38" src="8" tgt="11" wght="-4.3330903897922557" />
        <Con id="43" src="4" tgt="42" wght="-3.8712698464201067" />
        <Con id="44" src="42" tgt="11" wght="5" />
        <Con id="49" src="2" tgt="48" wght="1.7567952957607633" />
        <Con id="50" src="48" tgt="11" wght="2.1060958457684631" />
        <Con id="51" src="42" tgt="48" wght="2.8266021719741881" />
        <Con id="55" src="10" tgt="42" wght="0.10326487375950133" />
        <Con id="89" src="9" tgt="42" wght="0.22863372153591627" />
        <Con id="90" src="8" tgt="42" wght="-0.61295250644120047" />
        <Con id="91" src="5" tgt="42" wght="-0.60551721791013269" />
      </Connections>
    </Network>
