<?xml version="1.0" encoding="utf-8"?>
<Root>
  <ActivationFunctions>
    <Fn id="0" name="SteepenedSigmoid" prob="1" />
  </ActivationFunctions>
  <Networks>
    <Network id="305730" birthGen="45" fitness="83957.088541666672">
      <Nodes>
        <Node type="bias" id="0" />
        <Node type="in" id="1" />
        <Node type="in" id="2" />
        <Node type="in" id="3" />
        <Node type="in" id="4" />
        <Node type="in" id="5" />
        <Node type="in" id="6" />
        <Node type="in" id="7" />
        <Node type="in" id="8" />
        <Node type="in" id="9" />
        <Node type="in" id="10" />
        <Node type="in" id="11" />
        <Node type="in" id="12" />
        <Node type="out" id="13" />
        <Node type="out" id="14" />
        <Node type="hid" id="65" />
        <Node type="hid" id="160" />
        <Node type="hid" id="187" />
        <Node type="hid" id="190" />
        <Node type="hid" id="706" />
        <Node type="hid" id="717" />
        <Node type="hid" id="752" />
        <Node type="hid" id="909" />
        <Node type="hid" id="939" />
        <Node type="hid" id="2871" />
        <Node type="hid" id="3829" />
        <Node type="hid" id="4150" />
        <Node type="hid" id="4202" />
        <Node type="hid" id="4473" />
        <Node type="hid" id="5044" />
        <Node type="hid" id="5238" />
        <Node type="hid" id="5291" />
        <Node type="hid" id="5886" />
        <Node type="hid" id="6032" />
        <Node type="hid" id="6423" />
        <Node type="hid" id="6440" />
        <Node type="hid" id="6618" />
      </Nodes>
      <Connections>
        <Con id="44" src="5" tgt="13" wght="-3.3352473996676615" />
        <Con id="45" src="4" tgt="13" wght="-0.44133261311799288" />
        <Con id="49" src="1" tgt="13" wght="4.9989962505306451" />
        <Con id="50" src="2" tgt="13" wght="4.5772218724209077" />
        <Con id="63" src="4" tgt="14" wght="1.2842947973189229" />
        <Con id="64" src="6" tgt="13" wght="-3.8657056812121282" />
        <Con id="66" src="11" tgt="65" wght="-0.49770768790074893" />
        <Con id="67" src="65" tgt="13" wght="2.6343074335676544" />
        <Con id="71" src="8" tgt="14" wght="-1.9925417438247421" />
        <Con id="74" src="7" tgt="13" wght="-4.3047354663307935" />
        <Con id="162" src="160" tgt="13" wght="2.5859634466984631" />
        <Con id="172" src="65" tgt="160" wght="-4.2089314638101936" />
        <Con id="174" src="5" tgt="65" wght="3.3595281784887714" />
        <Con id="180" src="160" tgt="14" wght="3.6756548384611181" />
        <Con id="181" src="12" tgt="65" wght="-3.0776327623382689" />
        <Con id="188" src="2" tgt="187" wght="-1.3687305460438113" />
        <Con id="192" src="190" tgt="13" wght="5" />
        <Con id="193" src="8" tgt="160" wght="0.73457006823329052" />
        <Con id="198" src="0" tgt="160" wght="-1.6773302709150648" />
        <Con id="239" src="187" tgt="190" wght="-4.1884767446112035" />
        <Con id="292" src="6" tgt="187" wght="0.69020438859675892" />
        <Con id="366" src="11" tgt="187" wght="1.2245031285823602" />
        <Con id="381" src="1" tgt="65" wght="3.1849191086017261" />
        <Con id="385" src="0" tgt="187" wght="-5" />
        <Con id="386" src="11" tgt="160" wght="-1.8609445857067171" />
        <Con id="469" src="8" tgt="187" wght="1.2675876910717285" />
        <Con id="518" src="187" tgt="65" wght="-4.3760655690438082" />
        <Con id="635" src="7" tgt="65" wght="1.8225388360674224" />
        <Con id="644" src="8" tgt="13" wght="-1.3768060995500886" />
        <Con id="648" src="1" tgt="160" wght="-3.739238041453814" />
        <Con id="661" src="9" tgt="65" wght="-1.4765947918093503" />
        <Con id="683" src="3" tgt="190" wght="2.9006276955281667" />
        <Con id="684" src="1" tgt="187" wght="2.8126630119637" />
        <Con id="704" src="12" tgt="187" wght="4.949456176561867" />
        <Con id="707" src="3" tgt="706" wght="-2.0097499822763276" />
        <Con id="708" src="706" tgt="187" wght="1.8455439914558789" />
        <Con id="718" src="160" tgt="717" wght="-0.98887401167303324" />
        <Con id="719" src="717" tgt="190" wght="0.2031389881386273" />
        <Con id="753" src="187" tgt="752" wght="-4.3983835020451316" />
        <Con id="754" src="752" tgt="160" wght="4.9974340183301367" />
        <Con id="782" src="6" tgt="717" wght="-3.1085577481805937" />
        <Con id="786" src="10" tgt="190" wght="2.2344374563544989" />
        <Con id="792" src="2" tgt="717" wght="4.6088438447499964" />
        <Con id="807" src="8" tgt="706" wght="0.0026145189347067093" />
        <Con id="854" src="706" tgt="717" wght="5" />
        <Con id="910" src="0" tgt="909" wght="-1.1405324358581543" />
        <Con id="911" src="909" tgt="13" wght="4.96241175629143" />
        <Con id="940" src="6" tgt="939" wght="5" />
        <Con id="941" src="939" tgt="160" wght="2.8512086297057757" />
        <Con id="970" src="187" tgt="160" wght="-2.1984134528276482" />
        <Con id="1079" src="1" tgt="909" wght="-4.3049962306395173" />
        <Con id="1100" src="160" tgt="909" wght="-0.56798268434980548" />
        <Con id="1179" src="0" tgt="706" wght="-4.7879547249391141" />
        <Con id="1209" src="10" tgt="752" wght="5" />
        <Con id="1751" src="717" tgt="909" wght="-0.11777479131324359" />
        <Con id="1782" src="706" tgt="160" wght="-1.5857095363460179" />
        <Con id="1884" src="65" tgt="909" wght="3.9964239173449241" />
        <Con id="1893" src="2" tgt="909" wght="1.4428184856400177" />
        <Con id="1902" src="5" tgt="190" wght="3.2737157822850982" />
        <Con id="1912" src="10" tgt="706" wght="1.9727519762950498" />
        <Con id="1966" src="65" tgt="717" wght="-4.4902057350948015" />
        <Con id="1970" src="3" tgt="160" wght="-1.9750321024744191" />
        <Con id="1994" src="4" tgt="717" wght="-0.98024277863943976" />
        <Con id="2000" src="12" tgt="190" wght="2.9036464792541894" />
        <Con id="2003" src="10" tgt="909" wght="-4.2887472919632206" />
        <Con id="2024" src="6" tgt="706" wght="3.5647572700785095" />
        <Con id="2033" src="2" tgt="190" wght="3.5294878596465837" />
        <Con id="2040" src="9" tgt="190" wght="-1.2083042119751957" />
        <Con id="2047" src="5" tgt="187" wght="0.8033483418639833" />
        <Con id="2057" src="4" tgt="65" wght="-4.7391353528615863" />
        <Con id="2058" src="706" tgt="13" wght="-1.2066582731726117" />
        <Con id="2059" src="6" tgt="909" wght="-4.7155975063161089" />
        <Con id="2078" src="8" tgt="752" wght="-1.7653486406846852" />
        <Con id="2088" src="7" tgt="190" wght="4.41935449372977" />
        <Con id="2094" src="8" tgt="909" wght="0.53652946100445442" />
        <Con id="2111" src="9" tgt="717" wght="3.3098662039582951" />
        <Con id="2113" src="5" tgt="909" wght="5" />
        <Con id="2114" src="752" tgt="909" wght="-2.2579568019136786" />
        <Con id="2117" src="9" tgt="706" wght="-3.0997453217703672" />
        <Con id="2123" src="1" tgt="717" wght="-1.4308175548955642" />
        <Con id="2135" src="9" tgt="909" wght="2.994145931425007" />
        <Con id="2148" src="187" tgt="717" wght="4.1180950915440917" />
        <Con id="2155" src="8" tgt="717" wght="1.4168143521653529" />
        <Con id="2239" src="5" tgt="717" wght="-4.7871784008619249" />
        <Con id="2265" src="909" tgt="190" wght="0.60627630450776959" />
        <Con id="2274" src="752" tgt="939" wght="2.3279219181512913" />
        <Con id="2295" src="706" tgt="939" wght="1.6138305281503413" />
        <Con id="2302" src="12" tgt="909" wght="3.5177830277205082" />
        <Con id="2303" src="11" tgt="909" wght="-2.1125040950275245" />
        <Con id="2356" src="12" tgt="706" wght="2.6284683567194613" />
        <Con id="2361" src="3" tgt="717" wght="1.691809851027519" />
        <Con id="2459" src="706" tgt="14" wght="1.4580731858577376" />
        <Con id="2630" src="187" tgt="939" wght="-0.91434600903486163" />
        <Con id="2789" src="160" tgt="190" wght="-1.5238884233686143" />
        <Con id="2834" src="5" tgt="752" wght="5" />
        <Con id="2872" src="5" tgt="2871" wght="3.0074676383157883" />
        <Con id="2873" src="2871" tgt="706" wght="-2.1803094712989188" />
        <Con id="3188" src="2871" tgt="65" wght="-2.4731248221912381" />
        <Con id="3281" src="0" tgt="939" wght="-3.0394954392577835" />
        <Con id="3360" src="7" tgt="2871" wght="-1.4580606774906566" />
        <Con id="3472" src="10" tgt="939" wght="4.7667640946695364" />
        <Con id="3830" src="187" tgt="3829" wght="4.322764287215862" />
        <Con id="3831" src="3829" tgt="717" wght="0.28393593762373104" />
        <Con id="4152" src="4150" tgt="65" wght="4.7105464159930843" />
        <Con id="4197" src="8" tgt="2871" wght="0.525533391667361" />
        <Con id="4203" src="7" tgt="4202" wght="-1.560524405767552" />
        <Con id="4204" src="4202" tgt="706" wght="-2.557403010795805" />
        <Con id="4211" src="11" tgt="2871" wght="-0.73241566307842731" />
        <Con id="4218" src="939" tgt="3829" wght="0.443597844922768" />
        <Con id="4234" src="12" tgt="2871" wght="4.8999017096279935" />
        <Con id="4242" src="4202" tgt="3829" wght="3.2466463295729668" />
        <Con id="4243" src="4202" tgt="160" wght="-2.108629237592242" />
        <Con id="4245" src="4202" tgt="717" wght="1.2523637972924055" />
        <Con id="4268" src="2" tgt="2871" wght="-3.6546564128970944" />
        <Con id="4284" src="2" tgt="4150" wght="-1.2497980924930825" />
        <Con id="4305" src="4150" tgt="717" wght="-2.2443981489205211" />
        <Con id="4475" src="4473" tgt="65" wght="3.7643178417217795" />
        <Con id="4555" src="4202" tgt="909" wght="-2.6945401158138909" />
        <Con id="4605" src="8" tgt="3829" wght="-1.3405901892110705" />
        <Con id="4655" src="4202" tgt="187" wght="4.6919410894778517" />
        <Con id="4662" src="9" tgt="4202" wght="-1.2228448506929221" />
        <Con id="4697" src="4473" tgt="706" wght="-5" />
        <Con id="4757" src="4202" tgt="939" wght="-3.9588047987795" />
        <Con id="4865" src="4202" tgt="4473" wght="1.039016745994918" />
        <Con id="5046" src="5044" tgt="13" wght="3.2903834461962509" />
        <Con id="5239" src="187" tgt="5238" wght="-2.4716726198168271" />
        <Con id="5240" src="5238" tgt="13" wght="4.98800041587328" />
        <Con id="5241" src="4202" tgt="5044" wght="-1.5061328267937062" />
        <Con id="5292" src="3" tgt="5291" wght="-3.0994972224247088" />
        <Con id="5293" src="5291" tgt="5044" wght="3.7633385660667753" />
        <Con id="5303" src="2871" tgt="5044" wght="-0.4753547740269391" />
        <Con id="5334" src="3829" tgt="5238" wght="-4.94228320477564" />
        <Con id="5360" src="939" tgt="5044" wght="-1.0300430670453304" />
        <Con id="5361" src="5238" tgt="65" wght="-4.0481005204912028" />
        <Con id="5426" src="11" tgt="5044" wght="3.043846698408573" />
        <Con id="5553" src="4150" tgt="5238" wght="-1.3482091345928235" />
        <Con id="5645" src="5291" tgt="706" wght="-2.8593391109371993" />
        <Con id="5677" src="3829" tgt="5044" wght="1.5258121211081743" />
        <Con id="5790" src="187" tgt="13" wght="0.44710618075079139" />
        <Con id="5887" src="10" tgt="5886" wght="1.3547896338542316" />
        <Con id="5888" src="5886" tgt="4473" wght="5" />
        <Con id="6034" src="6032" tgt="13" wght="3.7583565711741773" />
        <Con id="6424" src="6" tgt="6423" wght="-0.063892354603532153" />
        <Con id="6425" src="6423" tgt="65" wght="5" />
        <Con id="6441" src="4202" tgt="6440" wght="0.0049714820897418521" />
        <Con id="6442" src="6440" tgt="13" wght="5" />
        <Con id="6609" src="5238" tgt="14" wght="3.0770104145631194" />
        <Con id="6611" src="4" tgt="4150" wght="-4.1366911819204688" />
        <Con id="6619" src="752" tgt="6618" wght="-4.147214223950602" />
        <Con id="6620" src="6618" tgt="6032" wght="5" />
        <Con id="6755" src="65" tgt="6618" wght="0.38132912013679743" />
        <Con id="6822" src="5886" tgt="65" wght="3.7515262561636931" />
        <Con id="6858" src="9" tgt="14" wght="-1.6412640502676368" />
      </Connections>
    </Network>
  </Networks>
</Root>