<?xml version="1.0" encoding="utf-8"?>
<Root>
  <ActivationFunctions>
    <Fn id="0" name="SteepenedSigmoid" prob="1" />
  </ActivationFunctions>
  <Networks>
    <Network id="305978" birthGen="1" fitness="47496.765625">
      <Nodes>
        <Node type="bias" id="0" />
        <Node type="in" id="1" />
        <Node type="in" id="2" />
        <Node type="in" id="3" />
        <Node type="in" id="4" />
        <Node type="in" id="5" />
        <Node type="in" id="6" />
        <Node type="in" id="7" />
        <Node type="in" id="8" />
        <Node type="in" id="9" />
        <Node type="in" id="10" />
        <Node type="in" id="11" />
        <Node type="in" id="12" />
        <Node type="out" id="13" />
        <Node type="out" id="14" />
        <Node type="hid" id="65" />
        <Node type="hid" id="160" />
        <Node type="hid" id="190" />
        <Node type="hid" id="224" />
        <Node type="hid" id="230" />
        <Node type="hid" id="267" />
        <Node type="hid" id="348" />
        <Node type="hid" id="1110" />
        <Node type="hid" id="1153" />
        <Node type="hid" id="1226" />
        <Node type="hid" id="1392" />
        <Node type="hid" id="1405" />
        <Node type="hid" id="2595" />
        <Node type="hid" id="3380" />
        <Node type="hid" id="3482" />
        <Node type="hid" id="3520" />
        <Node type="hid" id="3544" />
        <Node type="hid" id="3746" />
        <Node type="hid" id="3993" />
        <Node type="hid" id="4093" />
        <Node type="hid" id="4301" />
        <Node type="hid" id="4339" />
        <Node type="hid" id="4415" />
        <Node type="hid" id="4581" />
        <Node type="hid" id="4977" />
        <Node type="hid" id="5093" />
        <Node type="hid" id="5409" />
        <Node type="hid" id="5568" />
        <Node type="hid" id="5713" />
        <Node type="hid" id="6054" />
        <Node type="hid" id="6190" />
        <Node type="hid" id="6295" />
      </Nodes>
      <Connections>
        <Con id="21" src="3" tgt="13" wght="4.2652847171544117" />
        <Con id="43" src="9" tgt="13" wght="-1.8274858812026045" />
        <Con id="44" src="5" tgt="13" wght="5" />
        <Con id="63" src="4" tgt="14" wght="1.8308723367780337" />
        <Con id="66" src="11" tgt="65" wght="3.8094444168019708" />
        <Con id="71" src="8" tgt="14" wght="-2.2393539543579206" />
        <Con id="74" src="7" tgt="13" wght="3.3249632948739274" />
        <Con id="172" src="65" tgt="160" wght="4.0310811929224659" />
        <Con id="191" src="160" tgt="190" wght="1.3915528708858032" />
        <Con id="192" src="190" tgt="13" wght="0.64788626396521853" />
        <Con id="193" src="8" tgt="160" wght="-5" />
        <Con id="221" src="5" tgt="160" wght="-0.80938542627994514" />
        <Con id="226" src="224" tgt="160" wght="2.734952579725745" />
        <Con id="232" src="230" tgt="224" wght="-4.6692549165327168" />
        <Con id="257" src="5" tgt="190" wght="1.9797020816716497" />
        <Con id="268" src="6" tgt="267" wght="-2.4677688095143209" />
        <Con id="392" src="9" tgt="160" wght="4.9955128671059308" />
        <Con id="423" src="9" tgt="230" wght="-2.4856510192004007" />
        <Con id="447" src="2" tgt="224" wght="-0.99140707925242522" />
        <Con id="504" src="267" tgt="190" wght="-4.0136312201283024" />
        <Con id="638" src="11" tgt="230" wght="-5" />
        <Con id="643" src="10" tgt="14" wght="4.2018410442253" />
        <Con id="644" src="8" tgt="13" wght="5" />
        <Con id="648" src="1" tgt="160" wght="-0.39005518914273085" />
        <Con id="651" src="6" tgt="224" wght="2.7687056522728071" />
        <Con id="661" src="9" tgt="65" wght="5" />
        <Con id="682" src="11" tgt="267" wght="3.4297639217530356" />
        <Con id="692" src="190" tgt="14" wght="-4.21951676100031" />
        <Con id="732" src="11" tgt="13" wght="1.8687996689836583" />
        <Con id="808" src="5" tgt="65" wght="1.5625737830305733" />
        <Con id="865" src="267" tgt="224" wght="-3.2244800157050983" />
        <Con id="870" src="0" tgt="160" wght="-2.2199833082410594" />
        <Con id="896" src="4" tgt="230" wght="5" />
        <Con id="926" src="8" tgt="224" wght="1.7871870958618583" />
        <Con id="953" src="5" tgt="230" wght="-2.6507032532858359" />
        <Con id="1111" src="348" tgt="1110" wght="3.1093593581438732" />
        <Con id="1133" src="1110" tgt="160" wght="-0.78542351248315612" />
        <Con id="1145" src="11" tgt="348" wght="4.2897507917005315" />
        <Con id="1155" src="1153" tgt="230" wght="-5" />
        <Con id="1188" src="5" tgt="1110" wght="-2.8483923338353634" />
        <Con id="1227" src="6" tgt="1226" wght="-1.8923248361202361" />
        <Con id="1228" src="1226" tgt="1153" wght="0.13804020784068249" />
        <Con id="1267" src="10" tgt="348" wght="1.9855034568603702" />
        <Con id="1311" src="1226" tgt="160" wght="2.3644136200872525" />
        <Con id="1393" src="230" tgt="1392" wght="3.1364931566211278" />
        <Con id="1394" src="1392" tgt="65" wght="-2.2606932045891881" />
        <Con id="1407" src="1405" tgt="65" wght="3.1735069339884481" />
        <Con id="1431" src="11" tgt="1110" wght="-1.1410609855910658" />
        <Con id="1464" src="1" tgt="1226" wght="5" />
        <Con id="1531" src="11" tgt="1226" wght="-5" />
        <Con id="1877" src="230" tgt="13" wght="3.88603586875045" />
        <Con id="1909" src="1153" tgt="1405" wght="-4.505344714253698" />
        <Con id="1938" src="1153" tgt="160" wght="3.1587203589045876" />
        <Con id="1946" src="9" tgt="1226" wght="4.6647395783987475" />
        <Con id="1951" src="1226" tgt="13" wght="-3.0810162804034817" />
        <Con id="1956" src="4" tgt="1392" wght="0.40808774414059712" />
        <Con id="1963" src="0" tgt="13" wght="-3.1153751784640535" />
        <Con id="1967" src="11" tgt="1392" wght="0.73496615957892053" />
        <Con id="1998" src="3" tgt="348" wght="4.5352504588817055" />
        <Con id="1999" src="12" tgt="224" wght="2.6761290000890807" />
        <Con id="2009" src="1110" tgt="65" wght="-4.6779345587846253" />
        <Con id="2010" src="1226" tgt="65" wght="-4.9902605685552466" />
        <Con id="2018" src="8" tgt="65" wght="3.3887349903560349" />
        <Con id="2028" src="9" tgt="224" wght="-2.0519541274150788" />
        <Con id="2030" src="9" tgt="1392" wght="-0.72177369935264291" />
        <Con id="2042" src="1226" tgt="224" wght="-3.3213898772373796" />
        <Con id="2046" src="348" tgt="65" wght="-1.1151722763135326" />
        <Con id="2068" src="1110" tgt="1405" wght="-3.0889962936064514" />
        <Con id="2081" src="2" tgt="1153" wght="-3.6122458296907118" />
        <Con id="2089" src="1" tgt="1153" wght="-5" />
        <Con id="2099" src="7" tgt="1153" wght="0.65460064448416233" />
        <Con id="2102" src="9" tgt="1405" wght="1.6812236391252837" />
        <Con id="2104" src="5" tgt="1405" wght="-3.463738710831644" />
        <Con id="2106" src="0" tgt="224" wght="-5" />
        <Con id="2118" src="3" tgt="1392" wght="-1.5563872078977599" />
        <Con id="2152" src="4" tgt="348" wght="0.20224866889948778" />
        <Con id="2153" src="3" tgt="1226" wght="-4.9721860873639354" />
        <Con id="2154" src="4" tgt="224" wght="-2.3359444551169872" />
        <Con id="2161" src="267" tgt="1153" wght="-3.1879584874009854" />
        <Con id="2195" src="10" tgt="224" wght="-1.9513090834543112" />
        <Con id="2202" src="1405" tgt="160" wght="0.94164523108757692" />
        <Con id="2216" src="348" tgt="230" wght="2.9783029643000547" />
        <Con id="2225" src="1392" tgt="1405" wght="5" />
        <Con id="2231" src="12" tgt="1110" wght="-0.78511349792896457" />
        <Con id="2240" src="8" tgt="1226" wght="1.734659165909604" />
        <Con id="2251" src="7" tgt="348" wght="0.56826066165861744" />
        <Con id="2253" src="1153" tgt="1392" wght="-1.0182705158586187" />
        <Con id="2282" src="7" tgt="230" wght="1.0519021982327104" />
        <Con id="2286" src="6" tgt="1110" wght="-0.74320824339157565" />
        <Con id="2326" src="10" tgt="1226" wght="-3.102375715719683" />
        <Con id="2344" src="8" tgt="1392" wght="-2.117046521015201" />
        <Con id="2365" src="1153" tgt="348" wght="-2.8206143621776443" />
        <Con id="2376" src="12" tgt="230" wght="2.1481976877847897" />
        <Con id="2382" src="1" tgt="65" wght="-4.9613655172288418" />
        <Con id="2411" src="1405" tgt="14" wght="0.92123560880156485" />
        <Con id="2446" src="3" tgt="1153" wght="-0.15037423465400934" />
        <Con id="2447" src="230" tgt="160" wght="0.5628200684801441" />
        <Con id="2532" src="1392" tgt="13" wght="-0.63161778325138385" />
        <Con id="2596" src="2" tgt="2595" wght="2.0151956757375404" />
        <Con id="2597" src="2595" tgt="13" wght="1.2061186794399561" />
        <Con id="2688" src="2595" tgt="1405" wght="-4.7799687793830552" />
        <Con id="2711" src="230" tgt="2595" wght="0.76662755342990607" />
        <Con id="2894" src="0" tgt="2595" wght="3.3078611576165136" />
        <Con id="2947" src="5" tgt="2595" wght="-0.72189637454069366" />
        <Con id="3043" src="348" tgt="2595" wght="-1.9826888691677285" />
        <Con id="3144" src="2" tgt="13" wght="0.082418360080212638" />
        <Con id="3381" src="348" tgt="3380" wght="-4.9489018306346688" />
        <Con id="3437" src="3380" tgt="65" wght="-2.3534110920418727" />
        <Con id="3462" src="1392" tgt="3380" wght="0.1715586051123178" />
        <Con id="3483" src="1" tgt="3482" wght="1.6537324045645982" />
        <Con id="3521" src="1226" tgt="3520" wght="-4.2723663148302613" />
        <Con id="3529" src="3520" tgt="13" wght="2.3585603333955794" />
        <Con id="3538" src="3380" tgt="13" wght="-1.2906574014045185" />
        <Con id="3545" src="267" tgt="3544" wght="-0.90215441228317617" />
        <Con id="3546" src="3544" tgt="348" wght="4.8346474523788459" />
        <Con id="3568" src="3520" tgt="3544" wght="-4.26168180757016" />
        <Con id="3588" src="3544" tgt="3482" wght="4.6777972575533413" />
        <Con id="3601" src="6" tgt="3482" wght="-4.0553726837857358" />
        <Con id="3612" src="1" tgt="3380" wght="-3.7514761783330322" />
        <Con id="3619" src="3544" tgt="3380" wght="-0.72813219704711474" />
        <Con id="3627" src="3482" tgt="14" wght="1.6040258862281178" />
        <Con id="3670" src="2" tgt="3380" wght="-1.9474613207011382" />
        <Con id="3692" src="2" tgt="3520" wght="1.5873054533843787" />
        <Con id="3745" src="3" tgt="3380" wght="3.1328133848529265" />
        <Con id="3748" src="3746" tgt="13" wght="4.3747027715825" />
        <Con id="3780" src="3746" tgt="1226" wght="1.5995424557109352" />
        <Con id="3805" src="3482" tgt="224" wght="2.369060113981647" />
        <Con id="3875" src="6" tgt="13" wght="-1.6696485347385051" />
        <Con id="3989" src="3746" tgt="3482" wght="-5" />
        <Con id="3995" src="3993" tgt="2595" wght="-3.0748720510340197" />
        <Con id="4075" src="1" tgt="3746" wght="-3.3553145590243258" />
        <Con id="4094" src="3520" tgt="4093" wght="1.8894416962224407" />
        <Con id="4095" src="4093" tgt="224" wght="5" />
        <Con id="4112" src="4093" tgt="13" wght="4.2286359471685842" />
        <Con id="4219" src="4093" tgt="65" wght="-2.8100800148886051" />
        <Con id="4282" src="3993" tgt="1110" wght="3.0989710783291704" />
        <Con id="4302" src="9" tgt="4301" wght="0.885710369116509" />
        <Con id="4330" src="11" tgt="3993" wght="-5" />
        <Con id="4340" src="3" tgt="4339" wght="-5" />
        <Con id="4341" src="4339" tgt="230" wght="1.996064334898578" />
        <Con id="4343" src="11" tgt="4093" wght="3.9952102635198554" />
        <Con id="4384" src="1405" tgt="4093" wght="0.18395981845844725" />
        <Con id="4416" src="3" tgt="4415" wght="-5" />
        <Con id="4417" src="4415" tgt="224" wght="3.4472629534878143" />
        <Con id="4443" src="2595" tgt="4093" wght="2.5544907827887182" />
        <Con id="4469" src="4301" tgt="348" wght="3.6428167391234139" />
        <Con id="4480" src="4301" tgt="4339" wght="-0.88115000165998936" />
        <Con id="4483" src="12" tgt="3746" wght="1.2502696737647057" />
        <Con id="4582" src="3482" tgt="4581" wght="-3.9485074397314515" />
        <Con id="4583" src="4581" tgt="1110" wght="2.9507662335917337" />
        <Con id="4590" src="3993" tgt="224" wght="4.889028197417626" />
        <Con id="4614" src="4339" tgt="224" wght="2.7643088669142113" />
        <Con id="4676" src="1153" tgt="4339" wght="-4.9528842226404617" />
        <Con id="4684" src="4415" tgt="348" wght="-1.9100950026508525" />
        <Con id="4738" src="1" tgt="4415" wght="3.372252677059572" />
        <Con id="4819" src="4301" tgt="3993" wght="-0.86108218216712273" />
        <Con id="4899" src="4415" tgt="1153" wght="1.841356568783336" />
        <Con id="4937" src="4" tgt="4581" wght="0.89426333694306592" />
        <Con id="4978" src="1226" tgt="4977" wght="-3.2478762690419405" />
        <Con id="4979" src="4977" tgt="3380" wght="-0.38661992158294389" />
        <Con id="5075" src="10" tgt="4301" wght="0.10351096722575373" />
        <Con id="5094" src="1110" tgt="5093" wght="-5" />
        <Con id="5095" src="5093" tgt="230" wght="4.9982944126828786" />
        <Con id="5205" src="5" tgt="4093" wght="1.9059516477310814" />
        <Con id="5255" src="4977" tgt="2595" wght="2.2706720682065726" />
        <Con id="5263" src="3520" tgt="4977" wght="5" />
        <Con id="5371" src="11" tgt="4581" wght="-3.7114528763575647" />
        <Con id="5410" src="4" tgt="5409" wght="4.285393330062754" />
        <Con id="5411" src="5409" tgt="1110" wght="4.9985635064329177" />
        <Con id="5423" src="3746" tgt="5093" wght="-2.1633056069818362" />
        <Con id="5446" src="5093" tgt="4339" wght="-3.9816629073910992" />
        <Con id="5532" src="9" tgt="4977" wght="3.9598707815378682" />
        <Con id="5569" src="1" tgt="5568" wght="-0.38647129818028175" />
        <Con id="5570" src="5568" tgt="224" wght="2.8075358491268019" />
        <Con id="5639" src="1" tgt="5409" wght="-1.6573450108990073" />
        <Con id="5714" src="3380" tgt="5713" wght="-3.8713887643277478" />
        <Con id="5715" src="5713" tgt="1405" wght="5" />
        <Con id="5737" src="3482" tgt="4977" wght="-4.4170535800103981" />
        <Con id="5860" src="3993" tgt="5568" wght="5" />
        <Con id="5881" src="10" tgt="5409" wght="-4.633131202282768" />
        <Con id="6055" src="4301" tgt="6054" wght="-2.9494131200273177" />
        <Con id="6056" src="6054" tgt="1226" wght="4.9862500817015611" />
        <Con id="6124" src="6054" tgt="5093" wght="2.2084461731655223" />
        <Con id="6159" src="1226" tgt="5713" wght="-0.10149188805371523" />
        <Con id="6191" src="3" tgt="6190" wght="-4.162145773917624" />
        <Con id="6192" src="6190" tgt="3993" wght="5" />
        <Con id="6296" src="8" tgt="6295" wght="0.51590984814601426" />
        <Con id="6297" src="6295" tgt="348" wght="5" />
        <Con id="6328" src="5093" tgt="5568" wght="-4.0790426917374134" />
        <Con id="6435" src="6295" tgt="190" wght="4.576806859113276" />
        <Con id="6608" src="8" tgt="5093" wght="-2.0935769719921371" />
        <Con id="6679" src="1153" tgt="2595" wght="0.76641245745122433" />
        <Con id="6688" src="3746" tgt="190" wght="-4.7126644104719162" />
        <Con id="6863" src="6295" tgt="4977" wght="-0.84636180195957422" />
      </Connections>
    </Network>
  </Networks>
</Root>