<?xml version="1.0" encoding="utf-8"?>
<Root>
  <ActivationFunctions>
    <Fn id="0" name="SteepenedSigmoid" prob="1" />
  </ActivationFunctions>
  <Networks>
    <Network id="7517" birthGen="62" fitness="4517.22998046875">
      <Nodes>
        <Node type="bias" id="0" />
        <Node type="in" id="1" />
        <Node type="in" id="2" />
        <Node type="in" id="3" />
        <Node type="in" id="4" />
        <Node type="out" id="5" />
        <Node type="hid" id="31" />
      </Nodes>
      <Connections>
        <Con id="8" src="2" tgt="5" wght="3.4964253194630146" />
        <Con id="11" src="0" tgt="5" wght="0.21665701372956109" />
        <Con id="12" src="3" tgt="5" wght="-3.582700975679229" />
        <Con id="20" src="1" tgt="5" wght="-0.26145188975850064" />
        <Con id="30" src="4" tgt="5" wght="2.1489850790978982" />
        <Con id="32" src="3" tgt="31" wght="-3.8725398815481609" />
        <Con id="33" src="31" tgt="5" wght="5" />
      </Connections>
    </Network>
  </Networks>
</Root>