<?xml version="1.0" encoding="utf-8"?>
<Root>
  <ActivationFunctions>
    <Fn id="0" name="Linear" prob="0.25" />
    <Fn id="1" name="BipolarSigmoid" prob="0.25" />
    <Fn id="2" name="Gaussian" prob="0.25" />
    <Fn id="3" name="Sine" prob="0.25" />
  </ActivationFunctions>
  <Networks>
    <Network id="18249" birthGen="151" fitness="2939.223876953125">
      <Nodes>
        <Node type="bias" id="0" fnId="0" />
        <Node type="in" id="1" fnId="0" />
        <Node type="in" id="2" fnId="0" />
        <Node type="in" id="3" fnId="0" />
        <Node type="in" id="4" fnId="0" />
        <Node type="out" id="5" fnId="0" />
        <Node type="out" id="6" fnId="0" />
        <Node type="hid" id="34" fnId="2" />
        <Node type="hid" id="54" fnId="3" />
      </Nodes>
      <Connections>
        <Con id="14" src="3" tgt="6" wght="-0.41367328257816305" />
        <Con id="35" src="0" tgt="34" wght="-0.64658415157547033" />
        <Con id="36" src="34" tgt="5" wght="3.3241445995785348" />
        <Con id="38" src="2" tgt="6" wght="3.3607981513786056" />
        <Con id="51" src="34" tgt="6" wght="-0.0051831335799780416" />
        <Con id="55" src="1" tgt="54" wght="0.22509171560077718" />
        <Con id="56" src="54" tgt="6" wght="1.1602858112288978" />
      </Connections>
    </Network>
  </Networks>
</Root>