<?xml version="1.0" encoding="utf-8"?>
<Root>
  <ActivationFunctions>
    <Fn id="0" name="SteepenedSigmoid" prob="1" />
  </ActivationFunctions>
  <Networks>
    <Network id="18132" birthGen="150" fitness="2757.800537109375">
      <Nodes>
        <Node type="bias" id="0" />
        <Node type="in" id="1" />
        <Node type="in" id="2" />
        <Node type="in" id="3" />
        <Node type="in" id="4" />
        <Node type="in" id="5" />
        <Node type="in" id="6" />
        <Node type="in" id="7" />
        <Node type="in" id="8" />
        <Node type="in" id="9" />
        <Node type="in" id="10" />
        <Node type="out" id="11" />
        <Node type="hid" id="34" />
        <Node type="hid" id="67" />
      </Nodes>
      <Connections>
        <Con id="26" src="2" tgt="11" wght="-4.0513244033477367" />
        <Con id="29" src="4" tgt="11" wght="-1.1702073951132075" />
        <Con id="33" src="6" tgt="11" wght="-0.51452580683974325" />
        <Con id="35" src="8" tgt="34" wght="-3.9804446053022695" />
        <Con id="43" src="9" tgt="11" wght="0.48523639574761462" />
        <Con id="44" src="8" tgt="11" wght="-3.5802829868409014" />
        <Con id="45" src="5" tgt="11" wght="-3.9770072587580234" />
        <Con id="68" src="34" tgt="67" wght="1.4300048977168958" />
        <Con id="69" src="67" tgt="11" wght="4.8946955877029916" />
        <Con id="71" src="4" tgt="34" wght="-4.7915160426995351" />
        <Con id="75" src="5" tgt="34" wght="-5" />
        <Con id="107" src="6" tgt="34" wght="2.0062058075777571" />
      </Connections>
    </Network>
  </Networks>
</Root>