<?xml version="1.0" encoding="utf-8"?>
<Root>
  <ActivationFunctions>
    <Fn id="0" name="SteepenedSigmoid" prob="1" />
  </ActivationFunctions>
  <Networks>
    <Network id="17915" birthGen="149" fitness="2434.1593017578125">
      <Nodes>
        <Node type="bias" id="0" />
        <Node type="in" id="1" />
        <Node type="in" id="2" />
        <Node type="in" id="3" />
        <Node type="in" id="4" />
        <Node type="in" id="5" />
        <Node type="in" id="6" />
        <Node type="in" id="7" />
        <Node type="in" id="8" />
        <Node type="in" id="9" />
        <Node type="in" id="10" />
        <Node type="out" id="11" />
        <Node type="hid" id="34" />
        <Node type="hid" id="64" />
      </Nodes>
      <Connections>
        <Con id="23" src="7" tgt="11" wght="1.2253064386252923" />
        <Con id="24" src="10" tgt="11" wght="-0.034972365292704463" />
        <Con id="25" src="0" tgt="11" wght="0.6565808011932821" />
        <Con id="26" src="2" tgt="11" wght="-2.3715273911774286" />
        <Con id="27" src="3" tgt="11" wght="-1.1081058667664496" />
        <Con id="28" src="1" tgt="11" wght="4.3739858767933661" />
        <Con id="29" src="4" tgt="11" wght="-4.8920708845206633" />
        <Con id="33" src="6" tgt="11" wght="0.45039570313972421" />
        <Con id="35" src="8" tgt="34" wght="-2.0524016359654436" />
        <Con id="36" src="34" tgt="11" wght="5" />
        <Con id="44" src="8" tgt="11" wght="-2.5984794692745172" />
        <Con id="45" src="5" tgt="11" wght="-3.9421271432911844" />
        <Con id="65" src="8" tgt="64" wght="-1.1720561865879644" />
        <Con id="66" src="64" tgt="11" wght="5" />
        <Con id="156" src="34" tgt="64" wght="-3.3247433427042465" />
      </Connections>
    </Network>
    <Network id="18040" birthGen="150" fitness="2629.1285400390625">
      <Nodes>
        <Node type="bias" id="0" />
        <Node type="in" id="1" />
        <Node type="in" id="2" />
        <Node type="in" id="3" />
        <Node type="in" id="4" />
        <Node type="in" id="5" />
        <Node type="in" id="6" />
        <Node type="in" id="7" />
        <Node type="in" id="8" />
        <Node type="in" id="9" />
        <Node type="in" id="10" />
        <Node type="out" id="11" />
        <Node type="hid" id="34" />
        <Node type="hid" id="64" />
      </Nodes>
      <Connections>
        <Con id="23" src="7" tgt="11" wght="1.2253064386252923" />
        <Con id="24" src="10" tgt="11" wght="-0.034972365292704463" />
        <Con id="25" src="0" tgt="11" wght="0.6565808011932821" />
        <Con id="26" src="2" tgt="11" wght="-2.3715273911774286" />
        <Con id="27" src="3" tgt="11" wght="-1.1081058667664496" />
        <Con id="28" src="1" tgt="11" wght="3.0864517812792016" />
        <Con id="29" src="4" tgt="11" wght="-4.9053344995063952" />
        <Con id="33" src="6" tgt="11" wght="0.23300026741545538" />
        <Con id="35" src="8" tgt="34" wght="-2.0524016359654436" />
        <Con id="36" src="34" tgt="11" wght="5" />
        <Con id="44" src="8" tgt="11" wght="-2.5984794692745172" />
        <Con id="45" src="5" tgt="11" wght="-3.9421271432911844" />
        <Con id="65" src="8" tgt="64" wght="-1.1928664037704704" />
        <Con id="66" src="64" tgt="11" wght="5" />
        <Con id="156" src="34" tgt="64" wght="-3.3247433427042465" />
      </Connections>
    </Network>
    <Network id="18034" birthGen="150" fitness="2279.4871826171875">
      <Nodes>
        <Node type="bias" id="0" />
        <Node type="in" id="1" />
        <Node type="in" id="2" />
        <Node type="in" id="3" />
        <Node type="in" id="4" />
        <Node type="in" id="5" />
        <Node type="in" id="6" />
        <Node type="in" id="7" />
        <Node type="in" id="8" />
        <Node type="in" id="9" />
        <Node type="in" id="10" />
        <Node type="out" id="11" />
        <Node type="hid" id="34" />
        <Node type="hid" id="64" />
      </Nodes>
      <Connections>
        <Con id="23" src="7" tgt="11" wght="1.2253064386252923" />
        <Con id="24" src="10" tgt="11" wght="-0.048761325356161622" />
        <Con id="25" src="0" tgt="11" wght="0.69839391263820727" />
        <Con id="26" src="2" tgt="11" wght="-2.3715273911774286" />
        <Con id="27" src="3" tgt="11" wght="-1.1081058667664496" />
        <Con id="28" src="1" tgt="11" wght="3.0864517812792016" />
        <Con id="29" src="4" tgt="11" wght="-4.9053344995063952" />
        <Con id="33" src="6" tgt="11" wght="0.45039570313972421" />
        <Con id="35" src="8" tgt="34" wght="-2.0524016359654436" />
        <Con id="36" src="34" tgt="11" wght="5" />
        <Con id="44" src="8" tgt="11" wght="-2.5984794692745172" />
        <Con id="45" src="5" tgt="11" wght="-3.9279855809028916" />
        <Con id="65" src="8" tgt="64" wght="-1.1720561865879644" />
        <Con id="66" src="64" tgt="11" wght="5" />
        <Con id="156" src="34" tgt="64" wght="-3.3247433427042465" />
      </Connections>
    </Network>
    <Network id="17913" birthGen="149" fitness="2727.6439208984375">
      <Nodes>
        <Node type="bias" id="0" />
        <Node type="in" id="1" />
        <Node type="in" id="2" />
        <Node type="in" id="3" />
        <Node type="in" id="4" />
        <Node type="in" id="5" />
        <Node type="in" id="6" />
        <Node type="in" id="7" />
        <Node type="in" id="8" />
        <Node type="in" id="9" />
        <Node type="in" id="10" />
        <Node type="out" id="11" />
        <Node type="hid" id="34" />
        <Node type="hid" id="64" />
      </Nodes>
      <Connections>
        <Con id="23" src="7" tgt="11" wght="1.2253064386252923" />
        <Con id="24" src="10" tgt="11" wght="-0.034972365292704463" />
        <Con id="25" src="0" tgt="11" wght="0.6565808011932821" />
        <Con id="26" src="2" tgt="11" wght="-2.3715273911774286" />
        <Con id="27" src="3" tgt="11" wght="-1.1081058667664496" />
        <Con id="28" src="1" tgt="11" wght="3.0864517812792016" />
        <Con id="29" src="4" tgt="11" wght="-4.8920708845206633" />
        <Con id="33" src="6" tgt="11" wght="0.45039570313972421" />
        <Con id="35" src="8" tgt="34" wght="-2.0524016359654436" />
        <Con id="36" src="34" tgt="11" wght="5" />
        <Con id="44" src="8" tgt="11" wght="-2.5984794692745172" />
        <Con id="45" src="5" tgt="11" wght="-3.9421271432911844" />
        <Con id="65" src="8" tgt="64" wght="-1.1720561865879644" />
        <Con id="66" src="64" tgt="11" wght="5" />
        <Con id="156" src="34" tgt="64" wght="-3.3247433427042465" />
      </Connections>
    </Network>
    <Network id="18039" birthGen="150" fitness="2301.7318115234375">
      <Nodes>
        <Node type="bias" id="0" />
        <Node type="in" id="1" />
        <Node type="in" id="2" />
        <Node type="in" id="3" />
        <Node type="in" id="4" />
        <Node type="in" id="5" />
        <Node type="in" id="6" />
        <Node type="in" id="7" />
        <Node type="in" id="8" />
        <Node type="in" id="9" />
        <Node type="in" id="10" />
        <Node type="out" id="11" />
        <Node type="hid" id="34" />
        <Node type="hid" id="64" />
      </Nodes>
      <Connections>
        <Con id="23" src="7" tgt="11" wght="1.2253064386252923" />
        <Con id="24" src="10" tgt="11" wght="-0.034972365292704463" />
        <Con id="25" src="0" tgt="11" wght="0.6565808011932821" />
        <Con id="26" src="2" tgt="11" wght="-2.3715273911774286" />
        <Con id="27" src="3" tgt="11" wght="-1.1081058667664496" />
        <Con id="28" src="1" tgt="11" wght="4.3739858767933661" />
        <Con id="29" src="4" tgt="11" wght="-4.8920708845206633" />
        <Con id="33" src="6" tgt="11" wght="0.45039570313972421" />
        <Con id="35" src="8" tgt="34" wght="-2.0524016359654436" />
        <Con id="36" src="34" tgt="11" wght="5" />
        <Con id="44" src="8" tgt="11" wght="-2.5984794692745172" />
        <Con id="45" src="5" tgt="11" wght="-3.9421271432911844" />
        <Con id="65" src="8" tgt="64" wght="-1.1720561865879644" />
        <Con id="66" src="64" tgt="11" wght="5" />
        <Con id="156" src="34" tgt="64" wght="-3.3247433427042465" />
      </Connections>
    </Network>
    <Network id="18027" birthGen="150" fitness="2169.2084350585938">
      <Nodes>
        <Node type="bias" id="0" />
        <Node type="in" id="1" />
        <Node type="in" id="2" />
        <Node type="in" id="3" />
        <Node type="in" id="4" />
        <Node type="in" id="5" />
        <Node type="in" id="6" />
        <Node type="in" id="7" />
        <Node type="in" id="8" />
        <Node type="in" id="9" />
        <Node type="in" id="10" />
        <Node type="out" id="11" />
        <Node type="hid" id="34" />
        <Node type="hid" id="64" />
      </Nodes>
      <Connections>
        <Con id="23" src="7" tgt="11" wght="1.2253064386252923" />
        <Con id="24" src="10" tgt="11" wght="-0.034972365292704463" />
        <Con id="25" src="0" tgt="11" wght="0.6565808011932821" />
        <Con id="26" src="2" tgt="11" wght="-2.4312883150282802" />
        <Con id="27" src="3" tgt="11" wght="-1.1081058667664496" />
        <Con id="28" src="1" tgt="11" wght="3.0864517812792016" />
        <Con id="29" src="4" tgt="11" wght="-4.8920708845206633" />
        <Con id="33" src="6" tgt="11" wght="0.45039570313972421" />
        <Con id="35" src="8" tgt="34" wght="-2.0524016359654436" />
        <Con id="36" src="34" tgt="11" wght="5" />
        <Con id="44" src="8" tgt="11" wght="-2.5984794692745172" />
        <Con id="45" src="5" tgt="11" wght="-3.9279531914031063" />
        <Con id="65" src="8" tgt="64" wght="-1.1720561865879644" />
        <Con id="66" src="64" tgt="11" wght="5" />
        <Con id="156" src="34" tgt="64" wght="-3.3247433427042465" />
      </Connections>
    </Network>
    <Network id="17586" birthGen="146" fitness="2275.7922973632813">
      <Nodes>
        <Node type="bias" id="0" />
        <Node type="in" id="1" />
        <Node type="in" id="2" />
        <Node type="in" id="3" />
        <Node type="in" id="4" />
        <Node type="in" id="5" />
        <Node type="in" id="6" />
        <Node type="in" id="7" />
        <Node type="in" id="8" />
        <Node type="in" id="9" />
        <Node type="in" id="10" />
        <Node type="out" id="11" />
        <Node type="hid" id="64" />
      </Nodes>
      <Connections>
        <Con id="18" src="6" tgt="11" wght="0.6568316839189" />
        <Con id="23" src="7" tgt="11" wght="0.15281161642543664" />
        <Con id="24" src="10" tgt="11" wght="0.71332850565509243" />
        <Con id="25" src="0" tgt="11" wght="0.84815134036399464" />
        <Con id="26" src="2" tgt="11" wght="-2.8276629219519043" />
        <Con id="27" src="3" tgt="11" wght="-2.422962874934373" />
        <Con id="28" src="1" tgt="11" wght="-1.3587181075809269" />
        <Con id="29" src="4" tgt="11" wght="-4.8879101289881177" />
        <Con id="43" src="9" tgt="11" wght="2.6808502267354459" />
        <Con id="44" src="8" tgt="11" wght="-2.5740029810849245" />
        <Con id="45" src="5" tgt="11" wght="-4.2453359352969615" />
        <Con id="65" src="8" tgt="64" wght="-1.2516751259639827" />
        <Con id="66" src="64" tgt="11" wght="4.9991815076244466" />
      </Connections>
    </Network>
    <Network id="18048" birthGen="150" fitness="2549.236572265625">
      <Nodes>
        <Node type="bias" id="0" />
        <Node type="in" id="1" />
        <Node type="in" id="2" />
        <Node type="in" id="3" />
        <Node type="in" id="4" />
        <Node type="in" id="5" />
        <Node type="in" id="6" />
        <Node type="in" id="7" />
        <Node type="in" id="8" />
        <Node type="in" id="9" />
        <Node type="in" id="10" />
        <Node type="out" id="11" />
        <Node type="hid" id="64" />
      </Nodes>
      <Connections>
        <Con id="18" src="6" tgt="11" wght="0.6568316839189" />
        <Con id="23" src="7" tgt="11" wght="0.16792652124571994" />
        <Con id="24" src="10" tgt="11" wght="0.71332850565509243" />
        <Con id="25" src="0" tgt="11" wght="0.86609158826250865" />
        <Con id="26" src="2" tgt="11" wght="-2.8346649618475257" />
        <Con id="27" src="3" tgt="11" wght="-2.4204818086894608" />
        <Con id="28" src="1" tgt="11" wght="-1.3587181075809269" />
        <Con id="29" src="4" tgt="11" wght="-4.8908803844631894" />
        <Con id="43" src="9" tgt="11" wght="2.6808502267354459" />
        <Con id="44" src="8" tgt="11" wght="-2.5740029810849245" />
        <Con id="45" src="5" tgt="11" wght="-4.2453359352969615" />
        <Con id="65" src="8" tgt="64" wght="-1.2516751259639827" />
        <Con id="66" src="64" tgt="11" wght="4.9654627587946729" />
      </Connections>
    </Network>
    <Network id="18049" birthGen="150" fitness="2245.740234375">
      <Nodes>
        <Node type="bias" id="0" />
        <Node type="in" id="1" />
        <Node type="in" id="2" />
        <Node type="in" id="3" />
        <Node type="in" id="4" />
        <Node type="in" id="5" />
        <Node type="in" id="6" />
        <Node type="in" id="7" />
        <Node type="in" id="8" />
        <Node type="in" id="9" />
        <Node type="in" id="10" />
        <Node type="out" id="11" />
        <Node type="hid" id="64" />
      </Nodes>
      <Connections>
        <Con id="18" src="6" tgt="11" wght="0.66473391340605725" />
        <Con id="23" src="7" tgt="11" wght="0.15281161642543664" />
        <Con id="24" src="10" tgt="11" wght="0.71332850565509243" />
        <Con id="25" src="0" tgt="11" wght="0.84815134036399464" />
        <Con id="26" src="2" tgt="11" wght="-2.8276629219519043" />
        <Con id="27" src="3" tgt="11" wght="-2.422962874934373" />
        <Con id="28" src="1" tgt="11" wght="-1.3587181075809269" />
        <Con id="29" src="4" tgt="11" wght="-4.8879101289881177" />
        <Con id="43" src="9" tgt="11" wght="2.6808502267354459" />
        <Con id="44" src="8" tgt="11" wght="-2.5740029810849245" />
        <Con id="45" src="5" tgt="11" wght="-4.2291442196711149" />
        <Con id="65" src="8" tgt="64" wght="-1.2621930370031558" />
        <Con id="66" src="64" tgt="11" wght="4.9991815076244466" />
      </Connections>
    </Network>
    <Network id="18062" birthGen="150" fitness="2550.3125">
      <Nodes>
        <Node type="bias" id="0" />
        <Node type="in" id="1" />
        <Node type="in" id="2" />
        <Node type="in" id="3" />
        <Node type="in" id="4" />
        <Node type="in" id="5" />
        <Node type="in" id="6" />
        <Node type="in" id="7" />
        <Node type="in" id="8" />
        <Node type="in" id="9" />
        <Node type="in" id="10" />
        <Node type="out" id="11" />
        <Node type="hid" id="64" />
      </Nodes>
      <Connections>
        <Con id="18" src="6" tgt="11" wght="0.6568316839189" />
        <Con id="23" src="7" tgt="11" wght="0.15281161642543664" />
        <Con id="24" src="10" tgt="11" wght="0.71332850565509243" />
        <Con id="25" src="0" tgt="11" wght="0.84815134036399464" />
        <Con id="26" src="2" tgt="11" wght="-2.8276629219519043" />
        <Con id="27" src="3" tgt="11" wght="-2.4204818086894608" />
        <Con id="28" src="1" tgt="11" wght="-1.3587181075809269" />
        <Con id="29" src="4" tgt="11" wght="-4.8879101289881177" />
        <Con id="43" src="9" tgt="11" wght="2.6808502267354459" />
        <Con id="44" src="8" tgt="11" wght="-2.5740029810849245" />
        <Con id="45" src="5" tgt="11" wght="-4.2453359352969615" />
        <Con id="65" src="8" tgt="64" wght="-1.2516751259639827" />
        <Con id="66" src="64" tgt="11" wght="4.9991815076244466" />
      </Connections>
    </Network>
    <Network id="18056" birthGen="150" fitness="2668.7735595703125">
      <Nodes>
        <Node type="bias" id="0" />
        <Node type="in" id="1" />
        <Node type="in" id="2" />
        <Node type="in" id="3" />
        <Node type="in" id="4" />
        <Node type="in" id="5" />
        <Node type="in" id="6" />
        <Node type="in" id="7" />
        <Node type="in" id="8" />
        <Node type="in" id="9" />
        <Node type="in" id="10" />
        <Node type="out" id="11" />
        <Node type="hid" id="64" />
      </Nodes>
      <Connections>
        <Con id="18" src="6" tgt="11" wght="0.62382989509938969" />
        <Con id="23" src="7" tgt="11" wght="0.16792652124571994" />
        <Con id="24" src="10" tgt="11" wght="0.71519140391645109" />
        <Con id="25" src="0" tgt="11" wght="0.88178397246818008" />
        <Con id="26" src="2" tgt="11" wght="-2.8276629219519043" />
        <Con id="27" src="3" tgt="11" wght="-2.4359577589892791" />
        <Con id="28" src="1" tgt="11" wght="-1.3374124945199761" />
        <Con id="29" src="4" tgt="11" wght="-4.8838446527744077" />
        <Con id="43" src="9" tgt="11" wght="2.6808502267354459" />
        <Con id="44" src="8" tgt="11" wght="-2.5740029810849245" />
        <Con id="45" src="5" tgt="11" wght="-4.2379624448556816" />
        <Con id="65" src="8" tgt="64" wght="-1.2516751259639827" />
        <Con id="66" src="64" tgt="11" wght="4.9654627587946729" />
      </Connections>
    </Network>
    <Network id="18060" birthGen="150" fitness="2723.685546875">
      <Nodes>
        <Node type="bias" id="0" />
        <Node type="in" id="1" />
        <Node type="in" id="2" />
        <Node type="in" id="3" />
        <Node type="in" id="4" />
        <Node type="in" id="5" />
        <Node type="in" id="6" />
        <Node type="in" id="7" />
        <Node type="in" id="8" />
        <Node type="in" id="9" />
        <Node type="in" id="10" />
        <Node type="out" id="11" />
        <Node type="hid" id="64" />
      </Nodes>
      <Connections>
        <Con id="18" src="6" tgt="11" wght="0.66473391340605725" />
        <Con id="23" src="7" tgt="11" wght="0.15281161642543664" />
        <Con id="24" src="10" tgt="11" wght="0.71332850565509243" />
        <Con id="25" src="0" tgt="11" wght="0.84815134036399464" />
        <Con id="26" src="2" tgt="11" wght="-2.8037066784066904" />
        <Con id="27" src="3" tgt="11" wght="-2.422962874934373" />
        <Con id="28" src="1" tgt="11" wght="-1.3351012233312378" />
        <Con id="29" src="4" tgt="11" wght="-4.8879101289881177" />
        <Con id="43" src="9" tgt="11" wght="2.6808502267354459" />
        <Con id="44" src="8" tgt="11" wght="-2.5740029810849245" />
        <Con id="45" src="5" tgt="11" wght="-4.2453359352969615" />
        <Con id="65" src="8" tgt="64" wght="-1.2621930370031558" />
        <Con id="66" src="64" tgt="11" wght="4.9991815076244466" />
      </Connections>
    </Network>
    <Network id="18094" birthGen="150" fitness="2114.58447265625">
      <Nodes>
        <Node type="bias" id="0" />
        <Node type="in" id="1" />
        <Node type="in" id="2" />
        <Node type="in" id="3" />
        <Node type="in" id="4" />
        <Node type="in" id="5" />
        <Node type="in" id="6" />
        <Node type="in" id="7" />
        <Node type="in" id="8" />
        <Node type="in" id="9" />
        <Node type="in" id="10" />
        <Node type="out" id="11" />
      </Nodes>
      <Connections>
        <Con id="18" src="6" tgt="11" wght="-0.55396716099983057" />
        <Con id="23" src="7" tgt="11" wght="-0.91091436245211088" />
        <Con id="25" src="0" tgt="11" wght="0.98917900129271474" />
        <Con id="29" src="4" tgt="11" wght="-3.3764208374930949" />
        <Con id="45" src="5" tgt="11" wght="-1.8828856297601593" />
      </Connections>
    </Network>
    <Network id="18095" birthGen="150" fitness="2605.2017822265625">
      <Nodes>
        <Node type="bias" id="0" />
        <Node type="in" id="1" />
        <Node type="in" id="2" />
        <Node type="in" id="3" />
        <Node type="in" id="4" />
        <Node type="in" id="5" />
        <Node type="in" id="6" />
        <Node type="in" id="7" />
        <Node type="in" id="8" />
        <Node type="in" id="9" />
        <Node type="in" id="10" />
        <Node type="out" id="11" />
      </Nodes>
      <Connections>
        <Con id="18" src="6" tgt="11" wght="-0.549647615242837" />
        <Con id="23" src="7" tgt="11" wght="-0.91091436245211088" />
        <Con id="25" src="0" tgt="11" wght="0.98917900129271474" />
        <Con id="29" src="4" tgt="11" wght="-3.3764208374930949" />
        <Con id="45" src="5" tgt="11" wght="-1.9611130135589434" />
      </Connections>
    </Network>
    <Network id="17968" birthGen="149" fitness="2622.9783935546875">
      <Nodes>
        <Node type="bias" id="0" />
        <Node type="in" id="1" />
        <Node type="in" id="2" />
        <Node type="in" id="3" />
        <Node type="in" id="4" />
        <Node type="in" id="5" />
        <Node type="in" id="6" />
        <Node type="in" id="7" />
        <Node type="in" id="8" />
        <Node type="in" id="9" />
        <Node type="in" id="10" />
        <Node type="out" id="11" />
      </Nodes>
      <Connections>
        <Con id="18" src="6" tgt="11" wght="-0.549647615242837" />
        <Con id="23" src="7" tgt="11" wght="-0.91091436245211088" />
        <Con id="25" src="0" tgt="11" wght="0.98876313666563032" />
        <Con id="29" src="4" tgt="11" wght="-3.3764208374930949" />
        <Con id="45" src="5" tgt="11" wght="-1.9429126523834257" />
      </Connections>
    </Network>
    <Network id="18082" birthGen="150" fitness="1285.526123046875">
      <Nodes>
        <Node type="bias" id="0" />
        <Node type="in" id="1" />
        <Node type="in" id="2" />
        <Node type="in" id="3" />
        <Node type="in" id="4" />
        <Node type="in" id="5" />
        <Node type="in" id="6" />
        <Node type="in" id="7" />
        <Node type="in" id="8" />
        <Node type="in" id="9" />
        <Node type="in" id="10" />
        <Node type="out" id="11" />
      </Nodes>
      <Connections>
        <Con id="18" src="6" tgt="11" wght="-0.549647615242837" />
        <Con id="23" src="7" tgt="11" wght="-0.91091436245211088" />
        <Con id="25" src="0" tgt="11" wght="0.95593734450393242" />
        <Con id="29" src="4" tgt="11" wght="-3.3676484585279503" />
        <Con id="45" src="5" tgt="11" wght="-1.9429126523834257" />
      </Connections>
    </Network>
    <Network id="18089" birthGen="150" fitness="2293.9586181640625">
      <Nodes>
        <Node type="bias" id="0" />
        <Node type="in" id="1" />
        <Node type="in" id="2" />
        <Node type="in" id="3" />
        <Node type="in" id="4" />
        <Node type="in" id="5" />
        <Node type="in" id="6" />
        <Node type="in" id="7" />
        <Node type="in" id="8" />
        <Node type="in" id="9" />
        <Node type="in" id="10" />
        <Node type="out" id="11" />
      </Nodes>
      <Connections>
        <Con id="18" src="6" tgt="11" wght="-0.549647615242837" />
        <Con id="23" src="7" tgt="11" wght="-0.91091436245211088" />
        <Con id="25" src="0" tgt="11" wght="0.95593734450393242" />
        <Con id="29" src="4" tgt="11" wght="-3.3764208374930949" />
        <Con id="45" src="5" tgt="11" wght="-1.9429126523834257" />
      </Connections>
    </Network>
    <Network id="17959" birthGen="149" fitness="2595.5628662109375">
      <Nodes>
        <Node type="bias" id="0" />
        <Node type="in" id="1" />
        <Node type="in" id="2" />
        <Node type="in" id="3" />
        <Node type="in" id="4" />
        <Node type="in" id="5" />
        <Node type="in" id="6" />
        <Node type="in" id="7" />
        <Node type="in" id="8" />
        <Node type="in" id="9" />
        <Node type="in" id="10" />
        <Node type="out" id="11" />
      </Nodes>
      <Connections>
        <Con id="18" src="6" tgt="11" wght="-0.549647615242837" />
        <Con id="23" src="7" tgt="11" wght="-0.91091436245211088" />
        <Con id="25" src="0" tgt="11" wght="0.95593734450393242" />
        <Con id="29" src="4" tgt="11" wght="-3.414409502129724" />
        <Con id="45" src="5" tgt="11" wght="-1.9429126523834257" />
      </Connections>
    </Network>
    <Network id="17995" birthGen="149" fitness="2452.9130859375">
      <Nodes>
        <Node type="bias" id="0" />
        <Node type="in" id="1" />
        <Node type="in" id="2" />
        <Node type="in" id="3" />
        <Node type="in" id="4" />
        <Node type="in" id="5" />
        <Node type="in" id="6" />
        <Node type="in" id="7" />
        <Node type="in" id="8" />
        <Node type="in" id="9" />
        <Node type="in" id="10" />
        <Node type="out" id="11" />
        <Node type="hid" id="34" />
      </Nodes>
      <Connections>
        <Con id="26" src="2" tgt="11" wght="-3.0500178274056919" />
        <Con id="27" src="3" tgt="11" wght="-0.6220346516631915" />
        <Con id="28" src="1" tgt="11" wght="2.771832259631716" />
        <Con id="33" src="6" tgt="11" wght="0.24366221458332987" />
        <Con id="35" src="8" tgt="34" wght="-2.0168355216499796" />
        <Con id="36" src="34" tgt="11" wght="5" />
        <Con id="44" src="8" tgt="11" wght="-0.65874108132843623" />
        <Con id="45" src="5" tgt="11" wght="-3.586340645124277" />
      </Connections>
    </Network>
    <Network id="17997" birthGen="149" fitness="2161.5650634765625">
      <Nodes>
        <Node type="bias" id="0" />
        <Node type="in" id="1" />
        <Node type="in" id="2" />
        <Node type="in" id="3" />
        <Node type="in" id="4" />
        <Node type="in" id="5" />
        <Node type="in" id="6" />
        <Node type="in" id="7" />
        <Node type="in" id="8" />
        <Node type="in" id="9" />
        <Node type="in" id="10" />
        <Node type="out" id="11" />
        <Node type="hid" id="34" />
      </Nodes>
      <Connections>
        <Con id="26" src="2" tgt="11" wght="-3.0500178274056919" />
        <Con id="27" src="3" tgt="11" wght="-0.61294898079632021" />
        <Con id="28" src="1" tgt="11" wght="2.771832259631716" />
        <Con id="33" src="6" tgt="11" wght="0.13989534002275672" />
        <Con id="35" src="8" tgt="34" wght="-2.0168355216499796" />
        <Con id="36" src="34" tgt="11" wght="5" />
        <Con id="44" src="8" tgt="11" wght="-0.65874108132843623" />
        <Con id="45" src="5" tgt="11" wght="-3.586340645124277" />
      </Connections>
    </Network>
    <Network id="18115" birthGen="150" fitness="1880.9351196289063">
      <Nodes>
        <Node type="bias" id="0" />
        <Node type="in" id="1" />
        <Node type="in" id="2" />
        <Node type="in" id="3" />
        <Node type="in" id="4" />
        <Node type="in" id="5" />
        <Node type="in" id="6" />
        <Node type="in" id="7" />
        <Node type="in" id="8" />
        <Node type="in" id="9" />
        <Node type="in" id="10" />
        <Node type="out" id="11" />
        <Node type="hid" id="34" />
      </Nodes>
      <Connections>
        <Con id="26" src="2" tgt="11" wght="-4.065673331230589" />
        <Con id="27" src="3" tgt="11" wght="-0.61294898079632021" />
        <Con id="28" src="1" tgt="11" wght="2.771832259631716" />
        <Con id="33" src="6" tgt="11" wght="0.24366221458332987" />
        <Con id="35" src="8" tgt="34" wght="-2.0168355216499796" />
        <Con id="36" src="34" tgt="11" wght="5" />
        <Con id="44" src="8" tgt="11" wght="-0.65874108132843623" />
        <Con id="45" src="5" tgt="11" wght="-3.586340645124277" />
      </Connections>
    </Network>
    <Network id="18112" birthGen="150" fitness="2748.5908203125">
      <Nodes>
        <Node type="bias" id="0" />
        <Node type="in" id="1" />
        <Node type="in" id="2" />
        <Node type="in" id="3" />
        <Node type="in" id="4" />
        <Node type="in" id="5" />
        <Node type="in" id="6" />
        <Node type="in" id="7" />
        <Node type="in" id="8" />
        <Node type="in" id="9" />
        <Node type="in" id="10" />
        <Node type="out" id="11" />
        <Node type="hid" id="34" />
      </Nodes>
      <Connections>
        <Con id="26" src="2" tgt="11" wght="-3.0500178274056919" />
        <Con id="27" src="3" tgt="11" wght="-0.6007231766251041" />
        <Con id="28" src="1" tgt="11" wght="2.771832259631716" />
        <Con id="33" src="6" tgt="11" wght="0.13989534002275672" />
        <Con id="35" src="8" tgt="34" wght="-2.0168355216499796" />
        <Con id="36" src="34" tgt="11" wght="5" />
        <Con id="44" src="8" tgt="11" wght="-0.65874108132843623" />
        <Con id="45" src="5" tgt="11" wght="-3.586340645124277" />
      </Connections>
    </Network>
    <Network id="18099" birthGen="150" fitness="2697.2115478515625">
      <Nodes>
        <Node type="bias" id="0" />
        <Node type="in" id="1" />
        <Node type="in" id="2" />
        <Node type="in" id="3" />
        <Node type="in" id="4" />
        <Node type="in" id="5" />
        <Node type="in" id="6" />
        <Node type="in" id="7" />
        <Node type="in" id="8" />
        <Node type="in" id="9" />
        <Node type="in" id="10" />
        <Node type="out" id="11" />
        <Node type="hid" id="34" />
      </Nodes>
      <Connections>
        <Con id="26" src="2" tgt="11" wght="-3.0500178274056919" />
        <Con id="27" src="3" tgt="11" wght="-0.60888991772204726" />
        <Con id="28" src="1" tgt="11" wght="2.7408571380196047" />
        <Con id="33" src="6" tgt="11" wght="0.13989534002275672" />
        <Con id="35" src="8" tgt="34" wght="-2.0168355216499796" />
        <Con id="36" src="34" tgt="11" wght="5" />
        <Con id="44" src="8" tgt="11" wght="-0.65874108132843623" />
        <Con id="45" src="5" tgt="11" wght="-3.586340645124277" />
      </Connections>
    </Network>
    <Network id="18104" birthGen="150" fitness="2116.92431640625">
      <Nodes>
        <Node type="bias" id="0" />
        <Node type="in" id="1" />
        <Node type="in" id="2" />
        <Node type="in" id="3" />
        <Node type="in" id="4" />
        <Node type="in" id="5" />
        <Node type="in" id="6" />
        <Node type="in" id="7" />
        <Node type="in" id="8" />
        <Node type="in" id="9" />
        <Node type="in" id="10" />
        <Node type="out" id="11" />
        <Node type="hid" id="34" />
      </Nodes>
      <Connections>
        <Con id="26" src="2" tgt="11" wght="-3.0500178274056919" />
        <Con id="27" src="3" tgt="11" wght="-0.6220346516631915" />
        <Con id="28" src="1" tgt="11" wght="2.5842358782622061" />
        <Con id="33" src="6" tgt="11" wght="0.24366221458332987" />
        <Con id="35" src="8" tgt="34" wght="-2.0168355216499796" />
        <Con id="36" src="34" tgt="11" wght="5" />
        <Con id="44" src="8" tgt="11" wght="-0.65874108132843623" />
        <Con id="45" src="5" tgt="11" wght="-3.586340645124277" />
      </Connections>
    </Network>
    <Network id="18132" birthGen="150" fitness="2757.800537109375">
      <Nodes>
        <Node type="bias" id="0" />
        <Node type="in" id="1" />
        <Node type="in" id="2" />
        <Node type="in" id="3" />
        <Node type="in" id="4" />
        <Node type="in" id="5" />
        <Node type="in" id="6" />
        <Node type="in" id="7" />
        <Node type="in" id="8" />
        <Node type="in" id="9" />
        <Node type="in" id="10" />
        <Node type="out" id="11" />
        <Node type="hid" id="34" />
        <Node type="hid" id="67" />
      </Nodes>
      <Connections>
        <Con id="26" src="2" tgt="11" wght="-4.0513244033477367" />
        <Con id="29" src="4" tgt="11" wght="-1.1702073951132075" />
        <Con id="33" src="6" tgt="11" wght="-0.51452580683974325" />
        <Con id="35" src="8" tgt="34" wght="-3.9804446053022695" />
        <Con id="43" src="9" tgt="11" wght="0.48523639574761462" />
        <Con id="44" src="8" tgt="11" wght="-3.5802829868409014" />
        <Con id="45" src="5" tgt="11" wght="-3.9770072587580234" />
        <Con id="68" src="34" tgt="67" wght="1.4300048977168958" />
        <Con id="69" src="67" tgt="11" wght="4.8946955877029916" />
        <Con id="71" src="4" tgt="34" wght="-4.7915160426995351" />
        <Con id="75" src="5" tgt="34" wght="-5" />
        <Con id="107" src="6" tgt="34" wght="2.0062058075777571" />
      </Connections>
    </Network>
    <Network id="18130" birthGen="150" fitness="2192.002197265625">
      <Nodes>
        <Node type="bias" id="0" />
        <Node type="in" id="1" />
        <Node type="in" id="2" />
        <Node type="in" id="3" />
        <Node type="in" id="4" />
        <Node type="in" id="5" />
        <Node type="in" id="6" />
        <Node type="in" id="7" />
        <Node type="in" id="8" />
        <Node type="in" id="9" />
        <Node type="in" id="10" />
        <Node type="out" id="11" />
        <Node type="hid" id="34" />
        <Node type="hid" id="67" />
      </Nodes>
      <Connections>
        <Con id="26" src="2" tgt="11" wght="-4.0513244033477367" />
        <Con id="29" src="4" tgt="11" wght="-1.1529469837363715" />
        <Con id="33" src="6" tgt="11" wght="-0.50948036482752679" />
        <Con id="35" src="8" tgt="34" wght="-3.9804446053022695" />
        <Con id="43" src="9" tgt="11" wght="0.4498751382169211" />
        <Con id="44" src="8" tgt="11" wght="-3.5681651406190822" />
        <Con id="45" src="5" tgt="11" wght="-3.9770072587580234" />
        <Con id="68" src="34" tgt="67" wght="1.4362381109846332" />
        <Con id="69" src="67" tgt="11" wght="4.8946955877029916" />
        <Con id="71" src="4" tgt="34" wght="-4.7520478772545767" />
        <Con id="75" src="5" tgt="34" wght="-5" />
        <Con id="107" src="6" tgt="34" wght="2.0062058075777571" />
      </Connections>
    </Network>
    <Network id="18139" birthGen="150" fitness="2714.635498046875">
      <Nodes>
        <Node type="bias" id="0" />
        <Node type="in" id="1" />
        <Node type="in" id="2" />
        <Node type="in" id="3" />
        <Node type="in" id="4" />
        <Node type="in" id="5" />
        <Node type="in" id="6" />
        <Node type="in" id="7" />
        <Node type="in" id="8" />
        <Node type="in" id="9" />
        <Node type="in" id="10" />
        <Node type="out" id="11" />
        <Node type="hid" id="34" />
        <Node type="hid" id="67" />
      </Nodes>
      <Connections>
        <Con id="26" src="2" tgt="11" wght="-4.0513244033477367" />
        <Con id="29" src="4" tgt="11" wght="-1.1529469837363715" />
        <Con id="33" src="6" tgt="11" wght="-0.51452580683974325" />
        <Con id="35" src="8" tgt="34" wght="-3.9804446053022695" />
        <Con id="43" src="9" tgt="11" wght="0.4498751382169211" />
        <Con id="44" src="8" tgt="11" wght="-3.5681651406190822" />
        <Con id="45" src="5" tgt="11" wght="-3.9770072587580234" />
        <Con id="68" src="34" tgt="67" wght="1.4300048977168958" />
        <Con id="69" src="67" tgt="11" wght="4.8946955877029916" />
        <Con id="71" src="4" tgt="34" wght="-4.7915160426995351" />
        <Con id="75" src="5" tgt="34" wght="-5" />
        <Con id="107" src="6" tgt="34" wght="2.0062058075777571" />
      </Connections>
    </Network>
    <Network id="18128" birthGen="150" fitness="2321.638916015625">
      <Nodes>
        <Node type="bias" id="0" />
        <Node type="in" id="1" />
        <Node type="in" id="2" />
        <Node type="in" id="3" />
        <Node type="in" id="4" />
        <Node type="in" id="5" />
        <Node type="in" id="6" />
        <Node type="in" id="7" />
        <Node type="in" id="8" />
        <Node type="in" id="9" />
        <Node type="in" id="10" />
        <Node type="out" id="11" />
        <Node type="hid" id="34" />
        <Node type="hid" id="67" />
      </Nodes>
      <Connections>
        <Con id="26" src="2" tgt="11" wght="-3.5473862083486591" />
        <Con id="29" src="4" tgt="11" wght="-1.46525400027922" />
        <Con id="33" src="6" tgt="11" wght="-3.0552042330063993" />
        <Con id="35" src="8" tgt="34" wght="-3.9804446053022695" />
        <Con id="43" src="9" tgt="11" wght="0.4498751382169211" />
        <Con id="44" src="8" tgt="11" wght="-3.7849282710310361" />
        <Con id="45" src="5" tgt="11" wght="-3.9770072587580234" />
        <Con id="68" src="34" tgt="67" wght="1.4300048977168958" />
        <Con id="69" src="67" tgt="11" wght="4.8946955877029916" />
        <Con id="71" src="4" tgt="34" wght="-4.7915160426995351" />
        <Con id="75" src="5" tgt="34" wght="-5" />
        <Con id="107" src="6" tgt="34" wght="2.0062058075777571" />
      </Connections>
    </Network>
    <Network id="18134" birthGen="150" fitness="2510.0941162109375">
      <Nodes>
        <Node type="bias" id="0" />
        <Node type="in" id="1" />
        <Node type="in" id="2" />
        <Node type="in" id="3" />
        <Node type="in" id="4" />
        <Node type="in" id="5" />
        <Node type="in" id="6" />
        <Node type="in" id="7" />
        <Node type="in" id="8" />
        <Node type="in" id="9" />
        <Node type="in" id="10" />
        <Node type="out" id="11" />
        <Node type="hid" id="34" />
        <Node type="hid" id="67" />
      </Nodes>
      <Connections>
        <Con id="26" src="2" tgt="11" wght="-5" />
        <Con id="29" src="4" tgt="11" wght="-1.1529469837363715" />
        <Con id="33" src="6" tgt="11" wght="-0.51452580683974325" />
        <Con id="35" src="8" tgt="34" wght="-3.9804446053022695" />
        <Con id="43" src="9" tgt="11" wght="0.4498751382169211" />
        <Con id="44" src="8" tgt="11" wght="-3.5802829868409014" />
        <Con id="45" src="5" tgt="11" wght="-3.9770072587580234" />
        <Con id="68" src="34" tgt="67" wght="1.4300048977168958" />
        <Con id="69" src="67" tgt="11" wght="4.8946955877029916" />
        <Con id="71" src="4" tgt="34" wght="-4.7915160426995351" />
        <Con id="75" src="5" tgt="34" wght="-4.9971026717269327" />
        <Con id="107" src="6" tgt="34" wght="2.0062058075777571" />
      </Connections>
    </Network>
    <Network id="18135" birthGen="150" fitness="2249.4732666015625">
      <Nodes>
        <Node type="bias" id="0" />
        <Node type="in" id="1" />
        <Node type="in" id="2" />
        <Node type="in" id="3" />
        <Node type="in" id="4" />
        <Node type="in" id="5" />
        <Node type="in" id="6" />
        <Node type="in" id="7" />
        <Node type="in" id="8" />
        <Node type="in" id="9" />
        <Node type="in" id="10" />
        <Node type="out" id="11" />
        <Node type="hid" id="34" />
        <Node type="hid" id="67" />
      </Nodes>
      <Connections>
        <Con id="26" src="2" tgt="11" wght="-5" />
        <Con id="29" src="4" tgt="11" wght="-1.1702073951132075" />
        <Con id="33" src="6" tgt="11" wght="-0.51452580683974325" />
        <Con id="35" src="8" tgt="34" wght="-3.9804446053022695" />
        <Con id="43" src="9" tgt="11" wght="0.48523639574761462" />
        <Con id="44" src="8" tgt="11" wght="-3.5802829868409014" />
        <Con id="45" src="5" tgt="11" wght="-3.9770072587580234" />
        <Con id="68" src="34" tgt="67" wght="1.4300048977168958" />
        <Con id="69" src="67" tgt="11" wght="4.8946955877029916" />
        <Con id="71" src="4" tgt="34" wght="-4.7915160426995351" />
        <Con id="75" src="5" tgt="34" wght="-4.9971026717269327" />
        <Con id="107" src="6" tgt="34" wght="2.0062058075777571" />
      </Connections>
    </Network>
    <Network id="18144" birthGen="151" fitness="2720.02392578125">
      <Nodes>
        <Node type="bias" id="0" />
        <Node type="in" id="1" />
        <Node type="in" id="2" />
        <Node type="in" id="3" />
        <Node type="in" id="4" />
        <Node type="in" id="5" />
        <Node type="in" id="6" />
        <Node type="in" id="7" />
        <Node type="in" id="8" />
        <Node type="in" id="9" />
        <Node type="in" id="10" />
        <Node type="out" id="11" />
        <Node type="hid" id="34" />
        <Node type="hid" id="64" />
      </Nodes>
      <Connections>
        <Con id="23" src="7" tgt="11" wght="1.2253064386252923" />
        <Con id="24" src="10" tgt="11" wght="-0.034972365292704463" />
        <Con id="25" src="0" tgt="11" wght="0.64499158246554522" />
        <Con id="26" src="2" tgt="11" wght="-2.3715273911774286" />
        <Con id="27" src="3" tgt="11" wght="-1.1081058667664496" />
        <Con id="28" src="1" tgt="11" wght="4.3739858767933661" />
        <Con id="29" src="4" tgt="11" wght="-4.8920708845206633" />
        <Con id="33" src="6" tgt="11" wght="0.45039570313972421" />
        <Con id="35" src="8" tgt="34" wght="-2.0524016359654436" />
        <Con id="36" src="34" tgt="11" wght="5" />
        <Con id="44" src="8" tgt="11" wght="-2.5984794692745172" />
        <Con id="45" src="5" tgt="11" wght="-3.9421271432911844" />
        <Con id="65" src="8" tgt="64" wght="-1.1720561865879644" />
        <Con id="66" src="64" tgt="11" wght="5" />
        <Con id="156" src="34" tgt="64" wght="-3.3247433427042465" />
      </Connections>
    </Network>
    <Network id="18145" birthGen="151" fitness="2706.5577392578125">
      <Nodes>
        <Node type="bias" id="0" />
        <Node type="in" id="1" />
        <Node type="in" id="2" />
        <Node type="in" id="3" />
        <Node type="in" id="4" />
        <Node type="in" id="5" />
        <Node type="in" id="6" />
        <Node type="in" id="7" />
        <Node type="in" id="8" />
        <Node type="in" id="9" />
        <Node type="in" id="10" />
        <Node type="out" id="11" />
        <Node type="hid" id="34" />
        <Node type="hid" id="64" />
      </Nodes>
      <Connections>
        <Con id="23" src="7" tgt="11" wght="1.2253064386252923" />
        <Con id="24" src="10" tgt="11" wght="-0.048761325356161622" />
        <Con id="25" src="0" tgt="11" wght="0.69839391263820727" />
        <Con id="26" src="2" tgt="11" wght="-2.3715273911774286" />
        <Con id="27" src="3" tgt="11" wght="-1.1081058667664496" />
        <Con id="28" src="1" tgt="11" wght="3.0864517812792016" />
        <Con id="29" src="4" tgt="11" wght="-4.9053344995063952" />
        <Con id="33" src="6" tgt="11" wght="0.45813779634230911" />
        <Con id="35" src="8" tgt="34" wght="-2.0524016359654436" />
        <Con id="36" src="34" tgt="11" wght="5" />
        <Con id="44" src="8" tgt="11" wght="-2.5984794692745172" />
        <Con id="45" src="5" tgt="11" wght="-3.9279855809028916" />
        <Con id="65" src="8" tgt="64" wght="-1.1720561865879644" />
        <Con id="66" src="64" tgt="11" wght="5" />
        <Con id="156" src="34" tgt="64" wght="-3.3247433427042465" />
      </Connections>
    </Network>
    <Network id="18146" birthGen="151" fitness="2609.367431640625">
      <Nodes>
        <Node type="bias" id="0" />
        <Node type="in" id="1" />
        <Node type="in" id="2" />
        <Node type="in" id="3" />
        <Node type="in" id="4" />
        <Node type="in" id="5" />
        <Node type="in" id="6" />
        <Node type="in" id="7" />
        <Node type="in" id="8" />
        <Node type="in" id="9" />
        <Node type="in" id="10" />
        <Node type="out" id="11" />
        <Node type="hid" id="34" />
        <Node type="hid" id="64" />
      </Nodes>
      <Connections>
        <Con id="23" src="7" tgt="11" wght="1.2253064386252923" />
        <Con id="24" src="10" tgt="11" wght="-0.034972365292704463" />
        <Con id="25" src="0" tgt="11" wght="0.6565808011932821" />
        <Con id="26" src="2" tgt="11" wght="-2.3715273911774286" />
        <Con id="27" src="3" tgt="11" wght="-2.1844157421859975" />
        <Con id="28" src="1" tgt="11" wght="4.3739858767933661" />
        <Con id="29" src="4" tgt="11" wght="-4.8920708845206633" />
        <Con id="33" src="6" tgt="11" wght="0.45039570313972421" />
        <Con id="35" src="8" tgt="34" wght="-2.0524016359654436" />
        <Con id="36" src="34" tgt="11" wght="5" />
        <Con id="44" src="8" tgt="11" wght="-2.5984794692745172" />
        <Con id="45" src="5" tgt="11" wght="-3.9421271432911844" />
        <Con id="65" src="8" tgt="64" wght="-1.1720561865879644" />
        <Con id="66" src="64" tgt="11" wght="5" />
        <Con id="156" src="34" tgt="64" wght="-3.3247433427042465" />
      </Connections>
    </Network>
    <Network id="18147" birthGen="151" fitness="2398.9249267578125">
      <Nodes>
        <Node type="bias" id="0" />
        <Node type="in" id="1" />
        <Node type="in" id="2" />
        <Node type="in" id="3" />
        <Node type="in" id="4" />
        <Node type="in" id="5" />
        <Node type="in" id="6" />
        <Node type="in" id="7" />
        <Node type="in" id="8" />
        <Node type="in" id="9" />
        <Node type="in" id="10" />
        <Node type="out" id="11" />
        <Node type="hid" id="34" />
        <Node type="hid" id="64" />
      </Nodes>
      <Connections>
        <Con id="23" src="7" tgt="11" wght="1.2253064386252923" />
        <Con id="24" src="10" tgt="11" wght="-0.03021372210291369" />
        <Con id="25" src="0" tgt="11" wght="0.6565808011932821" />
        <Con id="26" src="2" tgt="11" wght="-2.3715273911774286" />
        <Con id="27" src="3" tgt="11" wght="-1.1081058667664496" />
        <Con id="28" src="1" tgt="11" wght="3.0864517812792016" />
        <Con id="29" src="4" tgt="11" wght="-4.9053344995063952" />
        <Con id="33" src="6" tgt="11" wght="0.23300026741545538" />
        <Con id="35" src="8" tgt="34" wght="-2.0185000259287071" />
        <Con id="36" src="34" tgt="11" wght="5" />
        <Con id="44" src="8" tgt="11" wght="-2.5984794692745172" />
        <Con id="45" src="5" tgt="11" wght="-3.9421271432911844" />
        <Con id="65" src="8" tgt="64" wght="-1.1928664037704704" />
        <Con id="66" src="64" tgt="11" wght="5" />
        <Con id="156" src="34" tgt="64" wght="-3.3247433427042465" />
      </Connections>
    </Network>
    <Network id="18148" birthGen="151" fitness="2424.1092529296875">
      <Nodes>
        <Node type="bias" id="0" />
        <Node type="in" id="1" />
        <Node type="in" id="2" />
        <Node type="in" id="3" />
        <Node type="in" id="4" />
        <Node type="in" id="5" />
        <Node type="in" id="6" />
        <Node type="in" id="7" />
        <Node type="in" id="8" />
        <Node type="in" id="9" />
        <Node type="in" id="10" />
        <Node type="out" id="11" />
        <Node type="hid" id="34" />
        <Node type="hid" id="64" />
      </Nodes>
      <Connections>
        <Con id="23" src="7" tgt="11" wght="1.2253064386252923" />
        <Con id="24" src="10" tgt="11" wght="-0.034972365292704463" />
        <Con id="25" src="0" tgt="11" wght="0.65751042906608914" />
        <Con id="26" src="2" tgt="11" wght="-2.4403851297980763" />
        <Con id="27" src="3" tgt="11" wght="-1.1081058667664496" />
        <Con id="28" src="1" tgt="11" wght="3.0864517812792016" />
        <Con id="29" src="4" tgt="11" wght="-4.8920708845206633" />
        <Con id="33" src="6" tgt="11" wght="0.45039570313972421" />
        <Con id="35" src="8" tgt="34" wght="-2.0524016359654436" />
        <Con id="36" src="34" tgt="11" wght="5" />
        <Con id="44" src="8" tgt="11" wght="-2.5984794692745172" />
        <Con id="45" src="5" tgt="11" wght="-3.9279531914031063" />
        <Con id="65" src="8" tgt="64" wght="-1.1720561865879644" />
        <Con id="66" src="64" tgt="11" wght="5" />
        <Con id="156" src="34" tgt="64" wght="-3.3247433427042465" />
      </Connections>
    </Network>
    <Network id="18149" birthGen="151" fitness="2428.99072265625">
      <Nodes>
        <Node type="bias" id="0" />
        <Node type="in" id="1" />
        <Node type="in" id="2" />
        <Node type="in" id="3" />
        <Node type="in" id="4" />
        <Node type="in" id="5" />
        <Node type="in" id="6" />
        <Node type="in" id="7" />
        <Node type="in" id="8" />
        <Node type="in" id="9" />
        <Node type="in" id="10" />
        <Node type="out" id="11" />
        <Node type="hid" id="34" />
        <Node type="hid" id="64" />
      </Nodes>
      <Connections>
        <Con id="23" src="7" tgt="11" wght="1.2253064386252923" />
        <Con id="24" src="10" tgt="11" wght="-0.034972365292704463" />
        <Con id="25" src="0" tgt="11" wght="0.69984634403665968" />
        <Con id="26" src="2" tgt="11" wght="-5" />
        <Con id="27" src="3" tgt="11" wght="-1.1081058667664496" />
        <Con id="28" src="1" tgt="11" wght="3.0864517812792016" />
        <Con id="29" src="4" tgt="11" wght="-4.9053344995063952" />
        <Con id="33" src="6" tgt="11" wght="0.23300026741545538" />
        <Con id="35" src="8" tgt="34" wght="-2.0524016359654436" />
        <Con id="36" src="34" tgt="11" wght="5" />
        <Con id="44" src="8" tgt="11" wght="-2.5984794692745172" />
        <Con id="45" src="5" tgt="11" wght="-3.9421271432911844" />
        <Con id="65" src="8" tgt="64" wght="-1.1928664037704704" />
        <Con id="66" src="64" tgt="11" wght="5" />
        <Con id="156" src="34" tgt="64" wght="-3.3247433427042465" />
      </Connections>
    </Network>
    <Network id="18150" birthGen="151" fitness="2203.5471801757813">
      <Nodes>
        <Node type="bias" id="0" />
        <Node type="in" id="1" />
        <Node type="in" id="2" />
        <Node type="in" id="3" />
        <Node type="in" id="4" />
        <Node type="in" id="5" />
        <Node type="in" id="6" />
        <Node type="in" id="7" />
        <Node type="in" id="8" />
        <Node type="in" id="9" />
        <Node type="in" id="10" />
        <Node type="out" id="11" />
        <Node type="hid" id="34" />
        <Node type="hid" id="64" />
      </Nodes>
      <Connections>
        <Con id="23" src="7" tgt="11" wght="1.2253064386252923" />
        <Con id="24" src="10" tgt="11" wght="-0.048761325356161622" />
        <Con id="25" src="0" tgt="11" wght="0.69839391263820727" />
        <Con id="26" src="2" tgt="11" wght="-2.3715273911774286" />
        <Con id="27" src="3" tgt="11" wght="-1.1081058667664496" />
        <Con id="28" src="1" tgt="11" wght="3.0864517812792016" />
        <Con id="29" src="4" tgt="11" wght="-4.9053344995063952" />
        <Con id="33" src="6" tgt="11" wght="0.45039570313972421" />
        <Con id="35" src="8" tgt="34" wght="-2.0524016359654436" />
        <Con id="36" src="34" tgt="11" wght="5" />
        <Con id="44" src="8" tgt="11" wght="-4.0616738674406445" />
        <Con id="45" src="5" tgt="11" wght="-3.9279855809028916" />
        <Con id="65" src="8" tgt="64" wght="-1.1720561865879644" />
        <Con id="66" src="64" tgt="11" wght="5" />
        <Con id="156" src="34" tgt="64" wght="-3.3247433427042465" />
      </Connections>
    </Network>
    <Network id="18151" birthGen="151" fitness="2466.825439453125">
      <Nodes>
        <Node type="bias" id="0" />
        <Node type="in" id="1" />
        <Node type="in" id="2" />
        <Node type="in" id="3" />
        <Node type="in" id="4" />
        <Node type="in" id="5" />
        <Node type="in" id="6" />
        <Node type="in" id="7" />
        <Node type="in" id="8" />
        <Node type="in" id="9" />
        <Node type="in" id="10" />
        <Node type="out" id="11" />
        <Node type="hid" id="34" />
        <Node type="hid" id="64" />
      </Nodes>
      <Connections>
        <Con id="23" src="7" tgt="11" wght="1.2253064386252923" />
        <Con id="24" src="10" tgt="11" wght="-0.034972365292704463" />
        <Con id="25" src="0" tgt="11" wght="0.6565808011932821" />
        <Con id="26" src="2" tgt="11" wght="-2.8165295778195447" />
        <Con id="27" src="3" tgt="11" wght="-1.1081058667664496" />
        <Con id="28" src="1" tgt="11" wght="3.0864517812792016" />
        <Con id="29" src="4" tgt="11" wght="-4.8920708845206633" />
        <Con id="33" src="6" tgt="11" wght="0.45039570313972421" />
        <Con id="35" src="8" tgt="34" wght="-2.0524016359654436" />
        <Con id="36" src="34" tgt="11" wght="5" />
        <Con id="44" src="8" tgt="11" wght="-2.5984794692745172" />
        <Con id="45" src="5" tgt="11" wght="-3.9421271432911844" />
        <Con id="65" src="8" tgt="64" wght="-1.1720561865879644" />
        <Con id="66" src="64" tgt="11" wght="5" />
        <Con id="156" src="34" tgt="64" wght="-3.3247433427042465" />
      </Connections>
    </Network>
    <Network id="18152" birthGen="151" fitness="1965.2833862304688">
      <Nodes>
        <Node type="bias" id="0" />
        <Node type="in" id="1" />
        <Node type="in" id="2" />
        <Node type="in" id="3" />
        <Node type="in" id="4" />
        <Node type="in" id="5" />
        <Node type="in" id="6" />
        <Node type="in" id="7" />
        <Node type="in" id="8" />
        <Node type="in" id="9" />
        <Node type="in" id="10" />
        <Node type="out" id="11" />
        <Node type="hid" id="34" />
        <Node type="hid" id="64" />
      </Nodes>
      <Connections>
        <Con id="23" src="7" tgt="11" wght="1.2253064386252923" />
        <Con id="24" src="10" tgt="11" wght="-0.034972365292704463" />
        <Con id="25" src="0" tgt="11" wght="0.6565808011932821" />
        <Con id="26" src="2" tgt="11" wght="-2.3715273911774286" />
        <Con id="27" src="3" tgt="11" wght="-1.1081058667664496" />
        <Con id="28" src="1" tgt="11" wght="4.3739858767933661" />
        <Con id="29" src="4" tgt="11" wght="-4.8920708845206633" />
        <Con id="33" src="6" tgt="11" wght="0.45039570313972421" />
        <Con id="35" src="8" tgt="34" wght="-2.0524016359654436" />
        <Con id="36" src="34" tgt="11" wght="5" />
        <Con id="44" src="8" tgt="11" wght="-2.5984794692745172" />
        <Con id="45" src="5" tgt="11" wght="-3.9421271432911844" />
        <Con id="65" src="8" tgt="64" wght="-1.1720561865879644" />
        <Con id="66" src="64" tgt="11" wght="4.9792784759398412" />
        <Con id="156" src="34" tgt="64" wght="-3.3247433427042465" />
      </Connections>
    </Network>
    <Network id="18153" birthGen="151" fitness="2452.0091552734375">
      <Nodes>
        <Node type="bias" id="0" />
        <Node type="in" id="1" />
        <Node type="in" id="2" />
        <Node type="in" id="3" />
        <Node type="in" id="4" />
        <Node type="in" id="5" />
        <Node type="in" id="6" />
        <Node type="in" id="7" />
        <Node type="in" id="8" />
        <Node type="in" id="9" />
        <Node type="in" id="10" />
        <Node type="out" id="11" />
        <Node type="hid" id="34" />
        <Node type="hid" id="64" />
      </Nodes>
      <Connections>
        <Con id="23" src="7" tgt="11" wght="1.2253064386252923" />
        <Con id="24" src="10" tgt="11" wght="-0.034972365292704463" />
        <Con id="25" src="0" tgt="11" wght="0.65233937739936243" />
        <Con id="26" src="2" tgt="11" wght="-2.3715273911774286" />
        <Con id="27" src="3" tgt="11" wght="-1.1120213226965789" />
        <Con id="28" src="1" tgt="11" wght="3.0864517812792016" />
        <Con id="29" src="4" tgt="11" wght="-4.9053344995063952" />
        <Con id="33" src="6" tgt="11" wght="0.23300026741545538" />
        <Con id="35" src="8" tgt="34" wght="-2.0524016359654436" />
        <Con id="36" src="34" tgt="11" wght="5" />
        <Con id="44" src="8" tgt="11" wght="-2.5984794692745172" />
        <Con id="45" src="5" tgt="11" wght="-3.9421271432911844" />
        <Con id="65" src="8" tgt="64" wght="-1.1928664037704704" />
        <Con id="66" src="64" tgt="11" wght="4.9826770232424415" />
        <Con id="156" src="34" tgt="64" wght="-3.3247433427042465" />
      </Connections>
    </Network>
    <Network id="18154" birthGen="151" fitness="778.78501892089844">
      <Nodes>
        <Node type="bias" id="0" />
        <Node type="in" id="1" />
        <Node type="in" id="2" />
        <Node type="in" id="3" />
        <Node type="in" id="4" />
        <Node type="in" id="5" />
        <Node type="in" id="6" />
        <Node type="in" id="7" />
        <Node type="in" id="8" />
        <Node type="in" id="9" />
        <Node type="in" id="10" />
        <Node type="out" id="11" />
        <Node type="hid" id="34" />
        <Node type="hid" id="64" />
      </Nodes>
      <Connections>
        <Con id="23" src="7" tgt="11" wght="1.2253064386252923" />
        <Con id="24" src="10" tgt="11" wght="-0.034972365292704463" />
        <Con id="25" src="0" tgt="11" wght="0.6565808011932821" />
        <Con id="26" src="2" tgt="11" wght="-2.3715273911774286" />
        <Con id="27" src="3" tgt="11" wght="-1.1081058667664496" />
        <Con id="28" src="1" tgt="11" wght="3.0864517812792016" />
        <Con id="29" src="4" tgt="11" wght="-4.8920708845206633" />
        <Con id="33" src="6" tgt="11" wght="0.45039570313972421" />
        <Con id="35" src="8" tgt="34" wght="2.4800403881818056" />
        <Con id="36" src="34" tgt="11" wght="5" />
        <Con id="44" src="8" tgt="11" wght="-4.4975522346794605" />
        <Con id="45" src="5" tgt="11" wght="-3.9421271432911844" />
        <Con id="65" src="8" tgt="64" wght="-3.0195882543921471" />
        <Con id="66" src="64" tgt="11" wght="5" />
        <Con id="156" src="34" tgt="64" wght="-3.3247433427042465" />
      </Connections>
    </Network>
    <Network id="18155" birthGen="151" fitness="2606.50341796875">
      <Nodes>
        <Node type="bias" id="0" />
        <Node type="in" id="1" />
        <Node type="in" id="2" />
        <Node type="in" id="3" />
        <Node type="in" id="4" />
        <Node type="in" id="5" />
        <Node type="in" id="6" />
        <Node type="in" id="7" />
        <Node type="in" id="8" />
        <Node type="in" id="9" />
        <Node type="in" id="10" />
        <Node type="out" id="11" />
        <Node type="hid" id="34" />
        <Node type="hid" id="64" />
      </Nodes>
      <Connections>
        <Con id="23" src="7" tgt="11" wght="1.2253064386252923" />
        <Con id="24" src="10" tgt="11" wght="-0.034972365292704463" />
        <Con id="25" src="0" tgt="11" wght="0.6565808011932821" />
        <Con id="26" src="2" tgt="11" wght="-2.443915041660401" />
        <Con id="27" src="3" tgt="11" wght="-1.1081058667664496" />
        <Con id="28" src="1" tgt="11" wght="4.3739858767933661" />
        <Con id="29" src="4" tgt="11" wght="-4.8920708845206633" />
        <Con id="33" src="6" tgt="11" wght="0.45039570313972421" />
        <Con id="35" src="8" tgt="34" wght="-2.0832643322463928" />
        <Con id="36" src="34" tgt="11" wght="5" />
        <Con id="44" src="8" tgt="11" wght="-2.5984794692745172" />
        <Con id="45" src="5" tgt="11" wght="-3.2066198279950435" />
        <Con id="65" src="8" tgt="64" wght="-1.1720561865879644" />
        <Con id="66" src="64" tgt="11" wght="5" />
        <Con id="156" src="34" tgt="64" wght="-3.3247433427042465" />
      </Connections>
    </Network>
    <Network id="18156" birthGen="151" fitness="2182.0579223632813">
      <Nodes>
        <Node type="bias" id="0" />
        <Node type="in" id="1" />
        <Node type="in" id="2" />
        <Node type="in" id="3" />
        <Node type="in" id="4" />
        <Node type="in" id="5" />
        <Node type="in" id="6" />
        <Node type="in" id="7" />
        <Node type="in" id="8" />
        <Node type="in" id="9" />
        <Node type="in" id="10" />
        <Node type="out" id="11" />
        <Node type="hid" id="34" />
        <Node type="hid" id="64" />
      </Nodes>
      <Connections>
        <Con id="23" src="7" tgt="11" wght="1.2253064386252923" />
        <Con id="24" src="10" tgt="11" wght="-0.034972365292704463" />
        <Con id="25" src="0" tgt="11" wght="0.6565808011932821" />
        <Con id="26" src="2" tgt="11" wght="-2.3715273911774286" />
        <Con id="27" src="3" tgt="11" wght="-1.1081058667664496" />
        <Con id="28" src="1" tgt="11" wght="3.0864517812792016" />
        <Con id="29" src="4" tgt="11" wght="-4.9053344995063952" />
        <Con id="33" src="6" tgt="11" wght="0.45039570313972421" />
        <Con id="35" src="8" tgt="34" wght="-2.0524016359654436" />
        <Con id="36" src="34" tgt="11" wght="5" />
        <Con id="44" src="8" tgt="11" wght="-2.5984794692745172" />
        <Con id="45" src="5" tgt="11" wght="-3.9421271432911844" />
        <Con id="65" src="8" tgt="64" wght="-1.1720561865879644" />
        <Con id="66" src="64" tgt="11" wght="5" />
        <Con id="156" src="34" tgt="64" wght="-3.3247433427042465" />
      </Connections>
    </Network>
    <Network id="18157" birthGen="151" fitness="2587.75341796875">
      <Nodes>
        <Node type="bias" id="0" />
        <Node type="in" id="1" />
        <Node type="in" id="2" />
        <Node type="in" id="3" />
        <Node type="in" id="4" />
        <Node type="in" id="5" />
        <Node type="in" id="6" />
        <Node type="in" id="7" />
        <Node type="in" id="8" />
        <Node type="in" id="9" />
        <Node type="in" id="10" />
        <Node type="out" id="11" />
        <Node type="hid" id="34" />
        <Node type="hid" id="64" />
      </Nodes>
      <Connections>
        <Con id="23" src="7" tgt="11" wght="1.2253064386252923" />
        <Con id="24" src="10" tgt="11" wght="-0.034972365292704463" />
        <Con id="25" src="0" tgt="11" wght="0.69839391263820727" />
        <Con id="26" src="2" tgt="11" wght="-2.4312883150282802" />
        <Con id="27" src="3" tgt="11" wght="-1.1081058667664496" />
        <Con id="28" src="1" tgt="11" wght="3.0864517812792016" />
        <Con id="29" src="4" tgt="11" wght="-4.8920708845206633" />
        <Con id="33" src="6" tgt="11" wght="0.45039570313972421" />
        <Con id="35" src="8" tgt="34" wght="-2.0524016359654436" />
        <Con id="36" src="34" tgt="11" wght="5" />
        <Con id="44" src="8" tgt="11" wght="-2.5984794692745172" />
        <Con id="45" src="5" tgt="11" wght="-3.9279531914031063" />
        <Con id="65" src="8" tgt="64" wght="-1.1720561865879644" />
        <Con id="66" src="64" tgt="11" wght="5" />
        <Con id="156" src="34" tgt="64" wght="-3.3247433427042465" />
      </Connections>
    </Network>
    <Network id="18158" birthGen="151" fitness="2524.6917724609375">
      <Nodes>
        <Node type="bias" id="0" />
        <Node type="in" id="1" />
        <Node type="in" id="2" />
        <Node type="in" id="3" />
        <Node type="in" id="4" />
        <Node type="in" id="5" />
        <Node type="in" id="6" />
        <Node type="in" id="7" />
        <Node type="in" id="8" />
        <Node type="in" id="9" />
        <Node type="in" id="10" />
        <Node type="out" id="11" />
        <Node type="hid" id="34" />
        <Node type="hid" id="64" />
      </Nodes>
      <Connections>
        <Con id="23" src="7" tgt="11" wght="1.2253064386252923" />
        <Con id="24" src="10" tgt="11" wght="-0.048761325356161622" />
        <Con id="25" src="0" tgt="11" wght="0.6565808011932821" />
        <Con id="26" src="2" tgt="11" wght="-2.3715273911774286" />
        <Con id="27" src="3" tgt="11" wght="-1.1081058667664496" />
        <Con id="28" src="1" tgt="11" wght="3.0864517812792016" />
        <Con id="29" src="4" tgt="11" wght="-4.9053344995063952" />
        <Con id="33" src="6" tgt="11" wght="0.45039570313972421" />
        <Con id="35" src="8" tgt="34" wght="-2.0524016359654436" />
        <Con id="36" src="34" tgt="11" wght="5" />
        <Con id="44" src="8" tgt="11" wght="-2.5984794692745172" />
        <Con id="45" src="5" tgt="11" wght="-3.9279855809028916" />
        <Con id="65" src="8" tgt="64" wght="-1.1720561865879644" />
        <Con id="66" src="64" tgt="11" wght="5" />
        <Con id="156" src="34" tgt="64" wght="-3.3247433427042465" />
      </Connections>
    </Network>
    <Network id="18159" birthGen="151" fitness="2252.3369140625">
      <Nodes>
        <Node type="bias" id="0" />
        <Node type="in" id="1" />
        <Node type="in" id="2" />
        <Node type="in" id="3" />
        <Node type="in" id="4" />
        <Node type="in" id="5" />
        <Node type="in" id="6" />
        <Node type="in" id="7" />
        <Node type="in" id="8" />
        <Node type="in" id="9" />
        <Node type="in" id="10" />
        <Node type="out" id="11" />
        <Node type="hid" id="34" />
        <Node type="hid" id="64" />
      </Nodes>
      <Connections>
        <Con id="23" src="7" tgt="11" wght="1.2253064386252923" />
        <Con id="24" src="10" tgt="11" wght="-0.034972365292704463" />
        <Con id="25" src="0" tgt="11" wght="0.6565808011932821" />
        <Con id="26" src="2" tgt="11" wght="-2.3715273911774286" />
        <Con id="27" src="3" tgt="11" wght="-1.1081058667664496" />
        <Con id="28" src="1" tgt="11" wght="4.3739858767933661" />
        <Con id="29" src="4" tgt="11" wght="-4.8920708845206633" />
        <Con id="33" src="6" tgt="11" wght="0.45039570313972421" />
        <Con id="35" src="8" tgt="34" wght="-2.0524016359654436" />
        <Con id="36" src="34" tgt="11" wght="5" />
        <Con id="44" src="8" tgt="11" wght="-2.5984794692745172" />
        <Con id="45" src="5" tgt="11" wght="-3.9421271432911844" />
        <Con id="65" src="8" tgt="64" wght="-1.1720561865879644" />
        <Con id="66" src="64" tgt="11" wght="5" />
        <Con id="156" src="34" tgt="64" wght="-3.3247433427042465" />
      </Connections>
    </Network>
    <Network id="18160" birthGen="151" fitness="2705.0211181640625">
      <Nodes>
        <Node type="bias" id="0" />
        <Node type="in" id="1" />
        <Node type="in" id="2" />
        <Node type="in" id="3" />
        <Node type="in" id="4" />
        <Node type="in" id="5" />
        <Node type="in" id="6" />
        <Node type="in" id="7" />
        <Node type="in" id="8" />
        <Node type="in" id="9" />
        <Node type="in" id="10" />
        <Node type="out" id="11" />
        <Node type="hid" id="34" />
        <Node type="hid" id="64" />
      </Nodes>
      <Connections>
        <Con id="23" src="7" tgt="11" wght="1.2253064386252923" />
        <Con id="24" src="10" tgt="11" wght="-0.034972365292704463" />
        <Con id="25" src="0" tgt="11" wght="0.6565808011932821" />
        <Con id="26" src="2" tgt="11" wght="-2.3715273911774286" />
        <Con id="27" src="3" tgt="11" wght="-1.1081058667664496" />
        <Con id="28" src="1" tgt="11" wght="4.3739858767933661" />
        <Con id="29" src="4" tgt="11" wght="-4.8920708845206633" />
        <Con id="33" src="6" tgt="11" wght="0.45039570313972421" />
        <Con id="35" src="8" tgt="34" wght="-2.0524016359654436" />
        <Con id="36" src="34" tgt="11" wght="5" />
        <Con id="44" src="8" tgt="11" wght="-2.5984794692745172" />
        <Con id="45" src="5" tgt="11" wght="-3.9421271432911844" />
        <Con id="65" src="8" tgt="64" wght="-1.1720561865879644" />
        <Con id="66" src="64" tgt="11" wght="5" />
        <Con id="156" src="34" tgt="64" wght="-3.3247433427042465" />
      </Connections>
    </Network>
    <Network id="18161" birthGen="151" fitness="2137.7670288085938">
      <Nodes>
        <Node type="bias" id="0" />
        <Node type="in" id="1" />
        <Node type="in" id="2" />
        <Node type="in" id="3" />
        <Node type="in" id="4" />
        <Node type="in" id="5" />
        <Node type="in" id="6" />
        <Node type="in" id="7" />
        <Node type="in" id="8" />
        <Node type="in" id="9" />
        <Node type="in" id="10" />
        <Node type="out" id="11" />
        <Node type="hid" id="34" />
        <Node type="hid" id="64" />
      </Nodes>
      <Connections>
        <Con id="23" src="7" tgt="11" wght="1.2253064386252923" />
        <Con id="24" src="10" tgt="11" wght="-0.048761325356161622" />
        <Con id="25" src="0" tgt="11" wght="0.69839391263820727" />
        <Con id="26" src="2" tgt="11" wght="-2.3715273911774286" />
        <Con id="27" src="3" tgt="11" wght="-1.1081058667664496" />
        <Con id="28" src="1" tgt="11" wght="3.0864517812792016" />
        <Con id="29" src="4" tgt="11" wght="-4.9053344995063952" />
        <Con id="33" src="6" tgt="11" wght="0.23300026741545538" />
        <Con id="35" src="8" tgt="34" wght="-2.0524016359654436" />
        <Con id="36" src="34" tgt="11" wght="5" />
        <Con id="44" src="8" tgt="11" wght="-2.5984794692745172" />
        <Con id="45" src="5" tgt="11" wght="-3.9279855809028916" />
        <Con id="65" src="8" tgt="64" wght="-1.1928664037704704" />
        <Con id="66" src="64" tgt="11" wght="5" />
        <Con id="156" src="34" tgt="64" wght="-3.3247433427042465" />
      </Connections>
    </Network>
    <Network id="18162" birthGen="151" fitness="2356.37255859375">
      <Nodes>
        <Node type="bias" id="0" />
        <Node type="in" id="1" />
        <Node type="in" id="2" />
        <Node type="in" id="3" />
        <Node type="in" id="4" />
        <Node type="in" id="5" />
        <Node type="in" id="6" />
        <Node type="in" id="7" />
        <Node type="in" id="8" />
        <Node type="in" id="9" />
        <Node type="in" id="10" />
        <Node type="out" id="11" />
        <Node type="hid" id="34" />
        <Node type="hid" id="64" />
      </Nodes>
      <Connections>
        <Con id="23" src="7" tgt="11" wght="1.2253064386252923" />
        <Con id="24" src="10" tgt="11" wght="-0.034972365292704463" />
        <Con id="25" src="0" tgt="11" wght="0.6565808011932821" />
        <Con id="26" src="2" tgt="11" wght="-2.4312883150282802" />
        <Con id="27" src="3" tgt="11" wght="-1.1081058667664496" />
        <Con id="28" src="1" tgt="11" wght="3.0864517812792016" />
        <Con id="29" src="4" tgt="11" wght="-4.8920708845206633" />
        <Con id="33" src="6" tgt="11" wght="0.45039570313972421" />
        <Con id="35" src="8" tgt="34" wght="-2.0524016359654436" />
        <Con id="36" src="34" tgt="11" wght="5" />
        <Con id="44" src="8" tgt="11" wght="-2.5984794692745172" />
        <Con id="45" src="5" tgt="11" wght="-3.9279531914031063" />
        <Con id="65" src="8" tgt="64" wght="-1.1720561865879644" />
        <Con id="66" src="64" tgt="11" wght="5" />
        <Con id="156" src="34" tgt="64" wght="-3.3247433427042465" />
      </Connections>
    </Network>
    <Network id="18163" birthGen="151" fitness="2076.3550415039063">
      <Nodes>
        <Node type="bias" id="0" />
        <Node type="in" id="1" />
        <Node type="in" id="2" />
        <Node type="in" id="3" />
        <Node type="in" id="4" />
        <Node type="in" id="5" />
        <Node type="in" id="6" />
        <Node type="in" id="7" />
        <Node type="in" id="8" />
        <Node type="in" id="9" />
        <Node type="in" id="10" />
        <Node type="out" id="11" />
        <Node type="hid" id="34" />
        <Node type="hid" id="64" />
      </Nodes>
      <Connections>
        <Con id="23" src="7" tgt="11" wght="1.2253064386252923" />
        <Con id="24" src="10" tgt="11" wght="-0.048761325356161622" />
        <Con id="25" src="0" tgt="11" wght="0.69839391263820727" />
        <Con id="26" src="2" tgt="11" wght="-2.3715273911774286" />
        <Con id="27" src="3" tgt="11" wght="-1.1081058667664496" />
        <Con id="28" src="1" tgt="11" wght="4.3739858767933661" />
        <Con id="29" src="4" tgt="11" wght="-4.9053344995063952" />
        <Con id="33" src="6" tgt="11" wght="0.45039570313972421" />
        <Con id="35" src="8" tgt="34" wght="-2.0524016359654436" />
        <Con id="36" src="34" tgt="11" wght="5" />
        <Con id="44" src="8" tgt="11" wght="-2.5984794692745172" />
        <Con id="45" src="5" tgt="11" wght="-3.9421271432911844" />
        <Con id="65" src="8" tgt="64" wght="-1.1720561865879644" />
        <Con id="66" src="64" tgt="11" wght="5" />
        <Con id="156" src="34" tgt="64" wght="-3.3247433427042465" />
      </Connections>
    </Network>
    <Network id="18164" birthGen="151" fitness="2386.2640380859375">
      <Nodes>
        <Node type="bias" id="0" />
        <Node type="in" id="1" />
        <Node type="in" id="2" />
        <Node type="in" id="3" />
        <Node type="in" id="4" />
        <Node type="in" id="5" />
        <Node type="in" id="6" />
        <Node type="in" id="7" />
        <Node type="in" id="8" />
        <Node type="in" id="9" />
        <Node type="in" id="10" />
        <Node type="out" id="11" />
        <Node type="hid" id="34" />
        <Node type="hid" id="64" />
      </Nodes>
      <Connections>
        <Con id="23" src="7" tgt="11" wght="1.2253064386252923" />
        <Con id="24" src="10" tgt="11" wght="-0.048761325356161622" />
        <Con id="25" src="0" tgt="11" wght="0.69839391263820727" />
        <Con id="26" src="2" tgt="11" wght="-2.3715273911774286" />
        <Con id="27" src="3" tgt="11" wght="-1.1081058667664496" />
        <Con id="28" src="1" tgt="11" wght="3.0864517812792016" />
        <Con id="29" src="4" tgt="11" wght="-4.9053344995063952" />
        <Con id="33" src="6" tgt="11" wght="0.23300026741545538" />
        <Con id="35" src="8" tgt="34" wght="-2.0524016359654436" />
        <Con id="36" src="34" tgt="11" wght="5" />
        <Con id="44" src="8" tgt="11" wght="-2.5984794692745172" />
        <Con id="45" src="5" tgt="11" wght="-3.9421271432911844" />
        <Con id="65" src="8" tgt="64" wght="-1.1928664037704704" />
        <Con id="66" src="64" tgt="11" wght="5" />
        <Con id="156" src="34" tgt="64" wght="-3.3247433427042465" />
      </Connections>
    </Network>
    <Network id="18165" birthGen="151" fitness="2341.3226928710938">
      <Nodes>
        <Node type="bias" id="0" />
        <Node type="in" id="1" />
        <Node type="in" id="2" />
        <Node type="in" id="3" />
        <Node type="in" id="4" />
        <Node type="in" id="5" />
        <Node type="in" id="6" />
        <Node type="in" id="7" />
        <Node type="in" id="8" />
        <Node type="in" id="9" />
        <Node type="in" id="10" />
        <Node type="out" id="11" />
        <Node type="hid" id="34" />
        <Node type="hid" id="64" />
      </Nodes>
      <Connections>
        <Con id="23" src="7" tgt="11" wght="1.2253064386252923" />
        <Con id="24" src="10" tgt="11" wght="-0.034972365292704463" />
        <Con id="25" src="0" tgt="11" wght="0.6565808011932821" />
        <Con id="26" src="2" tgt="11" wght="-2.3715273911774286" />
        <Con id="27" src="3" tgt="11" wght="-1.1081058667664496" />
        <Con id="28" src="1" tgt="11" wght="3.0864517812792016" />
        <Con id="29" src="4" tgt="11" wght="-4.8920708845206633" />
        <Con id="33" src="6" tgt="11" wght="0.45039570313972421" />
        <Con id="35" src="8" tgt="34" wght="-2.0524016359654436" />
        <Con id="36" src="34" tgt="11" wght="5" />
        <Con id="44" src="8" tgt="11" wght="-2.5984794692745172" />
        <Con id="45" src="5" tgt="11" wght="-3.9421271432911844" />
        <Con id="65" src="8" tgt="64" wght="-1.1720561865879644" />
        <Con id="66" src="64" tgt="11" wght="5" />
        <Con id="156" src="34" tgt="64" wght="-3.3247433427042465" />
      </Connections>
    </Network>
    <Network id="18166" birthGen="151" fitness="2538.312744140625">
      <Nodes>
        <Node type="bias" id="0" />
        <Node type="in" id="1" />
        <Node type="in" id="2" />
        <Node type="in" id="3" />
        <Node type="in" id="4" />
        <Node type="in" id="5" />
        <Node type="in" id="6" />
        <Node type="in" id="7" />
        <Node type="in" id="8" />
        <Node type="in" id="9" />
        <Node type="in" id="10" />
        <Node type="out" id="11" />
        <Node type="hid" id="34" />
        <Node type="hid" id="64" />
      </Nodes>
      <Connections>
        <Con id="23" src="7" tgt="11" wght="1.2253064386252923" />
        <Con id="24" src="10" tgt="11" wght="-0.034972365292704463" />
        <Con id="25" src="0" tgt="11" wght="0.6565808011932821" />
        <Con id="26" src="2" tgt="11" wght="-2.3715273911774286" />
        <Con id="27" src="3" tgt="11" wght="-1.1081058667664496" />
        <Con id="28" src="1" tgt="11" wght="3.0864517812792016" />
        <Con id="29" src="4" tgt="11" wght="-4.9053344995063952" />
        <Con id="33" src="6" tgt="11" wght="0.45039570313972421" />
        <Con id="35" src="8" tgt="34" wght="-2.0524016359654436" />
        <Con id="36" src="34" tgt="11" wght="5" />
        <Con id="44" src="8" tgt="11" wght="-2.5984794692745172" />
        <Con id="45" src="5" tgt="11" wght="-3.9421271432911844" />
        <Con id="65" src="8" tgt="64" wght="-1.1928664037704704" />
        <Con id="66" src="64" tgt="11" wght="5" />
        <Con id="156" src="34" tgt="64" wght="-3.3247433427042465" />
      </Connections>
    </Network>
    <Network id="18167" birthGen="151" fitness="2394.7762451171875">
      <Nodes>
        <Node type="bias" id="0" />
        <Node type="in" id="1" />
        <Node type="in" id="2" />
        <Node type="in" id="3" />
        <Node type="in" id="4" />
        <Node type="in" id="5" />
        <Node type="in" id="6" />
        <Node type="in" id="7" />
        <Node type="in" id="8" />
        <Node type="in" id="9" />
        <Node type="in" id="10" />
        <Node type="out" id="11" />
        <Node type="hid" id="34" />
        <Node type="hid" id="64" />
      </Nodes>
      <Connections>
        <Con id="23" src="7" tgt="11" wght="1.2253064386252923" />
        <Con id="24" src="10" tgt="11" wght="-0.034972365292704463" />
        <Con id="25" src="0" tgt="11" wght="0.6565808011932821" />
        <Con id="26" src="2" tgt="11" wght="-2.3715273911774286" />
        <Con id="27" src="3" tgt="11" wght="-1.1081058667664496" />
        <Con id="28" src="1" tgt="11" wght="3.0864517812792016" />
        <Con id="29" src="4" tgt="11" wght="-4.8920708845206633" />
        <Con id="33" src="6" tgt="11" wght="0.45039570313972421" />
        <Con id="35" src="8" tgt="34" wght="-2.0524016359654436" />
        <Con id="36" src="34" tgt="11" wght="5" />
        <Con id="44" src="8" tgt="11" wght="-2.5984794692745172" />
        <Con id="45" src="5" tgt="11" wght="-3.9421271432911844" />
        <Con id="65" src="8" tgt="64" wght="-1.1720561865879644" />
        <Con id="66" src="64" tgt="11" wght="5" />
        <Con id="156" src="34" tgt="64" wght="-3.3247433427042465" />
      </Connections>
    </Network>
    <Network id="18168" birthGen="151" fitness="2724.4913330078125">
      <Nodes>
        <Node type="bias" id="0" />
        <Node type="in" id="1" />
        <Node type="in" id="2" />
        <Node type="in" id="3" />
        <Node type="in" id="4" />
        <Node type="in" id="5" />
        <Node type="in" id="6" />
        <Node type="in" id="7" />
        <Node type="in" id="8" />
        <Node type="in" id="9" />
        <Node type="in" id="10" />
        <Node type="out" id="11" />
        <Node type="hid" id="64" />
      </Nodes>
      <Connections>
        <Con id="18" src="6" tgt="11" wght="0.6568316839189" />
        <Con id="23" src="7" tgt="11" wght="0.15281161642543664" />
        <Con id="24" src="10" tgt="11" wght="0.71332850565509243" />
        <Con id="25" src="0" tgt="11" wght="0.87417107672135019" />
        <Con id="26" src="2" tgt="11" wght="-2.8166280272683819" />
        <Con id="27" src="3" tgt="11" wght="-2.422962874934373" />
        <Con id="28" src="1" tgt="11" wght="-1.3587181075809269" />
        <Con id="29" src="4" tgt="11" wght="-4.8879101289881177" />
        <Con id="43" src="9" tgt="11" wght="2.6808502267354459" />
        <Con id="44" src="8" tgt="11" wght="-2.5740029810849245" />
        <Con id="45" src="5" tgt="11" wght="-4.2453359352969615" />
        <Con id="65" src="8" tgt="64" wght="-1.2516751259639827" />
        <Con id="66" src="64" tgt="11" wght="4.9991815076244466" />
      </Connections>
    </Network>
    <Network id="18169" birthGen="151" fitness="2569.968994140625">
      <Nodes>
        <Node type="bias" id="0" />
        <Node type="in" id="1" />
        <Node type="in" id="2" />
        <Node type="in" id="3" />
        <Node type="in" id="4" />
        <Node type="in" id="5" />
        <Node type="in" id="6" />
        <Node type="in" id="7" />
        <Node type="in" id="8" />
        <Node type="in" id="9" />
        <Node type="in" id="10" />
        <Node type="out" id="11" />
        <Node type="hid" id="64" />
      </Nodes>
      <Connections>
        <Con id="18" src="6" tgt="11" wght="0.66473391340605725" />
        <Con id="23" src="7" tgt="11" wght="0.15281161642543664" />
        <Con id="24" src="10" tgt="11" wght="0.7383882789936359" />
        <Con id="25" src="0" tgt="11" wght="0.84815134036399464" />
        <Con id="26" src="2" tgt="11" wght="-2.8166408258737" />
        <Con id="27" src="3" tgt="11" wght="-2.422962874934373" />
        <Con id="28" src="1" tgt="11" wght="-1.3587181075809269" />
        <Con id="29" src="4" tgt="11" wght="-4.8879101289881177" />
        <Con id="43" src="9" tgt="11" wght="2.6808502267354459" />
        <Con id="44" src="8" tgt="11" wght="-2.5740029810849245" />
        <Con id="45" src="5" tgt="11" wght="-4.2291442196711149" />
        <Con id="65" src="8" tgt="64" wght="-1.2621930370031558" />
        <Con id="66" src="64" tgt="11" wght="4.9991815076244466" />
      </Connections>
    </Network>
    <Network id="18170" birthGen="151" fitness="2703.0242919921875">
      <Nodes>
        <Node type="bias" id="0" />
        <Node type="in" id="1" />
        <Node type="in" id="2" />
        <Node type="in" id="3" />
        <Node type="in" id="4" />
        <Node type="in" id="5" />
        <Node type="in" id="6" />
        <Node type="in" id="7" />
        <Node type="in" id="8" />
        <Node type="in" id="9" />
        <Node type="in" id="10" />
        <Node type="out" id="11" />
        <Node type="hid" id="64" />
      </Nodes>
      <Connections>
        <Con id="18" src="6" tgt="11" wght="0.6568316839189" />
        <Con id="23" src="7" tgt="11" wght="0.15281161642543664" />
        <Con id="24" src="10" tgt="11" wght="0.71332850565509243" />
        <Con id="25" src="0" tgt="11" wght="0.85257106481626244" />
        <Con id="26" src="2" tgt="11" wght="-2.8276629219519043" />
        <Con id="27" src="3" tgt="11" wght="-2.4204818086894608" />
        <Con id="28" src="1" tgt="11" wght="-1.3587181075809269" />
        <Con id="29" src="4" tgt="11" wght="-4.8879101289881177" />
        <Con id="43" src="9" tgt="11" wght="2.6808502267354459" />
        <Con id="44" src="8" tgt="11" wght="-2.5740029810849245" />
        <Con id="45" src="5" tgt="11" wght="-4.2453359352969615" />
        <Con id="65" src="8" tgt="64" wght="-1.2528132544305659" />
        <Con id="66" src="64" tgt="11" wght="4.9991815076244466" />
      </Connections>
    </Network>
    <Network id="18171" birthGen="151" fitness="2674.2708740234375">
      <Nodes>
        <Node type="bias" id="0" />
        <Node type="in" id="1" />
        <Node type="in" id="2" />
        <Node type="in" id="3" />
        <Node type="in" id="4" />
        <Node type="in" id="5" />
        <Node type="in" id="6" />
        <Node type="in" id="7" />
        <Node type="in" id="8" />
        <Node type="in" id="9" />
        <Node type="in" id="10" />
        <Node type="out" id="11" />
        <Node type="hid" id="64" />
      </Nodes>
      <Connections>
        <Con id="18" src="6" tgt="11" wght="0.672701750306585" />
        <Con id="23" src="7" tgt="11" wght="0.16792652124571994" />
        <Con id="24" src="10" tgt="11" wght="0.71332850565509243" />
        <Con id="25" src="0" tgt="11" wght="0.86609158826250865" />
        <Con id="26" src="2" tgt="11" wght="-2.8346649618475257" />
        <Con id="27" src="3" tgt="11" wght="-2.4204818086894608" />
        <Con id="28" src="1" tgt="11" wght="-1.3587181075809269" />
        <Con id="29" src="4" tgt="11" wght="-4.8908803844631894" />
        <Con id="43" src="9" tgt="11" wght="2.6808502267354459" />
        <Con id="44" src="8" tgt="11" wght="-2.5740029810849245" />
        <Con id="45" src="5" tgt="11" wght="-4.2453359352969615" />
        <Con id="65" src="8" tgt="64" wght="-1.2516751259639827" />
        <Con id="66" src="64" tgt="11" wght="4.9654627587946729" />
      </Connections>
    </Network>
    <Network id="18172" birthGen="151" fitness="2322.7503662109375">
      <Nodes>
        <Node type="bias" id="0" />
        <Node type="in" id="1" />
        <Node type="in" id="2" />
        <Node type="in" id="3" />
        <Node type="in" id="4" />
        <Node type="in" id="5" />
        <Node type="in" id="6" />
        <Node type="in" id="7" />
        <Node type="in" id="8" />
        <Node type="in" id="9" />
        <Node type="in" id="10" />
        <Node type="out" id="11" />
        <Node type="hid" id="64" />
      </Nodes>
      <Connections>
        <Con id="18" src="6" tgt="11" wght="0.66473391340605725" />
        <Con id="23" src="7" tgt="11" wght="0.15281161642543664" />
        <Con id="24" src="10" tgt="11" wght="0.71332850565509243" />
        <Con id="25" src="0" tgt="11" wght="0.84815134036399464" />
        <Con id="26" src="2" tgt="11" wght="-2.8037066784066904" />
        <Con id="27" src="3" tgt="11" wght="-2.422962874934373" />
        <Con id="28" src="1" tgt="11" wght="-1.3351012233312378" />
        <Con id="29" src="4" tgt="11" wght="-4.8879101289881177" />
        <Con id="43" src="9" tgt="11" wght="2.6808502267354459" />
        <Con id="44" src="8" tgt="11" wght="-4.4774311081659768" />
        <Con id="45" src="5" tgt="11" wght="-4.2453359352969615" />
        <Con id="65" src="8" tgt="64" wght="-1.2621930370031558" />
        <Con id="66" src="64" tgt="11" wght="4.9991815076244466" />
      </Connections>
    </Network>
    <Network id="18173" birthGen="151" fitness="2299.9520874023438">
      <Nodes>
        <Node type="bias" id="0" />
        <Node type="in" id="1" />
        <Node type="in" id="2" />
        <Node type="in" id="3" />
        <Node type="in" id="4" />
        <Node type="in" id="5" />
        <Node type="in" id="6" />
        <Node type="in" id="7" />
        <Node type="in" id="8" />
        <Node type="in" id="9" />
        <Node type="in" id="10" />
        <Node type="out" id="11" />
        <Node type="hid" id="64" />
      </Nodes>
      <Connections>
        <Con id="18" src="6" tgt="11" wght="0.62382989509938969" />
        <Con id="23" src="7" tgt="11" wght="0.16792652124571994" />
        <Con id="24" src="10" tgt="11" wght="0.71519140391645109" />
        <Con id="25" src="0" tgt="11" wght="0.88178397246818008" />
        <Con id="26" src="2" tgt="11" wght="-2.8276629219519043" />
        <Con id="27" src="3" tgt="11" wght="-2.4359577589892791" />
        <Con id="28" src="1" tgt="11" wght="-1.3374124945199761" />
        <Con id="29" src="4" tgt="11" wght="-4.8838446527744077" />
        <Con id="43" src="9" tgt="11" wght="2.0670274363348398" />
        <Con id="44" src="8" tgt="11" wght="-2.5740029810849245" />
        <Con id="45" src="5" tgt="11" wght="-4.2379624448556816" />
        <Con id="65" src="8" tgt="64" wght="-1.2516751259639827" />
        <Con id="66" src="64" tgt="11" wght="4.9654627587946729" />
      </Connections>
    </Network>
    <Network id="18174" birthGen="151" fitness="1999.207763671875">
      <Nodes>
        <Node type="bias" id="0" />
        <Node type="in" id="1" />
        <Node type="in" id="2" />
        <Node type="in" id="3" />
        <Node type="in" id="4" />
        <Node type="in" id="5" />
        <Node type="in" id="6" />
        <Node type="in" id="7" />
        <Node type="in" id="8" />
        <Node type="in" id="9" />
        <Node type="in" id="10" />
        <Node type="out" id="11" />
        <Node type="hid" id="64" />
      </Nodes>
      <Connections>
        <Con id="18" src="6" tgt="11" wght="0.66473391340605725" />
        <Con id="23" src="7" tgt="11" wght="0.15281161642543664" />
        <Con id="24" src="10" tgt="11" wght="0.71332850565509243" />
        <Con id="25" src="0" tgt="11" wght="0.84815134036399464" />
        <Con id="26" src="2" tgt="11" wght="-2.561483027412268" />
        <Con id="27" src="3" tgt="11" wght="-2.422962874934373" />
        <Con id="28" src="1" tgt="11" wght="-1.3351012233312378" />
        <Con id="29" src="4" tgt="11" wght="-4.8879101289881177" />
        <Con id="43" src="9" tgt="11" wght="2.6808502267354459" />
        <Con id="44" src="8" tgt="11" wght="-0.97578817086502734" />
        <Con id="45" src="5" tgt="11" wght="-4.2453359352969615" />
        <Con id="65" src="8" tgt="64" wght="-1.2621930370031558" />
        <Con id="66" src="64" tgt="11" wght="4.9991815076244466" />
      </Connections>
    </Network>
    <Network id="18175" birthGen="151" fitness="2471.435791015625">
      <Nodes>
        <Node type="bias" id="0" />
        <Node type="in" id="1" />
        <Node type="in" id="2" />
        <Node type="in" id="3" />
        <Node type="in" id="4" />
        <Node type="in" id="5" />
        <Node type="in" id="6" />
        <Node type="in" id="7" />
        <Node type="in" id="8" />
        <Node type="in" id="9" />
        <Node type="in" id="10" />
        <Node type="out" id="11" />
        <Node type="hid" id="64" />
      </Nodes>
      <Connections>
        <Con id="18" src="6" tgt="11" wght="0.6568316839189" />
        <Con id="23" src="7" tgt="11" wght="0.15281161642543664" />
        <Con id="24" src="10" tgt="11" wght="0.87802588482808464" />
        <Con id="25" src="0" tgt="11" wght="0.84815134036399464" />
        <Con id="26" src="2" tgt="11" wght="-2.8276629219519043" />
        <Con id="27" src="3" tgt="11" wght="-2.4204818086894608" />
        <Con id="28" src="1" tgt="11" wght="-1.3587181075809269" />
        <Con id="29" src="4" tgt="11" wght="-4.8879101289881177" />
        <Con id="43" src="9" tgt="11" wght="2.6808502267354459" />
        <Con id="44" src="8" tgt="11" wght="-2.5740029810849245" />
        <Con id="45" src="5" tgt="11" wght="-4.9538508682582236" />
        <Con id="65" src="8" tgt="64" wght="-0.50383475009634" />
        <Con id="66" src="64" tgt="11" wght="4.9991815076244466" />
      </Connections>
    </Network>
    <Network id="18176" birthGen="151" fitness="2462.8970947265625">
      <Nodes>
        <Node type="bias" id="0" />
        <Node type="in" id="1" />
        <Node type="in" id="2" />
        <Node type="in" id="3" />
        <Node type="in" id="4" />
        <Node type="in" id="5" />
        <Node type="in" id="6" />
        <Node type="in" id="7" />
        <Node type="in" id="8" />
        <Node type="in" id="9" />
        <Node type="in" id="10" />
        <Node type="out" id="11" />
        <Node type="hid" id="64" />
      </Nodes>
      <Connections>
        <Con id="18" src="6" tgt="11" wght="0.62382989509938969" />
        <Con id="23" src="7" tgt="11" wght="0.16792652124571994" />
        <Con id="24" src="10" tgt="11" wght="0.71519140391645109" />
        <Con id="25" src="0" tgt="11" wght="0.88178397246818008" />
        <Con id="26" src="2" tgt="11" wght="-2.8276629219519043" />
        <Con id="27" src="3" tgt="11" wght="-2.4359577589892791" />
        <Con id="28" src="1" tgt="11" wght="-1.3374124945199761" />
        <Con id="29" src="4" tgt="11" wght="-4.85284351429328" />
        <Con id="43" src="9" tgt="11" wght="2.6808502267354459" />
        <Con id="44" src="8" tgt="11" wght="-2.5740029810849245" />
        <Con id="45" src="5" tgt="11" wght="-4.2379624448556816" />
        <Con id="65" src="8" tgt="64" wght="-1.2516751259639827" />
        <Con id="66" src="64" tgt="11" wght="4.9654627587946729" />
      </Connections>
    </Network>
    <Network id="18177" birthGen="151" fitness="2636.5596923828125">
      <Nodes>
        <Node type="bias" id="0" />
        <Node type="in" id="1" />
        <Node type="in" id="2" />
        <Node type="in" id="3" />
        <Node type="in" id="4" />
        <Node type="in" id="5" />
        <Node type="in" id="6" />
        <Node type="in" id="7" />
        <Node type="in" id="8" />
        <Node type="in" id="9" />
        <Node type="in" id="10" />
        <Node type="out" id="11" />
        <Node type="hid" id="64" />
      </Nodes>
      <Connections>
        <Con id="18" src="6" tgt="11" wght="0.6568316839189" />
        <Con id="23" src="7" tgt="11" wght="0.16792652124571994" />
        <Con id="24" src="10" tgt="11" wght="0.71332850565509243" />
        <Con id="25" src="0" tgt="11" wght="0.86609158826250865" />
        <Con id="26" src="2" tgt="11" wght="-2.8346649618475257" />
        <Con id="27" src="3" tgt="11" wght="-2.4204818086894608" />
        <Con id="28" src="1" tgt="11" wght="-1.3587181075809269" />
        <Con id="29" src="4" tgt="11" wght="-4.8908803844631894" />
        <Con id="43" src="9" tgt="11" wght="2.6178702266925922" />
        <Con id="44" src="8" tgt="11" wght="-3.1408779830997071" />
        <Con id="45" src="5" tgt="11" wght="-4.2453359352969615" />
        <Con id="65" src="8" tgt="64" wght="-1.2516751259639827" />
        <Con id="66" src="64" tgt="11" wght="4.9654627587946729" />
      </Connections>
    </Network>
    <Network id="18178" birthGen="151" fitness="2703.113525390625">
      <Nodes>
        <Node type="bias" id="0" />
        <Node type="in" id="1" />
        <Node type="in" id="2" />
        <Node type="in" id="3" />
        <Node type="in" id="4" />
        <Node type="in" id="5" />
        <Node type="in" id="6" />
        <Node type="in" id="7" />
        <Node type="in" id="8" />
        <Node type="in" id="9" />
        <Node type="in" id="10" />
        <Node type="out" id="11" />
        <Node type="hid" id="64" />
      </Nodes>
      <Connections>
        <Con id="18" src="6" tgt="11" wght="1.0442504717752215" />
        <Con id="23" src="7" tgt="11" wght="0.16792652124571994" />
        <Con id="24" src="10" tgt="11" wght="0.71332850565509243" />
        <Con id="25" src="0" tgt="11" wght="0.86609158826250865" />
        <Con id="26" src="2" tgt="11" wght="-2.8346649618475257" />
        <Con id="27" src="3" tgt="11" wght="-2.4204818086894608" />
        <Con id="28" src="1" tgt="11" wght="-1.6902615811609536" />
        <Con id="29" src="4" tgt="11" wght="-4.8908803844631894" />
        <Con id="43" src="9" tgt="11" wght="2.6808502267354459" />
        <Con id="44" src="8" tgt="11" wght="-2.5740029810849245" />
        <Con id="45" src="5" tgt="11" wght="-3.4719821668478188" />
        <Con id="65" src="8" tgt="64" wght="-1.2516751259639827" />
        <Con id="66" src="64" tgt="11" wght="4.9654627587946729" />
      </Connections>
    </Network>
    <Network id="18179" birthGen="151" fitness="2568.2969970703125">
      <Nodes>
        <Node type="bias" id="0" />
        <Node type="in" id="1" />
        <Node type="in" id="2" />
        <Node type="in" id="3" />
        <Node type="in" id="4" />
        <Node type="in" id="5" />
        <Node type="in" id="6" />
        <Node type="in" id="7" />
        <Node type="in" id="8" />
        <Node type="in" id="9" />
        <Node type="in" id="10" />
        <Node type="out" id="11" />
        <Node type="hid" id="64" />
      </Nodes>
      <Connections>
        <Con id="18" src="6" tgt="11" wght="0.66473391340605725" />
        <Con id="23" src="7" tgt="11" wght="0.15281161642543664" />
        <Con id="24" src="10" tgt="11" wght="0.71332850565509243" />
        <Con id="25" src="0" tgt="11" wght="0.84815134036399464" />
        <Con id="26" src="2" tgt="11" wght="-2.8037066784066904" />
        <Con id="27" src="3" tgt="11" wght="-2.3999269194853596" />
        <Con id="28" src="1" tgt="11" wght="-1.3351012233312378" />
        <Con id="29" src="4" tgt="11" wght="-4.8879101289881177" />
        <Con id="43" src="9" tgt="11" wght="2.6808502267354459" />
        <Con id="44" src="8" tgt="11" wght="-2.5740029810849245" />
        <Con id="45" src="5" tgt="11" wght="-4.2453359352969615" />
        <Con id="65" src="8" tgt="64" wght="-1.2621930370031558" />
        <Con id="66" src="64" tgt="11" wght="4.9991815076244466" />
      </Connections>
    </Network>
    <Network id="18180" birthGen="151" fitness="2513.4188232421875">
      <Nodes>
        <Node type="bias" id="0" />
        <Node type="in" id="1" />
        <Node type="in" id="2" />
        <Node type="in" id="3" />
        <Node type="in" id="4" />
        <Node type="in" id="5" />
        <Node type="in" id="6" />
        <Node type="in" id="7" />
        <Node type="in" id="8" />
        <Node type="in" id="9" />
        <Node type="in" id="10" />
        <Node type="out" id="11" />
        <Node type="hid" id="64" />
      </Nodes>
      <Connections>
        <Con id="18" src="6" tgt="11" wght="0.6568316839189" />
        <Con id="23" src="7" tgt="11" wght="0.15281161642543664" />
        <Con id="24" src="10" tgt="11" wght="0.71332850565509243" />
        <Con id="25" src="0" tgt="11" wght="0.84815134036399464" />
        <Con id="26" src="2" tgt="11" wght="-2.8276629219519043" />
        <Con id="27" src="3" tgt="11" wght="-2.4204818086894608" />
        <Con id="28" src="1" tgt="11" wght="-1.3587181075809269" />
        <Con id="29" src="4" tgt="11" wght="-4.8879101289881177" />
        <Con id="43" src="9" tgt="11" wght="2.6808502267354459" />
        <Con id="44" src="8" tgt="11" wght="-2.5740029810849245" />
        <Con id="45" src="5" tgt="11" wght="-4.2453359352969615" />
        <Con id="65" src="8" tgt="64" wght="-1.2516751259639827" />
        <Con id="66" src="64" tgt="11" wght="5" />
      </Connections>
    </Network>
    <Network id="18181" birthGen="151" fitness="2683.785400390625">
      <Nodes>
        <Node type="bias" id="0" />
        <Node type="in" id="1" />
        <Node type="in" id="2" />
        <Node type="in" id="3" />
        <Node type="in" id="4" />
        <Node type="in" id="5" />
        <Node type="in" id="6" />
        <Node type="in" id="7" />
        <Node type="in" id="8" />
        <Node type="in" id="9" />
        <Node type="in" id="10" />
        <Node type="out" id="11" />
        <Node type="hid" id="64" />
      </Nodes>
      <Connections>
        <Con id="18" src="6" tgt="11" wght="0.6568316839189" />
        <Con id="23" src="7" tgt="11" wght="0.16792652124571994" />
        <Con id="24" src="10" tgt="11" wght="0.71332850565509243" />
        <Con id="25" src="0" tgt="11" wght="0.86609158826250865" />
        <Con id="26" src="2" tgt="11" wght="-2.8276629219519043" />
        <Con id="27" src="3" tgt="11" wght="-2.4204818086894608" />
        <Con id="28" src="1" tgt="11" wght="-1.3587181075809269" />
        <Con id="29" src="4" tgt="11" wght="-4.8908803844631894" />
        <Con id="43" src="9" tgt="11" wght="2.6808502267354459" />
        <Con id="44" src="8" tgt="11" wght="-2.5740029810849245" />
        <Con id="45" src="5" tgt="11" wght="-4.2453359352969615" />
        <Con id="65" src="8" tgt="64" wght="-1.2516751259639827" />
        <Con id="66" src="64" tgt="11" wght="4.9991815076244466" />
      </Connections>
    </Network>
    <Network id="18182" birthGen="151" fitness="2691.347412109375">
      <Nodes>
        <Node type="bias" id="0" />
        <Node type="in" id="1" />
        <Node type="in" id="2" />
        <Node type="in" id="3" />
        <Node type="in" id="4" />
        <Node type="in" id="5" />
        <Node type="in" id="6" />
        <Node type="in" id="7" />
        <Node type="in" id="8" />
        <Node type="in" id="9" />
        <Node type="in" id="10" />
        <Node type="out" id="11" />
        <Node type="hid" id="64" />
      </Nodes>
