<?xml version="1.0" encoding="utf-8"?>
<Root>
  <ActivationFunctions>
    <Fn id="0" name="SteepenedSigmoid" prob="1" />
  </ActivationFunctions>
  <Networks>
    <Network id="17983" birthGen="149" fitness="2986.5306396484375">
      <Nodes>
        <Node type="bias" id="0" />
        <Node type="in" id="1" />
        <Node type="in" id="2" />
        <Node type="in" id="3" />
        <Node type="in" id="4" />
        <Node type="in" id="5" />
        <Node type="in" id="6" />
        <Node type="in" id="7" />
        <Node type="in" id="8" />
        <Node type="in" id="9" />
        <Node type="in" id="10" />
        <Node type="out" id="11" />
      </Nodes>
      <Connections>
        <Con id="12" src="0" tgt="11" wght="2.0646417914016846" />
        <Con id="26" src="1" tgt="11" wght="-1.726295171796669" />
        <Con id="34" src="8" tgt="11" wght="-3.6849044868722558" />
        <Con id="38" src="3" tgt="11" wght="-1.8374018770222511" />
        <Con id="39" src="4" tgt="11" wght="-4.9776055704724609" />
        <Con id="41" src="10" tgt="11" wght="1.669661844671336" />
      </Connections>
    </Network>
  </Networks>
</Root>