<?xml version="1.0" encoding="utf-8"?>
<Root>
  <ActivationFunctions>
    <Fn id="0" name="SteepenedSigmoid" prob="1" />
  </ActivationFunctions>
  <Networks>
    <Network id="32345" birthGen="76" fitness="106146.734375">
      <Nodes>
        <Node type="bias" id="0" />
        <Node type="in" id="1" />
        <Node type="in" id="2" />
        <Node type="in" id="3" />
        <Node type="in" id="4" />
        <Node type="in" id="5" />
        <Node type="in" id="6" />
        <Node type="in" id="7" />
        <Node type="in" id="8" />
        <Node type="in" id="9" />
        <Node type="in" id="10" />
        <Node type="in" id="11" />
        <Node type="in" id="12" />
        <Node type="out" id="13" />
        <Node type="out" id="14" />
        <Node type="hid" id="65" />
        <Node type="hid" id="160" />
        <Node type="hid" id="187" />
        <Node type="hid" id="190" />
      </Nodes>
      <Connections>
        <Con id="21" src="3" tgt="13" wght="2.8492203603713278" />
        <Con id="42" src="0" tgt="13" wght="0.8317092231041302" />
        <Con id="44" src="5" tgt="13" wght="2.291732011291824" />
        <Con id="45" src="4" tgt="13" wght="1.1787162865184049" />
        <Con id="49" src="1" tgt="13" wght="3.3206601732872438" />
        <Con id="50" src="2" tgt="13" wght="-1.9429634746178472" />
        <Con id="63" src="4" tgt="14" wght="1.2404967471999004" />
        <Con id="64" src="6" tgt="13" wght="1.6539918453815945" />
        <Con id="66" src="11" tgt="65" wght="-1.4226354850362344" />
        <Con id="67" src="65" tgt="13" wght="-0.50602123333168425" />
        <Con id="71" src="8" tgt="14" wght="-1.2120835680505988" />
        <Con id="74" src="7" tgt="13" wght="-3.7677791922322634" />
        <Con id="161" src="2" tgt="160" wght="0.88265721041270473" />
        <Con id="162" src="160" tgt="13" wght="-2.3635754583318529" />
        <Con id="172" src="65" tgt="160" wght="1.4415933952954403" />
        <Con id="174" src="5" tgt="65" wght="-5" />
        <Con id="177" src="6" tgt="65" wght="2.2028357954695821" />
        <Con id="180" src="160" tgt="14" wght="3.415626139280028" />
        <Con id="181" src="12" tgt="65" wght="3.816878464554935" />
        <Con id="186" src="4" tgt="65" wght="-1.533734102957564" />
        <Con id="188" src="2" tgt="187" wght="-2.5394346900938238" />
        <Con id="189" src="187" tgt="160" wght="-2.5367833372511059" />
        <Con id="191" src="160" tgt="190" wght="3.9277531556050524" />
        <Con id="192" src="190" tgt="13" wght="3.4225964639644881" />
        <Con id="193" src="8" tgt="160" wght="-4.96577499795627" />
        <Con id="198" src="0" tgt="160" wght="-2.7465073752222304" />
        <Con id="204" src="10" tgt="65" wght="-2.6116586916137474" />
        <Con id="221" src="5" tgt="160" wght="-1.6573947595429928" />
        <Con id="227" src="12" tgt="160" wght="-3.9010504454512445" />
        <Con id="239" src="187" tgt="190" wght="-0.98342108668519868" />
        <Con id="292" src="6" tgt="187" wght="-4.9685974318371411" />
        <Con id="366" src="11" tgt="187" wght="-1.7623496317176937" />
        <Con id="381" src="1" tgt="65" wght="-1.3446961147809617" />
        <Con id="386" src="11" tgt="160" wght="2.8479263608182386" />
        <Con id="469" src="8" tgt="187" wght="-2.5297321576543759" />
        <Con id="518" src="187" tgt="65" wght="-1.7013315798988919" />
      </Connections>
    </Network>
  </Networks>
</Root>