<?xml version="1.0" encoding="utf-8"?>
<Root>
  <ActivationFunctions>
    <Fn id="0" name="Linear" prob="0.25" />
    <Fn id="1" name="BipolarSigmoid" prob="0.25" />
    <Fn id="2" name="Gaussian" prob="0.25" />
    <Fn id="3" name="Sine" prob="0.25" />
  </ActivationFunctions>
  <Networks>
    <Network id="14467" birthGen="120" fitness="3096.566162109375">
      <Nodes>
        <Node type="bias" id="0" fnId="0" />
        <Node type="in" id="1" fnId="0" />
        <Node type="in" id="2" fnId="0" />
        <Node type="in" id="3" fnId="0" />
        <Node type="in" id="4" fnId="0" />
        <Node type="out" id="5" fnId="0" />
        <Node type="out" id="6" fnId="0" />
        <Node type="hid" id="21" fnId="0" />
        <Node type="hid" id="89" fnId="0" />
        <Node type="hid" id="96" fnId="0" />
      </Nodes>
      <Connections>
        <Con id="16" src="4" tgt="6" wght="0.36525402008413488" />
        <Con id="22" src="2" tgt="21" wght="3.9014308892113689" />
        <Con id="23" src="21" tgt="5" wght="0.45870034047744274" />
        <Con id="24" src="3" tgt="5" wght="-0.064827871735848031" />
        <Con id="28" src="1" tgt="6" wght="-1.2545964784230124" />
        <Con id="90" src="21" tgt="89" wght="1.0180863991230744" />
        <Con id="97" src="89" tgt="96" wght="4.9850368480199343" />
        <Con id="98" src="96" tgt="6" wght="4.8841554957473026" />
      </Connections>
    </Network>
  </Networks>
</Root>