<?xml version="1.0" encoding="utf-8"?>
<Root>
  <ActivationFunctions>
    <Fn id="0" name="Linear" prob="0.25" />
    <Fn id="1" name="BipolarSigmoid" prob="0.25" />
    <Fn id="2" name="Gaussian" prob="0.25" />
    <Fn id="3" name="Sine" prob="0.25" />
  </ActivationFunctions>
  <Networks>
    <Network id="18218" birthGen="151" fitness="3098.7992350260415">
      <Nodes>
        <Node type="bias" id="0" fnId="0" />
        <Node type="in" id="1" fnId="0" />
        <Node type="in" id="2" fnId="0" />
        <Node type="in" id="3" fnId="0" />
        <Node type="in" id="4" fnId="0" />
        <Node type="out" id="5" fnId="0" />
        <Node type="out" id="6" fnId="0" />
        <Node type="hid" id="21" fnId="0" />
        <Node type="hid" id="51" fnId="1" />
      </Nodes>
      <Connections>
        <Con id="16" src="4" tgt="6" wght="0.36525402008413488" />
        <Con id="22" src="2" tgt="21" wght="1.8901321243983711" />
        <Con id="23" src="21" tgt="5" wght="0.45870034047744274" />
        <Con id="24" src="3" tgt="5" wght="-0.070806977538119362" />
        <Con id="28" src="1" tgt="6" wght="-3.7749741378646209" />
        <Con id="52" src="21" tgt="51" wght="3.0195989656099993" />
        <Con id="53" src="51" tgt="6" wght="-2.6065089646726847" />
      </Connections>
    </Network>
  </Networks>
</Root>