<?xml version="1.0" encoding="utf-8"?>
<Root>
  <ActivationFunctions>
    <Fn id="0" name="SteepenedSigmoid" prob="1" />
  </ActivationFunctions>
  <Networks>
    <Network id="18073" birthGen="150" fitness="818.71160888671875">
      <Nodes>
        <Node type="bias" id="0" />
        <Node type="in" id="1" />
        <Node type="in" id="2" />
        <Node type="in" id="3" />
        <Node type="in" id="4" />
        <Node type="in" id="5" />
        <Node type="in" id="6" />
        <Node type="in" id="7" />
        <Node type="in" id="8" />
        <Node type="in" id="9" />
        <Node type="in" id="10" />
        <Node type="out" id="11" />
      </Nodes>
      <Connections>
        <Con id="20" src="8" tgt="11" wght="-2.3282596566159315" />
        <Con id="23" src="1" tgt="11" wght="3.2018840621279194" />
        <Con id="24" src="2" tgt="11" wght="-0.52033621606826164" />
        <Con id="29" src="0" tgt="11" wght="1.4458117608184202" />
        <Con id="30" src="7" tgt="11" wght="-0.88981875334017813" />
        <Con id="31" src="5" tgt="11" wght="-2.4725025666712814" />
        <Con id="32" src="9" tgt="11" wght="2.5110562425106764" />
        <Con id="33" src="4" tgt="11" wght="-1.7080641613211871" />
        <Con id="34" src="3" tgt="11" wght="0.30418378486517816" />
        <Con id="35" src="6" tgt="11" wght="-0.044971215793272568" />
        <Con id="36" src="10" tgt="11" wght="0.42898251902359819" />
      </Connections>
    </Network>
    <Network id="18075" birthGen="150" fitness="701.96768188476563">
      <Nodes>
        <Node type="bias" id="0" />
        <Node type="in" id="1" />
        <Node type="in" id="2" />
        <Node type="in" id="3" />
        <Node type="in" id="4" />
        <Node type="in" id="5" />
        <Node type="in" id="6" />
        <Node type="in" id="7" />
        <Node type="in" id="8" />
        <Node type="in" id="9" />
        <Node type="in" id="10" />
        <Node type="out" id="11" />
      </Nodes>
      <Connections>
        <Con id="20" src="8" tgt="11" wght="-2.3282596566159315" />
        <Con id="23" src="1" tgt="11" wght="3.2018840621279194" />
        <Con id="24" src="2" tgt="11" wght="-0.52033621606826164" />
        <Con id="29" src="0" tgt="11" wght="1.3949770570067825" />
        <Con id="30" src="7" tgt="11" wght="-0.58336609270318551" />
        <Con id="31" src="5" tgt="11" wght="-2.4725025666712814" />
        <Con id="32" src="9" tgt="11" wght="2.5110562425106764" />
        <Con id="33" src="4" tgt="11" wght="-1.7080641613211871" />
        <Con id="34" src="3" tgt="11" wght="0.29410668030029657" />
        <Con id="35" src="6" tgt="11" wght="-0.044971215793272568" />
        <Con id="36" src="10" tgt="11" wght="0.25041567248619007" />
      </Connections>
    </Network>
    <Network id="18078" birthGen="150" fitness="474.42143249511719">
      <Nodes>
        <Node type="bias" id="0" />
        <Node type="in" id="1" />
        <Node type="in" id="2" />
        <Node type="in" id="3" />
        <Node type="in" id="4" />
        <Node type="in" id="5" />
        <Node type="in" id="6" />
        <Node type="in" id="7" />
        <Node type="in" id="8" />
        <Node type="in" id="9" />
        <Node type="in" id="10" />
        <Node type="out" id="11" />
      </Nodes>
      <Connections>
        <Con id="20" src="8" tgt="11" wght="-2.3282596566159315" />
        <Con id="23" src="1" tgt="11" wght="3.2018840621279194" />
        <Con id="24" src="2" tgt="11" wght="-0.52033621606826164" />
        <Con id="29" src="0" tgt="11" wght="1.4458117608184202" />
        <Con id="30" src="7" tgt="11" wght="-0.58336609270318551" />
        <Con id="31" src="5" tgt="11" wght="-2.4725025666712814" />
        <Con id="32" src="9" tgt="11" wght="2.5110562425106764" />
        <Con id="33" src="4" tgt="11" wght="-1.7080641613211871" />
        <Con id="34" src="3" tgt="11" wght="0.30418378486517816" />
        <Con id="35" src="6" tgt="11" wght="-0.044971215793272568" />
        <Con id="36" src="10" tgt="11" wght="0.25041567248619007" />
      </Connections>
    </Network>
    <Network id="17988" birthGen="149" fitness="1376.5885620117188">
      <Nodes>
        <Node type="bias" id="0" />
        <Node type="in" id="1" />
        <Node type="in" id="2" />
        <Node type="in" id="3" />
        <Node type="in" id="4" />
        <Node type="in" id="5" />
        <Node type="in" id="6" />
        <Node type="in" id="7" />
        <Node type="in" id="8" />
        <Node type="in" id="9" />
        <Node type="in" id="10" />
        <Node type="out" id="11" />
      </Nodes>
      <Connections>
        <Con id="20" src="8" tgt="11" wght="-3.0302901681762018" />
        <Con id="23" src="1" tgt="11" wght="0.94151982583581206" />
        <Con id="24" src="2" tgt="11" wght="-0.50733809885408665" />
        <Con id="29" src="0" tgt="11" wght="1.8436701395827069" />
        <Con id="30" src="7" tgt="11" wght="-1.1735018874807217" />
        <Con id="31" src="5" tgt="11" wght="-2.3275548318382389" />
        <Con id="32" src="9" tgt="11" wght="-0.081543126658732173" />
        <Con id="33" src="4" tgt="11" wght="-2.1244311945314163" />
        <Con id="34" src="3" tgt="11" wght="-1.2871682901751891" />
        <Con id="35" src="6" tgt="11" wght="1.149659505837346" />
        <Con id="36" src="10" tgt="11" wght="-0.071375149456570544" />
      </Connections>
    </Network>
    <Network id="18109" birthGen="150" fitness="1754.6287841796875">
      <Nodes>
        <Node type="bias" id="0" />
        <Node type="in" id="1" />
        <Node type="in" id="2" />
        <Node type="in" id="3" />
        <Node type="in" id="4" />
        <Node type="in" id="5" />
        <Node type="in" id="6" />
        <Node type="in" id="7" />
        <Node type="in" id="8" />
        <Node type="in" id="9" />
        <Node type="in" id="10" />
        <Node type="out" id="11" />
      </Nodes>
      <Connections>
        <Con id="20" src="8" tgt="11" wght="-3.0302901681762018" />
        <Con id="23" src="1" tgt="11" wght="0.96075406278176034" />
        <Con id="24" src="2" tgt="11" wght="-0.50733809885408665" />
        <Con id="29" src="0" tgt="11" wght="1.8421057241413266" />
        <Con id="30" src="7" tgt="11" wght="-1.1735018874807217" />
        <Con id="31" src="5" tgt="11" wght="-2.3275548318382389" />
        <Con id="32" src="9" tgt="11" wght="-0.081543126658732173" />
        <Con id="33" src="4" tgt="11" wght="-2.1451212324231705" />
        <Con id="34" src="3" tgt="11" wght="-1.2932336615868805" />
        <Con id="35" src="6" tgt="11" wght="1.149659505837346" />
        <Con id="36" src="10" tgt="11" wght="-0.071375149456570544" />
      </Connections>
    </Network>
    <Network id="18100" birthGen="150" fitness="999.97689819335938">
      <Nodes>
        <Node type="bias" id="0" />
        <Node type="in" id="1" />
        <Node type="in" id="2" />
        <Node type="in" id="3" />
        <Node type="in" id="4" />
        <Node type="in" id="5" />
        <Node type="in" id="6" />
        <Node type="in" id="7" />
        <Node type="in" id="8" />
        <Node type="in" id="9" />
        <Node type="in" id="10" />
        <Node type="out" id="11" />
      </Nodes>
      <Connections>
        <Con id="20" src="8" tgt="11" wght="-3.0302901681762018" />
        <Con id="23" src="1" tgt="11" wght="0.9592866564205248" />
        <Con id="24" src="2" tgt="11" wght="-0.50733809885408665" />
        <Con id="29" src="0" tgt="11" wght="1.8421057241413266" />
        <Con id="30" src="7" tgt="11" wght="-1.1735018874807217" />
        <Con id="31" src="5" tgt="11" wght="-2.3275548318382389" />
        <Con id="32" src="9" tgt="11" wght="-0.081543126658732173" />
        <Con id="33" src="4" tgt="11" wght="-2.1451212324231705" />
        <Con id="34" src="3" tgt="11" wght="-1.2871682901751891" />
        <Con id="35" src="6" tgt="11" wght="1.1704402430996286" />
        <Con id="36" src="10" tgt="11" wght="-0.071375149456570544" />
      </Connections>
    </Network>
    <Network id="18106" birthGen="150" fitness="1465.11181640625">
      <Nodes>
        <Node type="bias" id="0" />
        <Node type="in" id="1" />
        <Node type="in" id="2" />
        <Node type="in" id="3" />
        <Node type="in" id="4" />
        <Node type="in" id="5" />
        <Node type="in" id="6" />
        <Node type="in" id="7" />
        <Node type="in" id="8" />
        <Node type="in" id="9" />
        <Node type="in" id="10" />
        <Node type="out" id="11" />
      </Nodes>
      <Connections>
        <Con id="20" src="8" tgt="11" wght="-3.0302901681762018" />
        <Con id="23" src="1" tgt="11" wght="0.94151982583581206" />
        <Con id="24" src="2" tgt="11" wght="-0.50733809885408665" />
        <Con id="29" src="0" tgt="11" wght="1.8436701395827069" />
        <Con id="30" src="7" tgt="11" wght="-1.1735018874807217" />
        <Con id="31" src="5" tgt="11" wght="-2.3275548318382389" />
        <Con id="32" src="9" tgt="11" wght="-0.081543126658732173" />
        <Con id="33" src="4" tgt="11" wght="-2.1451212324231705" />
        <Con id="34" src="3" tgt="11" wght="-1.2871682901751891" />
        <Con id="35" src="6" tgt="11" wght="1.149659505837346" />
        <Con id="36" src="10" tgt="11" wght="-0.071375149456570544" />
      </Connections>
    </Network>
    <Network id="18091" birthGen="150" fitness="1280.7698364257813">
      <Nodes>
        <Node type="bias" id="0" />
        <Node type="in" id="1" />
        <Node type="in" id="2" />
        <Node type="in" id="3" />
        <Node type="in" id="4" />
        <Node type="in" id="5" />
        <Node type="in" id="6" />
        <Node type="in" id="7" />
        <Node type="in" id="8" />
        <Node type="in" id="9" />
        <Node type="in" id="10" />
        <Node type="out" id="11" />
      </Nodes>
      <Connections>
        <Con id="20" src="8" tgt="11" wght="-3.043776984764047" />
        <Con id="23" src="1" tgt="11" wght="0.9592866564205248" />
        <Con id="24" src="2" tgt="11" wght="-0.50733809885408665" />
        <Con id="29" src="0" tgt="11" wght="1.8421057241413266" />
        <Con id="30" src="7" tgt="11" wght="-1.178879199098674" />
        <Con id="31" src="5" tgt="11" wght="-2.3275548318382389" />
        <Con id="32" src="9" tgt="11" wght="-0.081543126658732173" />
        <Con id="33" src="4" tgt="11" wght="-2.1451212324231705" />
        <Con id="34" src="3" tgt="11" wght="-1.2871682901751891" />
        <Con id="35" src="6" tgt="11" wght="1.149659505837346" />
        <Con id="36" src="10" tgt="11" wght="-0.071375149456570544" />
      </Connections>
    </Network>
    <Network id="17995" birthGen="149" fitness="1343.23095703125">
      <Nodes>
        <Node type="bias" id="0" />
        <Node type="in" id="1" />
        <Node type="in" id="2" />
        <Node type="in" id="3" />
        <Node type="in" id="4" />
        <Node type="in" id="5" />
        <Node type="in" id="6" />
        <Node type="in" id="7" />
        <Node type="in" id="8" />
        <Node type="in" id="9" />
        <Node type="in" id="10" />
        <Node type="out" id="11" />
      </Nodes>
      <Connections>
        <Con id="20" src="8" tgt="11" wght="-3.0302901681762018" />
        <Con id="23" src="1" tgt="11" wght="0.9592866564205248" />
        <Con id="24" src="2" tgt="11" wght="-0.50733809885408665" />
        <Con id="29" src="0" tgt="11" wght="1.8436701395827069" />
        <Con id="30" src="7" tgt="11" wght="-1.1721687726935206" />
        <Con id="31" src="5" tgt="11" wght="-2.3275548318382389" />
        <Con id="32" src="9" tgt="11" wght="-0.081543126658732173" />
        <Con id="33" src="4" tgt="11" wght="-2.1451212324231705" />
        <Con id="34" src="3" tgt="11" wght="-1.2932336615868805" />
        <Con id="35" src="6" tgt="11" wght="1.149659505837346" />
        <Con id="36" src="10" tgt="11" wght="-0.071375149456570544" />
      </Connections>
    </Network>
    <Network id="18094" birthGen="150" fitness="1222.9194030761719">
      <Nodes>
        <Node type="bias" id="0" />
        <Node type="in" id="1" />
        <Node type="in" id="2" />
        <Node type="in" id="3" />
        <Node type="in" id="4" />
        <Node type="in" id="5" />
        <Node type="in" id="6" />
        <Node type="in" id="7" />
        <Node type="in" id="8" />
        <Node type="in" id="9" />
        <Node type="in" id="10" />
        <Node type="out" id="11" />
      </Nodes>
      <Connections>
        <Con id="20" src="8" tgt="11" wght="-3.0302901681762018" />
        <Con id="23" src="1" tgt="11" wght="0.9592866564205248" />
        <Con id="24" src="2" tgt="11" wght="-0.52871629013941834" />
        <Con id="29" src="0" tgt="11" wght="1.8421057241413266" />
        <Con id="30" src="7" tgt="11" wght="-1.1594983908168373" />
        <Con id="31" src="5" tgt="11" wght="-2.3275548318382389" />
        <Con id="32" src="9" tgt="11" wght="-0.081543126658732173" />
        <Con id="33" src="4" tgt="11" wght="-2.13821428710905" />
        <Con id="34" src="3" tgt="11" wght="-1.2871682901751891" />
        <Con id="35" src="6" tgt="11" wght="1.149659505837346" />
        <Con id="36" src="10" tgt="11" wght="-0.071375149456570544" />
      </Connections>
    </Network>
    <Network id="18125" birthGen="150" fitness="1444.5315551757813">
      <Nodes>
        <Node type="bias" id="0" />
        <Node type="in" id="1" />
        <Node type="in" id="2" />
        <Node type="in" id="3" />
        <Node type="in" id="4" />
        <Node type="in" id="5" />
        <Node type="in" id="6" />
        <Node type="in" id="7" />
        <Node type="in" id="8" />
        <Node type="in" id="9" />
        <Node type="in" id="10" />
        <Node type="out" id="11" />
      </Nodes>
      <Connections>
        <Con id="20" src="8" tgt="11" wght="-3.0263117100017207" />
        <Con id="23" src="1" tgt="11" wght="3.6103113155479019" />
        <Con id="24" src="2" tgt="11" wght="-1.1295151111970263" />
        <Con id="29" src="0" tgt="11" wght="1.8520875296631869" />
        <Con id="30" src="7" tgt="11" wght="-1.1513050234950728" />
        <Con id="31" src="5" tgt="11" wght="-2.3486767471315737" />
        <Con id="32" src="9" tgt="11" wght="-0.081543126658732173" />
        <Con id="33" src="4" tgt="11" wght="-2.1451212324231705" />
        <Con id="34" src="3" tgt="11" wght="-0.25245091174741408" />
        <Con id="35" src="6" tgt="11" wght="1.1297328926078933" />
        <Con id="36" src="10" tgt="11" wght="-0.34588778930940212" />
      </Connections>
    </Network>
    <Network id="18118" birthGen="150" fitness="1191.3021850585938">
      <Nodes>
        <Node type="bias" id="0" />
        <Node type="in" id="1" />
        <Node type="in" id="2" />
        <Node type="in" id="3" />
        <Node type="in" id="4" />
        <Node type="in" id="5" />
        <Node type="in" id="6" />
        <Node type="in" id="7" />
        <Node type="in" id="8" />
        <Node type="in" id="9" />
        <Node type="in" id="10" />
        <Node type="out" id="11" />
      </Nodes>
      <Connections>
        <Con id="20" src="8" tgt="11" wght="-3.0263117100017207" />
        <Con id="23" src="1" tgt="11" wght="3.6103113155479019" />
        <Con id="24" src="2" tgt="11" wght="-2.3299908684566617" />
        <Con id="29" src="0" tgt="11" wght="1.8498765950904466" />
        <Con id="30" src="7" tgt="11" wght="-1.1513050234950728" />
        <Con id="31" src="5" tgt="11" wght="-2.3486767471315737" />
        <Con id="32" src="9" tgt="11" wght="-0.081543126658732173" />
        <Con id="33" src="4" tgt="11" wght="-2.1451212324231705" />
        <Con id="34" src="3" tgt="11" wght="-1.308721683882484" />
        <Con id="35" src="6" tgt="11" wght="1.1297328926078933" />
        <Con id="36" src="10" tgt="11" wght="-0.34588778930940212" />
      </Connections>
    </Network>
    <Network id="18126" birthGen="150" fitness="1107.41015625">
      <Nodes>
        <Node type="bias" id="0" />
        <Node type="in" id="1" />
        <Node type="in" id="2" />
        <Node type="in" id="3" />
        <Node type="in" id="4" />
        <Node type="in" id="5" />
        <Node type="in" id="6" />
        <Node type="in" id="7" />
        <Node type="in" id="8" />
        <Node type="in" id="9" />
        <Node type="in" id="10" />
        <Node type="out" id="11" />
      </Nodes>
      <Connections>
        <Con id="20" src="8" tgt="11" wght="-3.0263117100017207" />
        <Con id="23" src="1" tgt="11" wght="3.6103113155479019" />
        <Con id="24" src="2" tgt="11" wght="-1.1295151111970263" />
        <Con id="29" src="0" tgt="11" wght="1.8498765950904466" />
        <Con id="30" src="7" tgt="11" wght="-1.1513050234950728" />
        <Con id="31" src="5" tgt="11" wght="-2.3486767471315737" />
        <Con id="32" src="9" tgt="11" wght="-0.081543126658732173" />
        <Con id="33" src="4" tgt="11" wght="-2.1451212324231705" />
        <Con id="34" src="3" tgt="11" wght="-1.308721683882484" />
        <Con id="35" src="6" tgt="11" wght="1.1297328926078933" />
        <Con id="36" src="10" tgt="11" wght="-0.071375149456570544" />
      </Connections>
    </Network>
    <Network id="18121" birthGen="150" fitness="1420.2784423828125">
      <Nodes>
        <Node type="bias" id="0" />
        <Node type="in" id="1" />
        <Node type="in" id="2" />
        <Node type="in" id="3" />
        <Node type="in" id="4" />
        <Node type="in" id="5" />
        <Node type="in" id="6" />
        <Node type="in" id="7" />
        <Node type="in" id="8" />
        <Node type="in" id="9" />
        <Node type="in" id="10" />
        <Node type="out" id="11" />
      </Nodes>
      <Connections>
        <Con id="20" src="8" tgt="11" wght="-3.0263117100017207" />
        <Con id="23" src="1" tgt="11" wght="3.6103113155479019" />
        <Con id="24" src="2" tgt="11" wght="-1.1295151111970263" />
        <Con id="29" src="0" tgt="11" wght="1.8498765950904466" />
        <Con id="30" src="7" tgt="11" wght="-1.1273672386597604" />
        <Con id="31" src="5" tgt="11" wght="-2.3663698524952945" />
        <Con id="32" src="9" tgt="11" wght="-0.081543126658732173" />
        <Con id="33" src="4" tgt="11" wght="-2.1451212324231705" />
        <Con id="34" src="3" tgt="11" wght="-1.2871682901751891" />
        <Con id="35" src="6" tgt="11" wght="1.13403390129433" />
        <Con id="36" src="10" tgt="11" wght="-0.34588778930940212" />
      </Connections>
    </Network>
    <Network id="18013" birthGen="149" fitness="1098.7129821777344">
      <Nodes>
        <Node type="bias" id="0" />
        <Node type="in" id="1" />
        <Node type="in" id="2" />
        <Node type="in" id="3" />
        <Node type="in" id="4" />
        <Node type="in" id="5" />
        <Node type="in" id="6" />
        <Node type="in" id="7" />
        <Node type="in" id="8" />
        <Node type="in" id="9" />
        <Node type="in" id="10" />
        <Node type="out" id="11" />
      </Nodes>
      <Connections>
        <Con id="20" src="8" tgt="11" wght="-3.0263117100017207" />
        <Con id="23" src="1" tgt="11" wght="3.6103113155479019" />
        <Con id="24" src="2" tgt="11" wght="-1.1295151111970263" />
        <Con id="29" src="0" tgt="11" wght="1.8498765950904466" />
        <Con id="30" src="7" tgt="11" wght="-1.1513050234950728" />
        <Con id="31" src="5" tgt="11" wght="-2.3486767471315737" />
        <Con id="32" src="9" tgt="11" wght="-0.081543126658732173" />
        <Con id="33" src="4" tgt="11" wght="-2.1451212324231705" />
        <Con id="34" src="3" tgt="11" wght="-1.2871682901751891" />
        <Con id="35" src="6" tgt="11" wght="1.1297328926078933" />
        <Con id="36" src="10" tgt="11" wght="-0.34588778930940212" />
      </Connections>
    </Network>
    <Network id="18135" birthGen="150" fitness="1343.1257934570313">
      <Nodes>
        <Node type="bias" id="0" />
        <Node type="in" id="1" />
        <Node type="in" id="2" />
        <Node type="in" id="3" />
        <Node type="in" id="4" />
        <Node type="in" id="5" />
        <Node type="in" id="6" />
        <Node type="in" id="7" />
        <Node type="in" id="8" />
        <Node type="in" id="9" />
        <Node type="in" id="10" />
        <Node type="out" id="11" />
      </Nodes>
      <Connections>
        <Con id="20" src="8" tgt="11" wght="-3.0263117100017207" />
        <Con id="23" src="1" tgt="11" wght="3.6103113155479019" />
        <Con id="24" src="2" tgt="11" wght="-1.5260579910093974" />
        <Con id="29" src="0" tgt="11" wght="1.8498765950904466" />
        <Con id="30" src="7" tgt="11" wght="-1.1513050234950728" />
        <Con id="31" src="5" tgt="11" wght="-2.3486767471315737" />
        <Con id="32" src="9" tgt="11" wght="-0.081543126658732173" />
        <Con id="33" src="4" tgt="11" wght="-2.1451212324231705" />
        <Con id="34" src="3" tgt="11" wght="-1.308721683882484" />
        <Con id="35" src="6" tgt="11" wght="1.1297328926078933" />
        <Con id="36" src="10" tgt="11" wght="-0.34588778930940212" />
      </Connections>
    </Network>
    <Network id="18158" birthGen="150" fitness="823.03131103515625">
      <Nodes>
        <Node type="bias" id="0" />
        <Node type="in" id="1" />
        <Node type="in" id="2" />
        <Node type="in" id="3" />
        <Node type="in" id="4" />
        <Node type="in" id="5" />
        <Node type="in" id="6" />
        <Node type="in" id="7" />
        <Node type="in" id="8" />
        <Node type="in" id="9" />
        <Node type="in" id="10" />
        <Node type="out" id="11" />
      </Nodes>
      <Connections>
        <Con id="20" src="8" tgt="11" wght="-2.3282596566159315" />
        <Con id="23" src="1" tgt="11" wght="1.5510828168577537" />
        <Con id="24" src="2" tgt="11" wght="-0.52033621606826164" />
        <Con id="29" src="0" tgt="11" wght="1.4458117608184202" />
        <Con id="30" src="7" tgt="11" wght="-0.60177058583460252" />
        <Con id="31" src="5" tgt="11" wght="-2.4725025666712814" />
        <Con id="33" src="4" tgt="11" wght="-1.7848708968574762" />
        <Con id="34" src="3" tgt="11" wght="0.29022174153923047" />
        <Con id="35" src="6" tgt="11" wght="0.26937855434958535" />
      </Connections>
    </Network>
    <Network id="18162" birthGen="150" fitness="1686.3836059570313">
      <Nodes>
        <Node type="bias" id="0" />
        <Node type="in" id="1" />
        <Node type="in" id="2" />
        <Node type="in" id="3" />
        <Node type="in" id="4" />
        <Node type="in" id="5" />
        <Node type="in" id="6" />
        <Node type="in" id="7" />
        <Node type="in" id="8" />
        <Node type="in" id="9" />
        <Node type="in" id="10" />
        <Node type="out" id="11" />
      </Nodes>
      <Connections>
        <Con id="20" src="8" tgt="11" wght="-2.3282596566159315" />
        <Con id="23" src="1" tgt="11" wght="3.2025415476830985" />
        <Con id="24" src="2" tgt="11" wght="-0.52033621606826164" />
        <Con id="29" src="0" tgt="11" wght="1.4214359405715271" />
        <Con id="30" src="7" tgt="11" wght="-0.8958119285154158" />
        <Con id="31" src="5" tgt="11" wght="-2.4544356383784836" />
        <Con id="33" src="4" tgt="11" wght="-1.7080641613211871" />
        <Con id="34" src="3" tgt="11" wght="0.30418378486517816" />
        <Con id="35" src="6" tgt="11" wght="-0.031030475520985746" />
      </Connections>
    </Network>
    <Network id="18152" birthGen="150" fitness="1955.7590942382813">
      <Nodes>
        <Node type="bias" id="0" />
        <Node type="in" id="1" />
        <Node type="in" id="2" />
        <Node type="in" id="3" />
        <Node type="in" id="4" />
        <Node type="in" id="5" />
        <Node type="in" id="6" />
        <Node type="in" id="7" />
        <Node type="in" id="8" />
        <Node type="in" id="9" />
        <Node type="in" id="10" />
        <Node type="out" id="11" />
      </Nodes>
      <Connections>
        <Con id="20" src="8" tgt="11" wght="-2.3689466156475554" />
        <Con id="23" src="1" tgt="11" wght="3.2025415476830985" />
        <Con id="24" src="2" tgt="11" wght="-0.52955361984732641" />
        <Con id="29" src="0" tgt="11" wght="1.4214359405715271" />
        <Con id="30" src="7" tgt="11" wght="-0.60177058583460252" />
        <Con id="31" src="5" tgt="11" wght="-2.4725025666712814" />
        <Con id="33" src="4" tgt="11" wght="-1.7080641613211871" />
        <Con id="34" src="3" tgt="11" wght="0.29022174153923047" />
        <Con id="35" src="6" tgt="11" wght="0.26937855434958535" />
      </Connections>
    </Network>
    <Network id="18140" birthGen="150" fitness="604.79007911682129">
      <Nodes>
        <Node type="bias" id="0" />
        <Node type="in" id="1" />
        <Node type="in" id="2" />
        <Node type="in" id="3" />
        <Node type="in" id="4" />
        <Node type="in" id="5" />
        <Node type="in" id="6" />
        <Node type="in" id="7" />
        <Node type="in" id="8" />
        <Node type="in" id="9" />
        <Node type="in" id="10" />
        <Node type="out" id="11" />
      </Nodes>
      <Connections>
        <Con id="20" src="8" tgt="11" wght="-2.3689466156475554" />
        <Con id="23" src="1" tgt="11" wght="3.2018840621279194" />
        <Con id="24" src="2" tgt="11" wght="-0.52955361984732641" />
        <Con id="29" src="0" tgt="11" wght="1.4458117608184202" />
        <Con id="30" src="7" tgt="11" wght="-0.60177058583460252" />
        <Con id="31" src="5" tgt="11" wght="-2.4725025666712814" />
        <Con id="33" src="4" tgt="11" wght="-1.7848708968574762" />
        <Con id="34" src="3" tgt="11" wght="0.29022174153923047" />
        <Con id="35" src="6" tgt="11" wght="0.26337395634098659" />
      </Connections>
    </Network>
    <Network id="18153" birthGen="150" fitness="918.45700073242188">
      <Nodes>
        <Node type="bias" id="0" />
        <Node type="in" id="1" />
        <Node type="in" id="2" />
        <Node type="in" id="3" />
        <Node type="in" id="4" />
        <Node type="in" id="5" />
        <Node type="in" id="6" />
        <Node type="in" id="7" />
        <Node type="in" id="8" />
        <Node type="in" id="9" />
        <Node type="in" id="10" />
        <Node type="out" id="11" />
      </Nodes>
      <Connections>
        <Con id="20" src="8" tgt="11" wght="-2.4337341166658186" />
        <Con id="23" src="1" tgt="11" wght="3.2018840621279194" />
        <Con id="24" src="2" tgt="11" wght="-0.52955361984732641" />
        <Con id="29" src="0" tgt="11" wght="1.4458117608184202" />
        <Con id="30" src="7" tgt="11" wght="-0.60177058583460252" />
        <Con id="31" src="5" tgt="11" wght="-2.4544356383784836" />
        <Con id="33" src="4" tgt="11" wght="-1.7848708968574762" />
        <Con id="34" src="3" tgt="11" wght="0.29022174153923047" />
        <Con id="35" src="6" tgt="11" wght="0.26937855434958535" />
      </Connections>
    </Network>
    <Network id="18045" birthGen="149" fitness="1682.4126586914063">
      <Nodes>
        <Node type="bias" id="0" />
        <Node type="in" id="1" />
        <Node type="in" id="2" />
        <Node type="in" id="3" />
        <Node type="in" id="4" />
        <Node type="in" id="5" />
        <Node type="in" id="6" />
        <Node type="in" id="7" />
        <Node type="in" id="8" />
        <Node type="in" id="9" />
        <Node type="in" id="10" />
        <Node type="out" id="11" />
      </Nodes>
      <Connections>
        <Con id="20" src="8" tgt="11" wght="-2.3282596566159315" />
        <Con id="23" src="1" tgt="11" wght="1.5510828168577537" />
        <Con id="24" src="2" tgt="11" wght="-0.52033621606826164" />
        <Con id="29" src="0" tgt="11" wght="1.3443224936520519" />
        <Con id="30" src="7" tgt="11" wght="-0.58336609270318551" />
        <Con id="31" src="5" tgt="11" wght="-2.4810677827309826" />
        <Con id="33" src="4" tgt="11" wght="-1.6884937552106014" />
        <Con id="34" src="3" tgt="11" wght="0.29022174153923047" />
        <Con id="35" src="6" tgt="11" wght="-0.044971215793272568" />
      </Connections>
    </Network>
    <Network id="18155" birthGen="150" fitness="1343.7318725585938">
      <Nodes>
        <Node type="bias" id="0" />
        <Node type="in" id="1" />
        <Node type="in" id="2" />
        <Node type="in" id="3" />
        <Node type="in" id="4" />
        <Node type="in" id="5" />
        <Node type="in" id="6" />
        <Node type="in" id="7" />
        <Node type="in" id="8" />
        <Node type="in" id="9" />
        <Node type="in" id="10" />
        <Node type="out" id="11" />
      </Nodes>
      <Connections>
        <Con id="20" src="8" tgt="11" wght="-2.3282596566159315" />
        <Con id="23" src="1" tgt="11" wght="1.5510828168577537" />
        <Con id="24" src="2" tgt="11" wght="-0.52033621606826164" />
        <Con id="29" src="0" tgt="11" wght="1.4214359405715271" />
        <Con id="30" src="7" tgt="11" wght="-0.60177058583460252" />
        <Con id="31" src="5" tgt="11" wght="-2.4810677827309826" />
        <Con id="33" src="4" tgt="11" wght="-1.6884937552106014" />
        <Con id="34" src="3" tgt="11" wght="0.29022174153923047" />
        <Con id="35" src="6" tgt="11" wght="-0.044971215793272568" />
      </Connections>
    </Network>
    <Network id="18185" birthGen="150" fitness="846.66964721679688">
      <Nodes>
        <Node type="bias" id="0" />
        <Node type="in" id="1" />
        <Node type="in" id="2" />
        <Node type="in" id="3" />
        <Node type="in" id="4" />
        <Node type="in" id="5" />
        <Node type="in" id="6" />
        <Node type="in" id="7" />
        <Node type="in" id="8" />
        <Node type="in" id="9" />
        <Node type="in" id="10" />
        <Node type="out" id="11" />
      </Nodes>
      <Connections>
        <Con id="20" src="8" tgt="11" wght="-2.3278730049880836" />
        <Con id="23" src="1" tgt="11" wght="2.4124067212147429" />
        <Con id="24" src="2" tgt="11" wght="-1.6551030503916431" />
        <Con id="29" src="0" tgt="11" wght="1.9032605832348835" />
        <Con id="30" src="7" tgt="11" wght="-1.1284424179453854" />
        <Con id="31" src="5" tgt="11" wght="-4.1721740949213215" />
        <Con id="32" src="9" tgt="11" wght="-0.094457251352288468" />
        <Con id="33" src="4" tgt="11" wght="-2.3005298648841839" />
        <Con id="35" src="6" tgt="11" wght="-0.38683521080755889" />
        <Con id="36" src="10" tgt="11" wght="-0.55085623006394169" />
      </Connections>
    </Network>
    <Network id="18186" birthGen="150" fitness="1298.9735717773438">
      <Nodes>
        <Node type="bias" id="0" />
        <Node type="in" id="1" />
        <Node type="in" id="2" />
        <Node type="in" id="3" />
        <Node type="in" id="4" />
        <Node type="in" id="5" />
        <Node type="in" id="6" />
        <Node type="in" id="7" />
        <Node type="in" id="8" />
        <Node type="in" id="9" />
        <Node type="in" id="10" />
        <Node type="out" id="11" />
      </Nodes>
      <Connections>
        <Con id="20" src="8" tgt="11" wght="-2.3278730049880836" />
        <Con id="23" src="1" tgt="11" wght="2.4124067212147429" />
        <Con id="24" src="2" tgt="11" wght="-1.6551030503916431" />
        <Con id="29" src="0" tgt="11" wght="1.9032605832348835" />
        <Con id="30" src="7" tgt="11" wght="-1.1284424179453854" />
        <Con id="31" src="5" tgt="11" wght="-2.294905358755559" />
        <Con id="32" src="9" tgt="11" wght="-0.094457251352288468" />
        <Con id="33" src="4" tgt="11" wght="-2.3005298648841839" />
        <Con id="35" src="6" tgt="11" wght="-0.38683521080755889" />
        <Con id="36" src="10" tgt="11" wght="-0.55085623006394169" />
      </Connections>
    </Network>
    <Network id="18187" birthGen="150" fitness="963.79763793945313">
      <Nodes>
        <Node type="bias" id="0" />
        <Node type="in" id="1" />
        <Node type="in" id="2" />
        <Node type="in" id="3" />
        <Node type="in" id="4" />
        <Node type="in" id="5" />
        <Node type="in" id="6" />
        <Node type="in" id="7" />
        <Node type="in" id="8" />
        <Node type="in" id="9" />
        <Node type="in" id="10" />
        <Node type="out" id="11" />
      </Nodes>
      <Connections>
        <Con id="20" src="8" tgt="11" wght="-2.3278730049880836" />
        <Con id="23" src="1" tgt="11" wght="2.4124067212147429" />
        <Con id="24" src="2" tgt="11" wght="-1.6551030503916431" />
        <Con id="29" src="0" tgt="11" wght="1.9032605832348835" />
        <Con id="30" src="7" tgt="11" wght="-1.1284424179453854" />
        <Con id="31" src="5" tgt="11" wght="-4.1721740949213215" />
        <Con id="32" src="9" tgt="11" wght="-0.094457251352288468" />
        <Con id="33" src="4" tgt="11" wght="-2.3005298648841839" />
        <Con id="35" src="6" tgt="11" wght="-0.38683521080755889" />
        <Con id="36" src="10" tgt="11" wght="-0.55085623006394169" />
      </Connections>
    </Network>
    <Network id="18069" birthGen="149" fitness="438.28633880615234">
      <Nodes>
        <Node type="bias" id="0" />
        <Node type="in" id="1" />
        <Node type="in" id="2" />
        <Node type="in" id="3" />
        <Node type="in" id="4" />
        <Node type="in" id="5" />
        <Node type="in" id="6" />
        <Node type="in" id="7" />
        <Node type="in" id="8" />
        <Node type="in" id="9" />
        <Node type="in" id="10" />
        <Node type="out" id="11" />
      </Nodes>
      <Connections>
        <Con id="20" src="8" tgt="11" wght="-2.3278730049880836" />
        <Con id="23" src="1" tgt="11" wght="2.4124067212147429" />
        <Con id="24" src="2" tgt="11" wght="-1.6551030503916431" />
        <Con id="29" src="0" tgt="11" wght="1.9032605832348835" />
        <Con id="30" src="7" tgt="11" wght="-1.1284424179453854" />
        <Con id="31" src="5" tgt="11" wght="-4.1721740949213215" />
        <Con id="32" src="9" tgt="11" wght="-0.094457251352288468" />
        <Con id="33" src="4" tgt="11" wght="-2.3005298648841839" />
        <Con id="35" src="6" tgt="11" wght="-0.38683521080755889" />
        <Con id="36" src="10" tgt="11" wght="-0.55085623006394169" />
      </Connections>
    </Network>
    <Network id="18183" birthGen="150" fitness="959.90921020507813">
      <Nodes>
        <Node type="bias" id="0" />
        <Node type="in" id="1" />
        <Node type="in" id="2" />
        <Node type="in" id="3" />
        <Node type="in" id="4" />
        <Node type="in" id="5" />
        <Node type="in" id="6" />
        <Node type="in" id="7" />
        <Node type="in" id="8" />
        <Node type="in" id="9" />
        <Node type="in" id="10" />
        <Node type="out" id="11" />
      </Nodes>
      <Connections>
        <Con id="20" src="8" tgt="11" wght="-2.3278730049880836" />
        <Con id="23" src="1" tgt="11" wght="2.4124067212147429" />
        <Con id="24" src="2" tgt="11" wght="-1.6551030503916431" />
        <Con id="29" src="0" tgt="11" wght="1.9032605832348835" />
        <Con id="30" src="7" tgt="11" wght="-1.5485872737848334" />
        <Con id="31" src="5" tgt="11" wght="-4.1721740949213215" />
        <Con id="32" src="9" tgt="11" wght="-0.094457251352288468" />
        <Con id="33" src="4" tgt="11" wght="-2.3005298648841839" />
        <Con id="35" src="6" tgt="11" wght="-0.38683521080755889" />
        <Con id="36" src="10" tgt="11" wght="-0.55085623006394169" />
      </Connections>
    </Network>
    <Network id="18188" birthGen="150" fitness="466.83221435546875">
      <Nodes>
        <Node type="bias" id="0" />
        <Node type="in" id="1" />
        <Node type="in" id="2" />
        <Node type="in" id="3" />
        <Node type="in" id="4" />
        <Node type="in" id="5" />
        <Node type="in" id="6" />
        <Node type="in" id="7" />
        <Node type="in" id="8" />
        <Node type="in" id="9" />
        <Node type="in" id="10" />
        <Node type="out" id="11" />
      </Nodes>
      <Connections>
        <Con id="20" src="8" tgt="11" wght="-2.3278730049880836" />
        <Con id="23" src="1" tgt="11" wght="2.4124067212147429" />
        <Con id="24" src="2" tgt="11" wght="-1.6551030503916431" />
        <Con id="29" src="0" tgt="11" wght="1.9032605832348835" />
        <Con id="30" src="7" tgt="11" wght="-1.5485872737848334" />
        <Con id="31" src="5" tgt="11" wght="-2.294905358755559" />
        <Con id="32" src="9" tgt="11" wght="-0.094457251352288468" />
        <Con id="33" src="4" tgt="11" wght="-2.3005298648841839" />
        <Con id="35" src="6" tgt="11" wght="-0.38683521080755889" />
        <Con id="36" src="10" tgt="11" wght="-0.55085623006394169" />
      </Connections>
    </Network>
    <Network id="18189" birthGen="151" fitness="468.78271484375">
      <Nodes>
        <Node type="bias" id="0" />
        <Node type="in" id="1" />
        <Node type="in" id="2" />
        <Node type="in" id="3" />
        <Node type="in" id="4" />
        <Node type="in" id="5" />
        <Node type="in" id="6" />
        <Node type="in" id="7" />
        <Node type="in" id="8" />
        <Node type="in" id="9" />
        <Node type="in" id="10" />
        <Node type="out" id="11" />
      </Nodes>
      <Connections>
        <Con id="20" src="8" tgt="11" wght="-2.3282596566159315" />
        <Con id="23" src="1" tgt="11" wght="3.2018840621279194" />
        <Con id="24" src="2" tgt="11" wght="-0.52033621606826164" />
        <Con id="29" src="0" tgt="11" wght="0.68951491218965588" />
        <Con id="30" src="7" tgt="11" wght="-0.88981875334017813" />
        <Con id="31" src="5" tgt="11" wght="-2.4725025666712814" />
        <Con id="32" src="9" tgt="11" wght="2.5110562425106764" />
        <Con id="33" src="4" tgt="11" wght="-1.7080641613211871" />
        <Con id="34" src="3" tgt="11" wght="0.30418378486517816" />
        <Con id="35" src="6" tgt="11" wght="-0.044971215793272568" />
        <Con id="36" src="10" tgt="11" wght="0.42898251902359819" />
      </Connections>
    </Network>
    <Network id="18190" birthGen="151" fitness="552.81072998046875">
      <Nodes>
        <Node type="bias" id="0" />
        <Node type="in" id="1" />
        <Node type="in" id="2" />
        <Node type="in" id="3" />
        <Node type="in" id="4" />
        <Node type="in" id="5" />
        <Node type="in" id="6" />
        <Node type="in" id="7" />
        <Node type="in" id="8" />
        <Node type="in" id="9" />
        <Node type="in" id="10" />
        <Node type="out" id="11" />
      </Nodes>
      <Connections>
        <Con id="20" src="8" tgt="11" wght="-2.3282596566159315" />
        <Con id="23" src="1" tgt="11" wght="3.2018840621279194" />
        <Con id="24" src="2" tgt="11" wght="-0.52033621606826164" />
        <Con id="29" src="0" tgt="11" wght="1.3949770570067825" />
        <Con id="30" src="7" tgt="11" wght="-0.58336609270318551" />
        <Con id="31" src="5" tgt="11" wght="-2.4675731260606439" />
        <Con id="32" src="9" tgt="11" wght="2.5110562425106764" />
        <Con id="33" src="4" tgt="11" wght="-1.7080641613211871" />
        <Con id="34" src="3" tgt="11" wght="0.28990791867644916" />
        <Con id="35" src="6" tgt="11" wght="-0.044971215793272568" />
        <Con id="36" src="10" tgt="11" wght="0.25041567248619007" />
      </Connections>
    </Network>
    <Network id="18191" birthGen="151" fitness="1">
      <Nodes>
        <Node type="bias" id="0" />
        <Node type="in" id="1" />
        <Node type="in" id="2" />
        <Node type="in" id="3" />
        <Node type="in" id="4" />
        <Node type="in" id="5" />
        <Node type="in" id="6" />
        <Node type="in" id="7" />
        <Node type="in" id="8" />
        <Node type="in" id="9" />
        <Node type="in" id="10" />
        <Node type="out" id="11" />
      </Nodes>
      <Connections>
        <Con id="20" src="8" tgt="11" wght="-2.0168304883168635" />
        <Con id="23" src="1" tgt="11" wght="3.2018840621279194" />
        <Con id="24" src="2" tgt="11" wght="-0.52033621606826164" />
        <Con id="29" src="0" tgt="11" wght="1.3949770570067825" />
        <Con id="30" src="7" tgt="11" wght="-0.58336609270318551" />
        <Con id="31" src="5" tgt="11" wght="-2.4725025666712814" />
        <Con id="32" src="9" tgt="11" wght="2.5110562425106764" />
        <Con id="33" src="4" tgt="11" wght="-1.7080641613211871" />
        <Con id="34" src="3" tgt="11" wght="0.29410668030029657" />
        <Con id="35" src="6" tgt="11" wght="0.33403410821102536" />
        <Con id="36" src="10" tgt="11" wght="0.25041567248619007" />
      </Connections>
    </Network>
    <Network id="18192" birthGen="151" fitness="80.825386047363281">
      <Nodes>
        <Node type="bias" id="0" />
        <Node type="in" id="1" />
        <Node type="in" id="2" />
        <Node type="in" id="3" />
        <Node type="in" id="4" />
        <Node type="in" id="5" />
        <Node type="in" id="6" />
        <Node type="in" id="7" />
        <Node type="in" id="8" />
        <Node type="in" id="9" />
        <Node type="in" id="10" />
        <Node type="out" id="11" />
      </Nodes>
      <Connections>
        <Con id="20" src="8" tgt="11" wght="-2.3282596566159315" />
        <Con id="23" src="1" tgt="11" wght="3.3470050255315011" />
        <Con id="24" src="2" tgt="11" wght="-0.52033621606826164" />
        <Con id="29" src="0" tgt="11" wght="1.3949770570067825" />
        <Con id="30" src="7" tgt="11" wght="-0.58336609270318551" />
        <Con id="31" src="5" tgt="11" wght="-2.4725025666712814" />
        <Con id="32" src="9" tgt="11" wght="2.5110562425106764" />
        <Con id="33" src="4" tgt="11" wght="-1.7080641613211871" />
        <Con id="34" src="3" tgt="11" wght="0.29410668030029657" />
        <Con id="35" src="6" tgt="11" wght="-0.044971215793272568" />
        <Con id="36" src="10" tgt="11" wght="0.25041567248619007" />
      </Connections>
    </Network>
    <Network id="18193" birthGen="151" fitness="1">
      <Nodes>
        <Node type="bias" id="0" />
        <Node type="in" id="1" />
        <Node type="in" id="2" />
        <Node type="in" id="3" />
        <Node type="in" id="4" />
        <Node type="in" id="5" />
        <Node type="in" id="6" />
        <Node type="in" id="7" />
        <Node type="in" id="8" />
        <Node type="in" id="9" />
        <Node type="in" id="10" />
        <Node type="out" id="11" />
      </Nodes>
      <Connections>
        <Con id="20" src="8" tgt="11" wght="-2.3282596566159315" />
        <Con id="23" src="1" tgt="11" wght="3.2018840621279194" />
        <Con id="24" src="2" tgt="11" wght="-1.696402532979846" />
        <Con id="29" src="0" tgt="11" wght="-4.3255132436752319" />
        <Con id="30" src="7" tgt="11" wght="-0.88981875334017813" />
        <Con id="31" src="5" tgt="11" wght="-2.4725025666712814" />
        <Con id="32" src="9" tgt="11" wght="2.5110562425106764" />
        <Con id="33" src="4" tgt="11" wght="-1.7080641613211871" />
        <Con id="34" src="3" tgt="11" wght="0.30418378486517816" />
        <Con id="35" src="6" tgt="11" wght="-0.044971215793272568" />
        <Con id="36" src="10" tgt="11" wght="0.42898251902359819" />
      </Connections>
    </Network>
    <Network id="18194" birthGen="151" fitness="1338.2119140625">
      <Nodes>
        <Node type="bias" id="0" />
        <Node type="in" id="1" />
        <Node type="in" id="2" />
        <Node type="in" id="3" />
        <Node type="in" id="4" />
        <Node type="in" id="5" />
        <Node type="in" id="6" />
        <Node type="in" id="7" />
        <Node type="in" id="8" />
        <Node type="in" id="9" />
        <Node type="in" id="10" />
        <Node type="out" id="11" />
      </Nodes>
      <Connections>
        <Con id="20" src="8" tgt="11" wght="-2.3282596566159315" />
        <Con id="23" src="1" tgt="11" wght="3.2018840621279194" />
        <Con id="24" src="2" tgt="11" wght="-0.52033621606826164" />
        <Con id="29" src="0" tgt="11" wght="1.3949770570067825" />
        <Con id="30" src="7" tgt="11" wght="-0.58336609270318551" />
        <Con id="31" src="5" tgt="11" wght="-2.4725025666712814" />
        <Con id="32" src="9" tgt="11" wght="2.5110562425106764" />
        <Con id="33" src="4" tgt="11" wght="-1.7080641613211871" />
        <Con id="34" src="3" tgt="11" wght="0.28990791867644916" />
        <Con id="35" src="6" tgt="11" wght="-0.044971215793272568" />
        <Con id="36" src="10" tgt="11" wght="0.40863145546077351" />
      </Connections>
    </Network>
    <Network id="18195" birthGen="151" fitness="813.69100952148438">
      <Nodes>
        <Node type="bias" id="0" />
        <Node type="in" id="1" />
        <Node type="in" id="2" />
        <Node type="in" id="3" />
        <Node type="in" id="4" />
        <Node type="in" id="5" />
        <Node type="in" id="6" />
        <Node type="in" id="7" />
        <Node type="in" id="8" />
        <Node type="in" id="9" />
        <Node type="in" id="10" />
        <Node type="out" id="11" />
      </Nodes>
      <Connections>
        <Con id="20" src="8" tgt="11" wght="-2.3282596566159315" />
        <Con id="23" src="1" tgt="11" wght="3.2018840621279194" />
        <Con id="24" src="2" tgt="11" wght="-0.52033621606826164" />
        <Con id="29" src="0" tgt="11" wght="1.3949770570067825" />
        <Con id="30" src="7" tgt="11" wght="-0.58336609270318551" />
        <Con id="31" src="5" tgt="11" wght="-3.3246247057189837" />
        <Con id="32" src="9" tgt="11" wght="0.91308339103791436" />
        <Con id="33" src="4" tgt="11" wght="-1.7080641613211871" />
        <Con id="34" src="3" tgt="11" wght="0.29410668030029657" />
        <Con id="35" src="6" tgt="11" wght="-0.044971215793272568" />
        <Con id="36" src="10" tgt="11" wght="-0.034624695837938646" />
      </Connections>
    </Network>
    <Network id="18196" birthGen="151" fitness="222.71626281738281">
      <Nodes>
        <Node type="bias" id="0" />
        <Node type="in" id="1" />
        <Node type="in" id="2" />
        <Node type="in" id="3" />
        <Node type="in" id="4" />
        <Node type="in" id="5" />
        <Node type="in" id="6" />
        <Node type="in" id="7" />
        <Node type="in" id="8" />
        <Node type="in" id="9" />
        <Node type="in" id="10" />
        <Node type="out" id="11" />
      </Nodes>
      <Connections>
        <Con id="20" src="8" tgt="11" wght="-2.3282596566159315" />
        <Con id="23" src="1" tgt="11" wght="3.2018840621279194" />
        <Con id="24" src="2" tgt="11" wght="-0.52033621606826164" />
        <Con id="29" src="0" tgt="11" wght="1.3949770570067825" />
        <Con id="30" src="7" tgt="11" wght="-0.58483443531951451" />
        <Con id="31" src="5" tgt="11" wght="-2.4725025666712814" />
        <Con id="32" src="9" tgt="11" wght="2.5110562425106764" />
        <Con id="33" src="4" tgt="11" wght="-1.7080641613211871" />
        <Con id="34" src="3" tgt="11" wght="0.29410668030029657" />
        <Con id="35" src="6" tgt="11" wght="-0.065864274708806791" />
        <Con id="36" src="10" tgt="11" wght="0.25041567248619007" />
      </Connections>
    </Network>
    <Network id="18197" birthGen="151" fitness="296.11680603027344">
      <Nodes>
        <Node type="bias" id="0" />
        <Node type="in" id="1" />
        <Node type="in" id="2" />
        <Node type="in" id="3" />
        <Node type="in" id="4" />
        <Node type="in" id="5" />
        <Node type="in" id="6" />
        <Node type="in" id="7" />
        <Node type="in" id="8" />
        <Node type="in" id="9" />
        <Node type="in" id="10" />
        <Node type="out" id="11" />
      </Nodes>
      <Connections>
        <Con id="20" src="8" tgt="11" wght="-2.3282596566159315" />
        <Con id="23" src="1" tgt="11" wght="3.2018840621279194" />
        <Con id="24" src="2" tgt="11" wght="-0.52033621606826164" />
        <Con id="29" src="0" tgt="11" wght="1.4458117608184202" />
        <Con id="30" src="7" tgt="11" wght="-0.58336609270318551" />
        <Con id="31" src="5" tgt="11" wght="-2.4725025666712814" />
        <Con id="32" src="9" tgt="11" wght="2.5110562425106764" />
        <Con id="33" src="4" tgt="11" wght="-1.7080641613211871" />
        <Con id="34" src="3" tgt="11" wght="0.28990791867644916" />
        <Con id="35" src="6" tgt="11" wght="-0.044971215793272568" />
        <Con id="36" src="10" tgt="11" wght="0.25041567248619007" />
      </Connections>
    </Network>
    <Network id="18198" birthGen="151" fitness="1418.56201171875">
      <Nodes>
        <Node type="bias" id="0" />
        <Node type="in" id="1" />
        <Node type="in" id="2" />
        <Node type="in" id="3" />
        <Node type="in" id="4" />
        <Node type="in" id="5" />
        <Node type="in" id="6" />
        <Node type="in" id="7" />
        <Node type="in" id="8" />
        <Node type="in" id="9" />
        <Node type="in" id="10" />
        <Node type="out" id="11" />
      </Nodes>
      <Connections>
        <Con id="20" src="8" tgt="11" wght="-2.3282596566159315" />
        <Con id="23" src="1" tgt="11" wght="3.2018840621279194" />
        <Con id="24" src="2" tgt="11" wght="-0.52033621606826164" />
        <Con id="29" src="0" tgt="11" wght="1.4458117608184202" />
        <Con id="30" src="7" tgt="11" wght="-0.88981875334017813" />
        <Con id="31" src="5" tgt="11" wght="-2.4725025666712814" />
        <Con id="32" src="9" tgt="11" wght="2.5110562425106764" />
        <Con id="33" src="4" tgt="11" wght="-1.7080641613211871" />
        <Con id="34" src="3" tgt="11" wght="0.30418378486517816" />
        <Con id="35" src="6" tgt="11" wght="-0.044971215793272568" />
        <Con id="36" src="10" tgt="11" wght="0.42898251902359819" />
      </Connections>
    </Network>
    <Network id="18199" birthGen="151" fitness="915.3228759765625">
      <Nodes>
        <Node type="bias" id="0" />
        <Node type="in" id="1" />
        <Node type="in" id="2" />
        <Node type="in" id="3" />
        <Node type="in" id="4" />
        <Node type="in" id="5" />
        <Node type="in" id="6" />
        <Node type="in" id="7" />
        <Node type="in" id="8" />
        <Node type="in" id="9" />
        <Node type="in" id="10" />
        <Node type="out" id="11" />
      </Nodes>
      <Connections>
        <Con id="20" src="8" tgt="11" wght="-2.3282596566159315" />
        <Con id="23" src="1" tgt="11" wght="3.2018840621279194" />
        <Con id="24" src="2" tgt="11" wght="-0.52033621606826164" />
        <Con id="29" src="0" tgt="11" wght="1.3949770570067825" />
        <Con id="30" src="7" tgt="11" wght="-0.88981875334017813" />
        <Con id="31" src="5" tgt="11" wght="-2.4725025666712814" />
        <Con id="32" src="9" tgt="11" wght="2.5110562425106764" />
        <Con id="33" src="4" tgt="11" wght="-1.7080641613211871" />
        <Con id="34" src="3" tgt="11" wght="0.30418378486517816" />
        <Con id="35" src="6" tgt="11" wght="-0.044971215793272568" />
        <Con id="36" src="10" tgt="11" wght="0.42898251902359819" />
      </Connections>
    </Network>
    <Network id="18200" birthGen="151" fitness="1053.7022399902344">
      <Nodes>
        <Node type="bias" id="0" />
        <Node type="in" id="1" />
        <Node type="in" id="2" />
        <Node type="in" id="3" />
        <Node type="in" id="4" />
        <Node type="in" id="5" />
        <Node type="in" id="6" />
        <Node type="in" id="7" />
        <Node type="in" id="8" />
        <Node type="in" id="9" />
        <Node type="in" id="10" />
        <Node type="out" id="11" />
      </Nodes>
      <Connections>
        <Con id="20" src="8" tgt="11" wght="-2.3282596566159315" />
        <Con id="23" src="1" tgt="11" wght="3.2018840621279194" />
        <Con id="24" src="2" tgt="11" wght="-0.52033621606826164" />
        <Con id="29" src="0" tgt="11" wght="1.4458117608184202" />
        <Con id="30" src="7" tgt="11" wght="-0.88981875334017813" />
        <Con id="31" src="5" tgt="11" wght="-2.4725025666712814" />
        <Con id="32" src="9" tgt="11" wght="2.5110562425106764" />
        <Con id="33" src="4" tgt="11" wght="-1.7080641613211871" />
        <Con id="34" src="3" tgt="11" wght="0.30418378486517816" />
        <Con id="35" src="6" tgt="11" wght="-0.044971215793272568" />
        <Con id="36" src="10" tgt="11" wght="0.25041567248619007" />
      </Connections>
    </Network>
    <Network id="18201" birthGen="151" fitness="182.39466857910156">
      <Nodes>
        <Node type="bias" id="0" />
        <Node type="in" id="1" />
        <Node type="in" id="2" />
        <Node type="in" id="3" />
        <Node type="in" id="4" />
        <Node type="in" id="5" />
        <Node type="in" id="6" />
        <Node type="in" id="7" />
        <Node type="in" id="8" />
        <Node type="in" id="9" />
        <Node type="in" id="10" />
        <Node type="out" id="11" />
      </Nodes>
      <Connections>
        <Con id="20" src="8" tgt="11" wght="-2.3282596566159315" />
        <Con id="23" src="1" tgt="11" wght="3.2018840621279194" />
        <Con id="24" src="2" tgt="11" wght="-0.52033621606826164" />
        <Con id="29" src="0" tgt="11" wght="1.4458117608184202" />
        <Con id="30" src="7" tgt="11" wght="-0.58336609270318551" />
        <Con id="31" src="5" tgt="11" wght="-2.4725025666712814" />
        <Con id="32" src="9" tgt="11" wght="2.5110562425106764" />
        <Con id="33" src="4" tgt="11" wght="-1.7080641613211871" />
        <Con id="34" src="3" tgt="11" wght="0.30418378486517816" />
        <Con id="35" src="6" tgt="11" wght="-0.044971215793272568" />
        <Con id="36" src="10" tgt="11" wght="0.25041567248619007" />
      </Connections>
    </Network>
    <Network id="18202" birthGen="151" fitness="651.2344970703125">
      <Nodes>
        <Node type="bias" id="0" />
        <Node type="in" id="1" />
        <Node type="in" id="2" />
        <Node type="in" id="3" />
        <Node type="in" id="4" />
        <Node type="in" id="5" />
        <Node type="in" id="6" />
        <Node type="in" id="7" />
        <Node type="in" id="8" />
        <Node type="in" id="9" />
        <Node type="in" id="10" />
        <Node type="out" id="11" />
      </Nodes>
      <Connections>
        <Con id="20" src="8" tgt="11" wght="-2.3282596566159315" />
        <Con id="23" src="1" tgt="11" wght="3.2018840621279194" />
        <Con id="24" src="2" tgt="11" wght="-0.52033621606826164" />
        <Con id="29" src="0" tgt="11" wght="1.4458117608184202" />
        <Con id="30" src="7" tgt="11" wght="-0.88981875334017813" />
        <Con id="31" src="5" tgt="11" wght="-2.4725025666712814" />
        <Con id="32" src="9" tgt="11" wght="2.5110562425106764" />
        <Con id="33" src="4" tgt="11" wght="-1.7080641613211871" />
        <Con id="34" src="3" tgt="11" wght="0.28990791867644916" />
        <Con id="35" src="6" tgt="11" wght="-0.044971215793272568" />
        <Con id="36" src="10" tgt="11" wght="0.42898251902359819" />
      </Connections>
    </Network>
    <Network id="18203" birthGen="151" fitness="140.6090087890625">
      <Nodes>
        <Node type="bias" id="0" />
        <Node type="in" id="1" />
        <Node type="in" id="2" />
        <Node type="in" id="3" />
        <Node type="in" id="4" />
        <Node type="in" id="5" />
        <Node type="in" id="6" />
        <Node type="in" id="7" />
        <Node type="in" id="8" />
        <Node type="in" id="9" />
        <Node type="in" id="10" />
        <Node type="out" id="11" />
      </Nodes>
      <Connections>
        <Con id="20" src="8" tgt="11" wght="-2.3282596566159315" />
        <Con id="23" src="1" tgt="11" wght="3.2018840621279194" />
        <Con id="24" src="2" tgt="11" wght="-0.52033621606826164" />
        <Con id="29" src="0" tgt="11" wght="1.3949770570067825" />
        <Con id="30" src="7" tgt="11" wght="-0.88981875334017813" />
        <Con id="31" src="5" tgt="11" wght="-2.4725025666712814" />
        <Con id="32" src="9" tgt="11" wght="2.5110562425106764" />
        <Con id="33" src="4" tgt="11" wght="-1.7080641613211871" />
        <Con id="34" src="3" tgt="11" wght="0.28990791867644916" />
        <Con id="35" src="6" tgt="11" wght="-0.044971215793272568" />
        <Con id="36" src="10" tgt="11" wght="0.42898251902359819" />
      </Connections>
    </Network>
    <Network id="18204" birthGen="151" fitness="151.99156188964844">
      <Nodes>
        <Node type="bias" id="0" />
        <Node type="in" id="1" />
        <Node type="in" id="2" />
        <Node type="in" id="3" />
        <Node type="in" id="4" />
        <Node type="in" id="5" />
        <Node type="in" id="6" />
        <Node type="in" id="7" />
        <Node type="in" id="8" />
        <Node type="in" id="9" />
        <Node type="in" id="10" />
        <Node type="out" id="11" />
      </Nodes>
      <Connections>
        <Con id="20" src="8" tgt="11" wght="-2.3282596566159315" />
        <Con id="23" src="1" tgt="11" wght="3.2018840621279194" />
        <Con id="24" src="2" tgt="11" wght="-0.52033621606826164" />
        <Con id="29" src="0" tgt="11" wght="1.3949770570067825" />
        <Con id="30" src="7" tgt="11" wght="-0.88981875334017813" />
        <Con id="31" src="5" tgt="11" wght="-2.4725025666712814" />
        <Con id="32" src="9" tgt="11" wght="2.5110562425106764" />
        <Con id="33" src="4" tgt="11" wght="-1.7080641613211871" />
        <Con id="34" src="3" tgt="11" wght="0.30418378486517816" />
        <Con id="35" src="6" tgt="11" wght="-0.044971215793272568" />
        <Con id="36" src="10" tgt="11" wght="0.42898251902359819" />
      </Connections>
    </Network>
    <Network id="18205" birthGen="151" fitness="920.22686767578125">
      <Nodes>
        <Node type="bias" id="0" />
        <Node type="in" id="1" />
        <Node type="in" id="2" />
        <Node type="in" id="3" />
        <Node type="in" id="4" />
        <Node type="in" id="5" />
        <Node type="in" id="6" />
        <Node type="in" id="7" />
        <Node type="in" id="8" />
        <Node type="in" id="9" />
        <Node type="in" id="10" />
        <Node type="out" id="11" />
      </Nodes>
      <Connections>
        <Con id="20" src="8" tgt="11" wght="-2.3282596566159315" />
        <Con id="23" src="1" tgt="11" wght="3.2018840621279194" />
        <Con id="24" src="2" tgt="11" wght="-0.52033621606826164" />
        <Con id="29" src="0" tgt="11" wght="1.3949770570067825" />
        <Con id="30" src="7" tgt="11" wght="-0.58336609270318551" />
        <Con id="31" src="5" tgt="11" wght="-2.4725025666712814" />
        <Con id="32" src="9" tgt="11" wght="2.5110562425106764" />
        <Con id="33" src="4" tgt="11" wght="-1.7080641613211871" />
        <Con id="34" src="3" tgt="11" wght="0.30418378486517816" />
        <Con id="35" src="6" tgt="11" wght="-0.044971215793272568" />
        <Con id="36" src="10" tgt="11" wght="0.42898251902359819" />
      </Connections>
    </Network>
    <Network id="18206" birthGen="151" fitness="1204.1549072265625">
      <Nodes>
        <Node type="bias" id="0" />
        <Node type="in" id="1" />
        <Node type="in" id="2" />
        <Node type="in" id="3" />
        <Node type="in" id="4" />
        <Node type="in" id="5" />
        <Node type="in" id="6" />
        <Node type="in" id="7" />
        <Node type="in" id="8" />
        <Node type="in" id="9" />
        <Node type="in" id="10" />
        <Node type="out" id="11" />
      </Nodes>
      <Connections>
        <Con id="20" src="8" tgt="11" wght="-3.0302901681762018" />
        <Con id="23" src="1" tgt="11" wght="0.9592866564205248" />
        <Con id="24" src="2" tgt="11" wght="-0.47842943408716887" />
        <Con id="29" src="0" tgt="11" wght="1.8436701395827069" />
        <Con id="30" src="7" tgt="11" wght="-1.1721687726935206" />
        <Con id="31" src="5" tgt="11" wght="-2.3275548318382389" />
        <Con id="32" src="9" tgt="11" wght="-0.081543126658732173" />
        <Con id="33" src="4" tgt="11" wght="-2.1451212324231705" />
        <Con id="34" src="3" tgt="11" wght="-1.2932336615868805" />
        <Con id="35" src="6" tgt="11" wght="1.149659505837346" />
        <Con id="36" src="10" tgt="11" wght="-0.071375149456570544" />
      </Connections>
    </Network>
    <Network id="18207" birthGen="151" fitness="1391.685302734375">
      <Nodes>
        <Node type="bias" id="0" />
        <Node type="in" id="1" />
        <Node type="in" id="2" />
        <Node type="in" id="3" />
        <Node type="in" id="4" />
        <Node type="in" id="5" />
        <Node type="in" id="6" />
        <Node type="in" id="7" />
        <Node type="in" id="8" />
        <Node type="in" id="9" />
        <Node type="in" id="10" />
        <Node type="out" id="11" />
      </Nodes>
      <Connections>
        <Con id="20" src="8" tgt="11" wght="-3.0302901681762018" />
        <Con id="23" src="1" tgt="11" wght="0.96075406278176034" />
        <Con id="24" src="2" tgt="11" wght="-0.50733809885408665" />
        <Con id="29" src="0" tgt="11" wght="1.8421057241413266" />
        <Con id="30" src="7" tgt="11" wght="-1.1735018874807217" />
        <Con id="31" src="5" tgt="11" wght="-2.3402057554903721" />
        <Con id="32" src="9" tgt="11" wght="-0.081543126658732173" />
        <Con id="33" src="4" tgt="11" wght="-2.1825620533727021" />
        <Con id="34" src="3" tgt="11" wght="-1.2932336615868805" />
        <Con id="35" src="6" tgt="11" wght="1.149659505837346" />
        <Con id="36" src="10" tgt="11" wght="-0.071375149456570544" />
      </Connections>
    </Network>
    <Network id="18208" birthGen="151" fitness="1">
      <Nodes>
        <Node type="bias" id="0" />
        <Node type="in" id="1" />
        <Node type="in" id="2" />
        <Node type="in" id="3" />
        <Node type="in" id="4" />
        <Node type="in" id="5" />
        <Node type="in" id="6" />
        <Node type="in" id="7" />
        <Node type="in" id="8" />
        <Node type="in" id="9" />
        <Node type="in" id="10" />
        <Node type="out" id="11" />
      </Nodes>
      <Connections>
        <Con id="20" src="8" tgt="11" wght="-3.0302901681762018" />
        <Con id="23" src="1" tgt="11" wght="0.94151982583581206" />
        <Con id="24" src="2" tgt="11" wght="-0.50733809885408665" />
        <Con id="29" src="0" tgt="11" wght="1.8436701395827069" />
        <Con id="30" src="7" tgt="11" wght="-1.1735018874807217" />
        <Con id="31" src="5" tgt="11" wght="-2.3275548318382389" />
        <Con id="32" src="9" tgt="11" wght="-0.081543126658732173" />
        <Con id="33" src="4" tgt="11" wght="-2.1244311945314163" />
        <Con id="34" src="3" tgt="11" wght="3.2958026183769107" />
        <Con id="35" src="6" tgt="11" wght="1.149659505837346" />
        <Con id="36" src="10" tgt="11" wght="-0.071375149456570544" />
      </Connections>
    </Network>
    <Network id="18209" birthGen="151" fitness="462.96920776367188">
      <Nodes>
        <Node type="bias" id="0" />
        <Node type="in" id="1" />
        <Node type="in" id="2" />
        <Node type="in" id="3" />
        <Node type="in" id="4" />
        <Node type="in" id="5" />
        <Node type="in" id="6" />
        <Node type="in" id="7" />
        <Node type="in" id="8" />
        <Node type="in" id="9" />
        <Node type="in" id="10" />
        <Node type="out" id="11" />
      </Nodes>
      <Connections>
        <Con id="20" src="8" tgt="11" wght="-3.0302901681762018" />
        <Con id="23" src="1" tgt="11" wght="0.94151982583581206" />
        <Con id="24" src="2" tgt="11" wght="-0.50733809885408665" />
        <Con id="29" src="0" tgt="11" wght="1.8436701395827069" />
        <Con id="30" src="7" tgt="11" wght="-1.1735018874807217" />
        <Con id="31" src="5" tgt="11" wght="-2.3275548318382389" />
        <Con id="32" src="9" tgt="11" wght="2.1000872831791639" />
        <Con id="33" src="4" tgt="11" wght="-2.1451212324231705" />
        <Con id="34" src="3" tgt="11" wght="-1.2871682901751891" />
        <Con id="35" src="6" tgt="11" wght="1.149659505837346" />
        <Con id="36" src="10" tgt="11" wght="-2.7295933896675706" />
      </Connections>
    </Network>
    <Network id="18210" birthGen="151" fitness="699.97370910644531">
      <Nodes>
        <Node type="bias" id="0" />
        <Node type="in" id="1" />
        <Node type="in" id="2" />
        <Node type="in" id="3" />
        <Node type="in" id="4" />
        <Node type="in" id="5" />
        <Node type="in" id="6" />
        <Node type="in" id="7" />
        <Node type="in" id="8" />
        <Node type="in" id="9" />
        <Node type="in" id="10" />
        <Node type="out" id="11" />
      </Nodes>
      <Connections>
        <Con id="20" src="8" tgt="11" wght="-3.0302901681762018" />
        <Con id="23" src="1" tgt="11" wght="0.94151982583581206" />
        <Con id="24" src="2" tgt="11" wght="-0.50733809885408665" />
        <Con id="29" src="0" tgt="11" wght="1.8436701395827069" />
        <Con id="30" src="7" tgt="11" wght="-1.1735018874807217" />
        <Con id="31" src="5" tgt="11" wght="-2.3422637989721631" />
        <Con id="32" src="9" tgt="11" wght="-0.081543126658732173" />
        <Con id="33" src="4" tgt="11" wght="-2.1244311945314163" />
        <Con id="34" src="3" tgt="11" wght="-1.2871682901751891" />
        <Con id="35" src="6" tgt="11" wght="1.149659505837346" />
        <Con id="36" src="10" tgt="11" wght="-0.071375149456570544" />
      </Connections>
    </Network>
    <Network id="18211" birthGen="151" fitness="538.68377685546875">
      <Nodes>
        <Node type="bias" id="0" />
        <Node type="in" id="1" />
        <Node type="in" id="2" />
        <Node type="in" id="3" />
        <Node type="in" id="4" />
        <Node type="in" id="5" />
        <Node type="in" id="6" />
        <Node type="in" id="7" />
        <Node type="in" id="8" />
        <Node type="in" id="9" />
        <Node type="in" id="10" />
        <Node type="out" id="11" />
      </Nodes>
      <Connections>
        <Con id="20" src="8" tgt="11" wght="-3.0302901681762018" />
        <Con id="23" src="1" tgt="11" wght="0.95929005073004636" />
        <Con id="24" src="2" tgt="11" wght="-0.50733809885408665" />
        <Con id="29" src="0" tgt="11" wght="1.8436701395827069" />
        <Con id="30" src="7" tgt="11" wght="-1.1721687726935206" />
        <Con id="31" src="5" tgt="11" wght="-2.3275548318382389" />
        <Con id="32" src="9" tgt="11" wght="-0.081543126658732173" />
        <Con id="33" src="4" tgt="11" wght="-2.1451212324231705" />
        <Con id="34" src="3" tgt="11" wght="-1.2932336615868805" />
        <Con id="35" src="6" tgt="11" wght="1.1410263360192829" />
        <Con id="36" src="10" tgt="11" wght="-0.071375149456570544" />
      </Connections>
    </Network>
    <Network id="18212" birthGen="151" fitness="1584.584716796875">
      <Nodes>
        <Node type="bias" id="0" />
        <Node type="in" id="1" />
        <Node type="in" id="2" />
        <Node type="in" id="3" />
        <Node type="in" id="4" />
        <Node type="in" id="5" />
        <Node type="in" id="6" />
        <Node type="in" id="7" />
        <Node type="in" id="8" />
        <Node type="in" id="9" />
        <Node type="in" id="10" />
        <Node type="out" id="11" />
      </Nodes>
      <Connections>
        <Con id="20" src="8" tgt="11" wght="-3.0302901681762018" />
        <Con id="23" src="1" tgt="11" wght="0.9592866564205248" />
        <Con id="24" src="2" tgt="11" wght="-0.50733809885408665" />
        <Con id="29" src="0" tgt="11" wght="1.8421057241413266" />
        <Con id="30" src="7" tgt="11" wght="-1.1735018874807217" />
        <Con id="31" src="5" tgt="11" wght="-2.3275548318382389" />
        <Con id="32" src="9" tgt="11" wght="-0.081543126658732173" />
        <Con id="33" src="4" tgt="11" wght="-2.1451212324231705" />
        <Con id="34" src="3" tgt="11" wght="0.614515739993641" />
        <Con id="35" src="6" tgt="11" wght="1.1704402430996286" />
        <Con id="36" src="10" tgt="11" wght="-0.071375149456570544" />
      </Connections>
    </Network>
    <Network id="18213" birthGen="151" fitness="898.18255615234375">
      <Nodes>
        <Node type="bias" id="0" />
        <Node type="in" id="1" />
        <Node type="in" id="2" />
        <Node type="in" id="3" />
        <Node type="in" id="4" />
        <Node type="in" id="5" />
        <Node type="in" id="6" />
        <Node type="in" id="7" />
        <Node type="in" id="8" />
        <Node type="in" id="9" />
        <Node type="in" id="10" />
        <Node type="out" id="11" />
      </Nodes>
      <Connections>
        <Con id="20" src="8" tgt="11" wght="-3.0302901681762018" />
        <Con id="23" src="1" tgt="11" wght="0.94151982583581206" />
        <Con id="24" src="2" tgt="11" wght="-0.50733809885408665" />
        <Con id="29" src="0" tgt="11" wght="1.8476001443430889" />
        <Con id="30" src="7" tgt="11" wght="-1.1735018874807217" />
        <Con id="31" src="5" tgt="11" wght="-2.3275548318382389" />
        <Con id="32" src="9" tgt="11" wght="-0.081543126658732173" />
        <Con id="33" src="4" tgt="11" wght="-2.1451212324231705" />
        <Con id="34" src="3" tgt="11" wght="-1.2871682901751891" />
        <Con id="35" src="6" tgt="11" wght="1.149659505837346" />
        <Con id="36" src="10" tgt="11" wght="-0.0428355896043893" />
      </Connections>
    </Network>
    <Network id="18214" birthGen="151" fitness="1029.142578125">
      <Nodes>
        <Node type="bias" id="0" />
        <Node type="in" id="1" />
        <Node type="in" id="2" />
        <Node type="in" id="3" />
        <Node type="in" id="4" />
        <Node type="in" id="5" />
        <Node type="in" id="6" />
        <Node type="in" id="7" />
        <Node type="in" id="8" />
        <Node type="in" id="9" />
        <Node type="in" id="10" />
        <Node type="out" id="11" />
      </Nodes>
      <Connections>
        <Con id="20" src="8" tgt="11" wght="-3.0302901681762018" />
        <Con id="23" src="1" tgt="11" wght="0.94151982583581206" />
        <Con id="24" src="2" tgt="11" wght="-0.50733809885408665" />
        <Con id="29" src="0" tgt="11" wght="1.8436701395827069" />
        <Con id="30" src="7" tgt="11" wght="-1.1735018874807217" />
        <Con id="31" src="5" tgt="11" wght="-2.3068571550802535" />
        <Con id="32" src="9" tgt="11" wght="-0.081543126658732173" />
        <Con id="33" src="4" tgt="11" wght="-2.1451212324231705" />
        <Con id="34" src="3" tgt="11" wght="-1.2871682901751891" />
        <Con id="35" src="6" tgt="11" wght="1.149659505837346" />
        <Con id="36" src="10" tgt="11" wght="-0.071375149456570544" />
      </Connections>
    </Network>
    <Network id="18215" birthGen="151" fitness="1290.9233093261719">
      <Nodes>
        <Node type="bias" id="0" />
        <Node type="in" id="1" />
        <Node type="in" id="2" />
        <Node type="in" id="3" />
        <Node type="in" id="4" />
        <Node type="in" id="5" />
        <Node type="in" id="6" />
        <Node type="in" id="7" />
        <Node type="in" id="8" />
        <Node type="in" id="9" />
        <Node type="in" id="10" />
        <Node type="out" id="11" />
      </Nodes>
      <Connections>
        <Con id="20" src="8" tgt="11" wght="-3.0302901681762018" />
        <Con id="23" src="1" tgt="11" wght="0.9592866564205248" />
        <Con id="24" src="2" tgt="11" wght="-0.50733809885408665" />
        <Con id="29" src="0" tgt="11" wght="2.499334702838274" />
        <Con id="30" src="7" tgt="11" wght="-1.1735018874807217" />
        <Con id="31" src="5" tgt="11" wght="-2.3275548318382389" />
        <Con id="32" src="9" tgt="11" wght="-0.081543126658732173" />
        <Con id="33" src="4" tgt="11" wght="-2.1451212324231705" />
        <Con id="34" src="3" tgt="11" wght="-1.2871682901751891" />
        <Con id="35" src="6" tgt="11" wght="1.1704402430996286" />
        <Con id="36" src="10" tgt="11" wght="-0.071375149456570544" />
      </Connections>
    </Network>
    <Network id="18216" birthGen="151" fitness="687.478271484375">
      <Nodes>
        <Node type="bias" id="0" />
        <Node type="in" id="1" />
        <Node type="in" id="2" />
        <Node type="in" id="3" />
        <Node type="in" id="4" />
        <Node type="in" id="5" />
        <Node type="in" id="6" />
        <Node type="in" id="7" />
        <Node type="in" id="8" />
        <Node type="in" id="9" />
        <Node type="in" id="10" />
        <Node type="out" id="11" />
      </Nodes>
      <Connections>
        <Con id="20" src="8" tgt="11" wght="-3.0302901681762018" />
        <Con id="23" src="1" tgt="11" wght="0.94151982583581206" />
        <Con id="24" src="2" tgt="11" wght="-0.50733809885408665" />
        <Con id="29" src="0" tgt="11" wght="1.8436701395827069" />
        <Con id="30" src="7" tgt="11" wght="-1.1735018874807217" />
        <Con id="31" src="5" tgt="11" wght="-2.3275548318382389" />
        <Con id="32" src="9" tgt="11" wght="-0.081543126658732173" />
        <Con id="33" src="4" tgt="11" wght="-2.1244311945314163" />
        <Con id="34" src="3" tgt="11" wght="1.4878278924152255" />
        <Con id="35" src="6" tgt="11" wght="-0.05394564475864172" />
        <Con id="36" src="10" tgt="11" wght="-0.071375149456570544" />
      </Connections>
    </Network>
    <Network id="18217" birthGen="151" fitness="1257.3948974609375">
      <Nodes>
        <Node type="bias" id="0" />
        <Node type="in" id="1" />
        <Node type="in" id="2" />
        <Node type="in" id="3" />
        <Node type="in" id="4" />
        <Node type="in" id="5" />
        <Node type="in" id="6" />
        <Node type="in" id="7" />
        <Node type="in" id="8" />
        <Node type="in" id="9" />
        <Node type="in" id="10" />
        <Node type="out" id="11" />
      </Nodes>
      <Connections>
        <Con id="20" src="8" tgt="11" wght="-3.0302901681762018" />
        <Con id="23" src="1" tgt="11" wght="0.94151982583581206" />
        <Con id="24" src="2" tgt="11" wght="-0.50733809885408665" />
        <Con id="29" src="0" tgt="11" wght="1.8436701395827069" />
        <Con id="30" src="7" tgt="11" wght="-1.1735018874807217" />
        <Con id="31" src="5" tgt="11" wght="-2.3275548318382389" />
        <Con id="32" src="9" tgt="11" wght="-0.081543126658732173" />
        <Con id="33" src="4" tgt="11" wght="-2.1244311945314163" />
        <Con id="34" src="3" tgt="11" wght="-1.2871682901751891" />
        <Con id="35" src="6" tgt="11" wght="-0.12753403799057894" />
        <Con id="36" src="10" tgt="11" wght="-0.071375149456570544" />
      </Connections>
    </Network>
    <Network id="18218" birthGen="151" fitness="981.01628875732422">
      <Nodes>
        <Node type="bias" id="0" />
        <Node type="in" id="1" />
        <Node type="in" id="2" />
        <Node type="in" id="3" />
        <Node type="in" id="4" />
        <Node type="in" id="5" />
        <Node type="in" id="6" />
        <Node type="in" id="7" />
        <Node type="in" id="8" />
        <Node type="in" id="9" />
        <Node type="in" id="10" />
        <Node type="out" id="11" />
      </Nodes>
      <Connections>
        <Con id="20" src="8" tgt="11" wght="-3.0302901681762018" />
        <Con id="23" src="1" tgt="11" wght="0.96075406278176034" />
        <Con id="24" src="2" tgt="11" wght="-0.50733809885408665" />
        <Con id="29" src="0" tgt="11" wght="2.03394754048787" />
        <Con id="30" src="7" tgt="11" wght="-1.1735018874807217" />
        <Con id="31" src="5" tgt="11" wght="-2.3275548318382389" />
        <Con id="32" src="9" tgt="11" wght="-0.081543126658732173" />
        <Con id="33" src="4" tgt="11" wght="-2.1451212324231705" />
        <Con id="34" src="3" tgt="11" wght="-1.2932336615868805" />
        <Con id="35" src="6" tgt="11" wght="1.149659505837346" />
        <Con id="36" src="10" tgt="11" wght="-0.071375149456570544" />
      </Connections>
    </Network>
    <Network id="18219" birthGen="151" fitness="1451.0586242675781">
      <Nodes>
        <Node type="bias" id="0" />
        <Node type="in" id="1" />
        <Node type="in" id="2" />
        <Node type="in" id="3" />
        <Node type="in" id="4" />
        <Node type="in" id="5" />
        <Node type="in" id="6" />
        <Node type="in" id="7" />
        <Node type="in" id="8" />
        <Node type="in" id="9" />
        <Node type="in" id="10" />
        <Node type="out" id="11" />
      </Nodes>
      <Connections>
        <Con id="20" src="8" tgt="11" wght="-3.0302901681762018" />
        <Con id="23" src="1" tgt="11" wght="0.96075406278176034" />
        <Con id="24" src="2" tgt="11" wght="-0.50733809885408665" />
        <Con id="29" src="0" tgt="11" wght="1.8421057241413266" />
        <Con id="30" src="7" tgt="11" wght="-1.1735018874807217" />
        <Con id="31" src="5" tgt="11" wght="-2.3275548318382389" />
        <Con id="32" src="9" tgt="11" wght="-0.081543126658732173" />
        <Con id="33" src="4" tgt="11" wght="-2.1451212324231705" />
        <Con id="34" src="3" tgt="11" wght="-1.2932336615868805" />
        <Con id="35" src="6" tgt="11" wght="1.149659505837346" />
        <Con id="36" src="10" tgt="11" wght="-0.071375149456570544" />
      </Connections>
    </Network>
    <Network id="18220" birthGen="151" fitness="1421.0774536132813">
      <Nodes>
        <Node type="bias" id="0" />
        <Node type="in" id="1" />
        <Node type="in" id="2" />
        <Node type="in" id="3" />
        <Node type="in" id="4" />
        <Node type="in" id="5" />
        <Node type="in" id="6" />
        <Node type="in" id="7" />
        <Node type="in" id="8" />
        <Node type="in" id="9" />
        <Node type="in" id="10" />
        <Node type="out" id="11" />
      </Nodes>
      <Connections>
        <Con id="20" src="8" tgt="11" wght="-3.043776984764047" />
        <Con id="23" src="1" tgt="11" wght="0.9592866564205248" />
        <Con id="24" src="2" tgt="11" wght="-0.50733809885408665" />
        <Con id="29" src="0" tgt="11" wght="1.8421057241413266" />
        <Con id="30" src="7" tgt="11" wght="-1.1735018874807217" />
        <Con id="31" src="5" tgt="11" wght="-2.3275548318382389" />
        <Con id="32" src="9" tgt="11" wght="-0.081543126658732173" />
        <Con id="33" src="4" tgt="11" wght="-2.1451212324231705" />
        <Con id="34" src="3" tgt="11" wght="-1.2871682901751891" />
        <Con id="35" src="6" tgt="11" wght="1.149659505837346" />
        <Con id="36" src="10" tgt="11" wght="-0.071375149456570544" />
      </Connections>
    </Network>
    <Network id="18221" birthGen="151" fitness="431.16604709625244">
      <Nodes>
        <Node type="bias" id="0" />
        <Node type="in" id="1" />
        <Node type="in" id="2" />
        <Node type="in" id="3" />
        <Node type="in" id="4" />
        <Node type="in" id="5" />
        <Node type="in" id="6" />
        <Node type="in" id="7" />
        <Node type="in" id="8" />
        <Node type="in" id="9" />
        <Node type="in" id="10" />
        <Node type="out" id="11" />
      </Nodes>
      <Connections>
        <Con id="20" src="8" tgt="11" wght="-3.0302901681762018" />
        <Con id="23" src="1" tgt="11" wght="0.94151982583581206" />
        <Con id="24" src="2" tgt="11" wght="-0.52871629013941834" />
        <Con id="29" src="0" tgt="11" wght="1.8436701395827069" />
        <Con id="30" src="7" tgt="11" wght="-1.1594983908168373" />
        <Con id="31" src="5" tgt="11" wght="-2.3275548318382389" />
        <Con id="32" src="9" tgt="11" wght="-0.081543126658732173" />
        <Con id="33" src="4" tgt="11" wght="-2.13821428710905" />
        <Con id="34" src="3" tgt="11" wght="-1.2871682901751891" />
        <Con id="35" src="6" tgt="11" wght="1.149659505837346" />
        <Con id="36" src="10" tgt="11" wght="-0.071375149456570544" />
      </Connections>
    </Network>
    <Network id="18222" birthGen="151" fitness="1802.9830932617188">
      <Nodes>
        <Node type="bias" id="0" />
        <Node type="in" id="1" />
        <Node type="in" id="2" />
        <Node type="in" id="3" />
        <Node type="in" id="4" />
        <Node type="in" id="5" />
        <Node type="in" id="6" />
        <Node type="in" id="7" />
        <Node type="in" id="8" />
        <Node type="in" id="9" />
        <Node type="in" id="10" />
        <Node type="out" id="11" />
      </Nodes>
      <Connections>
        <Con id="20" src="8" tgt="11" wght="-3.0302901681762018" />
        <Con id="23" src="1" tgt="11" wght="0.96075406278176034" />
        <Con id="24" src="2" tgt="11" wght="-0.50733809885408665" />
        <Con id="29" src="0" tgt="11" wght="1.8421057241413266" />
        <Con id="30" src="7" tgt="11" wght="-1.1735018874807217" />
        <Con id="31" src="5" tgt="11" wght="-2.3275548318382389" />
        <Con id="32" src="9" tgt="11" wght="-0.081543126658732173" />
        <Con id="33" src="4" tgt="11" wght="-2.1451212324231705" />
        <Con id="34" src="3" tgt="11" wght="-1.2871682901751891" />
        <Con id="35" src="6" tgt="11" wght="1.1704402430996286" />
        <Con id="36" src="10" tgt="11" wght="-0.071375149456570544" />
      </Connections>
    </Network>
    <Network id="18223" birthGen="151" fitness="1804.8499145507813">
      <Nodes>
        <Node type="bias" id="0" />
        <Node type="in" id="1" />
        <Node type="in" id="2" />
        <Node type="in" id="3" />
        <Node type="in" id="4" />
        <Node type="in" id="5" />
        <Node type="in" id="6" />
        <Node type="in" id="7" />
        <Node type="in" id="8" />
        <Node type="in" id="9" />
        <Node type="in" id="10" />
        <Node type="out" id="11" />
      </Nodes>
      <Connections>
        <Con id="20" src="8" tgt="11" wght="-3.0302901681762018" />
        <Con id="23" src="1" tgt="11" wght="0.9592866564205248" />
        <Con id="24" src="2" tgt="11" wght="-0.50733809885408665" />
        <Con id="29" src="0" tgt="11" wght="1.8436701395827069" />
        <Con id="30" src="7" tgt="11" wght="-1.1735018874807217" />
        <Con id="31" src="5" tgt="11" wght="-2.3275548318382389" />
        <Con id="32" src="9" tgt="11" wght="-0.081543126658732173" />
        <Con id="33" src="4" tgt="11" wght="-2.1451212324231705" />
        <Con id="34" src="3" tgt="11" wght="-1.2871682901751891" />
        <Con id="35" src="6" tgt="11" wght="1.149659505837346" />
        <Con id="36" src="10" tgt="11" wght="-0.071375149456570544" />
      </Connections>
    </Network>
    <Network id="18224" birthGen="151" fitness="1360.513671875">
      <Nodes>
        <Node type="bias" id="0" />
        <Node type="in" id="1" />
        <Node type="in" id="2" />
        <Node type="in" id="3" />
        <Node type="in" id="4" />
        <Node type="in" id="5" />
        <Node type="in" id="6" />
        <Node type="in" id="7" />
        <Node type="in" id="8" />
        <Node type="in" id="9" />
        <Node type="in" id="10" />
        <Node type="out" id="11" />
      </Nodes>
      <Connections>
        <Con id="20" src="8" tgt="11" wght="-3.0302901681762018" />
        <Con id="23" src="1" tgt="11" wght="0.9592866564205248" />
        <Con id="24" src="2" tgt="11" wght="-0.52871629013941834" />
        <Con id="29" src="0" tgt="11" wght="1.8421057241413266" />
        <Con id="30" src="7" tgt="11" wght="-1.1735018874807217" />
        <Con id="31" src="5" tgt="11" wght="-2.3275548318382389" />
        <Con id="32" src="9" tgt="11" wght="-0.081543126658732173" />
        <Con id="33" src="4" tgt="11" wght="-2.1451212324231705" />
        <Con id="34" src="3" tgt="11" wght="-1.2871682901751891" />
        <Con id="35" src="6" tgt="11" wght="1.149659505837346" />
        <Con id="36" src="10" tgt="11" wght="-0.071375149456570544" />
      </Connections>
    </Network>
    <Network id="18225" birthGen="151" fitness="1428.7892456054688">
      <Nodes>
        <Node type="bias" id="0" />
        <Node type="in" id="1" />
        <Node type="in" id="2" />
        <Node type="in" id="3" />
        <Node type="in" id="4" />
        <Node type="in" id="5" />
        <Node type="in" id="6" />
        <Node type="in" id="7" />
        <Node type="in" id="8" />
        <Node type="in" id="9" />
        <Node type="in" id="10" />
        <Node type="out" id="11" />
      </Nodes>
      <Connections>
        <Con id="20" src="8" tgt="11" wght="-3.0302901681762018" />
        <Con id="23" src="1" tgt="11" wght="0.94151982583581206" />
        <Con id="24" src="2" tgt="11" wght="-0.50733809885408665" />
        <Con id="29" src="0" tgt="11" wght="1.8436701395827069" />
        <Con id="30" src="7" tgt="11" wght="-1.1735018874807217" />
        <Con id="31" src="5" tgt="11" wght="-2.3275548318382389" />
        <Con id="32" src="9" tgt="11" wght="-0.081543126658732173" />
        <Con id="33" src="4" tgt="11" wght="-2.1244311945314163" />
        <Con id="34" src="3" tgt="11" wght="-1.2871682901751891" />
        <Con id="35" src="6" tgt="11" wght="1.149659505837346" />
        <Con id="36" src="10" tgt="11" wght="-0.071375149456570544" />
      </Connections>
    </Network>
    <Network id="18226" birthGen="151" fitness="1088.9111633300781">
      <Nodes>
        <Node type="bias" id="0" />
        <Node type="in" id="1" />
        <Node type="in" id="2" />
        <Node type="in" id="3" />
        <Node type="in" id="4" />
        <Node type="in" id="5" />
        <Node type="in" id="6" />
        <Node type="in" id="7" />
        <Node type="in" id="8" />
        <Node type="in" id="9" />
        <Node type="in" id="10" />
        <Node type="out" id="11" />
      </Nodes>
      <Connections>
        <Con id="20" src="8" tgt="11" wght="-3.0302901681762018" />
        <Con id="23" src="1" tgt="11" wght="0.96075406278176034" />
        <Con id="24" src="2" tgt="11" wght="-0.50733809885408665" />
        <Con id="29" src="0" tgt="11" wght="1.8436701395827069" />
        <Con id="30" src="7" tgt="11" wght="-1.1735018874807217" />
        <Con id="31" src="5" tgt="11" wght="-2.3275548318382389" />
        <Con id="32" src="9" tgt="11" wght="-0.081543126658732173" />
        <Con id="33" src="4" tgt="11" wght="-2.1451212324231705" />
        <Con id="34" src="3" tgt="11" wght="-1.2932336615868805" />
        <Con id="35" src="6" tgt="11" wght="1.149659505837346" />
        <Con id="36" src="10" tgt="11" wght="-0.071375149456570544" />
      </Connections>
    </Network>
    <Network id="18227" birthGen="151" fitness="1214.4049072265625">
      <Nodes>
        <Node type="bias" id="0" />
        <Node type="in" id="1" />
        <Node type="in" id="2" />
        <Node type="in" id="3" />
        <Node type="in" id="4" />
        <Node type="in" id="5" />
        <Node type="in" id="6" />
        <Node type="in" id="7" />
        <Node type="in" id="8" />
        <Node type="in" id="9" />
        <Node type="in" id="10" />
        <Node type="out" id="11" />
      </Nodes>
      <Connections>
        <Con id="20" src="8" tgt="11" wght="-3.0302901681762018" />
        <Con id="23" src="1" tgt="11" wght="0.94151982583581206" />
        <Con id="24" src="2" tgt="11" wght="-0.50733809885408665" />
        <Con id="29" src="0" tgt="11" wght="1.8436701395827069" />
        <Con id="30" src="7" tgt="11" wght="-1.1735018874807217" />
        <Con id="31" src="5" tgt="11" wght="-2.3275548318382389" />
        <Con id="32" src="9" tgt="11" wght="-0.081543126658732173" />
        <Con id="33" src="4" tgt="11" wght="-2.1451212324231705" />
        <Con id="34" src="3" tgt="11" wght="-1.2932336615868805" />
        <Con id="35" src="6" tgt="11" wght="1.149659505837346" />
        <Con id="36" src="10" tgt="11" wght="-0.071375149456570544" />
      </Connections>
    </Network>
    <Network id="18228" birthGen="151" fitness="1121.7537536621094">
      <Nodes>
        <Node type="bias" id="0" />
        <Node type="in" id="1" />
        <Node type="in" id="2" />
        <Node type="in" id="3" />
        <Node type="in" id="4" />
        <Node type="in" id="5" />
        <Node type="in" id="6" />
        <Node type="in" id="7" />
        <Node type="in" id="8" />
        <Node type="in" id="9" />
        <Node type="in" id="10" />
        <Node type="out" id="11" />
      </Nodes>
      <Connections>
        <Con id="20" src="8" tgt="11" wght="-3.043776984764047" />
        <Con id="23" src="1" tgt="11" wght="0.9592866564205248" />
        <Con id="24" src="2" tgt="11" wght="-0.50733809885408665" />
        <Con id="29" src="0" tgt="11" wght="1.8421057241413266" />
        <Con id="30" src="7" tgt="11" wght="-1.178879199098674" />
        <Con id="31" src="5" tgt="11" wght="-2.3275548318382389" />
        <Con id="32" src="9" tgt="11" wght="-0.081543126658732173" />
        <Con id="33" src="4" tgt="11" wght="-2.13821428710905" />
        <Con id="34" src="3" tgt="11" wght="-1.2871682901751891" />
        <Con id="35" src="6" tgt="11" wght="1.149659505837346" />
        <Con id="36" src="10" tgt="11" wght="-0.071375149456570544" />
      </Connections>
    </Network>
    <Network id="18229" birthGen="151" fitness="1335.0341796875">
      <Nodes>
        <Node type="bias" id="0" />
        <Node type="in" id="1" />
        <Node type="in" id="2" />
        <Node type="in" id="3" />
        <Node type="in" id="4" />
        <Node type="in" id="5" />
        <Node type="in" id="6" />
        <Node type="in" id="7" />
        <Node type="in" id="8" />
        <Node type="in" id="9" />
        <Node type="in" id="10" />
        <Node type="out" id="11" />
      </Nodes>
      <Connections>
        <Con id="20" src="8" tgt="11" wght="-3.0302901681762018" />
        <Con id="23" src="1" tgt="11" wght="0.94151982583581206" />
        <Con id="24" src="2" tgt="11" wght="-0.50733809885408665" />
        <Con id="29" src="0" tgt="11" wght="1.8436701395827069" />
        <Con id="30" src="7" tgt="11" wght="-1.1735018874807217" />
        <Con id="31" src="5" tgt="11" wght="-2.3275548318382389" />
        <Con id="32" src="9" tgt="11" wght="-0.081543126658732173" />
        <Con id="33" src="4" tgt="11" wght="-2.1451212324231705" />
        <Con id="34" src="3" tgt="11" wght="-1.2871682901751891" />
        <Con id="35" src="6" tgt="11" wght="1.149659505837346" />
        <Con id="36" src="10" tgt="11" wght="-0.071375149456570544" />
      </Connections>
    </Network>
    <Network id="18230" birthGen="151" fitness="1195.8692016601563">
      <Nodes>
        <Node type="bias" id="0" />
        <Node type="in" id="1" />
        <Node type="in" id="2" />
        <Node type="in" id="3" />
        <Node type="in" id="4" />
        <Node type="in" id="5" />
        <Node type="in" id="6" />
        <Node type="in" id="7" />
        <Node type="in" id="8" />
        <Node type="in" id="9" />
        <Node type="in" id="10" />
        <Node type="out" id="11" />
      </Nodes>
      <Connections>
        <Con id="20" src="8" tgt="11" wght="-3.0302901681762018" />
        <Con id="23" src="1" tgt="11" wght="0.9592866564205248" />
        <Con id="24" src="2" tgt="11" wght="-0.50733809885408665" />
        <Con id="29" src="0" tgt="11" wght="1.8421057241413266" />
        <Con id="30" src="7" tgt="11" wght="-1.1594983908168373" />
        <Con id="31" src="5" tgt="11" wght="-2.3275548318382389" />
        <Con id="32" src="9" tgt="11" wght="-0.081543126658732173" />
        <Con id="33" src="4" tgt="11" wght="-2.1451212324231705" />
        <Con id="34" src="3" tgt="11" wght="-1.2871682901751891" />
        <Con id="35" src="6" tgt="11" wght="1.149659505837346" />
        <Con id="36" src="10" tgt="11" wght="-0.071375149456570544" />
      </Connections>
    </Network>
    <Network id="18231" birthGen="151" fitness="1599.6861572265625">
      <Nodes>
        <Node type="bias" id="0" />
        <Node type="in" id="1" />
        <Node type="in" id="2" />
        <Node type="in" id="3" />
        <Node type="in" id="4" />
        <Node type="in" id="5" />
        <Node type="in" id="6" />
        <Node type="in" id="7" />
        <Node type="in" id="8" />
        <Node type="in" id="9" />
        <Node type="in" id="10" />
        <Node type="out" id="11" />
      </Nodes>
      <Connections>
        <Con id="20" src="8" tgt="11" wght="-3.0302901681762018" />
        <Con id="23" src="1" tgt="11" wght="0.94151982583581206" />
        <Con id="24" src="2" tgt="11" wght="-0.50733809885408665" />
        <Con id="29" src="0" tgt="11" wght="1.8436701395827069" />
        <Con id="30" src="7" tgt="11" wght="-1.1735018874807217" />
        <Con id="31" src="5" tgt="11" wght="-2.3275548318382389" />
        <Con id="32" src="9" tgt="11" wght="-0.081543126658732173" />
        <Con id="33" src="4" tgt="11" wght="-2.1451212324231705" />
        <Con id="34" src="3" tgt="11" wght="-1.2871682901751891" />
        <Con id="35" src="6" tgt="11" wght="1.1704402430996286" />
        <Con id="36" src="10" tgt="11" wght="-0.071375149456570544" />
      </Connections>
    </Network>
    <Network id="18232" birthGen="151" fitness="1092.003173828125">
      <Nodes>
        <Node type="bias" id="0" />
        <Node type="in" id="1" />
        <Node type="in" id="2" />
        <Node type="in" id="3" />
        <Node type="in" id="4" />
        <Node type="in" id="5" />
        <Node type="in" id="6" />
        <Node type="in" id="7" />
        <Node type="in" id="8" />
        <Node type="in" id="9" />
        <Node type="in" id="10" />
        <Node type="out" id="11" />
      </Nodes>
      <Connections>
        <Con id="20" src="8" tgt="11" wght="-3.0263117100017207" />
        <Con id="23" src="1" tgt="11" wght="3.6103113155479019" />
        <Con id="24" src="2" tgt="11" wght="-1.1295151111970263" />
        <Con id="29" src="0" tgt="11" wght="1.8520875296631869" />
        <Con id="30" src="7" tgt="11" wght="-1.1513050234950728" />
        <Con id="31" src="5" tgt="11" wght="-2.3486767471315737" />
        <Con id="32" src="9" tgt="11" wght="-0.081543126658732173" />
        <Con id="33" src="4" tgt="11" wght="-2.1451212324231705" />
        <Con id="34" src="3" tgt="11" wght="-0.25245091174741408" />
        <Con id="35" src="6" tgt="11" wght="1.0938240385911795" />
        <Con id="36" src="10" tgt="11" wght="-0.34588778930940212" />
      </Connections>
    </Network>
    <Network id="18233" birthGen="151" fitness="876.23513793945313">
      <Nodes>
        <Node type="bias" id="0" />
        <Node type="in" id="1" />
        <Node type="in" id="2" />
        <Node type="in" id="3" />
        <Node type="in" id="4" />
        <Node type="in" id="5" />
        <Node type="in" id="6" />
        <Node type="in" id="7" />
        <Node type="in" id="8" />
        <Node type="in" id="9" />
        <Node type="in" id="10" />
        <Node type="out" id="11" />
      </Nodes>
      <Connections>
        <Con id="20" src="8" tgt="11" wght="-3.0263117100017207" />
        <Con id="23" src="1" tgt="11" wght="3.6103113155479019" />
        <Con id="24" src="2" tgt="11" wght="-1.5260579910093974" />
        <Con id="29" src="0" tgt="11" wght="1.8498765950904466" />
        <Con id="30" src="7" tgt="11" wght="-1.1513050234950728" />
        <Con id="31" src="5" tgt="11" wght="-2.3486767471315737" />
        <Con id="32" src="9" tgt="11" wght="-1.612512838867681" />
        <Con id="33" src="4" tgt="11" wght="-1.752855561168567" />
        <Con id="34" src="3" tgt="11" wght="-1.308721683882484" />
        <Con id="35" src="6" tgt="11" wght="1.1297328926078933" />
        <Con id="36" src="10" tgt="11" wght="-0.34588778930940212" />
      </Connections>
    </Network>
    <Network id="18234" birthGen="151" fitness="789.37057495117188">
      <Nodes>
        <Node type="bias" id="0" />
        <Node type="in" id="1" />
        <Node type="in" id="2" />
        <Node type="in" id="3" />
        <Node type="in" id="4" />
        <Node type="in" id="5" />
        <Node type="in" id="6" />
        <Node type="in" id="7" />
        <Node type="in" id="8" />
        <Node type="in" id="9" />
        <Node type="in" id="10" />
        <Node type="out" id="11" />
      </Nodes>
      <Connections>
        <Con id="20" src="8" tgt="11" wght="-3.0263117100017207" />
        <Con id="23" src="1" tgt="11" wght="3.6103113155479019" />
        <Con id="24" src="2" tgt="11" wght="-2.3299908684566617" />
        <Con id="29" src="0" tgt="11" wght="1.8498765950904466" />
        <Con id="30" src="7" tgt="11" wght="-2.2249101627333339" />
        <Con id="31" src="5" tgt="11" wght="-2.3256562366168225" />
        <Con id="32" src="9" tgt="11" wght="-0.081543126658732173" />
        <Con id="33" src="4" tgt="11" wght="-2.1451212324231705" />
        <Con id="34" src="3" tgt="11" wght="-1.0993089572075734" />
        <Con id="35" src="6" tgt="11" wght="1.1297328926078933" />
        <Con id="36" src="10" tgt="11" wght="-0.34588778930940212" />
      </Connections>
    </Network>
    <Network id="18235" birthGen="151" fitness="1118.390625">
      <Nodes>
        <Node type="bias" id="0" />
        <Node type="in" id="1" />
        <Node type="in" id="2" />
        <Node type="in" id="3" />
        <Node type="in" id="4" />
        <Node type="in" id="5" />
        <Node type="in" id="6" />
        <Node type="in" id="7" />
        <Node type="in" id="8" />
        <Node type="in" id="9" />
        <Node type="in" id="10" />
        <Node type="out" id="11" />
      </Nodes>
      <Connections>
        <Con id="20" src="8" tgt="11" wght="-3.0263117100017207" />
        <Con id="23" src="1" tgt="11" wght="3.6103113155479019" />
        <Con id="24" src="2" tgt="11" wght="-1.1295151111970263" />
        <Con id="29" src="0" tgt="11" wght="1.8498765950904466" />
        <Con id="30" src="7" tgt="11" wght="-1.1513050234950728" />
        <Con id="31" src="5" tgt="11" wght="-2.3510022298323205" />
        <Con id="32" src="9" tgt="11" wght="-0.081543126658732173" />
        <Con id="33" src="4" tgt="11" wght="-2.1451212324231705" />
        <Con id="34" src="3" tgt="11" wght="-1.308721683882484" />
        <Con id="35" src="6" tgt="11" wght="1.1297328926078933" />
        <Con id="36" src="10" tgt="11" wght="-0.071375149456570544" />
      </Connections>
    </Network>
    <Network id="18236" birthGen="151" fitness="217.89920806884766">
      <Nodes>
        <Node type="bias" id="0" />
        <Node type="in" id="1" />
        <Node type="in" id="2" />
        <Node type="in" id="3" />
        <Node type="in" id="4" />
        <Node type="in" id="5" />
        <Node type="in" id="6" />
        <Node type="in" id="7" />
        <Node type="in" id="8" />
        <Node type="in" id="9" />
        <Node type="in" id="10" />
        <Node type="out" id="11" />
      </Nodes>
      <Connections>
        <Con id="20" src="8" tgt="11" wght="-3.0263117100017207" />
        <Con id="23" src="1" tgt="11" wght="3.6103113155479019" />
        <Con id="24" src="2" tgt="11" wght="-0.888875100257878" />
        <Con id="29" src="0" tgt="11" wght="1.8520875296631869" />
        <Con id="30" src="7" tgt="11" wght="-0.42286470107238883" />
        <Con id="31" src="5" tgt="11" wght="-2.3486767471315737" />
        <Con id="32" src="9" tgt="11" wght="-0.081543126658732173" />
        <Con id="33" src="4" tgt="11" wght="-2.0628289944311704" />
        <Con id="34" src="3" tgt="11" wght="-0.25245091174741408" />
        <Con id="35" src="6" tgt="11" wght="1.1297328926078933" />
