<?xml version="1.0" encoding="utf-8"?>
<Root>
  <ActivationFunctions>
    <Fn id="0" name="SteepenedSigmoid" prob="1" />
  </ActivationFunctions>
  <Networks>
    <Network id="8537" birthGen="70" fitness="2288.1531982421875">
      <Nodes>
        <Node type="bias" id="0" />
        <Node type="in" id="1" />
        <Node type="in" id="2" />
        <Node type="in" id="3" />
        <Node type="in" id="4" />
        <Node type="in" id="5" />
        <Node type="in" id="6" />
        <Node type="in" id="7" />
        <Node type="in" id="8" />
        <Node type="in" id="9" />
        <Node type="in" id="10" />
        <Node type="out" id="11" />
      </Nodes>
      <Connections>
        <Con id="20" src="8" tgt="11" wght="-2.3915355228738804" />
        <Con id="23" src="1" tgt="11" wght="1.5533918262443296" />
        <Con id="29" src="0" tgt="11" wght="1.3732317467795685" />
        <Con id="31" src="5" tgt="11" wght="-2.1822539302712407" />
        <Con id="33" src="4" tgt="11" wght="-1.802432805737908" />
        <Con id="35" src="6" tgt="11" wght="-0.045113248624596612" />
      </Connections>
    </Network>
  </Networks>
</Root>