<?xml version="1.0" encoding="utf-8"?>
<Root>
  <ActivationFunctions>
    <Fn id="0" name="SteepenedSigmoid" prob="1" />
  </ActivationFunctions>
  <Networks>
    <Network id="17946" birthGen="149" fitness="2766.58544921875">
      <Nodes>
        <Node type="bias" id="0" />
        <Node type="in" id="1" />
        <Node type="in" id="2" />
        <Node type="in" id="3" />
        <Node type="in" id="4" />
        <Node type="in" id="5" />
        <Node type="in" id="6" />
        <Node type="in" id="7" />
        <Node type="in" id="8" />
        <Node type="in" id="9" />
        <Node type="in" id="10" />
        <Node type="out" id="11" />
        <Node type="hid" id="39" />
        <Node type="hid" id="106" />
        <Node type="hid" id="109" />
        <Node type="hid" id="141" />
      </Nodes>
      <Connections>
        <Con id="21" src="9" tgt="11" wght="-1.2283619605811427" />
        <Con id="23" src="2" tgt="11" wght="-0.97802407987794437" />
        <Con id="24" src="5" tgt="11" wght="-5" />
        <Con id="28" src="4" tgt="11" wght="-5" />
        <Con id="32" src="8" tgt="11" wght="-3.78007608201185" />
        <Con id="33" src="7" tgt="11" wght="-2.7922802991502489" />
        <Con id="38" src="1" tgt="11" wght="-3.8586016587652394" />
        <Con id="41" src="39" tgt="11" wght="4.1348849703103374" />
        <Con id="86" src="3" tgt="39" wght="-1.5735560374827968" />
        <Con id="90" src="0" tgt="39" wght="-2.8366031358018517" />
        <Con id="107" src="3" tgt="106" wght="-0.62775977223820523" />
        <Con id="108" src="106" tgt="11" wght="3.1280856625579512" />
        <Con id="110" src="10" tgt="109" wght="2.0704872842200146" />
        <Con id="111" src="109" tgt="11" wght="0.98744236738168767" />
        <Con id="113" src="106" tgt="109" wght="-0.031980365515459352" />
        <Con id="114" src="4" tgt="106" wght="1.8646086488920448" />
        <Con id="117" src="5" tgt="106" wght="-2.7336340776871912" />
        <Con id="131" src="39" tgt="109" wght="3.5071352153745794" />
        <Con id="142" src="8" tgt="141" wght="-1.7822967346769445" />
        <Con id="143" src="141" tgt="39" wght="5" />
      </Connections>
    </Network>
  </Networks>
</Root>