<?xml version="1.0" encoding="utf-8"?>
<Root>
  <ActivationFunctions>
    <Fn id="0" name="SteepenedSigmoid" prob="1" />
  </ActivationFunctions>
  <Networks>
    <Network id="23094" birthGen="192" fitness="4188.668701171875">
      <Nodes>
        <Node type="bias" id="0" />
        <Node type="in" id="1" />
        <Node type="in" id="2" />
        <Node type="in" id="3" />
        <Node type="in" id="4" />
        <Node type="out" id="5" />
        <Node type="hid" id="31" />
        <Node type="hid" id="218" />
      </Nodes>
      <Connections>
        <Con id="8" src="2" tgt="5" wght="3.9505924431036443" />
        <Con id="9" src="3" tgt="5" wght="-4.2333425149931818" />
        <Con id="11" src="0" tgt="5" wght="0.40282640721030905" />
        <Con id="20" src="1" tgt="5" wght="-3.3226372608205859" />
        <Con id="30" src="4" tgt="5" wght="2.6290964569938811" />
        <Con id="159" src="2" tgt="31" wght="-3.8387611322104931" />
        <Con id="219" src="3" tgt="218" wght="-4.1686153253277691" />
        <Con id="220" src="218" tgt="31" wght="4.8908640129952037" />
        <Con id="224" src="218" tgt="5" wght="0.086386672685631744" />
      </Connections>
    </Network>
  </Networks>
</Root>