<?xml version="1.0" encoding="utf-8"?>
<Root>
  <ActivationFunctions>
    <Fn id="0" name="SteepenedSigmoid" prob="1" />
  </ActivationFunctions>
  <Networks>
    <Network id="18078" birthGen="150" fitness="1">
      <Nodes>
        <Node type="bias" id="0" />
        <Node type="in" id="1" />
        <Node type="in" id="2" />
        <Node type="in" id="3" />
        <Node type="in" id="4" />
        <Node type="in" id="5" />
        <Node type="in" id="6" />
        <Node type="in" id="7" />
        <Node type="in" id="8" />
        <Node type="in" id="9" />
        <Node type="in" id="10" />
        <Node type="out" id="11" />
        <Node type="hid" id="49" />
      </Nodes>
      <Connections>
        <Con id="20" src="8" tgt="11" wght="-1.5294765118416409" />
        <Con id="24" src="1" tgt="11" wght="0.7178912674113368" />
        <Con id="25" src="10" tgt="11" wght="1.0202472910165987" />
        <Con id="26" src="6" tgt="11" wght="-4.26579543185971" />
        <Con id="27" src="3" tgt="11" wght="-4.0266894691643387" />
        <Con id="28" src="9" tgt="11" wght="-1.1240631423165033" />
        <Con id="29" src="7" tgt="11" wght="0.54930172537701638" />
        <Con id="42" src="5" tgt="11" wght="-3.404505760904414" />
        <Con id="50" src="3" tgt="49" wght="1.2209027293016277" />
        <Con id="51" src="49" tgt="11" wght="3.549983203477892" />
      </Connections>
    </Network>
    <Network id="18071" birthGen="150" fitness="523.64544677734375">
      <Nodes>
        <Node type="bias" id="0" />
        <Node type="in" id="1" />
        <Node type="in" id="2" />
        <Node type="in" id="3" />
        <Node type="in" id="4" />
        <Node type="in" id="5" />
        <Node type="in" id="6" />
        <Node type="in" id="7" />
        <Node type="in" id="8" />
        <Node type="in" id="9" />
        <Node type="in" id="10" />
        <Node type="out" id="11" />
        <Node type="hid" id="49" />
      </Nodes>
      <Connections>
        <Con id="20" src="8" tgt="11" wght="-1.5322121870407623" />
        <Con id="24" src="1" tgt="11" wght="0.7178912674113368" />
        <Con id="25" src="10" tgt="11" wght="1.0202472910165987" />
        <Con id="26" src="6" tgt="11" wght="-4.26579543185971" />
        <Con id="27" src="3" tgt="11" wght="-4.4533629354145408" />
        <Con id="28" src="9" tgt="11" wght="-1.1240631423165033" />
        <Con id="29" src="7" tgt="11" wght="0.54930172537701638" />
        <Con id="42" src="5" tgt="11" wght="-3.2503714525155565" />
        <Con id="50" src="3" tgt="49" wght="1.2209027293016277" />
        <Con id="51" src="49" tgt="11" wght="3.549983203477892" />
      </Connections>
    </Network>
    <Network id="17979" birthGen="149" fitness="1114.3811645507813">
      <Nodes>
        <Node type="bias" id="0" />
        <Node type="in" id="1" />
        <Node type="in" id="2" />
        <Node type="in" id="3" />
        <Node type="in" id="4" />
        <Node type="in" id="5" />
        <Node type="in" id="6" />
        <Node type="in" id="7" />
        <Node type="in" id="8" />
        <Node type="in" id="9" />
        <Node type="in" id="10" />
        <Node type="out" id="11" />
        <Node type="hid" id="49" />
      </Nodes>
      <Connections>
        <Con id="20" src="8" tgt="11" wght="-1.8522358727896866" />
        <Con id="23" src="2" tgt="11" wght="2.0221442502778313" />
        <Con id="24" src="1" tgt="11" wght="0.757596847652133" />
        <Con id="25" src="10" tgt="11" wght="1.2393334217581353" />
        <Con id="26" src="6" tgt="11" wght="-5" />
        <Con id="27" src="3" tgt="11" wght="1.5331255784258246" />
        <Con id="28" src="9" tgt="11" wght="-0.68124772377083209" />
        <Con id="29" src="7" tgt="11" wght="0.16695757263378919" />
        <Con id="30" src="0" tgt="11" wght="-0.016310604975678204" />
        <Con id="35" src="4" tgt="11" wght="-1.3084736362738665" />
        <Con id="42" src="5" tgt="11" wght="-2.8140964761105152" />
        <Con id="50" src="3" tgt="49" wght="-4.9823472979249877" />
        <Con id="51" src="49" tgt="11" wght="3.8072084117697229" />
      </Connections>
    </Network>
    <Network id="17843" birthGen="148" fitness="1144.5841674804688">
      <Nodes>
        <Node type="bias" id="0" />
        <Node type="in" id="1" />
        <Node type="in" id="2" />
        <Node type="in" id="3" />
        <Node type="in" id="4" />
        <Node type="in" id="5" />
        <Node type="in" id="6" />
        <Node type="in" id="7" />
        <Node type="in" id="8" />
        <Node type="in" id="9" />
        <Node type="in" id="10" />
        <Node type="out" id="11" />
        <Node type="hid" id="49" />
      </Nodes>
      <Connections>
        <Con id="20" src="8" tgt="11" wght="-1.8522358727896866" />
        <Con id="23" src="2" tgt="11" wght="2.0221442502778313" />
        <Con id="24" src="1" tgt="11" wght="0.757596847652133" />
        <Con id="25" src="10" tgt="11" wght="1.2393334217581353" />
        <Con id="26" src="6" tgt="11" wght="-4.9948324434147251" />
        <Con id="27" src="3" tgt="11" wght="1.5331255784258246" />
        <Con id="28" src="9" tgt="11" wght="-0.68124772377083209" />
        <Con id="29" src="7" tgt="11" wght="0.16695757263378919" />
        <Con id="30" src="0" tgt="11" wght="-0.016310604975678204" />
        <Con id="35" src="4" tgt="11" wght="-1.3084736362738665" />
        <Con id="42" src="5" tgt="11" wght="-2.8140964761105152" />
        <Con id="50" src="3" tgt="49" wght="-4.9823472979249877" />
        <Con id="51" src="49" tgt="11" wght="3.8072084117697229" />
      </Connections>
    </Network>
    <Network id="18101" birthGen="150" fitness="1081.4470825195313">
      <Nodes>
        <Node type="bias" id="0" />
        <Node type="in" id="1" />
        <Node type="in" id="2" />
        <Node type="in" id="3" />
        <Node type="in" id="4" />
        <Node type="in" id="5" />
        <Node type="in" id="6" />
        <Node type="in" id="7" />
        <Node type="in" id="8" />
        <Node type="in" id="9" />
        <Node type="in" id="10" />
        <Node type="out" id="11" />
        <Node type="hid" id="49" />
      </Nodes>
      <Connections>
        <Con id="20" src="8" tgt="11" wght="-2.1442635201244653" />
        <Con id="23" src="2" tgt="11" wght="2.0315746537049457" />
        <Con id="24" src="1" tgt="11" wght="0.70801784388151079" />
        <Con id="25" src="10" tgt="11" wght="1.2393334217581353" />
        <Con id="26" src="6" tgt="11" wght="-5" />
        <Con id="27" src="3" tgt="11" wght="1.8677425783089543" />
        <Con id="28" src="9" tgt="11" wght="-0.68124772377083209" />
        <Con id="29" src="7" tgt="11" wght="0.57256876167491311" />
        <Con id="30" src="0" tgt="11" wght="-0.016310604975678204" />
        <Con id="35" src="4" tgt="11" wght="-1.2901677690153459" />
        <Con id="42" src="5" tgt="11" wght="-2.8316190072522351" />
        <Con id="50" src="3" tgt="49" wght="-4.9823472979249877" />
        <Con id="51" src="49" tgt="11" wght="3.7918619268701654" />
      </Connections>
    </Network>
    <Network id="18089" birthGen="150" fitness="1121.0992431640625">
      <Nodes>
        <Node type="bias" id="0" />
        <Node type="in" id="1" />
        <Node type="in" id="2" />
        <Node type="in" id="3" />
        <Node type="in" id="4" />
        <Node type="in" id="5" />
        <Node type="in" id="6" />
        <Node type="in" id="7" />
        <Node type="in" id="8" />
        <Node type="in" id="9" />
        <Node type="in" id="10" />
        <Node type="out" id="11" />
        <Node type="hid" id="49" />
      </Nodes>
      <Connections>
        <Con id="20" src="8" tgt="11" wght="-2.1442635201244653" />
        <Con id="23" src="2" tgt="11" wght="2.0315746537049457" />
        <Con id="24" src="1" tgt="11" wght="0.73885804765341145" />
        <Con id="25" src="10" tgt="11" wght="1.1819005072730961" />
        <Con id="26" src="6" tgt="11" wght="-5" />
        <Con id="27" src="3" tgt="11" wght="1.8677425783089543" />
        <Con id="28" src="9" tgt="11" wght="-1.1799789153708096" />
        <Con id="29" src="7" tgt="11" wght="0.57256876167491311" />
        <Con id="30" src="0" tgt="11" wght="-0.016310604975678204" />
        <Con id="35" src="4" tgt="11" wght="-1.2901677690153459" />
        <Con id="42" src="5" tgt="11" wght="-2.8316190072522351" />
        <Con id="50" src="3" tgt="49" wght="-4.9823472979249877" />
        <Con id="51" src="49" tgt="11" wght="3.7918619268701654" />
      </Connections>
    </Network>
    <Network id="18098" birthGen="150" fitness="622.09063720703125">
      <Nodes>
        <Node type="bias" id="0" />
        <Node type="in" id="1" />
        <Node type="in" id="2" />
        <Node type="in" id="3" />
        <Node type="in" id="4" />
        <Node type="in" id="5" />
        <Node type="in" id="6" />
        <Node type="in" id="7" />
        <Node type="in" id="8" />
        <Node type="in" id="9" />
        <Node type="in" id="10" />
        <Node type="out" id="11" />
        <Node type="hid" id="49" />
      </Nodes>
      <Connections>
        <Con id="20" src="8" tgt="11" wght="-1.8522358727896866" />
        <Con id="23" src="2" tgt="11" wght="2.0221442502778313" />
        <Con id="24" src="1" tgt="11" wght="0.70801784388151079" />
        <Con id="25" src="10" tgt="11" wght="1.1819005072730961" />
        <Con id="26" src="6" tgt="11" wght="-5" />
        <Con id="27" src="3" tgt="11" wght="1.8677425783089543" />
        <Con id="28" src="9" tgt="11" wght="-1.1799789153708096" />
        <Con id="29" src="7" tgt="11" wght="0.16695757263378919" />
        <Con id="30" src="0" tgt="11" wght="-0.016310604975678204" />
        <Con id="35" src="4" tgt="11" wght="-1.3084736362738665" />
        <Con id="42" src="5" tgt="11" wght="-2.8316190072522351" />
        <Con id="50" src="3" tgt="49" wght="-4.9823472979249877" />
        <Con id="51" src="49" tgt="11" wght="3.7918619268701654" />
      </Connections>
    </Network>
    <Network id="18118" birthGen="150" fitness="1046.1524658203125">
      <Nodes>
        <Node type="bias" id="0" />
        <Node type="in" id="1" />
        <Node type="in" id="2" />
        <Node type="in" id="3" />
        <Node type="in" id="4" />
        <Node type="in" id="5" />
        <Node type="in" id="6" />
        <Node type="in" id="7" />
        <Node type="in" id="8" />
        <Node type="in" id="9" />
        <Node type="in" id="10" />
        <Node type="out" id="11" />
        <Node type="hid" id="49" />
      </Nodes>
      <Connections>
        <Con id="20" src="8" tgt="11" wght="-2.9452816269948143" />
        <Con id="23" src="2" tgt="11" wght="2.0221442502778313" />
        <Con id="24" src="1" tgt="11" wght="0.70801784388151079" />
        <Con id="25" src="10" tgt="11" wght="1.1747649521093793" />
        <Con id="26" src="6" tgt="11" wght="-5" />
        <Con id="27" src="3" tgt="11" wght="1.8677425783089543" />
        <Con id="28" src="9" tgt="11" wght="0.34083314014135851" />
        <Con id="29" src="7" tgt="11" wght="0.57256876167491311" />
        <Con id="30" src="0" tgt="11" wght="-0.016310604975678204" />
        <Con id="35" src="4" tgt="11" wght="-1.2729010284605531" />
        <Con id="42" src="5" tgt="11" wght="-2.8273206124774695" />
        <Con id="50" src="3" tgt="49" wght="-4.9823472979249877" />
        <Con id="51" src="49" tgt="11" wght="3.5162710900505125" />
      </Connections>
    </Network>
    <Network id="17857" birthGen="148" fitness="807.41207885742188">
      <Nodes>
        <Node type="bias" id="0" />
        <Node type="in" id="1" />
        <Node type="in" id="2" />
        <Node type="in" id="3" />
        <Node type="in" id="4" />
        <Node type="in" id="5" />
        <Node type="in" id="6" />
        <Node type="in" id="7" />
        <Node type="in" id="8" />
        <Node type="in" id="9" />
        <Node type="in" id="10" />
        <Node type="out" id="11" />
        <Node type="hid" id="49" />
      </Nodes>
      <Connections>
        <Con id="20" src="8" tgt="11" wght="-2.9452816269948143" />
        <Con id="23" src="2" tgt="11" wght="2.0315746537049457" />
        <Con id="24" src="1" tgt="11" wght="0.70801784388151079" />
        <Con id="25" src="10" tgt="11" wght="1.1819005072730961" />
        <Con id="26" src="6" tgt="11" wght="-5" />
        <Con id="27" src="3" tgt="11" wght="1.8677425783089543" />
        <Con id="28" src="9" tgt="11" wght="0.34083314014135851" />
        <Con id="29" src="7" tgt="11" wght="0.57256876167491311" />
        <Con id="30" src="0" tgt="11" wght="-0.016310604975678204" />
        <Con id="35" src="4" tgt="11" wght="-1.2729010284605531" />
        <Con id="42" src="5" tgt="11" wght="-2.8316190072522351" />
        <Con id="50" src="3" tgt="49" wght="-4.6714017981438367" />
        <Con id="51" src="49" tgt="11" wght="3.7918619268701654" />
      </Connections>
    </Network>
    <Network id="18125" birthGen="150" fitness="1056.7247924804688">
      <Nodes>
        <Node type="bias" id="0" />
        <Node type="in" id="1" />
        <Node type="in" id="2" />
        <Node type="in" id="3" />
        <Node type="in" id="4" />
        <Node type="in" id="5" />
        <Node type="in" id="6" />
        <Node type="in" id="7" />
        <Node type="in" id="8" />
        <Node type="in" id="9" />
        <Node type="in" id="10" />
        <Node type="out" id="11" />
        <Node type="hid" id="49" />
      </Nodes>
      <Connections>
        <Con id="20" src="8" tgt="11" wght="-2.9452816269948143" />
        <Con id="23" src="2" tgt="11" wght="2.0315746537049457" />
        <Con id="24" src="1" tgt="11" wght="0.70801784388151079" />
        <Con id="25" src="10" tgt="11" wght="1.1819005072730961" />
        <Con id="26" src="6" tgt="11" wght="-5" />
        <Con id="27" src="3" tgt="11" wght="1.8677425783089543" />
        <Con id="28" src="9" tgt="11" wght="0.056216809814548296" />
        <Con id="29" src="7" tgt="11" wght="0.87173241031641324" />
        <Con id="30" src="0" tgt="11" wght="-0.016310604975678204" />
        <Con id="35" src="4" tgt="11" wght="-1.2729010284605531" />
        <Con id="42" src="5" tgt="11" wght="-2.8316190072522351" />
        <Con id="50" src="3" tgt="49" wght="-4.9823472979249877" />
        <Con id="51" src="49" tgt="11" wght="3.5162710900505125" />
      </Connections>
    </Network>
    <Network id="18113" birthGen="150" fitness="1052.9052734375">
      <Nodes>
        <Node type="bias" id="0" />
        <Node type="in" id="1" />
        <Node type="in" id="2" />
        <Node type="in" id="3" />
        <Node type="in" id="4" />
        <Node type="in" id="5" />
        <Node type="in" id="6" />
        <Node type="in" id="7" />
        <Node type="in" id="8" />
        <Node type="in" id="9" />
        <Node type="in" id="10" />
        <Node type="out" id="11" />
        <Node type="hid" id="49" />
      </Nodes>
      <Connections>
        <Con id="20" src="8" tgt="11" wght="-2.9341717887917094" />
        <Con id="23" src="2" tgt="11" wght="2.0315746537049457" />
        <Con id="24" src="1" tgt="11" wght="0.718239812157077" />
        <Con id="25" src="10" tgt="11" wght="1.173474662428031" />
        <Con id="26" src="6" tgt="11" wght="-4.9970638080882006" />
        <Con id="27" src="3" tgt="11" wght="1.8677425783089543" />
        <Con id="28" src="9" tgt="11" wght="0.34083314014135851" />
        <Con id="29" src="7" tgt="11" wght="0.57256876167491311" />
        <Con id="30" src="0" tgt="11" wght="-0.016310604975678204" />
        <Con id="35" src="4" tgt="11" wght="-1.2729010284605531" />
        <Con id="42" src="5" tgt="11" wght="-2.8490401419003679" />
        <Con id="50" src="3" tgt="49" wght="-4.6836580434298449" />
        <Con id="51" src="49" tgt="11" wght="3.5174910850688863" />
      </Connections>
    </Network>
    <Network id="18126" birthGen="150" fitness="1032.5506591796875">
      <Nodes>
        <Node type="bias" id="0" />
        <Node type="in" id="1" />
        <Node type="in" id="2" />
        <Node type="in" id="3" />
        <Node type="in" id="4" />
        <Node type="in" id="5" />
        <Node type="in" id="6" />
        <Node type="in" id="7" />
        <Node type="in" id="8" />
        <Node type="in" id="9" />
        <Node type="in" id="10" />
        <Node type="out" id="11" />
        <Node type="hid" id="49" />
      </Nodes>
      <Connections>
        <Con id="20" src="8" tgt="11" wght="-2.9341717887917094" />
        <Con id="23" src="2" tgt="11" wght="2.0315746537049457" />
        <Con id="24" src="1" tgt="11" wght="0.70801784388151079" />
        <Con id="25" src="10" tgt="11" wght="1.1819005072730961" />
        <Con id="26" src="6" tgt="11" wght="-5" />
        <Con id="27" src="3" tgt="11" wght="1.658602144434643" />
        <Con id="28" src="9" tgt="11" wght="0.34083314014135851" />
        <Con id="29" src="7" tgt="11" wght="0.87173241031641324" />
        <Con id="30" src="0" tgt="11" wght="-0.016310604975678204" />
        <Con id="35" src="4" tgt="11" wght="-1.2729010284605531" />
        <Con id="42" src="5" tgt="11" wght="-2.8316190072522351" />
        <Con id="50" src="3" tgt="49" wght="-4.6714017981438367" />
        <Con id="51" src="49" tgt="11" wght="3.5162710900505125" />
      </Connections>
    </Network>
    <Network id="18124" birthGen="150" fitness="1065.5443725585938">
      <Nodes>
        <Node type="bias" id="0" />
        <Node type="in" id="1" />
        <Node type="in" id="2" />
        <Node type="in" id="3" />
        <Node type="in" id="4" />
        <Node type="in" id="5" />
        <Node type="in" id="6" />
        <Node type="in" id="7" />
        <Node type="in" id="8" />
        <Node type="in" id="9" />
        <Node type="in" id="10" />
        <Node type="out" id="11" />
        <Node type="hid" id="49" />
      </Nodes>
      <Connections>
        <Con id="20" src="8" tgt="11" wght="-2.9452816269948143" />
        <Con id="23" src="2" tgt="11" wght="2.0221442502778313" />
        <Con id="24" src="1" tgt="11" wght="0.70801784388151079" />
        <Con id="25" src="10" tgt="11" wght="1.173474662428031" />
        <Con id="26" src="6" tgt="11" wght="-5" />
        <Con id="27" src="3" tgt="11" wght="1.658602144434643" />
        <Con id="28" src="9" tgt="11" wght="0.34083314014135851" />
        <Con id="29" src="7" tgt="11" wght="0.87173241031641324" />
        <Con id="30" src="0" tgt="11" wght="-0.016310604975678204" />
        <Con id="35" src="4" tgt="11" wght="-1.2729010284605531" />
        <Con id="42" src="5" tgt="11" wght="-2.8273206124774695" />
        <Con id="50" src="3" tgt="49" wght="-4.6714017981438367" />
        <Con id="51" src="49" tgt="11" wght="3.5162710900505125" />
      </Connections>
    </Network>
    <Network id="18119" birthGen="150" fitness="1074.7755126953125">
      <Nodes>
        <Node type="bias" id="0" />
        <Node type="in" id="1" />
        <Node type="in" id="2" />
        <Node type="in" id="3" />
        <Node type="in" id="4" />
        <Node type="in" id="5" />
        <Node type="in" id="6" />
        <Node type="in" id="7" />
        <Node type="in" id="8" />
        <Node type="in" id="9" />
        <Node type="in" id="10" />
        <Node type="out" id="11" />
        <Node type="hid" id="49" />
      </Nodes>
      <Connections>
        <Con id="20" src="8" tgt="11" wght="-2.9452816269948143" />
        <Con id="23" src="2" tgt="11" wght="2.0315746537049457" />
        <Con id="24" src="1" tgt="11" wght="0.70801784388151079" />
        <Con id="25" src="10" tgt="11" wght="1.1747649521093793" />
        <Con id="26" src="6" tgt="11" wght="-5" />
        <Con id="27" src="3" tgt="11" wght="1.658602144434643" />
        <Con id="28" src="9" tgt="11" wght="0.056216809814548296" />
        <Con id="29" src="7" tgt="11" wght="0.57256876167491311" />
        <Con id="30" src="0" tgt="11" wght="-0.016310604975678204" />
        <Con id="35" src="4" tgt="11" wght="-1.2729010284605531" />
        <Con id="42" src="5" tgt="11" wght="-2.8273206124774695" />
        <Con id="50" src="3" tgt="49" wght="-4.9823472979249877" />
        <Con id="51" src="49" tgt="11" wght="3.5162710900505125" />
      </Connections>
    </Network>
    <Network id="18123" birthGen="150" fitness="1056.856201171875">
      <Nodes>
        <Node type="bias" id="0" />
        <Node type="in" id="1" />
        <Node type="in" id="2" />
        <Node type="in" id="3" />
        <Node type="in" id="4" />
        <Node type="in" id="5" />
        <Node type="in" id="6" />
        <Node type="in" id="7" />
        <Node type="in" id="8" />
        <Node type="in" id="9" />
        <Node type="in" id="10" />
        <Node type="out" id="11" />
        <Node type="hid" id="49" />
      </Nodes>
      <Connections>
        <Con id="20" src="8" tgt="11" wght="-2.9341717887917094" />
        <Con id="23" src="2" tgt="11" wght="2.0315746537049457" />
        <Con id="24" src="1" tgt="11" wght="0.70801784388151079" />
        <Con id="25" src="10" tgt="11" wght="1.1819005072730961" />
        <Con id="26" src="6" tgt="11" wght="-5" />
        <Con id="27" src="3" tgt="11" wght="1.8677425783089543" />
        <Con id="28" src="9" tgt="11" wght="0.34083314014135851" />
        <Con id="29" src="7" tgt="11" wght="0.57256876167491311" />
        <Con id="30" src="0" tgt="11" wght="-0.016310604975678204" />
        <Con id="35" src="4" tgt="11" wght="-1.2729010284605531" />
        <Con id="42" src="5" tgt="11" wght="-2.8490401419003679" />
        <Con id="50" src="3" tgt="49" wght="-4.6714017981438367" />
        <Con id="51" src="49" tgt="11" wght="3.5162710900505125" />
      </Connections>
    </Network>
    <Network id="17895" birthGen="148" fitness="1121.921142578125">
      <Nodes>
        <Node type="bias" id="0" />
        <Node type="in" id="1" />
        <Node type="in" id="2" />
        <Node type="in" id="3" />
        <Node type="in" id="4" />
        <Node type="in" id="5" />
        <Node type="in" id="6" />
        <Node type="in" id="7" />
        <Node type="in" id="8" />
        <Node type="in" id="9" />
        <Node type="in" id="10" />
        <Node type="out" id="11" />
        <Node type="hid" id="49" />
      </Nodes>
      <Connections>
        <Con id="20" src="8" tgt="11" wght="-2.1305541584717314" />
        <Con id="23" src="2" tgt="11" wght="2.0315746537049457" />
        <Con id="24" src="1" tgt="11" wght="0.70801784388151079" />
        <Con id="25" src="10" tgt="11" wght="1.1787163967930174" />
        <Con id="26" src="6" tgt="11" wght="-5" />
        <Con id="27" src="3" tgt="11" wght="2.17997104438326" />
        <Con id="28" src="9" tgt="11" wght="0.34083314014135851" />
        <Con id="29" src="7" tgt="11" wght="0.57256876167491311" />
        <Con id="30" src="0" tgt="11" wght="-0.016310604975678204" />
        <Con id="35" src="4" tgt="11" wght="-1.2901677690153459" />
        <Con id="42" src="5" tgt="11" wght="-2.8316190072522351" />
        <Con id="50" src="3" tgt="49" wght="-4.9823472979249877" />
        <Con id="51" src="49" tgt="11" wght="3.7918619268701654" />
      </Connections>
    </Network>
    <Network id="18151" birthGen="150" fitness="889.71527099609375">
      <Nodes>
        <Node type="bias" id="0" />
        <Node type="in" id="1" />
        <Node type="in" id="2" />
        <Node type="in" id="3" />
        <Node type="in" id="4" />
        <Node type="in" id="5" />
        <Node type="in" id="6" />
        <Node type="in" id="7" />
        <Node type="in" id="8" />
        <Node type="in" id="9" />
        <Node type="in" id="10" />
        <Node type="out" id="11" />
        <Node type="hid" id="49" />
      </Nodes>
      <Connections>
        <Con id="20" src="8" tgt="11" wght="-2.0890238981913964" />
        <Con id="23" src="2" tgt="11" wght="2.0315746537049457" />
        <Con id="24" src="1" tgt="11" wght="0.70801784388151079" />
        <Con id="25" src="10" tgt="11" wght="1.1819005072730961" />
        <Con id="26" src="6" tgt="11" wght="-5" />
        <Con id="27" src="3" tgt="11" wght="1.868368996774187" />
        <Con id="28" src="9" tgt="11" wght="0.34083314014135851" />
        <Con id="29" src="7" tgt="11" wght="0.57256876167491311" />
        <Con id="30" src="0" tgt="11" wght="0.0034488923155935741" />
        <Con id="35" src="4" tgt="11" wght="-1.2729010284605531" />
        <Con id="42" src="5" tgt="11" wght="-2.8316190072522351" />
        <Con id="50" src="3" tgt="49" wght="-4.9823472979249877" />
        <Con id="51" src="49" tgt="11" wght="3.7918619268701654" />
      </Connections>
    </Network>
    <Network id="18143" birthGen="150" fitness="1091.9756469726563">
      <Nodes>
        <Node type="bias" id="0" />
        <Node type="in" id="1" />
        <Node type="in" id="2" />
        <Node type="in" id="3" />
        <Node type="in" id="4" />
        <Node type="in" id="5" />
        <Node type="in" id="6" />
        <Node type="in" id="7" />
        <Node type="in" id="8" />
        <Node type="in" id="9" />
        <Node type="in" id="10" />
        <Node type="out" id="11" />
        <Node type="hid" id="49" />
      </Nodes>
      <Connections>
        <Con id="20" src="8" tgt="11" wght="-2.12876174769297" />
        <Con id="23" src="2" tgt="11" wght="2.0674920823703147" />
        <Con id="24" src="1" tgt="11" wght="0.61544863383507131" />
        <Con id="25" src="10" tgt="11" wght="1.1682246628938113" />
        <Con id="26" src="6" tgt="11" wght="-5" />
        <Con id="27" src="3" tgt="11" wght="1.8677425783089543" />
        <Con id="28" src="9" tgt="11" wght="0.34083314014135851" />
        <Con id="29" src="7" tgt="11" wght="0.87173241031641324" />
        <Con id="30" src="0" tgt="11" wght="-0.016310604975678204" />
        <Con id="35" src="4" tgt="11" wght="-1.2901677690153459" />
        <Con id="42" src="5" tgt="11" wght="-2.8316190072522351" />
        <Con id="50" src="3" tgt="49" wght="-4.9924523957868967" />
        <Con id="51" src="49" tgt="11" wght="3.8016093792910466" />
      </Connections>
    </Network>
    <Network id="18045" birthGen="149" fitness="1129.6519165039063">
      <Nodes>
        <Node type="bias" id="0" />
        <Node type="in" id="1" />
        <Node type="in" id="2" />
        <Node type="in" id="3" />
        <Node type="in" id="4" />
        <Node type="in" id="5" />
        <Node type="in" id="6" />
        <Node type="in" id="7" />
        <Node type="in" id="8" />
        <Node type="in" id="9" />
        <Node type="in" id="10" />
        <Node type="out" id="11" />
        <Node type="hid" id="49" />
      </Nodes>
      <Connections>
        <Con id="20" src="8" tgt="11" wght="-2.1305541584717314" />
        <Con id="23" src="2" tgt="11" wght="2.0315746537049457" />
        <Con id="24" src="1" tgt="11" wght="0.70801784388151079" />
        <Con id="25" src="10" tgt="11" wght="1.1819005072730961" />
        <Con id="26" src="6" tgt="11" wght="-5" />
        <Con id="27" src="3" tgt="11" wght="2.17997104438326" />
        <Con id="28" src="9" tgt="11" wght="0.33173556391361353" />
        <Con id="29" src="7" tgt="11" wght="0.57256876167491311" />
        <Con id="30" src="0" tgt="11" wght="-0.016310604975678204" />
        <Con id="35" src="4" tgt="11" wght="-1.2901677690153459" />
        <Con id="42" src="5" tgt="11" wght="-2.8316190072522351" />
        <Con id="50" src="3" tgt="49" wght="-4.9823472979249877" />
        <Con id="51" src="49" tgt="11" wght="3.7918619268701654" />
      </Connections>
    </Network>
    <Network id="18152" birthGen="150" fitness="1131.3368530273438">
      <Nodes>
        <Node type="bias" id="0" />
        <Node type="in" id="1" />
        <Node type="in" id="2" />
        <Node type="in" id="3" />
        <Node type="in" id="4" />
        <Node type="in" id="5" />
        <Node type="in" id="6" />
        <Node type="in" id="7" />
        <Node type="in" id="8" />
        <Node type="in" id="9" />
        <Node type="in" id="10" />
        <Node type="out" id="11" />
        <Node type="hid" id="49" />
      </Nodes>
      <Connections>
        <Con id="20" src="8" tgt="11" wght="-2.1442635201244653" />
        <Con id="23" src="2" tgt="11" wght="2.0315746537049457" />
        <Con id="24" src="1" tgt="11" wght="0.70801784388151079" />
        <Con id="25" src="10" tgt="11" wght="1.1819005072730961" />
        <Con id="26" src="6" tgt="11" wght="-5" />
        <Con id="27" src="3" tgt="11" wght="2.17997104438326" />
        <Con id="28" src="9" tgt="11" wght="0.34083314014135851" />
        <Con id="29" src="7" tgt="11" wght="0.57256876167491311" />
        <Con id="30" src="0" tgt="11" wght="0.0034488923155935741" />
        <Con id="35" src="4" tgt="11" wght="-1.2729010284605531" />
        <Con id="42" src="5" tgt="11" wght="-2.8316190072522351" />
        <Con id="50" src="3" tgt="49" wght="-4.9823472979249877" />
        <Con id="51" src="49" tgt="11" wght="3.7918619268701654" />
      </Connections>
    </Network>
    <Network id="18156" birthGen="150" fitness="1090.9207763671875">
      <Nodes>
        <Node type="bias" id="0" />
        <Node type="in" id="1" />
        <Node type="in" id="2" />
        <Node type="in" id="3" />
        <Node type="in" id="4" />
        <Node type="in" id="5" />
        <Node type="in" id="6" />
        <Node type="in" id="7" />
        <Node type="in" id="8" />
        <Node type="in" id="9" />
        <Node type="in" id="10" />
        <Node type="out" id="11" />
        <Node type="hid" id="49" />
      </Nodes>
      <Connections>
        <Con id="20" src="8" tgt="11" wght="-2.1305541584717314" />
        <Con id="23" src="2" tgt="11" wght="2.0315746537049457" />
        <Con id="24" src="1" tgt="11" wght="0.70801784388151079" />
        <Con id="25" src="10" tgt="11" wght="1.1787163967930174" />
        <Con id="26" src="6" tgt="11" wght="-5" />
        <Con id="27" src="3" tgt="11" wght="1.8677425783089543" />
        <Con id="28" src="9" tgt="11" wght="0.34083314014135851" />
        <Con id="29" src="7" tgt="11" wght="0.57256876167491311" />
        <Con id="30" src="0" tgt="11" wght="-0.016310604975678204" />
        <Con id="35" src="4" tgt="11" wght="-1.2901677690153459" />
        <Con id="42" src="5" tgt="11" wght="-2.8316190072522351" />
        <Con id="50" src="3" tgt="49" wght="-4.9823472979249877" />
        <Con id="51" src="49" tgt="11" wght="3.7918619268701654" />
      </Connections>
    </Network>
    <Network id="18154" birthGen="150" fitness="878.7349853515625">
      <Nodes>
        <Node type="bias" id="0" />
        <Node type="in" id="1" />
        <Node type="in" id="2" />
        <Node type="in" id="3" />
        <Node type="in" id="4" />
        <Node type="in" id="5" />
        <Node type="in" id="6" />
        <Node type="in" id="7" />
        <Node type="in" id="8" />
        <Node type="in" id="9" />
        <Node type="in" id="10" />
        <Node type="out" id="11" />
        <Node type="hid" id="49" />
      </Nodes>
      <Connections>
        <Con id="20" src="8" tgt="11" wght="-2.1305541584717314" />
        <Con id="23" src="2" tgt="11" wght="2.0674920823703147" />
        <Con id="24" src="1" tgt="11" wght="0.61544863383507131" />
        <Con id="25" src="10" tgt="11" wght="1.1819005072730961" />
        <Con id="26" src="6" tgt="11" wght="-5" />
        <Con id="27" src="3" tgt="11" wght="1.8677425783089543" />
        <Con id="28" src="9" tgt="11" wght="0.34083314014135851" />
        <Con id="29" src="7" tgt="11" wght="0.57256876167491311" />
        <Con id="30" src="0" tgt="11" wght="-0.016310604975678204" />
        <Con id="35" src="4" tgt="11" wght="-1.2901677690153459" />
        <Con id="42" src="5" tgt="11" wght="-2.8316190072522351" />
        <Con id="50" src="3" tgt="49" wght="-4.9823472979249877" />
        <Con id="51" src="49" tgt="11" wght="3.8016093792910466" />
      </Connections>
    </Network>
    <Network id="18153" birthGen="150" fitness="1126.652587890625">
      <Nodes>
        <Node type="bias" id="0" />
        <Node type="in" id="1" />
        <Node type="in" id="2" />
        <Node type="in" id="3" />
        <Node type="in" id="4" />
        <Node type="in" id="5" />
        <Node type="in" id="6" />
        <Node type="in" id="7" />
        <Node type="in" id="8" />
        <Node type="in" id="9" />
        <Node type="in" id="10" />
        <Node type="out" id="11" />
        <Node type="hid" id="49" />
      </Nodes>
      <Connections>
        <Con id="20" src="8" tgt="11" wght="-2.1305541584717314" />
        <Con id="23" src="2" tgt="11" wght="2.0315746537049457" />
        <Con id="24" src="1" tgt="11" wght="0.70801784388151079" />
        <Con id="25" src="10" tgt="11" wght="1.1787163967930174" />
        <Con id="26" src="6" tgt="11" wght="-5" />
        <Con id="27" src="3" tgt="11" wght="2.17997104438326" />
        <Con id="28" src="9" tgt="11" wght="0.34083314014135851" />
        <Con id="29" src="7" tgt="11" wght="0.57256876167491311" />
        <Con id="30" src="0" tgt="11" wght="0.0034488923155935741" />
        <Con id="35" src="4" tgt="11" wght="-1.2901677690153459" />
        <Con id="42" src="5" tgt="11" wght="-2.8332552824188797" />
        <Con id="50" src="3" tgt="49" wght="-4.9823472979249877" />
        <Con id="51" src="49" tgt="11" wght="3.7918619268701654" />
      </Connections>
    </Network>
    <Network id="18165" birthGen="150" fitness="1118.2078857421875">
      <Nodes>
        <Node type="bias" id="0" />
        <Node type="in" id="1" />
        <Node type="in" id="2" />
        <Node type="in" id="3" />
        <Node type="in" id="4" />
        <Node type="in" id="5" />
        <Node type="in" id="6" />
        <Node type="in" id="7" />
        <Node type="in" id="8" />
        <Node type="in" id="9" />
        <Node type="in" id="10" />
        <Node type="out" id="11" />
        <Node type="hid" id="49" />
      </Nodes>
      <Connections>
        <Con id="20" src="8" tgt="11" wght="-2.1442635201244653" />
        <Con id="23" src="2" tgt="11" wght="3.4274336640276006" />
        <Con id="24" src="1" tgt="11" wght="-0.04818904344587039" />
        <Con id="25" src="10" tgt="11" wght="1.1819005072730961" />
        <Con id="26" src="6" tgt="11" wght="-5" />
        <Con id="27" src="3" tgt="11" wght="1.5412716002884057" />
        <Con id="28" src="9" tgt="11" wght="0.34083314014135851" />
        <Con id="29" src="7" tgt="11" wght="0.54930172537701638" />
        <Con id="30" src="0" tgt="11" wght="-0.032809618832867982" />
        <Con id="35" src="4" tgt="11" wght="-1.2901677690153459" />
        <Con id="42" src="5" tgt="11" wght="-2.839578669759808" />
        <Con id="50" src="3" tgt="49" wght="-4.9823472979249877" />
        <Con id="51" src="49" tgt="11" wght="3.549983203477892" />
      </Connections>
    </Network>
    <Network id="18052" birthGen="149" fitness="1113.559326171875">
      <Nodes>
        <Node type="bias" id="0" />
        <Node type="in" id="1" />
        <Node type="in" id="2" />
        <Node type="in" id="3" />
        <Node type="in" id="4" />
        <Node type="in" id="5" />
        <Node type="in" id="6" />
        <Node type="in" id="7" />
        <Node type="in" id="8" />
        <Node type="in" id="9" />
        <Node type="in" id="10" />
        <Node type="out" id="11" />
        <Node type="hid" id="49" />
      </Nodes>
      <Connections>
        <Con id="20" src="8" tgt="11" wght="-2.1442635201244653" />
        <Con id="23" src="2" tgt="11" wght="3.4274336640276006" />
        <Con id="24" src="1" tgt="11" wght="-0.0076658402379390046" />
        <Con id="25" src="10" tgt="11" wght="1.1914669467335959" />
        <Con id="26" src="6" tgt="11" wght="-5" />
        <Con id="27" src="3" tgt="11" wght="1.5331255784258246" />
        <Con id="28" src="9" tgt="11" wght="0.3504752244681098" />
        <Con id="29" src="7" tgt="11" wght="0.54930172537701638" />
        <Con id="30" src="0" tgt="11" wght="-0.016310604975678204" />
        <Con id="35" src="4" tgt="11" wght="-1.303445960124211" />
        <Con id="42" src="5" tgt="11" wght="-2.839578669759808" />
        <Con id="50" src="3" tgt="49" wght="-4.9823472979249877" />
        <Con id="51" src="49" tgt="11" wght="3.5473732199963446" />
      </Connections>
    </Network>
    <Network id="18173" birthGen="150" fitness="1124.3536987304688">
      <Nodes>
        <Node type="bias" id="0" />
        <Node type="in" id="1" />
        <Node type="in" id="2" />
        <Node type="in" id="3" />
        <Node type="in" id="4" />
        <Node type="in" id="5" />
        <Node type="in" id="6" />
        <Node type="in" id="7" />
        <Node type="in" id="8" />
        <Node type="in" id="9" />
        <Node type="in" id="10" />
        <Node type="out" id="11" />
        <Node type="hid" id="49" />
      </Nodes>
      <Connections>
        <Con id="20" src="8" tgt="11" wght="-2.1442635201244653" />
        <Con id="23" src="2" tgt="11" wght="3.4274336640276006" />
        <Con id="24" src="1" tgt="11" wght="-0.04818904344587039" />
        <Con id="25" src="10" tgt="11" wght="1.1923054512285007" />
        <Con id="26" src="6" tgt="11" wght="-5" />
        <Con id="27" src="3" tgt="11" wght="1.5331255784258246" />
        <Con id="28" src="9" tgt="11" wght="0.34867087561584265" />
        <Con id="29" src="7" tgt="11" wght="0.54930172537701638" />
        <Con id="30" src="0" tgt="11" wght="-0.016310604975678204" />
        <Con id="35" src="4" tgt="11" wght="-1.2901677690153459" />
        <Con id="42" src="5" tgt="11" wght="-2.839578669759808" />
        <Con id="50" src="3" tgt="49" wght="-4.9823472979249877" />
        <Con id="51" src="49" tgt="11" wght="3.549983203477892" />
      </Connections>
    </Network>
    <Network id="18187" birthGen="150" fitness="1041.7637329101563">
      <Nodes>
        <Node type="bias" id="0" />
        <Node type="in" id="1" />
        <Node type="in" id="2" />
        <Node type="in" id="3" />
        <Node type="in" id="4" />
        <Node type="in" id="5" />
        <Node type="in" id="6" />
        <Node type="in" id="7" />
        <Node type="in" id="8" />
        <Node type="in" id="9" />
        <Node type="in" id="10" />
        <Node type="out" id="11" />
        <Node type="hid" id="49" />
      </Nodes>
      <Connections>
        <Con id="20" src="8" tgt="11" wght="-2.1442635201244653" />
        <Con id="23" src="2" tgt="11" wght="3.4274336640276006" />
        <Con id="24" src="1" tgt="11" wght="-0.04818904344587039" />
        <Con id="25" src="10" tgt="11" wght="1.1819005072730961" />
        <Con id="26" src="6" tgt="11" wght="-5" />
        <Con id="27" src="3" tgt="11" wght="1.5331255784258246" />
        <Con id="28" src="9" tgt="11" wght="0.34083314014135851" />
        <Con id="29" src="7" tgt="11" wght="0.54930172537701638" />
        <Con id="30" src="0" tgt="11" wght="-0.016310604975678204" />
        <Con id="35" src="4" tgt="11" wght="-1.303445960124211" />
        <Con id="42" src="5" tgt="11" wght="-2.839578669759808" />
        <Con id="50" src="3" tgt="49" wght="-4.9823472979249877" />
        <Con id="51" src="49" tgt="11" wght="3.549983203477892" />
      </Connections>
    </Network>
    <Network id="18178" birthGen="150" fitness="1066.987060546875">
      <Nodes>
        <Node type="bias" id="0" />
        <Node type="in" id="1" />
        <Node type="in" id="2" />
        <Node type="in" id="3" />
        <Node type="in" id="4" />
        <Node type="in" id="5" />
        <Node type="in" id="6" />
        <Node type="in" id="7" />
        <Node type="in" id="8" />
        <Node type="in" id="9" />
        <Node type="in" id="10" />
        <Node type="out" id="11" />
        <Node type="hid" id="49" />
      </Nodes>
      <Connections>
        <Con id="20" src="8" tgt="11" wght="-2.1442635201244653" />
        <Con id="23" src="2" tgt="11" wght="3.4274336640276006" />
        <Con id="24" src="1" tgt="11" wght="-0.04818904344587039" />
        <Con id="25" src="10" tgt="11" wght="1.1819005072730961" />
        <Con id="26" src="6" tgt="11" wght="-5" />
        <Con id="27" src="3" tgt="11" wght="1.5331255784258246" />
        <Con id="28" src="9" tgt="11" wght="0.34083314014135851" />
        <Con id="29" src="7" tgt="11" wght="0.54930172537701638" />
        <Con id="30" src="0" tgt="11" wght="-0.032809618832867982" />
        <Con id="35" src="4" tgt="11" wght="-1.2901677690153459" />
        <Con id="42" src="5" tgt="11" wght="-2.839578669759808" />
        <Con id="50" src="3" tgt="49" wght="-4.9823472979249877" />
        <Con id="51" src="49" tgt="11" wght="3.549983203477892" />
      </Connections>
    </Network>
    <Network id="18164" birthGen="150" fitness="858.064453125">
      <Nodes>
        <Node type="bias" id="0" />
        <Node type="in" id="1" />
        <Node type="in" id="2" />
        <Node type="in" id="3" />
        <Node type="in" id="4" />
        <Node type="in" id="5" />
        <Node type="in" id="6" />
        <Node type="in" id="7" />
        <Node type="in" id="8" />
        <Node type="in" id="9" />
        <Node type="in" id="10" />
        <Node type="out" id="11" />
        <Node type="hid" id="49" />
      </Nodes>
      <Connections>
        <Con id="20" src="8" tgt="11" wght="-2.1442635201244653" />
        <Con id="23" src="2" tgt="11" wght="3.4274336640276006" />
        <Con id="24" src="1" tgt="11" wght="-0.04818904344587039" />
        <Con id="25" src="10" tgt="11" wght="1.1819005072730961" />
        <Con id="26" src="6" tgt="11" wght="-5" />
        <Con id="27" src="3" tgt="11" wght="1.5299980634296708" />
        <Con id="28" src="9" tgt="11" wght="0.34083314014135851" />
        <Con id="29" src="7" tgt="11" wght="0.54930172537701638" />
        <Con id="30" src="0" tgt="11" wght="-0.032809618832867982" />
        <Con id="35" src="4" tgt="11" wght="-1.2901677690153459" />
        <Con id="42" src="5" tgt="11" wght="-2.839578669759808" />
        <Con id="50" src="3" tgt="49" wght="-4.5223274277917689" />
        <Con id="51" src="49" tgt="11" wght="3.549983203477892" />
      </Connections>
    </Network>
    <Network id="18189" birthGen="151" fitness="1">
      <Nodes>
        <Node type="bias" id="0" />
        <Node type="in" id="1" />
        <Node type="in" id="2" />
        <Node type="in" id="3" />
        <Node type="in" id="4" />
        <Node type="in" id="5" />
        <Node type="in" id="6" />
        <Node type="in" id="7" />
        <Node type="in" id="8" />
        <Node type="in" id="9" />
        <Node type="in" id="10" />
        <Node type="out" id="11" />
        <Node type="hid" id="49" />
      </Nodes>
      <Connections>
        <Con id="20" src="8" tgt="11" wght="-1.5294765118416409" />
        <Con id="24" src="1" tgt="11" wght="0.7178912674113368" />
        <Con id="25" src="10" tgt="11" wght="1.0202472910165987" />
        <Con id="26" src="6" tgt="11" wght="-4.26579543185971" />
        <Con id="27" src="3" tgt="11" wght="-4.0266894691643387" />
        <Con id="28" src="9" tgt="11" wght="-1.1240631423165033" />
        <Con id="29" src="7" tgt="11" wght="0.54930172537701638" />
        <Con id="42" src="5" tgt="11" wght="-3.0295391846448183" />
        <Con id="50" src="3" tgt="49" wght="1.2209027293016277" />
        <Con id="51" src="49" tgt="11" wght="3.549983203477892" />
      </Connections>
    </Network>
    <Network id="18190" birthGen="151" fitness="991.7938232421875">
      <Nodes>
        <Node type="bias" id="0" />
        <Node type="in" id="1" />
        <Node type="in" id="2" />
        <Node type="in" id="3" />
        <Node type="in" id="4" />
        <Node type="in" id="5" />
        <Node type="in" id="6" />
        <Node type="in" id="7" />
        <Node type="in" id="8" />
        <Node type="in" id="9" />
        <Node type="in" id="10" />
        <Node type="out" id="11" />
        <Node type="hid" id="49" />
      </Nodes>
      <Connections>
        <Con id="20" src="8" tgt="11" wght="-1.5485993179324984" />
        <Con id="24" src="1" tgt="11" wght="0.7178912674113368" />
        <Con id="25" src="10" tgt="11" wght="1.0202472910165987" />
        <Con id="26" src="6" tgt="11" wght="-4.26579543185971" />
        <Con id="27" src="3" tgt="11" wght="-4.0266894691643387" />
        <Con id="28" src="9" tgt="11" wght="-1.1240631423165033" />
        <Con id="29" src="7" tgt="11" wght="0.55888762068075082" />
        <Con id="42" src="5" tgt="11" wght="-3.404505760904414" />
        <Con id="50" src="3" tgt="49" wght="1.2209027293016277" />
        <Con id="51" src="49" tgt="11" wght="3.549983203477892" />
      </Connections>
    </Network>
    <Network id="18191" birthGen="151" fitness="1">
      <Nodes>
        <Node type="bias" id="0" />
        <Node type="in" id="1" />
        <Node type="in" id="2" />
        <Node type="in" id="3" />
        <Node type="in" id="4" />
        <Node type="in" id="5" />
        <Node type="in" id="6" />
        <Node type="in" id="7" />
        <Node type="in" id="8" />
        <Node type="in" id="9" />
        <Node type="in" id="10" />
        <Node type="out" id="11" />
        <Node type="hid" id="49" />
      </Nodes>
      <Connections>
        <Con id="20" src="8" tgt="11" wght="-2.1766977984611371" />
        <Con id="24" src="1" tgt="11" wght="0.7178912674113368" />
        <Con id="25" src="10" tgt="11" wght="1.0202472910165987" />
        <Con id="26" src="6" tgt="11" wght="-4.26579543185971" />
        <Con id="27" src="3" tgt="11" wght="-4.0266894691643387" />
        <Con id="28" src="9" tgt="11" wght="-1.1240631423165033" />
        <Con id="29" src="7" tgt="11" wght="0.54930172537701638" />
        <Con id="42" src="5" tgt="11" wght="-3.404505760904414" />
        <Con id="50" src="3" tgt="49" wght="1.2209027293016277" />
        <Con id="51" src="49" tgt="11" wght="3.549983203477892" />
      </Connections>
    </Network>
    <Network id="18192" birthGen="151" fitness="1">
      <Nodes>
        <Node type="bias" id="0" />
        <Node type="in" id="1" />
        <Node type="in" id="2" />
        <Node type="in" id="3" />
        <Node type="in" id="4" />
        <Node type="in" id="5" />
        <Node type="in" id="6" />
        <Node type="in" id="7" />
        <Node type="in" id="8" />
        <Node type="in" id="9" />
        <Node type="in" id="10" />
        <Node type="out" id="11" />
        <Node type="hid" id="49" />
      </Nodes>
      <Connections>
        <Con id="20" src="8" tgt="11" wght="-1.5294765118416409" />
        <Con id="24" src="1" tgt="11" wght="0.7178912674113368" />
        <Con id="25" src="10" tgt="11" wght="2.2974116994287437" />
        <Con id="26" src="6" tgt="11" wght="-4.26579543185971" />
        <Con id="27" src="3" tgt="11" wght="-4.0266894691643387" />
        <Con id="28" src="9" tgt="11" wght="-1.1240631423165033" />
        <Con id="29" src="7" tgt="11" wght="0.54930172537701638" />
        <Con id="42" src="5" tgt="11" wght="-3.404505760904414" />
        <Con id="50" src="3" tgt="49" wght="1.2209027293016277" />
        <Con id="51" src="49" tgt="11" wght="3.549983203477892" />
      </Connections>
    </Network>
    <Network id="18193" birthGen="151" fitness="540.4288330078125">
      <Nodes>
        <Node type="bias" id="0" />
        <Node type="in" id="1" />
        <Node type="in" id="2" />
        <Node type="in" id="3" />
        <Node type="in" id="4" />
        <Node type="in" id="5" />
        <Node type="in" id="6" />
        <Node type="in" id="7" />
        <Node type="in" id="8" />
        <Node type="in" id="9" />
        <Node type="in" id="10" />
        <Node type="out" id="11" />
        <Node type="hid" id="49" />
      </Nodes>
      <Connections>
        <Con id="20" src="8" tgt="11" wght="-1.5322121870407623" />
        <Con id="24" src="1" tgt="11" wght="0.7178912674113368" />
        <Con id="25" src="10" tgt="11" wght="1.0202472910165987" />
        <Con id="26" src="6" tgt="11" wght="-4.26579543185971" />
        <Con id="27" src="3" tgt="11" wght="-4.4533629354145408" />
        <Con id="28" src="9" tgt="11" wght="-1.1240631423165033" />
        <Con id="29" src="7" tgt="11" wght="0.54930172537701638" />
        <Con id="42" src="5" tgt="11" wght="-3.5043466743081808" />
        <Con id="50" src="3" tgt="49" wght="1.2209027293016277" />
        <Con id="51" src="49" tgt="11" wght="3.549983203477892" />
      </Connections>
    </Network>
    <Network id="18194" birthGen="151" fitness="1">
      <Nodes>
        <Node type="bias" id="0" />
        <Node type="in" id="1" />
        <Node type="in" id="2" />
        <Node type="in" id="3" />
        <Node type="in" id="4" />
        <Node type="in" id="5" />
        <Node type="in" id="6" />
        <Node type="in" id="7" />
        <Node type="in" id="8" />
        <Node type="in" id="9" />
        <Node type="in" id="10" />
        <Node type="out" id="11" />
        <Node type="hid" id="49" />
      </Nodes>
      <Connections>
        <Con id="20" src="8" tgt="11" wght="-1.5322121870407623" />
        <Con id="24" src="1" tgt="11" wght="0.7178912674113368" />
        <Con id="25" src="10" tgt="11" wght="1.0202472910165987" />
        <Con id="26" src="6" tgt="11" wght="-4.26579543185971" />
        <Con id="27" src="3" tgt="11" wght="-4.4533629354145408" />
        <Con id="28" src="9" tgt="11" wght="-1.1240631423165033" />
        <Con id="29" src="7" tgt="11" wght="0.54930172537701638" />
        <Con id="35" src="4" tgt="11" wght="-4.7714818455278873" />
        <Con id="42" src="5" tgt="11" wght="-3.2503714525155565" />
        <Con id="50" src="3" tgt="49" wght="1.2209027293016277" />
        <Con id="51" src="49" tgt="11" wght="3.549983203477892" />
      </Connections>
    </Network>
    <Network id="18195" birthGen="151" fitness="345.95615005493164">
      <Nodes>
        <Node type="bias" id="0" />
        <Node type="in" id="1" />
        <Node type="in" id="2" />
        <Node type="in" id="3" />
        <Node type="in" id="4" />
        <Node type="in" id="5" />
        <Node type="in" id="6" />
        <Node type="in" id="7" />
        <Node type="in" id="8" />
        <Node type="in" id="9" />
        <Node type="in" id="10" />
        <Node type="out" id="11" />
        <Node type="hid" id="49" />
      </Nodes>
      <Connections>
        <Con id="20" src="8" tgt="11" wght="-1.5322121870407623" />
        <Con id="24" src="1" tgt="11" wght="0.7178912674113368" />
        <Con id="25" src="10" tgt="11" wght="1.0202472910165987" />
        <Con id="26" src="6" tgt="11" wght="-4.26579543185971" />
        <Con id="27" src="3" tgt="11" wght="-4.0266894691643387" />
        <Con id="28" src="9" tgt="11" wght="-1.1240631423165033" />
        <Con id="29" src="7" tgt="11" wght="0.54930172537701638" />
        <Con id="42" src="5" tgt="11" wght="-3.2503714525155565" />
        <Con id="50" src="3" tgt="49" wght="1.2209027293016277" />
        <Con id="51" src="49" tgt="11" wght="3.549983203477892" />
      </Connections>
    </Network>
    <Network id="18196" birthGen="151" fitness="487.56661987304688">
      <Nodes>
        <Node type="bias" id="0" />
        <Node type="in" id="1" />
        <Node type="in" id="2" />
        <Node type="in" id="3" />
        <Node type="in" id="4" />
        <Node type="in" id="5" />
        <Node type="in" id="6" />
        <Node type="in" id="7" />
        <Node type="in" id="8" />
        <Node type="in" id="9" />
        <Node type="in" id="10" />
        <Node type="out" id="11" />
        <Node type="hid" id="49" />
      </Nodes>
      <Connections>
        <Con id="20" src="8" tgt="11" wght="-1.5322121870407623" />
        <Con id="24" src="1" tgt="11" wght="0.7178912674113368" />
        <Con id="25" src="10" tgt="11" wght="1.0202472910165987" />
        <Con id="26" src="6" tgt="11" wght="-4.26579543185971" />
        <Con id="27" src="3" tgt="11" wght="-4.4533629354145408" />
        <Con id="28" src="9" tgt="11" wght="-1.1240631423165033" />
        <Con id="29" src="7" tgt="11" wght="0.54930172537701638" />
        <Con id="42" src="5" tgt="11" wght="-3.404505760904414" />
        <Con id="50" src="3" tgt="49" wght="1.2209027293016277" />
        <Con id="51" src="49" tgt="11" wght="3.549983203477892" />
      </Connections>
    </Network>
    <Network id="18197" birthGen="151" fitness="1039.560302734375">
      <Nodes>
        <Node type="bias" id="0" />
        <Node type="in" id="1" />
        <Node type="in" id="2" />
        <Node type="in" id="3" />
        <Node type="in" id="4" />
        <Node type="in" id="5" />
        <Node type="in" id="6" />
        <Node type="in" id="7" />
        <Node type="in" id="8" />
        <Node type="in" id="9" />
        <Node type="in" id="10" />
        <Node type="out" id="11" />
        <Node type="hid" id="49" />
      </Nodes>
      <Connections>
        <Con id="20" src="8" tgt="11" wght="-1.5322121870407623" />
        <Con id="24" src="1" tgt="11" wght="0.7178912674113368" />
        <Con id="25" src="10" tgt="11" wght="1.0202472910165987" />
        <Con id="26" src="6" tgt="11" wght="-4.26579543185971" />
        <Con id="27" src="3" tgt="11" wght="-4.0266894691643387" />
        <Con id="28" src="9" tgt="11" wght="-1.1240631423165033" />
        <Con id="29" src="7" tgt="11" wght="0.54930172537701638" />
        <Con id="42" src="5" tgt="11" wght="-3.404505760904414" />
        <Con id="50" src="3" tgt="49" wght="1.2209027293016277" />
        <Con id="51" src="49" tgt="11" wght="3.549983203477892" />
      </Connections>
    </Network>
    <Network id="18198" birthGen="151" fitness="304.33990478515625">
      <Nodes>
        <Node type="bias" id="0" />
        <Node type="in" id="1" />
        <Node type="in" id="2" />
        <Node type="in" id="3" />
        <Node type="in" id="4" />
        <Node type="in" id="5" />
        <Node type="in" id="6" />
        <Node type="in" id="7" />
        <Node type="in" id="8" />
        <Node type="in" id="9" />
        <Node type="in" id="10" />
        <Node type="out" id="11" />
        <Node type="hid" id="49" />
      </Nodes>
      <Connections>
        <Con id="20" src="8" tgt="11" wght="-1.5322121870407623" />
        <Con id="24" src="1" tgt="11" wght="0.7178912674113368" />
        <Con id="25" src="10" tgt="11" wght="1.0202472910165987" />
        <Con id="26" src="6" tgt="11" wght="-4.26579543185971" />
        <Con id="27" src="3" tgt="11" wght="-4.0266894691643387" />
        <Con id="28" src="9" tgt="11" wght="-1.1240631423165033" />
        <Con id="29" src="7" tgt="11" wght="0.54930172537701638" />
        <Con id="42" src="5" tgt="11" wght="-3.2503714525155565" />
        <Con id="50" src="3" tgt="49" wght="1.2209027293016277" />
        <Con id="51" src="49" tgt="11" wght="3.549983203477892" />
      </Connections>
    </Network>
    <Network id="18199" birthGen="151" fitness="522.9383544921875">
      <Nodes>
        <Node type="bias" id="0" />
        <Node type="in" id="1" />
        <Node type="in" id="2" />
        <Node type="in" id="3" />
        <Node type="in" id="4" />
        <Node type="in" id="5" />
        <Node type="in" id="6" />
        <Node type="in" id="7" />
        <Node type="in" id="8" />
        <Node type="in" id="9" />
        <Node type="in" id="10" />
        <Node type="out" id="11" />
        <Node type="hid" id="49" />
      </Nodes>
      <Connections>
        <Con id="20" src="8" tgt="11" wght="-1.5294765118416409" />
        <Con id="24" src="1" tgt="11" wght="0.7178912674113368" />
        <Con id="25" src="10" tgt="11" wght="1.0202472910165987" />
        <Con id="26" src="6" tgt="11" wght="-4.26579543185971" />
        <Con id="27" src="3" tgt="11" wght="-4.0266894691643387" />
        <Con id="28" src="9" tgt="11" wght="-1.1240631423165033" />
        <Con id="29" src="7" tgt="11" wght="0.54930172537701638" />
        <Con id="42" src="5" tgt="11" wght="-3.4187464185940342" />
        <Con id="50" src="3" tgt="49" wght="1.2209027293016277" />
        <Con id="51" src="49" tgt="11" wght="3.549983203477892" />
      </Connections>
    </Network>
    <Network id="18200" birthGen="151" fitness="826.97506713867188">
      <Nodes>
        <Node type="bias" id="0" />
        <Node type="in" id="1" />
        <Node type="in" id="2" />
        <Node type="in" id="3" />
        <Node type="in" id="4" />
        <Node type="in" id="5" />
        <Node type="in" id="6" />
        <Node type="in" id="7" />
        <Node type="in" id="8" />
        <Node type="in" id="9" />
        <Node type="in" id="10" />
        <Node type="out" id="11" />
        <Node type="hid" id="49" />
      </Nodes>
      <Connections>
        <Con id="20" src="8" tgt="11" wght="-1.8522358727896866" />
        <Con id="23" src="2" tgt="11" wght="2.0221442502778313" />
        <Con id="24" src="1" tgt="11" wght="0.757596847652133" />
        <Con id="25" src="10" tgt="11" wght="1.2393334217581353" />
        <Con id="26" src="6" tgt="11" wght="-5" />
        <Con id="27" src="3" tgt="11" wght="1.5331255784258246" />
        <Con id="28" src="9" tgt="11" wght="-0.68124772377083209" />
        <Con id="29" src="7" tgt="11" wght="0.16695757263378919" />
        <Con id="30" src="0" tgt="11" wght="-0.016310604975678204" />
        <Con id="35" src="4" tgt="11" wght="-1.0573556636792185" />
        <Con id="42" src="5" tgt="11" wght="-2.8140964761105152" />
        <Con id="50" src="3" tgt="49" wght="-4.9823472979249877" />
        <Con id="51" src="49" tgt="11" wght="3.8072084117697229" />
      </Connections>
    </Network>
    <Network id="18201" birthGen="151" fitness="1">
      <Nodes>
        <Node type="bias" id="0" />
        <Node type="in" id="1" />
        <Node type="in" id="2" />
        <Node type="in" id="3" />
        <Node type="in" id="4" />
        <Node type="in" id="5" />
        <Node type="in" id="6" />
        <Node type="in" id="7" />
        <Node type="in" id="8" />
        <Node type="in" id="9" />
        <Node type="in" id="10" />
        <Node type="out" id="11" />
        <Node type="hid" id="49" />
      </Nodes>
      <Connections>
        <Con id="20" src="8" tgt="11" wght="-1.8522358727896866" />
        <Con id="23" src="2" tgt="11" wght="2.0221442502778313" />
        <Con id="24" src="1" tgt="11" wght="0.757596847652133" />
        <Con id="25" src="10" tgt="11" wght="2.7502697331108843" />
        <Con id="26" src="6" tgt="11" wght="-4.9948324434147251" />
        <Con id="27" src="3" tgt="11" wght="1.5331255784258246" />
        <Con id="28" src="9" tgt="11" wght="-0.68124772377083209" />
        <Con id="29" src="7" tgt="11" wght="-1.8776027481787914" />
        <Con id="30" src="0" tgt="11" wght="-0.016310604975678204" />
        <Con id="35" src="4" tgt="11" wght="-1.3084736362738665" />
        <Con id="42" src="5" tgt="11" wght="-3.1876866992207842" />
        <Con id="50" src="3" tgt="49" wght="-4.9823472979249877" />
        <Con id="51" src="49" tgt="11" wght="3.8072084117697229" />
      </Connections>
    </Network>
    <Network id="18202" birthGen="151" fitness="1012.0248413085938">
      <Nodes>
        <Node type="bias" id="0" />
        <Node type="in" id="1" />
        <Node type="in" id="2" />
        <Node type="in" id="3" />
        <Node type="in" id="4" />
        <Node type="in" id="5" />
        <Node type="in" id="6" />
        <Node type="in" id="7" />
        <Node type="in" id="8" />
        <Node type="in" id="9" />
        <Node type="in" id="10" />
        <Node type="out" id="11" />
        <Node type="hid" id="49" />
      </Nodes>
      <Connections>
        <Con id="20" src="8" tgt="11" wght="-2.1442635201244653" />
        <Con id="23" src="2" tgt="11" wght="2.0315746537049457" />
        <Con id="24" src="1" tgt="11" wght="0.73885804765341145" />
        <Con id="25" src="10" tgt="11" wght="1.1819005072730961" />
        <Con id="26" src="6" tgt="11" wght="-5" />
        <Con id="27" src="3" tgt="11" wght="1.8677425783089543" />
        <Con id="28" src="9" tgt="11" wght="-1.1799789153708096" />
        <Con id="29" src="7" tgt="11" wght="0.57256876167491311" />
        <Con id="30" src="0" tgt="11" wght="-0.24526555091142654" />
        <Con id="35" src="4" tgt="11" wght="-1.2901677690153459" />
        <Con id="42" src="5" tgt="11" wght="-2.8316190072522351" />
        <Con id="50" src="3" tgt="49" wght="-4.9823472979249877" />
        <Con id="51" src="49" tgt="11" wght="3.7918619268701654" />
      </Connections>
    </Network>
    <Network id="18203" birthGen="151" fitness="941.4598388671875">
      <Nodes>
        <Node type="bias" id="0" />
        <Node type="in" id="1" />
        <Node type="in" id="2" />
        <Node type="in" id="3" />
        <Node type="in" id="4" />
        <Node type="in" id="5" />
        <Node type="in" id="6" />
        <Node type="in" id="7" />
        <Node type="in" id="8" />
        <Node type="in" id="9" />
        <Node type="in" id="10" />
        <Node type="out" id="11" />
        <Node type="hid" id="49" />
      </Nodes>
      <Connections>
        <Con id="20" src="8" tgt="11" wght="-2.1442635201244653" />
        <Con id="23" src="2" tgt="11" wght="2.0315746537049457" />
        <Con id="24" src="1" tgt="11" wght="0.70801784388151079" />
        <Con id="25" src="10" tgt="11" wght="1.2393334217581353" />
        <Con id="26" src="6" tgt="11" wght="-5" />
        <Con id="27" src="3" tgt="11" wght="1.8677425783089543" />
        <Con id="28" src="9" tgt="11" wght="-0.68124772377083209" />
        <Con id="29" src="7" tgt="11" wght="0.57256876167491311" />
        <Con id="30" src="0" tgt="11" wght="-0.014486780219594353" />
        <Con id="35" src="4" tgt="11" wght="-1.2901677690153459" />
        <Con id="42" src="5" tgt="11" wght="-2.8316190072522351" />
        <Con id="50" src="3" tgt="49" wght="-4.9823472979249877" />
        <Con id="51" src="49" tgt="11" wght="3.7918619268701654" />
      </Connections>
    </Network>
    <Network id="18204" birthGen="151" fitness="1">
      <Nodes>
        <Node type="bias" id="0" />
        <Node type="in" id="1" />
        <Node type="in" id="2" />
        <Node type="in" id="3" />
        <Node type="in" id="4" />
        <Node type="in" id="5" />
        <Node type="in" id="6" />
        <Node type="in" id="7" />
        <Node type="in" id="8" />
        <Node type="in" id="9" />
        <Node type="in" id="10" />
        <Node type="out" id="11" />
        <Node type="hid" id="49" />
      </Nodes>
      <Connections>
        <Con id="20" src="8" tgt="11" wght="-2.1442635201244653" />
        <Con id="23" src="2" tgt="11" wght="2.0315746537049457" />
        <Con id="24" src="1" tgt="11" wght="0.73885804765341145" />
        <Con id="25" src="10" tgt="11" wght="1.1819005072730961" />
        <Con id="26" src="6" tgt="11" wght="-5" />
        <Con id="27" src="3" tgt="11" wght="1.8677425783089543" />
        <Con id="28" src="9" tgt="11" wght="-1.1799789153708096" />
        <Con id="29" src="7" tgt="11" wght="0.57256876167491311" />
        <Con id="30" src="0" tgt="11" wght="-0.016310604975678204" />
        <Con id="35" src="4" tgt="11" wght="-1.2901677690153459" />
        <Con id="42" src="5" tgt="11" wght="-0.96531863315987021" />
        <Con id="50" src="3" tgt="49" wght="-4.9823472979249877" />
        <Con id="51" src="49" tgt="11" wght="3.7918619268701654" />
      </Connections>
    </Network>
    <Network id="18205" birthGen="151" fitness="875.89443969726563">
      <Nodes>
        <Node type="bias" id="0" />
        <Node type="in" id="1" />
        <Node type="in" id="2" />
        <Node type="in" id="3" />
        <Node type="in" id="4" />
        <Node type="in" id="5" />
        <Node type="in" id="6" />
        <Node type="in" id="7" />
        <Node type="in" id="8" />
        <Node type="in" id="9" />
        <Node type="in" id="10" />
        <Node type="out" id="11" />
        <Node type="hid" id="49" />
      </Nodes>
      <Connections>
        <Con id="20" src="8" tgt="11" wght="-2.1442635201244653" />
        <Con id="23" src="2" tgt="11" wght="2.0315746537049457" />
        <Con id="24" src="1" tgt="11" wght="0.73885804765341145" />
        <Con id="25" src="10" tgt="11" wght="1.1819005072730961" />
        <Con id="26" src="6" tgt="11" wght="-5" />
        <Con id="27" src="3" tgt="11" wght="1.8677425783089543" />
        <Con id="28" src="9" tgt="11" wght="-1.1799789153708096" />
        <Con id="29" src="7" tgt="11" wght="0.57256876167491311" />
        <Con id="30" src="0" tgt="11" wght="-0.016310604975678204" />
        <Con id="35" src="4" tgt="11" wght="-1.2840792417069493" />
        <Con id="42" src="5" tgt="11" wght="-2.8316190072522351" />
        <Con id="50" src="3" tgt="49" wght="-4.9823472979249877" />
        <Con id="51" src="49" tgt="11" wght="3.7918619268701654" />
      </Connections>
    </Network>
    <Network id="18206" birthGen="151" fitness="1108.8825378417969">
      <Nodes>
        <Node type="bias" id="0" />
        <Node type="in" id="1" />
        <Node type="in" id="2" />
        <Node type="in" id="3" />
        <Node type="in" id="4" />
        <Node type="in" id="5" />
        <Node type="in" id="6" />
        <Node type="in" id="7" />
        <Node type="in" id="8" />
        <Node type="in" id="9" />
        <Node type="in" id="10" />
        <Node type="out" id="11" />
        <Node type="hid" id="49" />
      </Nodes>
      <Connections>
        <Con id="20" src="8" tgt="11" wght="-1.8522358727896866" />
        <Con id="23" src="2" tgt="11" wght="2.0221442502778313" />
        <Con id="24" src="1" tgt="11" wght="0.757596847652133" />
        <Con id="25" src="10" tgt="11" wght="1.2393334217581353" />
        <Con id="26" src="6" tgt="11" wght="-4.9948324434147251" />
        <Con id="27" src="3" tgt="11" wght="1.5331255784258246" />
        <Con id="28" src="9" tgt="11" wght="-0.68124772377083209" />
        <Con id="29" src="7" tgt="11" wght="0.16695757263378919" />
        <Con id="30" src="0" tgt="11" wght="-0.016310604975678204" />
        <Con id="35" src="4" tgt="11" wght="-1.2526728994663592" />
        <Con id="42" src="5" tgt="11" wght="-2.8140964761105152" />
        <Con id="50" src="3" tgt="49" wght="-4.9823472979249877" />
        <Con id="51" src="49" tgt="11" wght="3.8072084117697229" />
      </Connections>
    </Network>
    <Network id="18207" birthGen="151" fitness="1">
      <Nodes>
        <Node type="bias" id="0" />
        <Node type="in" id="1" />
        <Node type="in" id="2" />
        <Node type="in" id="3" />
        <Node type="in" id="4" />
        <Node type="in" id="5" />
        <Node type="in" id="6" />
        <Node type="in" id="7" />
        <Node type="in" id="8" />
        <Node type="in" id="9" />
        <Node type="in" id="10" />
        <Node type="out" id="11" />
        <Node type="hid" id="49" />
      </Nodes>
      <Connections>
        <Con id="20" src="8" tgt="11" wght="-1.8522358727896866" />
        <Con id="23" src="2" tgt="11" wght="2.0221442502778313" />
        <Con id="24" src="1" tgt="11" wght="0.757596847652133" />
        <Con id="25" src="10" tgt="11" wght="1.2393334217581353" />
        <Con id="26" src="6" tgt="11" wght="-5" />
        <Con id="27" src="3" tgt="11" wght="1.5331255784258246" />
        <Con id="28" src="9" tgt="11" wght="-0.68124772377083209" />
        <Con id="29" src="7" tgt="11" wght="0.16695757263378919" />
        <Con id="30" src="0" tgt="11" wght="-0.016310604975678204" />
        <Con id="35" src="4" tgt="11" wght="0.42335301692791671" />
        <Con id="42" src="5" tgt="11" wght="-2.8140964761105152" />
        <Con id="50" src="3" tgt="49" wght="-4.9823472979249877" />
        <Con id="51" src="49" tgt="11" wght="3.8072084117697229" />
      </Connections>
    </Network>
    <Network id="18208" birthGen="151" fitness="1098.3655090332031">
      <Nodes>
        <Node type="bias" id="0" />
        <Node type="in" id="1" />
        <Node type="in" id="2" />
        <Node type="in" id="3" />
        <Node type="in" id="4" />
        <Node type="in" id="5" />
        <Node type="in" id="6" />
        <Node type="in" id="7" />
        <Node type="in" id="8" />
        <Node type="in" id="9" />
        <Node type="in" id="10" />
        <Node type="out" id="11" />
        <Node type="hid" id="49" />
      </Nodes>
      <Connections>
        <Con id="20" src="8" tgt="11" wght="-1.8522358727896866" />
        <Con id="23" src="2" tgt="11" wght="2.0221442502778313" />
        <Con id="24" src="1" tgt="11" wght="0.72251822925163112" />
        <Con id="25" src="10" tgt="11" wght="1.2125039612010291" />
        <Con id="26" src="6" tgt="11" wght="-5" />
        <Con id="27" src="3" tgt="11" wght="1.8677425783089543" />
        <Con id="28" src="9" tgt="11" wght="-1.1799789153708096" />
        <Con id="29" src="7" tgt="11" wght="0.16695757263378919" />
        <Con id="30" src="0" tgt="11" wght="-0.016310604975678204" />
        <Con id="35" src="4" tgt="11" wght="-1.3084736362738665" />
        <Con id="42" src="5" tgt="11" wght="-2.8316190072522351" />
        <Con id="50" src="3" tgt="49" wght="-4.9823472979249877" />
        <Con id="51" src="49" tgt="11" wght="3.7918619268701654" />
      </Connections>
    </Network>
    <Network id="18209" birthGen="151" fitness="1073.2369384765625">
      <Nodes>
        <Node type="bias" id="0" />
        <Node type="in" id="1" />
        <Node type="in" id="2" />
        <Node type="in" id="3" />
        <Node type="in" id="4" />
        <Node type="in" id="5" />
        <Node type="in" id="6" />
        <Node type="in" id="7" />
        <Node type="in" id="8" />
        <Node type="in" id="9" />
        <Node type="in" id="10" />
        <Node type="out" id="11" />
        <Node type="hid" id="49" />
      </Nodes>
      <Connections>
        <Con id="20" src="8" tgt="11" wght="-2.1442635201244653" />
        <Con id="23" src="2" tgt="11" wght="2.0315746537049457" />
        <Con id="24" src="1" tgt="11" wght="0.70801784388151079" />
        <Con id="25" src="10" tgt="11" wght="1.2393334217581353" />
        <Con id="26" src="6" tgt="11" wght="-5" />
        <Con id="27" src="3" tgt="11" wght="1.8886078269126656" />
        <Con id="28" src="9" tgt="11" wght="-0.6728999887412791" />
        <Con id="29" src="7" tgt="11" wght="0.57256876167491311" />
        <Con id="30" src="0" tgt="11" wght="-0.016310604975678204" />
        <Con id="35" src="4" tgt="11" wght="-1.2901677690153459" />
        <Con id="42" src="5" tgt="11" wght="-2.8316190072522351" />
        <Con id="50" src="3" tgt="49" wght="-4.9823472979249877" />
        <Con id="51" src="49" tgt="11" wght="3.7918619268701654" />
      </Connections>
    </Network>
    <Network id="18210" birthGen="151" fitness="1161.2642211914063">
      <Nodes>
        <Node type="bias" id="0" />
        <Node type="in" id="1" />
        <Node type="in" id="2" />
        <Node type="in" id="3" />
        <Node type="in" id="4" />
        <Node type="in" id="5" />
        <Node type="in" id="6" />
        <Node type="in" id="7" />
        <Node type="in" id="8" />
        <Node type="in" id="9" />
        <Node type="in" id="10" />
        <Node type="out" id="11" />
        <Node type="hid" id="49" />
      </Nodes>
      <Connections>
        <Con id="20" src="8" tgt="11" wght="-2.1442635201244653" />
        <Con id="23" src="2" tgt="11" wght="2.0315746537049457" />
        <Con id="24" src="1" tgt="11" wght="0.70801784388151079" />
        <Con id="25" src="10" tgt="11" wght="1.2393334217581353" />
        <Con id="26" src="6" tgt="11" wght="-5" />
        <Con id="27" src="3" tgt="11" wght="1.8677425783089543" />
        <Con id="28" src="9" tgt="11" wght="-0.68124772377083209" />
        <Con id="29" src="7" tgt="11" wght="0.57256876167491311" />
        <Con id="30" src="0" tgt="11" wght="-0.016310604975678204" />
        <Con id="35" src="4" tgt="11" wght="-1.2901677690153459" />
        <Con id="42" src="5" tgt="11" wght="-2.8316190072522351" />
        <Con id="50" src="3" tgt="49" wght="-4.9515726769994979" />
        <Con id="51" src="49" tgt="11" wght="3.7911114939732364" />
      </Connections>
    </Network>
    <Network id="18211" birthGen="151" fitness="1">
      <Nodes>
        <Node type="bias" id="0" />
        <Node type="in" id="1" />
        <Node type="in" id="2" />
        <Node type="in" id="3" />
        <Node type="in" id="4" />
        <Node type="in" id="5" />
        <Node type="in" id="6" />
        <Node type="in" id="7" />
        <Node type="in" id="8" />
        <Node type="in" id="9" />
        <Node type="in" id="10" />
        <Node type="out" id="11" />
        <Node type="hid" id="49" />
      </Nodes>
      <Connections>
        <Con id="20" src="8" tgt="11" wght="-1.8522358727896866" />
        <Con id="23" src="2" tgt="11" wght="2.0221442502778313" />
        <Con id="24" src="1" tgt="11" wght="0.757596847652133" />
        <Con id="25" src="10" tgt="11" wght="1.2393334217581353" />
        <Con id="26" src="6" tgt="11" wght="-5" />
        <Con id="27" src="3" tgt="11" wght="1.5331255784258246" />
        <Con id="28" src="9" tgt="11" wght="-0.68124772377083209" />
        <Con id="29" src="7" tgt="11" wght="0.16695757263378919" />
        <Con id="30" src="0" tgt="11" wght="-1.0658374557749486" />
        <Con id="35" src="4" tgt="11" wght="-1.3084736362738665" />
        <Con id="42" src="5" tgt="11" wght="-2.8140964761105152" />
        <Con id="50" src="3" tgt="49" wght="-4.9823472979249877" />
        <Con id="51" src="49" tgt="11" wght="3.8072084117697229" />
      </Connections>
    </Network>
    <Network id="18212" birthGen="151" fitness="1">
      <Nodes>
        <Node type="bias" id="0" />
        <Node type="in" id="1" />
        <Node type="in" id="2" />
        <Node type="in" id="3" />
        <Node type="in" id="4" />
        <Node type="in" id="5" />
        <Node type="in" id="6" />
        <Node type="in" id="7" />
        <Node type="in" id="8" />
        <Node type="in" id="9" />
        <Node type="in" id="10" />
        <Node type="out" id="11" />
        <Node type="hid" id="49" />
      </Nodes>
      <Connections>
        <Con id="20" src="8" tgt="11" wght="-0.1427047128089094" />
        <Con id="23" src="2" tgt="11" wght="2.0221442502778313" />
        <Con id="24" src="1" tgt="11" wght="-0.93421881437567456" />
        <Con id="25" src="10" tgt="11" wght="1.2393334217581353" />
        <Con id="26" src="6" tgt="11" wght="-5" />
        <Con id="27" src="3" tgt="11" wght="1.5331255784258246" />
        <Con id="28" src="9" tgt="11" wght="-0.68124772377083209" />
        <Con id="29" src="7" tgt="11" wght="1.2292765165689845" />
        <Con id="30" src="0" tgt="11" wght="-0.016310604975678204" />
        <Con id="35" src="4" tgt="11" wght="-1.3084736362738665" />
        <Con id="42" src="5" tgt="11" wght="-2.8140964761105152" />
        <Con id="50" src="3" tgt="49" wght="-4.9823472979249877" />
        <Con id="51" src="49" tgt="11" wght="3.8072084117697229" />
      </Connections>
    </Network>
    <Network id="18213" birthGen="151" fitness="883.3846435546875">
      <Nodes>
        <Node type="bias" id="0" />
        <Node type="in" id="1" />
        <Node type="in" id="2" />
        <Node type="in" id="3" />
        <Node type="in" id="4" />
        <Node type="in" id="5" />
        <Node type="in" id="6" />
        <Node type="in" id="7" />
        <Node type="in" id="8" />
        <Node type="in" id="9" />
        <Node type="in" id="10" />
        <Node type="out" id="11" />
        <Node type="hid" id="49" />
      </Nodes>
      <Connections>
        <Con id="20" src="8" tgt="11" wght="-1.8522358727896866" />
        <Con id="23" src="2" tgt="11" wght="2.0221442502778313" />
        <Con id="24" src="1" tgt="11" wght="0.757596847652133" />
        <Con id="25" src="10" tgt="11" wght="1.2393334217581353" />
        <Con id="26" src="6" tgt="11" wght="-5" />
        <Con id="27" src="3" tgt="11" wght="1.5331255784258246" />
        <Con id="28" src="9" tgt="11" wght="-0.68124772377083209" />
        <Con id="29" src="7" tgt="11" wght="0.16695757263378919" />
        <Con id="30" src="0" tgt="11" wght="-0.016310604975678204" />
        <Con id="35" src="4" tgt="11" wght="-1.3084736362738665" />
        <Con id="42" src="5" tgt="11" wght="-2.8140964761105152" />
        <Con id="50" src="3" tgt="49" wght="-4.9823472979249877" />
        <Con id="51" src="49" tgt="11" wght="3.8072084117697229" />
      </Connections>
    </Network>
    <Network id="18214" birthGen="151" fitness="322.43112182617188">
      <Nodes>
        <Node type="bias" id="0" />
        <Node type="in" id="1" />
        <Node type="in" id="2" />
        <Node type="in" id="3" />
        <Node type="in" id="4" />
        <Node type="in" id="5" />
        <Node type="in" id="6" />
        <Node type="in" id="7" />
        <Node type="in" id="8" />
        <Node type="in" id="9" />
        <Node type="in" id="10" />
        <Node type="out" id="11" />
        <Node type="hid" id="49" />
      </Nodes>
      <Connections>
        <Con id="20" src="8" tgt="11" wght="-1.8522358727896866" />
        <Con id="23" src="2" tgt="11" wght="2.0315746537049457" />
        <Con id="24" src="1" tgt="11" wght="0.757596847652133" />
        <Con id="25" src="10" tgt="11" wght="1.2393334217581353" />
        <Con id="26" src="6" tgt="11" wght="-5" />
        <Con id="27" src="3" tgt="11" wght="1.8677425783089543" />
        <Con id="28" src="9" tgt="11" wght="-1.1799789153708096" />
        <Con id="29" src="7" tgt="11" wght="0.57256876167491311" />
        <Con id="30" src="0" tgt="11" wght="-0.016310604975678204" />
        <Con id="35" src="4" tgt="11" wght="-1.2901677690153459" />
        <Con id="42" src="5" tgt="11" wght="-2.8316190072522351" />
        <Con id="50" src="3" tgt="49" wght="-4.9823472979249877" />
        <Con id="51" src="49" tgt="11" wght="3.8072084117697229" />
      </Connections>
    </Network>
    <Network id="18215" birthGen="151" fitness="892.00350952148438">
      <Nodes>
        <Node type="bias" id="0" />
        <Node type="in" id="1" />
        <Node type="in" id="2" />
        <Node type="in" id="3" />
        <Node type="in" id="4" />
        <Node type="in" id="5" />
        <Node type="in" id="6" />
        <Node type="in" id="7" />
        <Node type="in" id="8" />
        <Node type="in" id="9" />
        <Node type="in" id="10" />
        <Node type="out" id="11" />
        <Node type="hid" id="49" />
      </Nodes>
      <Connections>
        <Con id="20" src="8" tgt="11" wght="-1.8522358727896866" />
        <Con id="23" src="2" tgt="11" wght="2.0221442502778313" />
        <Con id="24" src="1" tgt="11" wght="0.757596847652133" />
        <Con id="25" src="10" tgt="11" wght="1.2393334217581353" />
        <Con id="26" src="6" tgt="11" wght="-5" />
        <Con id="27" src="3" tgt="11" wght="1.5331255784258246" />
        <Con id="28" src="9" tgt="11" wght="-0.68124772377083209" />
        <Con id="29" src="7" tgt="11" wght="0.16695757263378919" />
        <Con id="30" src="0" tgt="11" wght="-0.016310604975678204" />
        <Con id="35" src="4" tgt="11" wght="-1.3084736362738665" />
        <Con id="42" src="5" tgt="11" wght="-2.8140964761105152" />
        <Con id="50" src="3" tgt="49" wght="-4.9823472979249877" />
        <Con id="51" src="49" tgt="11" wght="3.8072084117697229" />
      </Connections>
    </Network>
    <Network id="18216" birthGen="151" fitness="893.50094604492188">
      <Nodes>
        <Node type="bias" id="0" />
        <Node type="in" id="1" />
        <Node type="in" id="2" />
        <Node type="in" id="3" />
        <Node type="in" id="4" />
        <Node type="in" id="5" />
        <Node type="in" id="6" />
        <Node type="in" id="7" />
        <Node type="in" id="8" />
        <Node type="in" id="9" />
        <Node type="in" id="10" />
        <Node type="out" id="11" />
        <Node type="hid" id="49" />
      </Nodes>
      <Connections>
        <Con id="20" src="8" tgt="11" wght="-2.1442635201244653" />
        <Con id="23" src="2" tgt="11" wght="2.0221442502778313" />
        <Con id="24" src="1" tgt="11" wght="0.70801784388151079" />
        <Con id="25" src="10" tgt="11" wght="1.1819005072730961" />
        <Con id="26" src="6" tgt="11" wght="-5" />
        <Con id="27" src="3" tgt="11" wght="1.8677425783089543" />
        <Con id="28" src="9" tgt="11" wght="-1.1799789153708096" />
        <Con id="29" src="7" tgt="11" wght="0.57256876167491311" />
        <Con id="30" src="0" tgt="11" wght="-0.016310604975678204" />
        <Con id="35" src="4" tgt="11" wght="-1.2901677690153459" />
        <Con id="42" src="5" tgt="11" wght="-2.8316190072522351" />
        <Con id="50" src="3" tgt="49" wght="-4.9823472979249877" />
        <Con id="51" src="49" tgt="11" wght="3.7918619268701654" />
      </Connections>
    </Network>
    <Network id="18217" birthGen="151" fitness="354.39312744140625">
      <Nodes>
        <Node type="bias" id="0" />
        <Node type="in" id="1" />
        <Node type="in" id="2" />
        <Node type="in" id="3" />
        <Node type="in" id="4" />
        <Node type="in" id="5" />
        <Node type="in" id="6" />
        <Node type="in" id="7" />
        <Node type="in" id="8" />
        <Node type="in" id="9" />
        <Node type="in" id="10" />
        <Node type="out" id="11" />
        <Node type="hid" id="49" />
      </Nodes>
      <Connections>
        <Con id="20" src="8" tgt="11" wght="-1.8522358727896866" />
        <Con id="23" src="2" tgt="11" wght="2.0221442502778313" />
        <Con id="24" src="1" tgt="11" wght="0.757596847652133" />
        <Con id="25" src="10" tgt="11" wght="1.2393334217581353" />
        <Con id="26" src="6" tgt="11" wght="-5" />
        <Con id="27" src="3" tgt="11" wght="1.5331255784258246" />
        <Con id="28" src="9" tgt="11" wght="-0.68124772377083209" />
        <Con id="29" src="7" tgt="11" wght="0.16695757263378919" />
        <Con id="30" src="0" tgt="11" wght="-0.016310604975678204" />
        <Con id="35" src="4" tgt="11" wght="-1.3084736362738665" />
        <Con id="42" src="5" tgt="11" wght="-2.8140964761105152" />
        <Con id="50" src="3" tgt="49" wght="-4.9823472979249877" />
        <Con id="51" src="49" tgt="11" wght="3.8072084117697229" />
      </Connections>
    </Network>
    <Network id="18218" birthGen="151" fitness="1088.9563598632813">
      <Nodes>
        <Node type="bias" id="0" />
        <Node type="in" id="1" />
        <Node type="in" id="2" />
        <Node type="in" id="3" />
        <Node type="in" id="4" />
        <Node type="in" id="5" />
        <Node type="in" id="6" />
        <Node type="in" id="7" />
        <Node type="in" id="8" />
        <Node type="in" id="9" />
        <Node type="in" id="10" />
        <Node type="out" id="11" />
        <Node type="hid" id="49" />
      </Nodes>
      <Connections>
        <Con id="20" src="8" tgt="11" wght="-2.1442635201244653" />
        <Con id="23" src="2" tgt="11" wght="2.0221442502778313" />
        <Con id="24" src="1" tgt="11" wght="0.73885804765341145" />
        <Con id="25" src="10" tgt="11" wght="1.2393334217581353" />
        <Con id="26" src="6" tgt="11" wght="-5" />
        <Con id="27" src="3" tgt="11" wght="1.8677425783089543" />
        <Con id="28" src="9" tgt="11" wght="-0.68124772377083209" />
        <Con id="29" src="7" tgt="11" wght="0.16695757263378919" />
        <Con id="30" src="0" tgt="11" wght="-0.016310604975678204" />
        <Con id="35" src="4" tgt="11" wght="-1.2901677690153459" />
        <Con id="42" src="5" tgt="11" wght="-2.8316190072522351" />
        <Con id="50" src="3" tgt="49" wght="-4.9823472979249877" />
        <Con id="51" src="49" tgt="11" wght="3.7918619268701654" />
      </Connections>
    </Network>
    <Network id="18219" birthGen="151" fitness="800.98712158203125">
      <Nodes>
        <Node type="bias" id="0" />
        <Node type="in" id="1" />
        <Node type="in" id="2" />
        <Node type="in" id="3" />
        <Node type="in" id="4" />
        <Node type="in" id="5" />
        <Node type="in" id="6" />
        <Node type="in" id="7" />
        <Node type="in" id="8" />
        <Node type="in" id="9" />
        <Node type="in" id="10" />
        <Node type="out" id="11" />
        <Node type="hid" id="49" />
      </Nodes>
      <Connections>
        <Con id="20" src="8" tgt="11" wght="-1.8522358727896866" />
        <Con id="23" src="2" tgt="11" wght="2.0221442502778313" />
        <Con id="24" src="1" tgt="11" wght="0.73885804765341145" />
        <Con id="25" src="10" tgt="11" wght="1.2393334217581353" />
        <Con id="26" src="6" tgt="11" wght="-4.9948324434147251" />
        <Con id="27" src="3" tgt="11" wght="1.5331255784258246" />
        <Con id="28" src="9" tgt="11" wght="-0.68124772377083209" />
        <Con id="29" src="7" tgt="11" wght="0.16695757263378919" />
        <Con id="30" src="0" tgt="11" wght="-0.016310604975678204" />
        <Con id="35" src="4" tgt="11" wght="-1.2901677690153459" />
        <Con id="42" src="5" tgt="11" wght="-2.8316190072522351" />
        <Con id="50" src="3" tgt="49" wght="-4.9823472979249877" />
        <Con id="51" src="49" tgt="11" wght="3.7918619268701654" />
      </Connections>
    </Network>
    <Network id="18220" birthGen="151" fitness="887.9700927734375">
      <Nodes>
        <Node type="bias" id="0" />
        <Node type="in" id="1" />
        <Node type="in" id="2" />
        <Node type="in" id="3" />
        <Node type="in" id="4" />
        <Node type="in" id="5" />
        <Node type="in" id="6" />
        <Node type="in" id="7" />
        <Node type="in" id="8" />
        <Node type="in" id="9" />
        <Node type="in" id="10" />
        <Node type="out" id="11" />
        <Node type="hid" id="49" />
      </Nodes>
      <Connections>
        <Con id="20" src="8" tgt="11" wght="-2.1442635201244653" />
        <Con id="23" src="2" tgt="11" wght="2.0315746537049457" />
        <Con id="24" src="1" tgt="11" wght="0.73885804765341145" />
        <Con id="25" src="10" tgt="11" wght="1.2393334217581353" />
        <Con id="26" src="6" tgt="11" wght="-5" />
        <Con id="27" src="3" tgt="11" wght="1.8677425783089543" />
        <Con id="28" src="9" tgt="11" wght="-1.1799789153708096" />
        <Con id="29" src="7" tgt="11" wght="0.57256876167491311" />
        <Con id="30" src="0" tgt="11" wght="-0.016310604975678204" />
        <Con id="35" src="4" tgt="11" wght="-1.2901677690153459" />
        <Con id="42" src="5" tgt="11" wght="-2.8316190072522351" />
        <Con id="50" src="3" tgt="49" wght="-4.9823472979249877" />
        <Con id="51" src="49" tgt="11" wght="3.7918619268701654" />
      </Connections>
    </Network>
    <Network id="18221" birthGen="151" fitness="1113.24951171875">
      <Nodes>
        <Node type="bias" id="0" />
        <Node type="in" id="1" />
        <Node type="in" id="2" />
        <Node type="in" id="3" />
        <Node type="in" id="4" />
        <Node type="in" id="5" />
        <Node type="in" id="6" />
        <Node type="in" id="7" />
        <Node type="in" id="8" />
        <Node type="in" id="9" />
        <Node type="in" id="10" />
        <Node type="out" id="11" />
        <Node type="hid" id="49" />
      </Nodes>
      <Connections>
        <Con id="20" src="8" tgt="11" wght="-2.1442635201244653" />
        <Con id="23" src="2" tgt="11" wght="2.0315746537049457" />
        <Con id="24" src="1" tgt="11" wght="0.73885804765341145" />
        <Con id="25" src="10" tgt="11" wght="1.1819005072730961" />
        <Con id="26" src="6" tgt="11" wght="-5" />
        <Con id="27" src="3" tgt="11" wght="1.8677425783089543" />
        <Con id="28" src="9" tgt="11" wght="-0.68124772377083209" />
        <Con id="29" src="7" tgt="11" wght="0.57256876167491311" />
        <Con id="30" src="0" tgt="11" wght="-0.016310604975678204" />
        <Con id="35" src="4" tgt="11" wght="-1.2901677690153459" />
        <Con id="42" src="5" tgt="11" wght="-2.8316190072522351" />
        <Con id="50" src="3" tgt="49" wght="-4.9823472979249877" />
        <Con id="51" src="49" tgt="11" wght="3.7918619268701654" />
      </Connections>
    </Network>
    <Network id="18222" birthGen="151" fitness="1130.7723388671875">
      <Nodes>
        <Node type="bias" id="0" />
        <Node type="in" id="1" />
        <Node type="in" id="2" />
        <Node type="in" id="3" />
        <Node type="in" id="4" />
        <Node type="in" id="5" />
        <Node type="in" id="6" />
        <Node type="in" id="7" />
        <Node type="in" id="8" />
        <Node type="in" id="9" />
        <Node type="in" id="10" />
        <Node type="out" id="11" />
        <Node type="hid" id="49" />
      </Nodes>
      <Connections>
        <Con id="20" src="8" tgt="11" wght="-2.1442635201244653" />
        <Con id="23" src="2" tgt="11" wght="2.0315746537049457" />
        <Con id="24" src="1" tgt="11" wght="0.757596847652133" />
        <Con id="25" src="10" tgt="11" wght="1.2393334217581353" />
        <Con id="26" src="6" tgt="11" wght="-5" />
        <Con id="27" src="3" tgt="11" wght="1.8677425783089543" />
        <Con id="28" src="9" tgt="11" wght="-0.68124772377083209" />
        <Con id="29" src="7" tgt="11" wght="0.57256876167491311" />
        <Con id="30" src="0" tgt="11" wght="-0.016310604975678204" />
        <Con id="35" src="4" tgt="11" wght="-1.2901677690153459" />
        <Con id="42" src="5" tgt="11" wght="-2.8316190072522351" />
        <Con id="50" src="3" tgt="49" wght="-4.9823472979249877" />
        <Con id="51" src="49" tgt="11" wght="3.7918619268701654" />
      </Connections>
    </Network>
    <Network id="18223" birthGen="151" fitness="824.6795654296875">
      <Nodes>
        <Node type="bias" id="0" />
        <Node type="in" id="1" />
        <Node type="in" id="2" />
        <Node type="in" id="3" />
        <Node type="in" id="4" />
        <Node type="in" id="5" />
        <Node type="in" id="6" />
        <Node type="in" id="7" />
        <Node type="in" id="8" />
        <Node type="in" id="9" />
        <Node type="in" id="10" />
        <Node type="out" id="11" />
        <Node type="hid" id="49" />
      </Nodes>
      <Connections>
        <Con id="20" src="8" tgt="11" wght="-1.8522358727896866" />
        <Con id="23" src="2" tgt="11" wght="2.0221442502778313" />
        <Con id="24" src="1" tgt="11" wght="0.757596847652133" />
        <Con id="25" src="10" tgt="11" wght="1.2393334217581353" />
        <Con id="26" src="6" tgt="11" wght="-5" />
        <Con id="27" src="3" tgt="11" wght="1.5331255784258246" />
        <Con id="28" src="9" tgt="11" wght="-0.68124772377083209" />
        <Con id="29" src="7" tgt="11" wght="0.16695757263378919" />
        <Con id="30" src="0" tgt="11" wght="-0.016310604975678204" />
        <Con id="35" src="4" tgt="11" wght="-1.3084736362738665" />
        <Con id="42" src="5" tgt="11" wght="-2.8140964761105152" />
        <Con id="50" src="3" tgt="49" wght="-4.9823472979249877" />
        <Con id="51" src="49" tgt="11" wght="3.8072084117697229" />
      </Connections>
    </Network>
    <Network id="18224" birthGen="151" fitness="844.23458862304688">
      <Nodes>
        <Node type="bias" id="0" />
        <Node type="in" id="1" />
        <Node type="in" id="2" />
        <Node type="in" id="3" />
        <Node type="in" id="4" />
        <Node type="in" id="5" />
        <Node type="in" id="6" />
        <Node type="in" id="7" />
        <Node type="in" id="8" />
        <Node type="in" id="9" />
        <Node type="in" id="10" />
        <Node type="out" id="11" />
        <Node type="hid" id="49" />
      </Nodes>
      <Connections>
        <Con id="20" src="8" tgt="11" wght="-1.8522358727896866" />
        <Con id="23" src="2" tgt="11" wght="2.0221442502778313" />
        <Con id="24" src="1" tgt="11" wght="0.73885804765341145" />
        <Con id="25" src="10" tgt="11" wght="1.1819005072730961" />
        <Con id="26" src="6" tgt="11" wght="-5" />
        <Con id="27" src="3" tgt="11" wght="1.5331255784258246" />
        <Con id="28" src="9" tgt="11" wght="-1.1799789153708096" />
        <Con id="29" src="7" tgt="11" wght="0.16695757263378919" />
        <Con id="30" src="0" tgt="11" wght="-0.016310604975678204" />
        <Con id="35" src="4" tgt="11" wght="-1.3084736362738665" />
        <Con id="42" src="5" tgt="11" wght="-2.8140964761105152" />
        <Con id="50" src="3" tgt="49" wght="-4.9823472979249877" />
        <Con id="51" src="49" tgt="11" wght="3.7918619268701654" />
      </Connections>
    </Network>
    <Network id="18225" birthGen="151" fitness="1034.7273864746094">
      <Nodes>
        <Node type="bias" id="0" />
        <Node type="in" id="1" />
        <Node type="in" id="2" />
        <Node type="in" id="3" />
        <Node type="in" id="4" />
        <Node type="in" id="5" />
        <Node type="in" id="6" />
        <Node type="in" id="7" />
        <Node type="in" id="8" />
        <Node type="in" id="9" />
        <Node type="in" id="10" />
        <Node type="out" id="11" />
        <Node type="hid" id="49" />
      </Nodes>
      <Connections>
        <Con id="20" src="8" tgt="11" wght="-1.8522358727896866" />
        <Con id="23" src="2" tgt="11" wght="2.0221442502778313" />
        <Con id="24" src="1" tgt="11" wght="0.757596847652133" />
        <Con id="25" src="10" tgt="11" wght="1.2393334217581353" />
        <Con id="26" src="6" tgt="11" wght="-5" />
        <Con id="27" src="3" tgt="11" wght="1.5331255784258246" />
        <Con id="28" src="9" tgt="11" wght="-1.1799789153708096" />
        <Con id="29" src="7" tgt="11" wght="0.16695757263378919" />
        <Con id="30" src="0" tgt="11" wght="-0.016310604975678204" />
        <Con id="35" src="4" tgt="11" wght="-1.3084736362738665" />
        <Con id="42" src="5" tgt="11" wght="-2.8140964761105152" />
        <Con id="50" src="3" tgt="49" wght="-4.9823472979249877" />
        <Con id="51" src="49" tgt="11" wght="3.8072084117697229" />
      </Connections>
    </Network>
    <Network id="18226" birthGen="151" fitness="898.69265747070313">
      <Nodes>
        <Node type="bias" id="0" />
        <Node type="in" id="1" />
        <Node type="in" id="2" />
        <Node type="in" id="3" />
        <Node type="in" id="4" />
        <Node type="in" id="5" />
        <Node type="in" id="6" />
        <Node type="in" id="7" />
        <Node type="in" id="8" />
        <Node type="in" id="9" />
        <Node type="in" id="10" />
        <Node type="out" id="11" />
        <Node type="hid" id="49" />
      </Nodes>
      <Connections>
        <Con id="20" src="8" tgt="11" wght="-1.8522358727896866" />
        <Con id="23" src="2" tgt="11" wght="2.0315746537049457" />
        <Con id="24" src="1" tgt="11" wght="0.70801784388151079" />
        <Con id="25" src="10" tgt="11" wght="1.2393334217581353" />
        <Con id="26" src="6" tgt="11" wght="-4.9948324434147251" />
        <Con id="27" src="3" tgt="11" wght="1.5331255784258246" />
        <Con id="28" src="9" tgt="11" wght="-0.68124772377083209" />
        <Con id="29" src="7" tgt="11" wght="0.16695757263378919" />
        <Con id="30" src="0" tgt="11" wght="-0.016310604975678204" />
        <Con id="35" src="4" tgt="11" wght="-1.3084736362738665" />
        <Con id="42" src="5" tgt="11" wght="-2.8316190072522351" />
        <Con id="50" src="3" tgt="49" wght="-4.9823472979249877" />
        <Con id="51" src="49" tgt="11" wght="3.8072084117697229" />
      </Connections>
    </Network>
    <Network id="18227" birthGen="151" fitness="1020.8347473144531">
      <Nodes>
        <Node type="bias" id="0" />
        <Node type="in" id="1" />
        <Node type="in" id="2" />
        <Node type="in" id="3" />
        <Node type="in" id="4" />
        <Node type="in" id="5" />
        <Node type="in" id="6" />
        <Node type="in" id="7" />
        <Node type="in" id="8" />
        <Node type="in" id="9" />
        <Node type="in" id="10" />
        <Node type="out" id="11" />
        <Node type="hid" id="49" />
      </Nodes>
      <Connections>
        <Con id="20" src="8" tgt="11" wght="-2.9452816269948143" />
        <Con id="23" src="2" tgt="11" wght="2.0315746537049457" />
        <Con id="24" src="1" tgt="11" wght="0.70801784388151079" />
        <Con id="25" src="10" tgt="11" wght="1.1819005072730961" />
        <Con id="26" src="6" tgt="11" wght="-5" />
        <Con id="27" src="3" tgt="11" wght="1.8677425783089543" />
        <Con id="28" src="9" tgt="11" wght="0.32524864151177746" />
        <Con id="29" src="7" tgt="11" wght="0.87173241031641324" />
        <Con id="30" src="0" tgt="11" wght="-0.016310604975678204" />
        <Con id="35" src="4" tgt="11" wght="-1.2729010284605531" />
        <Con id="42" src="5" tgt="11" wght="-2.8316190072522351" />
        <Con id="50" src="3" tgt="49" wght="-4.9823472979249877" />
        <Con id="51" src="49" tgt="11" wght="3.5162710900505125" />
      </Connections>
    </Network>
    <Network id="18228" birthGen="151" fitness="946.74923706054688">
      <Nodes>
        <Node type="bias" id="0" />
        <Node type="in" id="1" />
        <Node type="in" id="2" />
        <Node type="in" id="3" />
        <Node type="in" id="4" />
        <Node type="in" id="5" />
        <Node type="in" id="6" />
        <Node type="in" id="7" />
        <Node type="in" id="8" />
        <Node type="in" id="9" />
        <Node type="in" id="10" />
        <Node type="out" id="11" />
        <Node type="hid" id="49" />
      </Nodes>
      <Connections>
        <Con id="20" src="8" tgt="11" wght="-4.2628797159052141" />
        <Con id="23" src="2" tgt="11" wght="2.0221442502778313" />
        <Con id="24" src="1" tgt="11" wght="0.70801784388151079" />
        <Con id="25" src="10" tgt="11" wght="1.1747649521093793" />
        <Con id="26" src="6" tgt="11" wght="-5" />
        <Con id="27" src="3" tgt="11" wght="1.8677425783089543" />
        <Con id="28" src="9" tgt="11" wght="0.34083314014135851" />
        <Con id="29" src="7" tgt="11" wght="0.57256876167491311" />
        <Con id="30" src="0" tgt="11" wght="-0.016310604975678204" />
        <Con id="35" src="4" tgt="11" wght="-1.2729010284605531" />
        <Con id="42" src="5" tgt="11" wght="-2.8273206124774695" />
        <Con id="50" src="3" tgt="49" wght="-4.9823472979249877" />
        <Con id="51" src="49" tgt="11" wght="3.5162710900505125" />
      </Connections>
    </Network>
    <Network id="18229" birthGen="151" fitness="1083.6510620117188">
      <Nodes>
        <Node type="bias" id="0" />
        <Node type="in" id="1" />
        <Node type="in" id="2" />
        <Node type="in" id="3" />
        <Node type="in" id="4" />
        <Node type="in" id="5" />
        <Node type="in" id="6" />
        <Node type="in" id="7" />
        <Node type="in" id="8" />
        <Node type="in" id="9" />
        <Node type="in" id="10" />
        <Node type="out" id="11" />
        <Node type="hid" id="49" />
      </Nodes>
      <Connections>
        <Con id="20" src="8" tgt="11" wght="-2.9452816269948143" />
        <Con id="23" src="2" tgt="11" wght="2.0315746537049457" />
        <Con id="24" src="1" tgt="11" wght="0.70801784388151079" />
        <Con id="25" src="10" tgt="11" wght="1.1747649521093793" />
        <Con id="26" src="6" tgt="11" wght="-5" />
        <Con id="27" src="3" tgt="11" wght="1.6237007091001399" />
